{
  "network.0.weight": [
    [
      -0.24314792454242706,
      -0.1992526799440384,
      -0.18888436257839203,
      -0.15877749025821686,
      -0.047742392867803574,
      -0.017073333263397217,
      0.2975940704345703,
      -0.006174843292683363,
      -0.13807086646556854,
      0.2713884711265564,
      -0.1348385363817215
    ],
    [
      0.5000044107437134,
      0.0028993445448577404,
      -0.250664621591568,
      -0.01280154287815094,
      -0.08098262548446655,
      -0.025479912757873535,
      0.08444295823574066,
      0.16979727149009705,
      0.011362070217728615,
      0.041419193148612976,
      -0.033942271023988724
    ],
    [
      0.11653317511081696,
      0.11973641067743301,
      -0.36353933811187744,
      0.2560229003429413,
      0.2239045798778534,
      0.009506911039352417,
      0.02172839641571045,
      -0.07465307414531708,
      0.2719053626060486,
      -0.08563020080327988,
      -0.06501048058271408
    ],
    [
      -0.2821349799633026,
      -0.03084777109324932,
      0.06827854365110397,
      -0.21144229173660278,
      -0.23845578730106354,
      -0.18124036490917206,
      -0.17130781710147858,
      0.2074868083000183,
      0.05498086288571358,
      0.2307988554239273,
      0.2080967277288437
    ],
    [
      0.16899603605270386,
      0.1595647782087326,
      -0.3111078441143036,
      0.27819257974624634,
      -0.10903686285018921,
      0.135964035987854,
      0.0815715417265892,
      -0.12194126844406128,
      0.12858515977859497,
      -0.2748250663280487,
      0.19706794619560242
    ],
    [
      -0.054598018527030945,
      -0.10384120047092438,
      0.30925053358078003,
      -0.04846027120947838,
      -0.06905008107423782,
      0.16527259349822998,
      0.08285721391439438,
      -0.1423986554145813,
      -0.013881283812224865,
      -0.18598929047584534,
      -0.12697531282901764
    ],
    [
      -0.09920046478509903,
      -0.023641543462872505,
      0.17323295772075653,
      0.23130804300308228,
      -0.30801114439964294,
      0.23346221446990967,
      0.25115078687667847,
      -0.2672959268093109,
      -0.26556268334388733,
      -0.06673922389745712,
      -0.1216851994395256
    ],
    [
      0.0771399736404419,
      0.2731435000896454,
      -0.1328137367963791,
      0.10037515312433243,
      0.16008560359477997,
      0.11638784408569336,
      0.059717029333114624,
      -0.03731243684887886,
      0.1370370090007782,
      0.015691639855504036,
      -0.09819993376731873
    ],
    [
      0.17367520928382874,
      -0.12379482388496399,
      -0.15056240558624268,
      0.05893874168395996,
      -0.17768222093582153,
      0.12204304337501526,
      0.055468469858169556,
      -0.27518996596336365,
      -0.15927958488464355,
      0.08058410882949829,
      -0.23667022585868835
    ],
    [
      0.17232120037078857,
      -0.0651305764913559,
      -0.12076541781425476,
      0.2299841046333313,
      0.060391247272491455,
      -0.15585647523403168,
      0.18046554923057556,
      0.12238392233848572,
      -0.27440503239631653,
      -0.012649297714233398,
      0.10680928826332092
    ],
    [
      0.01377171277999878,
      0.17080223560333252,
      -0.2383023500442505,
      -0.1763765960931778,
      0.23313242197036743,
      -0.21911866962909698,
      -0.05546554923057556,
      -0.28082695603370667,
      -0.2444922775030136,
      -0.06987065076828003,
      0.18462100625038147
    ],
    [
      -0.054519373923540115,
      -0.14600181579589844,
      -0.3081797957420349,
      -0.30092862248420715,
      0.2825309932231903,
      -0.09286843240261078,
      -0.058733485639095306,
      -0.13685323297977448,
      0.17342090606689453,
      0.1892721801996231,
      -0.03467833623290062
    ],
    [
      -0.2130577564239502,
      -0.250836580991745,
      0.13417936861515045,
      0.12157675623893738,
      0.2302706092596054,
      -0.20453137159347534,
      0.03375663235783577,
      0.1545802652835846,
      0.012021107599139214,
      0.03887784481048584,
      0.12321391701698303
    ],
    [
      0.21695320308208466,
      -0.2308671474456787,
      -0.2673824727535248,
      0.2800356149673462,
      -0.12885354459285736,
      0.0445827841758728,
      -0.07638435065746307,
      0.21353887021541595,
      -0.16062171757221222,
      0.2634729743003845,
      0.18743591010570526
    ],
    [
      -0.13580180704593658,
      -0.08838954567909241,
      0.10227760672569275,
      0.01564578153192997,
      0.240843266248703,
      -0.192623108625412,
      0.05274045094847679,
      -0.2685735821723938,
      0.004846696276217699,
      -0.24504902958869934,
      -0.08403131365776062
    ],
    [
      -0.4157981276512146,
      0.2167709767818451,
      0.27113041281700134,
      -0.04782586172223091,
      -0.4264465868473053,
      -0.039153993129730225,
      0.10516614466905594,
      -0.007722973357886076,
      -0.16225239634513855,
      -0.23021554946899414,
      0.09602047502994537
    ],
    [
      0.264431893825531,
      -0.09698434919118881,
      0.04432354494929314,
      -0.1307051181793213,
      0.08927758038043976,
      0.16407150030136108,
      0.06329280883073807,
      0.028066648170351982,
      -0.32398098707199097,
      0.237185537815094,
      -0.25479525327682495
    ],
    [
      0.2556365430355072,
      0.12422014027833939,
      -0.05678465589880943,
      0.06934720277786255,
      -0.02627701126039028,
      0.27280712127685547,
      -0.10841403901576996,
      -0.1489124745130539,
      0.10180342197418213,
      0.1443621963262558,
      0.12123836576938629
    ],
    [
      0.27683547139167786,
      0.010008646175265312,
      -0.10135733336210251,
      0.0582718625664711,
      -0.25707870721817017,
      0.06469175219535828,
      -0.1325085312128067,
      0.06582702696323395,
      0.2651832401752472,
      0.045578256249427795,
      -0.07057205587625504
    ],
    [
      0.07719910889863968,
      0.09158627688884735,
      -0.07330139726400375,
      -0.005405900534242392,
      -0.152491956949234,
      -0.05425240099430084,
      0.1326192170381546,
      -0.20532329380512238,
      0.182298943400383,
      0.18021878600120544,
      -0.19074077904224396
    ],
    [
      0.2824879586696625,
      0.1447901576757431,
      0.04711810499429703,
      0.1558827906847,
      0.19189977645874023,
      -0.14362455904483795,
      -0.24827033281326294,
      -0.33768346905708313,
      0.15899702906608582,
      -0.035184212028980255,
      -0.0732455626130104
    ],
    [
      -0.061678532510995865,
      0.01488645188510418,
      0.09898097813129425,
      0.08309636265039444,
      -0.07630149275064468,
      -0.2973121106624603,
      -0.26122984290122986,
      -0.29126012325286865,
      0.1174914538860321,
      -0.2649668753147125,
      -0.17721526324748993
    ],
    [
      -0.1604766696691513,
      -0.16039010882377625,
      -0.07332717627286911,
      0.2685580253601074,
      -0.29008570313453674,
      0.01589876413345337,
      0.2774447798728943,
      -0.14509733021259308,
      -0.17745403945446014,
      -0.21743933856487274,
      0.04042733088135719
    ],
    [
      0.0005673590931110084,
      -0.2614821195602417,
      -0.10317407548427582,
      -0.02363624796271324,
      -0.20844295620918274,
      -0.17194393277168274,
      -0.08662430197000504,
      -0.11155172437429428,
      0.22202447056770325,
      -0.1160762757062912,
      0.2927359640598297
    ],
    [
      -0.07566206157207489,
      -0.20494306087493896,
      -0.27688953280448914,
      0.23265951871871948,
      0.1338484287261963,
      -0.045439451932907104,
      -0.14039717614650726,
      0.1435578316450119,
      -0.08066249638795853,
      -0.19131115078926086,
      0.08303135633468628
    ],
    [
      -0.047193653881549835,
      -0.29766055941581726,
      0.12425389885902405,
      0.23863670229911804,
      0.2390211969614029,
      0.07248497009277344,
      -0.19093956053256989,
      -0.22601133584976196,
      0.24448543787002563,
      0.15606346726417542,
      -0.03471693396568298
    ],
    [
      0.08018223941326141,
      0.2569286525249481,
      0.30706194043159485,
      0.13044770061969757,
      0.1936689168214798,
      0.24800878763198853,
      -0.20487745106220245,
      0.16906680166721344,
      -0.061549898236989975,
      -0.18622958660125732,
      -0.1394154578447342
    ],
    [
      0.3927844166755676,
      0.2369299978017807,
      -0.21731142699718475,
      0.21162301301956177,
      -0.30592280626296997,
      -0.2413088083267212,
      0.24769745767116547,
      -0.030345618724822998,
      0.07332984358072281,
      0.0026350165717303753,
      0.09104564785957336
    ],
    [
      -0.37164825201034546,
      -0.7227609157562256,
      -0.23929007351398468,
      -0.11867134273052216,
      -0.13190874457359314,
      -0.06056520342826843,
      -0.13936898112297058,
      -0.4290214478969574,
      0.2753939628601074,
      0.13183660805225372,
      -0.29513970017433167
    ],
    [
      0.08391490578651428,
      -0.17734965682029724,
      0.21050217747688293,
      0.003918830770999193,
      0.2599070072174072,
      0.09928882122039795,
      0.17387628555297852,
      -0.20575381815433502,
      -0.09821773320436478,
      -0.19723273813724518,
      0.14674831926822662
    ],
    [
      -0.28676000237464905,
      -0.221030592918396,
      0.0700392797589302,
      0.049685269594192505,
      0.24083180725574493,
      -0.12511678040027618,
      0.048867542296648026,
      0.11856403201818466,
      -0.05810258537530899,
      -0.09769073128700256,
      -0.010979915037751198
    ],
    [
      -0.45338770747184753,
      -0.29803991317749023,
      0.2591627538204193,
      -0.041703466325998306,
      -0.23715730011463165,
      -0.09953409433364868,
      0.009702769108116627,
      0.14711691439151764,
      0.25257211923599243,
      -0.09706011414527893,
      0.16591504216194153
    ],
    [
      0.3726496696472168,
      0.23936863243579865,
      -0.20045609772205353,
      -0.14860698580741882,
      0.1214449480175972,
      -0.24719026684761047,
      -0.08406440913677216,
      0.24383419752120972,
      0.1877869963645935,
      0.17706306278705597,
      -0.15498536825180054
    ],
    [
      -0.3668447732925415,
      -0.4102708399295807,
      -0.5611612200737,
      0.10619931668043137,
      0.09976143389940262,
      0.3002164959907532,
      0.02379363775253296,
      -0.3095269501209259,
      0.24217453598976135,
      -0.6208314299583435,
      -0.2940209209918976
    ],
    [
      -0.22875837981700897,
      0.12306202948093414,
      0.11454769223928452,
      0.24343343079090118,
      -0.13612471520900726,
      0.21896600723266602,
      -0.2108677178621292,
      -0.16052909195423126,
      -0.10711604356765747,
      0.21455642580986023,
      -0.04214484989643097
    ],
    [
      0.1135837733745575,
      0.18276174366474152,
      -0.30466118454933167,
      -0.23668913543224335,
      -0.13513527810573578,
      -0.1539628654718399,
      -0.19905617833137512,
      0.24572132527828217,
      0.1810353398323059,
      -0.16380740702152252,
      0.01876119151711464
    ],
    [
      0.049979954957962036,
      -0.018285756930708885,
      0.19314126670360565,
      -0.2789674997329712,
      -0.16122524440288544,
      0.05826377868652344,
      -0.2717216908931732,
      -0.04501037299633026,
      -0.011377864517271519,
      0.27195581793785095,
      0.043343037366867065
    ],
    [
      0.1743381917476654,
      -0.2588132917881012,
      0.16633079946041107,
      -0.4729936122894287,
      0.2501808702945709,
      -0.081353098154068,
      0.23974592983722687,
      -0.1510440707206726,
      -0.21007990837097168,
      0.13946834206581116,
      0.243024542927742
    ],
    [
      0.1173185333609581,
      -0.09841237962245941,
      -0.22240948677062988,
      -0.010257478803396225,
      -0.23087310791015625,
      -0.18881045281887054,
      0.1250580996274948,
      -0.07987190037965775,
      0.10575491935014725,
      0.09944293648004532,
      0.16835886240005493
    ],
    [
      0.17963075637817383,
      0.2635902166366577,
      0.3499719798564911,
      -0.17136095464229584,
      0.10771398991346359,
      -0.09025125205516815,
      -0.2039550244808197,
      0.22208361327648163,
      -0.09463488310575485,
      0.06875836104154587,
      0.027857359498739243
    ],
    [
      -0.2665363848209381,
      -0.1808268427848816,
      0.15458548069000244,
      -0.23547331988811493,
      -0.16264528036117554,
      0.1362093687057495,
      0.01974305510520935,
      -0.1622307151556015,
      -0.2979244887828827,
      -0.04637613892555237,
      0.25511598587036133
    ],
    [
      0.11177397519350052,
      0.36385267972946167,
      -0.003026289399713278,
      0.10481516271829605,
      -0.15171650052070618,
      0.17410144209861755,
      0.01321529783308506,
      0.19511650502681732,
      -0.1969364732503891,
      -0.13556024432182312,
      0.1789894700050354
    ],
    [
      -0.06359495967626572,
      -0.0022593820467591286,
      -0.09951068460941315,
      -0.2741674780845642,
      0.045991625636816025,
      0.10074898600578308,
      0.18172574043273926,
      0.02874218113720417,
      0.12162023782730103,
      -0.012427163310348988,
      -0.018411841243505478
    ],
    [
      -0.3417937755584717,
      -0.031210200861096382,
      0.16596199572086334,
      0.05320470407605171,
      0.11824556440114975,
      0.07014444470405579,
      -0.009364280849695206,
      -0.03610236942768097,
      0.13432501256465912,
      -0.12263402342796326,
      -0.23108889162540436
    ],
    [
      -0.18083304166793823,
      -0.19134722650051117,
      0.15044468641281128,
      0.2068343609571457,
      -0.13544762134552002,
      -0.021745920181274414,
      -0.07059638202190399,
      0.05684066563844681,
      -0.2634562849998474,
      0.08872685581445694,
      0.06719367951154709
    ],
    [
      -0.47212785482406616,
      0.010705926455557346,
      0.11516689509153366,
      -0.049485575407743454,
      -0.1177469864487648,
      0.2518925070762634,
      0.07309740781784058,
      -0.10837876051664352,
      -0.02814560756087303,
      -0.29531556367874146,
      0.25778648257255554
    ],
    [
      -0.15956133604049683,
      -0.1314375400543213,
      -0.46264147758483887,
      0.04005507752299309,
      -0.053534939885139465,
      0.2193892002105713,
      0.1802133172750473,
      -0.30528366565704346,
      0.04000115394592285,
      -0.3083108961582184,
      0.03840441256761551
    ],
    [
      0.2383594661951065,
      0.10639011114835739,
      -0.1458829641342163,
      0.03147091343998909,
      0.22755596041679382,
      0.1676240861415863,
      -0.15289583802223206,
      -0.028523441404104233,
      0.009520805440843105,
      0.19459903240203857,
      0.16409096121788025
    ],
    [
      -0.05097180977463722,
      0.10162419080734253,
      -0.07004935294389725,
      -0.15258967876434326,
      0.2180347591638565,
      0.17285966873168945,
      0.1529998481273651,
      0.11275089532136917,
      -0.18540900945663452,
      -0.04802913963794708,
      0.12061843276023865
    ],
    [
      -0.02258174680173397,
      0.17392157018184662,
      -0.18793724477291107,
      -0.18755437433719635,
      0.22408254444599152,
      -0.0814712792634964,
      0.05258138105273247,
      0.20172306895256042,
      0.16103734076023102,
      -0.23018424212932587,
      -0.11796934902667999
    ],
    [
      0.4426908493041992,
      -0.11330144852399826,
      0.16805540025234222,
      -0.11953345686197281,
      -0.17148058116436005,
      0.12063390016555786,
      -0.21972966194152832,
      -0.08669719845056534,
      0.006474406458437443,
      -0.05217863619327545,
      -0.07999448478221893
    ],
    [
      -0.2637295126914978,
      0.3308558464050293,
      0.19509682059288025,
      0.10943453758955002,
      -0.15736603736877441,
      -0.13275393843650818,
      0.2112111747264862,
      -0.06634897738695145,
      -0.331233412027359,
      -0.20861124992370605,
      -0.11635727435350418
    ],
    [
      0.059689830988645554,
      -0.06836814433336258,
      -0.17508192360401154,
      0.0572424940764904,
      0.1403815895318985,
      0.1943654716014862,
      -0.1944175362586975,
      -0.2354985773563385,
      0.11194629967212677,
      0.13178429007530212,
      0.2998109459877014
    ],
    [
      -0.22963470220565796,
      0.2953285574913025,
      -0.05915277078747749,
      0.140926793217659,
      -0.15203510224819183,
      -0.18228167295455933,
      0.1997421830892563,
      -0.27125081419944763,
      -0.060311127454042435,
      0.09254556894302368,
      0.0029963140841573477
    ],
    [
      0.48734617233276367,
      0.3298283815383911,
      -0.13521389663219452,
      -0.12459003925323486,
      -0.02087722159922123,
      -0.07653328776359558,
      -0.2058124840259552,
      -0.21424703299999237,
      0.22096796333789825,
      -0.20909829437732697,
      0.09943804144859314
    ],
    [
      -0.28884172439575195,
      -0.22935588657855988,
      -0.07492359727621078,
      0.05382008105516434,
      0.21829654276371002,
      -0.06509366631507874,
      -0.10099849849939346,
      0.20789001882076263,
      0.1114729642868042,
      -0.0014788826229050756,
      0.028177877888083458
    ],
    [
      -0.009915810078382492,
      -0.1964259147644043,
      -0.2653842866420746,
      -0.23268599808216095,
      0.2611672580242157,
      0.21842724084854126,
      0.17163875699043274,
      0.1285398155450821,
      0.056454405188560486,
      0.18868987262248993,
      0.006501161493360996
    ],
    [
      0.10217417776584625,
      0.2062823623418808,
      0.18190601468086243,
      0.18784496188163757,
      -0.280759334564209,
      -0.07530990242958069,
      -0.24651560187339783,
      -0.2017848938703537,
      -0.26514413952827454,
      -0.3068162500858307,
      0.07589171826839447
    ],
    [
      -0.31308549642562866,
      -0.04208967834711075,
      -0.24630768597126007,
      -0.25323206186294556,
      -0.07015915215015411,
      -0.2173704355955124,
      0.2483750432729721,
      -0.27060070633888245,
      0.1270795613527298,
      -0.07348883897066116,
      -0.024397941306233406
    ],
    [
      -0.3269890248775482,
      0.1175665408372879,
      0.1920546591281891,
      -0.3335668444633484,
      -0.2225155085325241,
      0.26681816577911377,
      -6.198381743161008e-05,
      0.17480680346488953,
      -0.08810942620038986,
      0.1826142966747284,
      -0.024907365441322327
    ],
    [
      0.16775715351104736,
      0.09460656344890594,
      -0.05120289325714111,
      0.2619686424732208,
      -0.18064600229263306,
      0.21331101655960083,
      0.052076321095228195,
      0.007331347558647394,
      -0.08313413709402084,
      -0.0831683799624443,
      0.16329795122146606
    ],
    [
      -0.25281769037246704,
      0.03321439027786255,
      0.11401274800300598,
      0.25232478976249695,
      0.17900456488132477,
      -0.052111029624938965,
      0.1360779106616974,
      0.10412446409463882,
      -0.13171233236789703,
      -0.26679709553718567,
      -0.06355064362287521
    ],
    [
      -0.19144317507743835,
      -0.23023229837417603,
      0.12277589738368988,
      0.25526949763298035,
      -0.09701017290353775,
      0.08811911940574646,
      0.21724186837673187,
      -0.17839787900447845,
      0.23698654770851135,
      0.23643164336681366,
      0.04591860622167587
    ],
    [
      0.07219117879867554,
      0.0609787255525589,
      0.1822747439146042,
      -0.16657710075378418,
      -0.028471142053604126,
      0.25170445442199707,
      0.14577282965183258,
      0.13751323521137238,
      -0.30341389775276184,
      0.2628447413444519,
      0.22206047177314758
    ],
    [
      -0.13156214356422424,
      -0.4895009696483612,
      0.07540608942508698,
      0.023587284609675407,
      -0.3070146441459656,
      0.1977623999118805,
      -0.06327689439058304,
      0.059205103665590286,
      -0.11960894614458084,
      0.13628678023815155,
      0.09746528416872025
    ],
    [
      0.09961555153131485,
      -0.16641037166118622,
      -0.22339698672294617,
      0.18209011852741241,
      0.25380685925483704,
      -0.14178258180618286,
      0.19852200150489807,
      -0.32082661986351013,
      0.2796279191970825,
      -0.018314218148589134,
      -0.05866922065615654
    ],
    [
      -0.5014136433601379,
      0.21397365629673004,
      0.18840564787387848,
      0.06806635111570358,
      0.03341685235500336,
      -0.09781798720359802,
      -0.14377780258655548,
      -0.20297208428382874,
      -0.2962699830532074,
      0.1535658985376358,
      0.07783501595258713
    ],
    [
      -0.30654436349868774,
      -0.28385257720947266,
      0.238112211227417,
      -0.04995458945631981,
      0.205673947930336,
      0.04652157425880432,
      -0.05279085412621498,
      0.18481314182281494,
      -0.1623317450284958,
      -0.14518140256404877,
      -0.09875904023647308
    ],
    [
      0.4518131911754608,
      0.24135799705982208,
      -0.07369488477706909,
      0.026461899280548096,
      -0.07695053517818451,
      -0.29893115162849426,
      0.13322903215885162,
      0.15752331912517548,
      0.14430205523967743,
      -0.24393683671951294,
      0.1611478477716446
    ],
    [
      -0.24923785030841827,
      0.040877971798181534,
      -0.10245974361896515,
      -0.19490131735801697,
      0.1860991269350052,
      -0.010733723640441895,
      0.1447153240442276,
      -0.3605169653892517,
      -0.18822897970676422,
      -0.155445858836174,
      -0.23273788392543793
    ],
    [
      0.30774062871932983,
      0.11041805148124695,
      -0.28723984956741333,
      0.02865143120288849,
      0.021081598475575447,
      0.15617328882217407,
      0.04117007553577423,
      0.029224548488855362,
      -0.05732465535402298,
      -0.22284351289272308,
      -0.06131270155310631
    ],
    [
      -0.2977730929851532,
      -0.22974906861782074,
      0.2941320538520813,
      0.11044112592935562,
      -0.03755473718047142,
      0.22130805253982544,
      -0.031154286116361618,
      0.04568173736333847,
      -0.07348773628473282,
      -0.17008709907531738,
      0.22587478160858154
    ],
    [
      0.237926185131073,
      -0.1493750363588333,
      -0.09363265335559845,
      -0.04677689075469971,
      -0.24834665656089783,
      -0.2527754604816437,
      -0.02293485403060913,
      -0.0724959671497345,
      -0.020775675773620605,
      -0.2670227587223053,
      -0.2060280740261078
    ],
    [
      0.5227038264274597,
      0.29478684067726135,
      -0.19758814573287964,
      0.025244878605008125,
      -0.07925204187631607,
      0.037292927503585815,
      0.199232816696167,
      0.24550749361515045,
      0.06250818073749542,
      -0.1640668660402298,
      -0.09698449820280075
    ],
    [
      0.4914866089820862,
      0.18081896007061005,
      -0.2907434403896332,
      0.03303210437297821,
      0.026853764429688454,
      0.05146250128746033,
      -0.17700956761837006,
      0.15759463608264923,
      0.30417880415916443,
      0.13531358540058136,
      -0.10263435542583466
    ],
    [
      -0.1989283561706543,
      -0.13751360774040222,
      -0.1548316776752472,
      0.00018283724784851074,
      -0.07121028006076813,
      0.044400185346603394,
      -0.23555535078048706,
      -0.26912397146224976,
      0.09632852673530579,
      0.04354873299598694,
      0.1738489866256714
    ],
    [
      -0.2673984467983246,
      0.00323099154047668,
      0.23143205046653748,
      -0.0020122132264077663,
      -0.08849222958087921,
      0.051537662744522095,
      -0.19783544540405273,
      0.23939837515354156,
      0.041046421974897385,
      -0.2275950312614441,
      -0.16514065861701965
    ],
    [
      0.11447057127952576,
      -0.10533635318279266,
      -0.26824578642845154,
      -0.18777208030223846,
      -0.02579149417579174,
      -0.037541091442108154,
      0.12822209298610687,
      0.21249307692050934,
      -0.07756379246711731,
      -0.16269095242023468,
      -0.03789350017905235
    ],
    [
      0.05864214524626732,
      -0.3157220780849457,
      -0.206903874874115,
      -0.009191413410007954,
      0.30775994062423706,
      0.15390586853027344,
      -0.028594307601451874,
      -0.08351239562034607,
      -0.1351250261068344,
      -0.13459287583827972,
      0.15015909075737
    ],
    [
      0.18633884191513062,
      -0.12483109533786774,
      -0.20893946290016174,
      0.03676718473434448,
      -0.04505034536123276,
      0.04338616132736206,
      0.1877751499414444,
      0.11988085508346558,
      0.3032003343105316,
      -0.14808818697929382,
      -0.006829271093010902
    ],
    [
      -0.4591546654701233,
      -0.3021930456161499,
      -0.13153864443302155,
      0.08883769810199738,
      -0.2155487835407257,
      0.2955920696258545,
      0.19952628016471863,
      0.29778173565864563,
      0.15150871872901917,
      -0.12857244908809662,
      -0.22212906181812286
    ],
    [
      -0.05144988000392914,
      -0.1377669721841812,
      -0.1893177032470703,
      -0.1399456113576889,
      0.14597320556640625,
      0.17514392733573914,
      0.30316704511642456,
      -0.07621196657419205,
      -0.10419689863920212,
      0.15354113280773163,
      -0.05688391625881195
    ],
    [
      0.18517282605171204,
      0.07954785227775574,
      -0.15773141384124756,
      -0.05916430056095123,
      -0.19166037440299988,
      -0.24898363649845123,
      -0.17697027325630188,
      -0.10931326448917389,
      -0.14422962069511414,
      -0.1813286393880844,
      0.15366733074188232
    ],
    [
      -0.2950747609138489,
      -0.021146710962057114,
      0.2306872308254242,
      0.15275542438030243,
      -0.0025287887547165155,
      0.04204872250556946,
      0.11984627693891525,
      0.04437766224145889,
      -0.1600818634033203,
      -0.24949201941490173,
      0.1588122546672821
    ],
    [
      0.2506527304649353,
      0.3042982518672943,
      -0.03392251208424568,
      -0.19372323155403137,
      0.2764660120010376,
      0.29859793186187744,
      -0.04419654235243797,
      -0.1748577207326889,
      0.09644243121147156,
      -0.22907786071300507,
      -0.18746988475322723
    ],
    [
      -0.12148860096931458,
      -0.27415817975997925,
      0.34624138474464417,
      0.003238907316699624,
      0.11970257014036179,
      0.1195024847984314,
      0.07395955175161362,
      0.04182477295398712,
      0.2697395980358124,
      -0.17230643332004547,
      -0.17404524981975555
    ],
    [
      -0.07710324227809906,
      0.22323842346668243,
      0.052796583622694016,
      0.1728305071592331,
      0.20759804546833038,
      0.16243398189544678,
      0.07039372622966766,
      -0.014605674892663956,
      -0.17947179079055786,
      0.28204798698425293,
      -0.12371678650379181
    ],
    [
      -0.21525412797927856,
      -0.872979998588562,
      -0.3548857271671295,
      -0.11157030612230301,
      0.24262197315692902,
      0.18269923329353333,
      -0.07268888503313065,
      -0.4055250883102417,
      -0.11946680396795273,
      0.14207449555397034,
      0.05508596822619438
    ],
    [
      0.19517146050930023,
      -0.0349893644452095,
      -0.15218845009803772,
      -0.17399157583713531,
      0.01608833111822605,
      0.13416725397109985,
      -0.2996768653392792,
      -0.09129404276609421,
      0.050206057727336884,
      -0.12409559637308121,
      -0.10522569715976715
    ],
    [
      -0.13157476484775543,
      0.2445283681154251,
      -0.13784784078598022,
      0.08356368541717529,
      0.2406739443540573,
      -0.12439407408237457,
      0.15969529747962952,
      -0.010677704587578773,
      -0.051402121782302856,
      -0.23849567770957947,
      -0.042861901223659515
    ],
    [
      -0.23722173273563385,
      -0.224197119474411,
      0.18473771214485168,
      -0.28389835357666016,
      -0.2865169048309326,
      -0.2798854410648346,
      -0.14957879483699799,
      0.17237776517868042,
      -0.2896016538143158,
      -0.015466928482055664,
      -0.21429185569286346
    ],
    [
      0.09843031316995621,
      -0.17021815478801727,
      -0.2498563975095749,
      0.20199277997016907,
      0.1506456434726715,
      0.12289732694625854,
      -0.14526543021202087,
      0.15101967751979828,
      -0.07078817486763,
      -0.18906594812870026,
      -0.012214498594403267
    ],
    [
      -0.20551644265651703,
      -0.19373206794261932,
      0.0097292335703969,
      -0.25938892364501953,
      0.21217061579227448,
      -0.23525464534759521,
      -0.07499300688505173,
      0.14793282747268677,
      -0.2255217283964157,
      0.1953330636024475,
      -0.1813213974237442
    ],
    [
      0.42959144711494446,
      0.26594069600105286,
      0.03338127210736275,
      -0.24516890943050385,
      -0.1495969593524933,
      0.09095430374145508,
      -0.2270601987838745,
      -0.18486295640468597,
      0.1078834980726242,
      0.117635577917099,
      -0.08623015880584717
    ],
    [
      -0.1110549196600914,
      -0.12145327031612396,
      0.10100357979536057,
      0.09760245680809021,
      -0.10030744969844818,
      0.09845209121704102,
      0.050461336970329285,
      0.07778745144605637,
      0.06381780654191971,
      0.12643180787563324,
      -0.09314554929733276
    ],
    [
      0.24409455060958862,
      -0.0921345204114914,
      -0.2955879867076874,
      -0.07915246486663818,
      -0.10741864144802094,
      0.0797576904296875,
      0.059467613697052,
      -0.25807857513427734,
      -0.29260265827178955,
      -0.0962429791688919,
      -0.18143190443515778
    ],
    [
      -0.07859402149915695,
      -0.29959002137184143,
      -0.10820698738098145,
      0.10040458291769028,
      0.23352333903312683,
      -0.1574912816286087,
      -0.17920628190040588,
      -0.23280131816864014,
      -0.21632258594036102,
      -0.17592264711856842,
      -0.08565126359462738
    ],
    [
      0.09396155178546906,
      0.305136114358902,
      -0.19537511467933655,
      0.2421543151140213,
      0.15757422149181366,
      -0.06082472205162048,
      0.19753922522068024,
      -0.09691907465457916,
      -0.1207086443901062,
      -0.22738592326641083,
      0.03523379564285278
    ],
    [
      -0.5629775524139404,
      0.07816340774297714,
      0.35693562030792236,
      -0.11865974962711334,
      -0.3017998933792114,
      -0.11918650567531586,
      -0.04498673975467682,
      -0.07795766741037369,
      0.09073032438755035,
      -0.07539444416761398,
      -0.08993041515350342
    ],
    [
      0.14436671137809753,
      -0.0803564041852951,
      -0.23760315775871277,
      0.14259949326515198,
      -0.2765749990940094,
      0.25048261880874634,
      0.11161109805107117,
      -0.10545478761196136,
      -0.08228085935115814,
      -0.28220704197883606,
      -0.24830657243728638
    ],
    [
      0.02031843177974224,
      -0.22538533806800842,
      -0.22617843747138977,
      0.14811600744724274,
      -0.12921196222305298,
      0.09582823514938354,
      0.1806693822145462,
      -0.2074000984430313,
      -0.24637939035892487,
      0.07289506494998932,
      0.02275349199771881
    ],
    [
      0.1208963692188263,
      0.3673463463783264,
      -0.2136073112487793,
      -0.04300159215927124,
      -0.054556749761104584,
      0.050639957189559937,
      0.060599952936172485,
      -0.24196887016296387,
      -0.0012976123252883554,
      0.15896309912204742,
      0.011030012741684914
    ],
    [
      0.19306626915931702,
      0.06269906461238861,
      -0.18587251007556915,
      0.011517251841723919,
      0.13095536828041077,
      -0.10230521857738495,
      -0.13343578577041626,
      0.21492071449756622,
      -0.035134926438331604,
      -0.19912807643413544,
      -0.041868049651384354
    ],
    [
      -0.09063510596752167,
      -0.26871323585510254,
      -0.10368351638317108,
      0.16258618235588074,
      0.147426575422287,
      0.1748926341533661,
      0.2619864046573639,
      0.29931989312171936,
      0.030423523858189583,
      -0.3798524737358093,
      0.013122699223458767
    ],
    [
      0.03285008296370506,
      -0.3299294412136078,
      -0.2194853127002716,
      0.14243748784065247,
      0.11541157215833664,
      0.09381043910980225,
      -0.08611057698726654,
      0.07862573117017746,
      0.2761442959308624,
      -0.17067238688468933,
      -0.02187538333237171
    ],
    [
      -0.5976281762123108,
      0.06413457542657852,
      0.27506744861602783,
      0.04185526818037033,
      -0.19214920699596405,
      0.20229989290237427,
      -0.04480661079287529,
      -0.12802354991436005,
      0.10756387561559677,
      0.25627395510673523,
      0.2091667652130127
    ],
    [
      -0.09000390768051147,
      -0.09250155836343765,
      -0.07633229345083237,
      0.15136565268039703,
      0.14194947481155396,
      -0.2148102968931198,
      0.024783145636320114,
      0.28230470418930054,
      -0.33407118916511536,
      0.20085594058036804,
      -0.1335027813911438
    ],
    [
      -0.23663416504859924,
      0.11101651191711426,
      0.01796814799308777,
      0.14625957608222961,
      -0.13452905416488647,
      0.10403594374656677,
      -0.17338815331459045,
      -0.16259251534938812,
      -0.07508695125579834,
      -0.19094181060791016,
      -0.05336090922355652
    ],
    [
      -0.23081496357917786,
      -0.26435622572898865,
      -0.06683692336082458,
      -0.10784850269556046,
      -0.1753312051296234,
      0.2191064953804016,
      -0.2512052357196808,
      0.18988162279129028,
      -0.19540612399578094,
      0.1277022808790207,
      -0.12941889464855194
    ],
    [
      -0.3930777907371521,
      -0.2501046061515808,
      -0.08700834959745407,
      0.14796456694602966,
      -0.1946563720703125,
      0.08427360653877258,
      0.20037241280078888,
      0.26217007637023926,
      -0.038119878619909286,
      -0.28509172797203064,
      0.1710241287946701
    ],
    [
      0.5409599542617798,
      0.04237184301018715,
      -0.17884644865989685,
      0.05217191204428673,
      -0.03892042487859726,
      0.18492764234542847,
      0.0038738828152418137,
      0.32242485880851746,
      0.21754711866378784,
      -0.10568984597921371,
      -0.05435370281338692
    ],
    [
      0.11498180776834488,
      0.28710928559303284,
      0.2794409990310669,
      -0.26418134570121765,
      -0.262162446975708,
      -0.013567507266998291,
      0.16338272392749786,
      -0.05345575511455536,
      -0.1453852504491806,
      0.01231350563466549,
      -0.150218665599823
    ],
    [
      0.2545640170574188,
      0.11209165304899216,
      -0.21768110990524292,
      0.3144722580909729,
      -0.27984172105789185,
      -0.03356140851974487,
      -0.2570185363292694,
      -0.0013766261981800199,
      -0.15751276910305023,
      0.07181192934513092,
      -0.26264429092407227
    ],
    [
      -0.497742623090744,
      -0.17965129017829895,
      0.29901590943336487,
      -0.24497181177139282,
      0.1203293427824974,
      -0.2451222836971283,
      0.049949780106544495,
      -0.2985111176967621,
      0.1272025853395462,
      0.10934001952409744,
      0.13409174978733063
    ],
    [
      -0.032380372285842896,
      0.14844492077827454,
      0.13560016453266144,
      -0.05328354611992836,
      0.30146682262420654,
      0.009208649396896362,
      -0.4045279324054718,
      0.0013501198263838887,
      -0.2314920723438263,
      0.21159090101718903,
      -0.12498744577169418
    ],
    [
      -0.2674598693847656,
      0.07174399495124817,
      0.2920821011066437,
      0.11386846005916595,
      0.1399587094783783,
      -0.09366960823535919,
      0.10888845473527908,
      -0.20799843966960907,
      -0.23502089083194733,
      -0.2613162100315094,
      -0.13523255288600922
    ],
    [
      0.29220426082611084,
      -0.24468493461608887,
      0.26050275564193726,
      0.03109237551689148,
      0.19244158267974854,
      -0.26020556688308716,
      -0.0017994046211242676,
      -0.11813977360725403,
      -0.2800910770893097,
      0.04458338022232056,
      0.11160171031951904
    ],
    [
      -0.138436958193779,
      0.3331305682659149,
      -0.06746156513690948,
      0.3058878481388092,
      -0.228207066655159,
      0.29052066802978516,
      -0.381879061460495,
      -0.12246570736169815,
      0.13256844878196716,
      -0.2242710441350937,
      -0.030022457242012024
    ],
    [
      0.020718276500701904,
      -0.1176031082868576,
      -0.06759043037891388,
      -0.253273606300354,
      -0.20990850031375885,
      0.09300342202186584,
      0.042240291833877563,
      -0.03167349100112915,
      -0.24932444095611572,
      -0.004354357719421387,
      -0.2569873034954071
    ],
    [
      -0.4164432883262634,
      0.10721650719642639,
      0.13741950690746307,
      0.1713668256998062,
      -0.19882965087890625,
      -0.12604309618473053,
      0.19130288064479828,
      -0.01881488971412182,
      0.11256569623947144,
      0.10022436082363129,
      -0.16726714372634888
    ],
    [
      -0.21488061547279358,
      0.04510711133480072,
      -0.21699821949005127,
      -0.27197760343551636,
      -0.0766943171620369,
      0.1348159909248352,
      0.23601171374320984,
      -0.245343416929245,
      -0.009150336496531963,
      0.17728379368782043,
      0.22738833725452423
    ],
    [
      -0.5036873817443848,
      -0.22121894359588623,
      0.22706955671310425,
      -0.04720441997051239,
      0.2158394306898117,
      -0.02463194727897644,
      0.15606029331684113,
      0.3055412769317627,
      -0.2556714415550232,
      0.1375865787267685,
      -0.11847469210624695
    ],
    [
      0.030730251222848892,
      -0.17890292406082153,
      0.3599989414215088,
      -0.08650802075862885,
      -0.02376915141940117,
      -0.07253091037273407,
      0.1131286546587944,
      -0.1387929916381836,
      -0.038663893938064575,
      0.09021945297718048,
      0.03283688798546791
    ],
    [
      0.17574486136436462,
      0.17748650908470154,
      -0.10383893549442291,
      -0.15899580717086792,
      -0.0805673897266388,
      0.09971076250076294,
      -0.1442422717809677,
      -0.002417951822280884,
      -0.18883205950260162,
      -0.104712575674057,
      0.06927052140235901
    ],
    [
      -0.14394614100456238,
      -0.3077496290206909,
      0.27769502997398376,
      0.08026065677404404,
      -0.15462085604667664,
      0.25365567207336426,
      -0.11223331093788147,
      0.09805131703615189,
      0.22397425770759583,
      -0.26388540863990784,
      -0.25258323550224304
    ],
    [
      -0.0822700634598732,
      0.33764421939849854,
      0.012987399473786354,
      -0.09810899198055267,
      -0.07068462669849396,
      0.018671870231628418,
      0.07493916898965836,
      0.062186818569898605,
      -0.2221614271402359,
      0.05083777382969856,
      -0.03534068167209625
    ],
    [
      0.16681882739067078,
      0.10991230607032776,
      -0.05768193304538727,
      -0.2978940010070801,
      -0.11232003569602966,
      0.2814052700996399,
      -0.12512032687664032,
      -0.19530722498893738,
      -0.22801825404167175,
      0.268096923828125,
      0.14688825607299805
    ],
    [
      -0.09250134974718094,
      0.17255938053131104,
      0.1528686285018921,
      0.003086591837927699,
      0.15479211509227753,
      0.1669134795665741,
      0.08132737874984741,
      0.18458114564418793,
      -0.21789297461509705,
      -0.09625498205423355,
      -0.07196483761072159
    ]
  ],
  "network.0.bias": [
    0.15109765529632568,
    0.17506681382656097,
    0.004250654485076666,
    -0.10112623870372772,
    0.281729131937027,
    0.2815302014350891,
    0.15267935395240784,
    -0.2042067050933838,
    -0.18150918185710907,
    -0.29737183451652527,
    -0.1813037395477295,
    0.14225555956363678,
    0.081692636013031,
    -0.047825202345848083,
    -0.3093027174472809,
    -0.03685354068875313,
    -0.14733420312404633,
    0.2129766345024109,
    -0.13696682453155518,
    0.10945723950862885,
    0.01555318757891655,
    0.30407842993736267,
    0.15468981862068176,
    0.19112665951251984,
    -0.29383593797683716,
    0.09747400134801865,
    -0.24568578600883484,
    0.16754594445228577,
    0.10299745202064514,
    0.027123726904392242,
    0.15131346881389618,
    0.23450104892253876,
    -0.17459896206855774,
    -0.0018165090586990118,
    -0.11700189858675003,
    0.2190297544002533,
    -0.32250648736953735,
    -0.28454074263572693,
    0.30832070112228394,
    -0.24522119760513306,
    -0.1955517828464508,
    0.03561730682849884,
    0.1956755518913269,
    -0.027554553002119064,
    0.023245370015501976,
    0.05349451303482056,
    0.25294992327690125,
    -0.17008918523788452,
    0.010463270358741283,
    0.017683353275060654,
    0.23282402753829956,
    0.09633715450763702,
    0.0213158056139946,
    -0.06206033378839493,
    0.15252770483493805,
    0.05369187518954277,
    0.15547049045562744,
    -0.10317305475473404,
    0.20556770265102386,
    0.14218825101852417,
    -0.12114755064249039,
    -0.11227446049451828,
    -0.062300410121679306,
    -0.06998863071203232,
    -0.012531294487416744,
    0.15305733680725098,
    0.17098313570022583,
    0.10086509585380554,
    0.17128415405750275,
    0.1113097220659256,
    0.23506435751914978,
    -0.21401847898960114,
    0.0235745906829834,
    -0.05057467892765999,
    -0.11019805818796158,
    -0.2909207344055176,
    0.1621135026216507,
    0.2596677541732788,
    0.2464556246995926,
    0.04866669699549675,
    -0.16900435090065002,
    -0.21963930130004883,
    -0.2182864546775818,
    -0.09185177832841873,
    0.059643566608428955,
    -0.06844703108072281,
    -0.2778296172618866,
    0.03020358830690384,
    0.05222474783658981,
    0.10481469333171844,
    -0.25640401244163513,
    0.25397181510925293,
    0.1942695677280426,
    0.22787298262119293,
    -0.10835745185613632,
    0.14777392148971558,
    -0.11271821707487106,
    0.18060697615146637,
    -0.030482959002256393,
    -0.12005126476287842,
    0.212314635515213,
    0.1715526580810547,
    0.23738256096839905,
    -0.04175069183111191,
    0.13797719776630402,
    -0.24615049362182617,
    0.05370322987437248,
    -0.2910448908805847,
    0.13667191565036774,
    0.061307016760110855,
    -0.24071402847766876,
    0.05952247604727745,
    0.09080342203378677,
    0.2682739198207855,
    -0.2654133439064026,
    0.27886855602264404,
    -0.26918014883995056,
    -0.19937944412231445,
    0.2995338439941406,
    0.14299041032791138,
    0.013947016559541225,
    0.0488676019012928,
    -0.03576193377375603,
    -0.16113793849945068,
    0.3115161955356598,
    -0.07520299404859543,
    0.05439627170562744,
    -0.07760395854711533
  ],
  "network.2.weight": [
    1.0437594652175903,
    1.0609883069992065,
    1.1925761699676514,
    0.985356330871582,
    1.0426571369171143,
    1.0872658491134644,
    0.9635438919067383,
    1.0082054138183594,
    0.948021411895752,
    0.913749635219574,
    0.9215654134750366,
    1.1360108852386475,
    0.9795984625816345,
    0.9094842672348022,
    0.9218930602073669,
    1.059909701347351,
    0.9525487422943115,
    0.9409605860710144,
    0.9418458342552185,
    0.9572826027870178,
    0.8874626755714417,
    0.9767665863037109,
    0.9806988835334778,
    0.9456316232681274,
    0.963488757610321,
    0.9799503087997437,
    0.9660521745681763,
    0.992609977722168,
    0.9878636002540588,
    0.9913011193275452,
    0.988888144493103,
    1.0017693042755127,
    0.9523322582244873,
    0.9667347073554993,
    0.9198371767997742,
    1.121038794517517,
    0.958336353302002,
    0.9791600704193115,
    1.0926132202148438,
    1.034960389137268,
    0.9351931810379028,
    1.0626908540725708,
    0.9691147804260254,
    0.9112039804458618,
    0.9117476940155029,
    0.942696750164032,
    0.9723276495933533,
    0.9158408045768738,
    0.9223924875259399,
    1.0378705263137817,
    0.9244850873947144,
    0.9159767031669617,
    0.9758874177932739,
    0.9238272905349731,
    1.076369047164917,
    0.9310994744300842,
    1.0109447240829468,
    0.9125454425811768,
    0.963956892490387,
    0.9570613503456116,
    0.9238747954368591,
    1.0032622814178467,
    0.9773595929145813,
    1.0412423610687256,
    0.9475540518760681,
    1.1389741897583008,
    0.9507482051849365,
    0.9687420725822449,
    0.9439446330070496,
    0.9024718999862671,
    0.9401397705078125,
    0.981522798538208,
    0.8899396061897278,
    1.0742121934890747,
    1.02484130859375,
    0.9122124314308167,
    0.9561538696289062,
    0.9326903820037842,
    0.9439873695373535,
    0.9936220049858093,
    0.8954206109046936,
    0.9512315392494202,
    0.9412732720375061,
    1.0181578397750854,
    1.0008670091629028,
    1.1120154857635498,
    1.071603775024414,
    0.9786784648895264,
    0.9542956948280334,
    0.9530092477798462,
    0.9530893564224243,
    0.9485117793083191,
    0.9316986203193665,
    0.9743703007698059,
    0.9625584483146667,
    0.9131091237068176,
    0.9173815250396729,
    1.0378166437149048,
    1.0238553285598755,
    0.9153615236282349,
    0.9520163536071777,
    1.2011476755142212,
    1.023374319076538,
    1.0948418378829956,
    1.1308034658432007,
    1.0642808675765991,
    0.9411042928695679,
    0.9259496927261353,
    0.9366806149482727,
    1.0027644634246826,
    1.0332300662994385,
    0.977938175201416,
    0.9582820534706116,
    0.9970679879188538,
    0.9638739824295044,
    0.9706647396087646,
    0.9242435693740845,
    1.0068289041519165,
    0.9172834157943726,
    0.9072222709655762,
    0.9451073408126831,
    1.0434484481811523,
    0.9866589903831482,
    0.9194321632385254,
    1.0618585348129272,
    1.092613935470581,
    0.9320684671401978,
    1.0233385562896729
  ],
  "network.2.bias": [
    0.028133602812886238,
    -0.01797468587756157,
    -0.007279175333678722,
    0.00204561953432858,
    -0.0007856065640226007,
    -0.007948512211441994,
    0.06816616654396057,
    -0.034213706851005554,
    0.05146642401814461,
    0.08447728306055069,
    0.07991006970405579,
    0.019635125994682312,
    -0.04495028406381607,
    0.08344469964504242,
    0.07169610261917114,
    0.030934665352106094,
    0.05017133057117462,
    -0.05780058726668358,
    0.05758015811443329,
    -0.03907604143023491,
    -0.04111994430422783,
    0.05329456925392151,
    0.04616076126694679,
    0.054549239575862885,
    0.037000373005867004,
    -0.03963815048336983,
    -0.030177202075719833,
    -0.02672754041850567,
    0.04680074006319046,
    0.027285709977149963,
    -0.017125356942415237,
    -0.027003100141882896,
    -0.057102736085653305,
    0.04807917773723602,
    0.07444847375154495,
    -1.0364907211624086e-05,
    0.0436684712767601,
    0.027197733521461487,
    0.0003131596022285521,
    -0.018070867285132408,
    0.06102597340941429,
    -0.01503065787255764,
    -0.024506308138370514,
    -0.02868589200079441,
    0.062318120151758194,
    0.04058423638343811,
    0.05293257161974907,
    0.025114750489592552,
    -0.03436172753572464,
    -0.004106979351490736,
    0.07268820703029633,
    0.0011089760810136795,
    0.04308855161070824,
    0.07389108091592789,
    0.018006235361099243,
    -0.04365389794111252,
    0.002089690649881959,
    0.08803015202283859,
    0.08920801430940628,
    -0.06789976358413696,
    0.031440090388059616,
    0.017003057524561882,
    -0.03741257265210152,
    -0.014597768895328045,
    0.061825450509786606,
    0.01106227096170187,
    -0.03542637452483177,
    0.05038811266422272,
    -0.07318739593029022,
    0.09758839011192322,
    0.08927808701992035,
    0.040826261043548584,
    0.11032848805189133,
    -0.007988356985151768,
    -0.0169988926500082,
    0.0929449126124382,
    -0.061340462416410446,
    0.06299766153097153,
    0.08690685033798218,
    -0.01148153841495514,
    0.10105662792921066,
    0.05849898234009743,
    0.06106051057577133,
    0.030602842569351196,
    0.023642340674996376,
    -0.004028527997434139,
    -0.023815281689167023,
    0.07187965512275696,
    0.05095280334353447,
    -0.038296736776828766,
    0.048826124519109726,
    0.07811501622200012,
    0.02934666909277439,
    -0.012626510113477707,
    -0.03194596990942955,
    0.08389274030923843,
    0.07122843712568283,
    -0.015503191389143467,
    0.01806422881782055,
    0.08746682852506638,
    0.05960223078727722,
    0.004232693463563919,
    -0.005613106768578291,
    0.014479132369160652,
    0.02195088192820549,
    -0.010079911909997463,
    -0.05196525156497955,
    0.07836267352104187,
    0.06704447418451309,
    0.018880894407629967,
    0.024038705974817276,
    0.02807406708598137,
    0.07015284150838852,
    -0.02609430067241192,
    0.05683927237987518,
    -0.005538634955883026,
    0.06890654563903809,
    0.021203920245170593,
    0.08019477128982544,
    -0.08501625806093216,
    0.08193183690309525,
    -0.022292636334896088,
    0.05475345999002457,
    0.0775391235947609,
    -0.0072595602832734585,
    0.02436230517923832,
    0.06328295171260834,
    -0.0008865708368830383
  ],
  "network.3.weight": [
    [
      0.08704053610563278,
      -0.08102484047412872,
      -0.025456903502345085,
      0.053593434393405914,
      0.043751589953899384,
      0.06705264747142792,
      0.07256311923265457,
      -0.07458241283893585,
      0.028221439570188522,
      -0.018012886866927147,
      0.10049185901880264,
      0.04245920851826668,
      -0.08468694984912872,
      -0.04297322407364845,
      0.07298912853002548,
      0.07413829863071442,
      -0.06418494135141373,
      0.06891759485006332,
      -3.0641397188446717e-06,
      -0.03578749671578407,
      -0.09703359007835388,
      0.09313834458589554,
      0.07624799758195877,
      -0.0350833460688591,
      0.10304661840200424,
      0.021121298894286156,
      0.046529144048690796,
      0.03984612226486206,
      0.06396869570016861,
      0.09396756440401077,
      -0.029451604932546616,
      0.02963724546134472,
      -0.0074875494465231895,
      -0.005720263347029686,
      -0.0022778946440666914,
      0.07074902206659317,
      0.06046485900878906,
      -0.04810422658920288,
      -0.0868314802646637,
      -0.03418135270476341,
      -0.01771192066371441,
      0.07198063284158707,
      -0.08348222821950912,
      0.05493222549557686,
      0.10252532362937927,
      0.0083491625264287,
      0.013560214079916477,
      -0.057967592030763626,
      0.02580181695520878,
      0.012361806817352772,
      0.069668710231781,
      -0.0025068155955523252,
      -0.01867339387536049,
      0.011324549093842506,
      -0.014442437328398228,
      0.005042278207838535,
      -0.013166839256882668,
      0.0878916084766388,
      -0.04087379574775696,
      -0.00890415534377098,
      -0.005110442638397217,
      -0.005660702474415302,
      -0.09803353250026703,
      0.034013986587524414,
      -0.059724390506744385,
      0.07360459119081497,
      0.057076241821050644,
      0.017015432938933372,
      -0.05783036723732948,
      -0.0458172969520092,
      0.06383083760738373,
      0.10066277533769608,
      0.024733372032642365,
      0.011845672503113747,
      -0.059476789087057114,
      -0.06536483019590378,
      0.05969097837805748,
      0.024474075064063072,
      0.07544779777526855,
      0.03153708949685097,
      0.09971121698617935,
      8.541560237063095e-05,
      -0.049584753811359406,
      -0.07381188869476318,
      -0.030825961381196976,
      -0.04312099516391754,
      0.05826176330447197,
      -0.054616525769233704,
      -0.0016319620190188289,
      -0.051664434373378754,
      0.01661316491663456,
      0.00946943648159504,
      -0.03319002315402031,
      0.019315402954816818,
      0.028950834646821022,
      -0.05231288820505142,
      0.06135879456996918,
      0.031006179749965668,
      -0.030315086245536804,
      0.059086933732032776,
      -0.04426039755344391,
      0.07031431794166565,
      -0.04072900861501694,
      -0.07241863757371902,
      -0.03730524331331253,
      -0.10071523487567902,
      -0.02054607681930065,
      0.00544002465903759,
      -0.054435405880212784,
      -0.04967784136533737,
      0.012539762072265148,
      -0.0173044390976429,
      -0.04645528644323349,
      -0.05697852000594139,
      -0.03670070320367813,
      0.08555574715137482,
      -0.055430371314287186,
      -0.021691538393497467,
      -0.014903675764799118,
      -0.08964282274246216,
      0.0961625948548317,
      0.010324059054255486,
      0.014037227258086205,
      0.027444645762443542,
      -0.08741692453622818,
      0.03295079618692398,
      -0.016853410750627518,
      0.042739130556583405
    ],
    [
      -0.043956905603408813,
      0.02584170177578926,
      -0.12604181468486786,
      -0.013588985428214073,
      -0.13511496782302856,
      0.04849587008357048,
      0.01951483264565468,
      -0.0018982639303430915,
      0.04775853827595711,
      -0.024468258023262024,
      0.03222079202532768,
      -0.07763473689556122,
      -0.011306226253509521,
      -0.010020184330642223,
      0.012152343988418579,
      -0.021543042734265327,
      0.11701199412345886,
      0.03235155716538429,
      -0.059870366007089615,
      0.004361781757324934,
      0.015828831121325493,
      -0.04489504173398018,
      -0.013666370883584023,
      -0.004669026471674442,
      0.09701496362686157,
      -0.06211985647678375,
      -0.012056495063006878,
      -0.028291597962379456,
      0.06685922294855118,
      0.07687147706747055,
      0.019551889970898628,
      -0.013561234809458256,
      0.027797270566225052,
      0.11900647729635239,
      -0.002450347412377596,
      0.06911256909370422,
      -0.05691470950841904,
      -0.03601120784878731,
      -0.043969836086034775,
      -0.05249887704849243,
      0.002163346391171217,
      0.0714770257472992,
      -0.039935700595378876,
      -0.07849234342575073,
      0.02658863551914692,
      0.055751994252204895,
      0.020865758880972862,
      0.03879900649189949,
      0.03910896182060242,
      0.03398739919066429,
      0.026926586404442787,
      0.013938586227595806,
      -0.014866714365780354,
      0.102165088057518,
      0.08881945163011551,
      0.06182129681110382,
      -0.04632148519158363,
      0.061339203268289566,
      0.11055270582437515,
      -0.08320702612400055,
      0.026168538257479668,
      0.07638256996870041,
      0.0294549148529768,
      0.019781731069087982,
      0.09274649620056152,
      0.032363392412662506,
      -0.0773535966873169,
      -0.030958302319049835,
      0.01893184892833233,
      -0.012981067411601543,
      0.04568934813141823,
      0.05442853644490242,
      -0.0445411317050457,
      -0.03114178404211998,
      -0.053964924067258835,
      -0.03354030102491379,
      0.055909838527441025,
      0.05733795836567879,
      0.11273950338363647,
      -0.026690449565649033,
      0.06362885981798172,
      -0.055235907435417175,
      -0.0372808501124382,
      -0.0019658212549984455,
      0.06522581726312637,
      0.015582217834889889,
      -0.005544600542634726,
      0.002017875434830785,
      0.025815816596150398,
      -0.11128783971071243,
      0.0005286492523737252,
      -0.04651616886258125,
      0.003931654617190361,
      -0.017063111066818237,
      -0.038376808166503906,
      0.07662918418645859,
      0.025567131116986275,
      0.031075824052095413,
      0.10260245949029922,
      0.017160093411803246,
      0.03825712949037552,
      0.06242479756474495,
      0.01913626492023468,
      0.016277149319648743,
      -0.03402544930577278,
      0.01635468751192093,
      0.01924293301999569,
      0.08072207868099213,
      -0.038573432713747025,
      -0.00732483109459281,
      0.020741499960422516,
      0.012099198065698147,
      -0.02453511767089367,
      -0.005354159977287054,
      -0.030511127784848213,
      0.061487291008234024,
      0.08046669512987137,
      0.0313497930765152,
      -0.055290255695581436,
      0.0552898570895195,
      0.031888898462057114,
      -0.040594540536403656,
      0.08461078256368637,
      0.0738886147737503,
      0.053350675851106644,
      0.08539856225252151,
      -0.027758007869124413,
      0.009251079522073269
    ],
    [
      0.02979646436870098,
      -0.0062505765818059444,
      -0.06850982457399368,
      0.07309123128652573,
      -0.13315558433532715,
      0.001625192235223949,
      -0.019263863563537598,
      -0.012287212535738945,
      0.006695340853184462,
      -0.0077467309311032295,
      0.08873564749956131,
      -0.049352552741765976,
      -0.00011073409405071288,
      0.024886732921004295,
      0.09965507686138153,
      -0.04710916802287102,
      0.10174546390771866,
      0.033828672021627426,
      0.13682939112186432,
      -0.057988282293081284,
      0.049722928553819656,
      -0.0201583132147789,
      0.06052627041935921,
      -0.046614035964012146,
      -0.059762950986623764,
      0.008907144889235497,
      0.034377358853816986,
      -0.06646377593278885,
      0.021805115044116974,
      -0.05254383385181427,
      -0.03529023751616478,
      -0.05451025813817978,
      0.06676903367042542,
      0.009331190958619118,
      0.0012633500155061483,
      0.008115687407553196,
      0.045485276728868484,
      -0.04810052365064621,
      -0.007197769824415445,
      0.03771230950951576,
      0.08460906147956848,
      -0.008824274875223637,
      -0.084907166659832,
      0.023096660152077675,
      -0.0207823533564806,
      0.02665138617157936,
      0.03810131549835205,
      0.056660596281290054,
      -0.10577256232500076,
      -0.10570519417524338,
      -0.053339883685112,
      0.06443694978952408,
      -0.0027157904114574194,
      -0.00025427300715819,
      -0.07268062978982925,
      -0.09406087547540665,
      -0.03554026037454605,
      -0.04800739139318466,
      0.09945815801620483,
      0.059332024306058884,
      -0.01613721065223217,
      0.033622365444898605,
      0.01628304459154606,
      0.010895495302975178,
      0.024977317079901695,
      -0.11536236107349396,
      -0.028134260326623917,
      -0.05164347589015961,
      -0.05376453325152397,
      -0.02041623927652836,
      0.09658510982990265,
      -0.053694434463977814,
      -0.011196698062121868,
      -0.0438975915312767,
      0.05616329237818718,
      0.013585655018687248,
      0.07272450625896454,
      -0.020971279591321945,
      -0.03710014373064041,
      -0.1771329939365387,
      0.010534128174185753,
      0.09850668162107468,
      -0.059347063302993774,
      -0.01466954592615366,
      0.042332131415605545,
      -0.010259992443025112,
      0.030078617855906487,
      0.09934821724891663,
      -0.0574081614613533,
      -0.047906480729579926,
      -0.05766082927584648,
      0.01989765092730522,
      -0.025983670726418495,
      -0.020976245403289795,
      0.07950594276189804,
      -0.0650566890835762,
      0.03801145404577255,
      -0.13137614727020264,
      0.15064691007137299,
      -0.011553415097296238,
      0.04497261717915535,
      -0.055356305092573166,
      -0.029331712052226067,
      0.08863594383001328,
      -0.04212557524442673,
      0.16321468353271484,
      0.0799979716539383,
      -0.03907168284058571,
      0.07558679580688477,
      0.017925597727298737,
      0.007553284056484699,
      0.11563989520072937,
      0.0177319198846817,
      -0.058929622173309326,
      0.013289044611155987,
      0.004504589829593897,
      0.02208055928349495,
      -0.06580503284931183,
      -0.06376094371080399,
      0.05760093778371811,
      0.09703292697668076,
      -0.00856065098196268,
      0.07072006165981293,
      -0.03841723874211311,
      -0.01804860681295395,
      0.025121357291936874,
      0.060022708028554916,
      -0.003452267264947295
    ],
    [
      -0.0674353614449501,
      -0.10003629326820374,
      -0.14032627642154694,
      0.10396642982959747,
      -0.12451482564210892,
      -0.07618527859449387,
      0.028893280774354935,
      0.07248400896787643,
      -0.04851100593805313,
      0.09052395075559616,
      -0.03602668270468712,
      -0.016533449292182922,
      0.003764837747439742,
      -0.007263778708875179,
      -0.0015485500916838646,
      -0.05121847987174988,
      0.09448091685771942,
      0.05392912030220032,
      0.0013155009364709258,
      -0.07344239950180054,
      0.04201053828001022,
      -0.07143045216798782,
      0.020964784547686577,
      -0.06931615620851517,
      0.05907713994383812,
      -0.04489194229245186,
      0.015212729573249817,
      -0.030959689989686012,
      0.029390646144747734,
      -0.004435477778315544,
      0.012768534943461418,
      -0.06450928747653961,
      0.04684397205710411,
      0.00936821848154068,
      0.014827973209321499,
      -0.10715026408433914,
      -0.04649317264556885,
      -0.03301054239273071,
      -0.07707920670509338,
      0.12721042335033417,
      0.0690448209643364,
      0.03976770490407944,
      -0.06770876049995422,
      0.0877036303281784,
      0.02553917095065117,
      0.06616774946451187,
      0.05152527242898941,
      -0.07147493958473206,
      -0.10861624777317047,
      -0.152655690908432,
      0.07814030349254608,
      -0.046020038425922394,
      0.031190374866127968,
      0.02272379957139492,
      -0.012013103812932968,
      -0.01525337714701891,
      -0.05703655630350113,
      -0.010336271487176418,
      0.05124712362885475,
      -0.05712223798036575,
      0.041183535009622574,
      -0.0124544408172369,
      0.04724245145916939,
      -0.02886887826025486,
      -0.06558223813772202,
      -0.018675586208701134,
      0.03215373679995537,
      -0.07423454523086548,
      -0.050696391612291336,
      -0.03742580860853195,
      -0.030980555340647697,
      0.09875756502151489,
      0.0160398967564106,
      -0.005248398054391146,
      0.05754483863711357,
      -0.02775798738002777,
      -0.026733705773949623,
      0.0567152313888073,
      0.0540623664855957,
      -0.09960612654685974,
      0.026004241779446602,
      0.010056364350020885,
      0.08473746478557587,
      0.005674996413290501,
      -0.06851109117269516,
      0.045806463807821274,
      0.035225760191679,
      0.010585987940430641,
      -0.037351518869400024,
      -0.14075464010238647,
      -0.020654471591114998,
      0.018872184678912163,
      -0.1387929767370224,
      -0.05680447444319725,
      -0.05306185781955719,
      0.010225349105894566,
      0.03706078231334686,
      -0.1429455578327179,
      0.14332236349582672,
      -0.013856081292033195,
      0.07386446744203568,
      -0.1787867695093155,
      -0.05157886818051338,
      0.050589486956596375,
      0.05367472022771835,
      -0.054758984595537186,
      0.03103194385766983,
      0.08540251851081848,
      -0.07013207674026489,
      0.05421248450875282,
      -0.001481034909375012,
      0.09519313275814056,
      -0.003421635599806905,
      -0.13661465048789978,
      -0.055430445820093155,
      -0.04044023156166077,
      0.00011534048098837957,
      -0.047085169702768326,
      -0.02688714489340782,
      0.07104619592428207,
      -0.0029585836455225945,
      0.030542021617293358,
      0.032122902572155,
      0.04932965710759163,
      0.03874104842543602,
      0.010499689728021622,
      0.07202330231666565,
      0.09251704812049866
    ],
    [
      0.022250086069107056,
      0.032660000026226044,
      0.014694640412926674,
      0.0868353545665741,
      0.041951604187488556,
      0.07295768707990646,
      0.03313852846622467,
      0.03216294199228287,
      -0.031122764572501183,
      0.09698548167943954,
      0.07661943882703781,
      -0.011035745032131672,
      0.02676280587911606,
      0.002693990943953395,
      0.016127154231071472,
      0.06729643046855927,
      0.03202149644494057,
      -0.03504626825451851,
      0.1258869171142578,
      0.08381595462560654,
      -0.0015247202245518565,
      0.10864688456058502,
      0.12102542817592621,
      0.06390200555324554,
      -0.044095419347286224,
      0.0005052079213783145,
      0.0773283839225769,
      0.06877804547548294,
      -0.04351769760251045,
      0.01693088747560978,
      -0.04139009118080139,
      -0.06658655405044556,
      -0.005995018407702446,
      -0.03636658936738968,
      -0.007525621447712183,
      -0.021982461214065552,
      -0.05322140082716942,
      0.05830394849181175,
      -0.004222135990858078,
      0.052176158875226974,
      0.09448552131652832,
      -0.02689221315085888,
      -0.031035492196679115,
      -0.057757358998060226,
      -0.0546761117875576,
      -0.0752287209033966,
      0.040464963763952255,
      0.07818065583705902,
      -0.0405663326382637,
      0.026786616072058678,
      0.033848267048597336,
      0.017335308715701103,
      0.01370806060731411,
      0.10075058043003082,
      0.009306035935878754,
      -0.06284858286380768,
      0.04881294444203377,
      0.07192081212997437,
      -0.009155341424047947,
      0.0372135229408741,
      -0.004322640132158995,
      -0.06737916171550751,
      0.02096690610051155,
      -0.04513523355126381,
      -0.013756469823420048,
      0.09227493405342102,
      0.06824534386396408,
      -0.08699177950620651,
      -0.08977361023426056,
      0.015038312412798405,
      0.010816792026162148,
      -0.023710010573267937,
      0.08258113265037537,
      -0.039120178669691086,
      0.0313955657184124,
      0.013578001409769058,
      -0.08575733751058578,
      0.002959286095574498,
      0.05687449872493744,
      -0.06208861619234085,
      0.12241976708173752,
      0.022530511021614075,
      0.006547529716044664,
      -0.037876710295677185,
      -0.0185012836009264,
      -0.019516384229063988,
      -0.09062359482049942,
      0.00962790660560131,
      0.04018281400203705,
      -0.0020038927905261517,
      0.015596572309732437,
      0.031168973073363304,
      0.024053798988461494,
      -0.03689573332667351,
      0.019310975447297096,
      -0.048825640231370926,
      0.01715557463467121,
      0.015481674112379551,
      -0.062093302607536316,
      0.058375053107738495,
      0.08033252507448196,
      0.09299192577600479,
      0.02200554870069027,
      0.04324915632605553,
      -0.051275428384542465,
      0.06895420700311661,
      -0.05613379180431366,
      -0.011763320304453373,
      -0.046257782727479935,
      0.0542762391269207,
      -0.03357873857021332,
      0.056453242897987366,
      -0.045913636684417725,
      -0.0032325764186680317,
      0.0971016138792038,
      -0.028682393953204155,
      0.023284222930669785,
      0.09311493486166,
      0.014538135379552841,
      -0.006973037496209145,
      0.06819382309913635,
      -0.017972292378544807,
      0.013443098403513432,
      0.08910078555345535,
      0.11178087443113327,
      -0.08017632365226746,
      -0.06172999367117882,
      -0.043355781584978104
    ],
    [
      0.04233837127685547,
      -0.08262985199689865,
      -0.03779494762420654,
      0.04222846031188965,
      -0.0696982890367508,
      -0.004950429778546095,
      -0.06635813415050507,
      0.04063662886619568,
      -0.052405908703804016,
      0.08180523663759232,
      0.05122566223144531,
      0.024339918047189713,
      -0.10576818138360977,
      0.019759995862841606,
      -0.053010694682598114,
      -0.00409354455769062,
      -0.005265341140329838,
      0.044956717640161514,
      0.007537708152085543,
      0.04469650983810425,
      -0.06165585666894913,
      -0.03841602802276611,
      0.04579170048236847,
      0.08092416822910309,
      -0.04632195830345154,
      -0.017428521066904068,
      0.006774899084120989,
      -0.04402875155210495,
      -0.014174621552228928,
      -0.03369852527976036,
      0.015538197010755539,
      -0.050734132528305054,
      0.05451463162899017,
      -0.0677131712436676,
      -0.015570535324513912,
      0.08716680109500885,
      0.008472861722111702,
      0.08489228785037994,
      -0.05000011995434761,
      0.018540527671575546,
      -0.061389993876218796,
      -0.04087986797094345,
      -0.0992252454161644,
      -0.05243974179029465,
      0.03915302827954292,
      0.06303033977746964,
      0.07678800076246262,
      -0.025871610268950462,
      -0.06325998157262802,
      -0.05257429927587509,
      -0.05045471712946892,
      -0.03910532221198082,
      -0.0390985943377018,
      0.032533954828977585,
      0.05725826695561409,
      -0.04122567176818848,
      -0.08412753790616989,
      0.04850474372506142,
      0.015736710280179977,
      -0.022776031866669655,
      0.01266160886734724,
      0.07445766776800156,
      0.006869763135910034,
      0.0501285083591938,
      -0.058290157467126846,
      0.038052596151828766,
      0.02148362435400486,
      -0.07569511234760284,
      0.04047819972038269,
      -0.04126538336277008,
      0.055119194090366364,
      -0.055319856852293015,
      0.10614348948001862,
      -0.044829923659563065,
      0.004945206921547651,
      -0.020364750176668167,
      -0.09513702243566513,
      0.024647094309329987,
      0.10122384130954742,
      -0.013454210013151169,
      0.02873099036514759,
      0.07117287069559097,
      0.10548035055398941,
      -0.042116571217775345,
      -0.07256375253200531,
      0.06723897159099579,
      -0.02138923481106758,
      0.09649067372083664,
      0.022113285958766937,
      0.0628364235162735,
      0.017288070172071457,
      0.057340215891599655,
      0.06735958904027939,
      -0.06693699210882187,
      -0.0244391281157732,
      -0.031946830451488495,
      -0.018409494310617447,
      -0.05709850415587425,
      0.021222149953246117,
      -0.04157465696334839,
      -0.06620809435844421,
      0.0032770053949207067,
      0.0543103851377964,
      0.09763175994157791,
      0.0053540985099971294,
      0.05426132306456566,
      -0.02281324565410614,
      -0.018602468073368073,
      -0.04950233921408653,
      0.08270605653524399,
      0.04679879546165466,
      0.05491354316473007,
      0.06451888382434845,
      -0.01004132628440857,
      -0.03508573770523071,
      -0.01305038295686245,
      0.0689723938703537,
      0.02865608036518097,
      -0.005722887814044952,
      -0.0842958390712738,
      -0.02052878774702549,
      0.03404299169778824,
      -0.009167849086225033,
      -0.04287721961736679,
      0.05365259572863579,
      -0.04327153414487839,
      -0.06094388663768768,
      0.04301027953624725
    ],
    [
      0.06581584364175797,
      -0.03581668436527252,
      -0.16473878920078278,
      0.1173480823636055,
      -0.0023594279773533344,
      0.09281840175390244,
      0.05327171832323074,
      0.026354502886533737,
      -0.014466737397015095,
      -0.0024982946924865246,
      0.01312776654958725,
      -0.018754582852125168,
      0.024636369198560715,
      -0.016095515340566635,
      0.08250288665294647,
      0.10694431513547897,
      -0.051453910768032074,
      -0.10622845590114594,
      0.000902988133020699,
      -0.09619244188070297,
      -0.013926539570093155,
      0.01720043644309044,
      0.04351130872964859,
      -0.04981103539466858,
      0.07529480010271072,
      0.007584424689412117,
      -0.0039920383132994175,
      -0.013288222253322601,
      -0.04820357635617256,
      -0.10357767343521118,
      -0.11150647699832916,
      -0.014082064852118492,
      0.01739451102912426,
      0.015008821152150631,
      0.04138799384236336,
      -0.004828678444027901,
      0.06509776413440704,
      -0.03185327723622322,
      0.03687216714024544,
      0.0733897015452385,
      -0.03602144122123718,
      0.08689504116773605,
      0.017092332243919373,
      -0.05537877231836319,
      -0.01834549754858017,
      0.026472635567188263,
      -0.04340795800089836,
      -0.036724623292684555,
      0.04679964482784271,
      -0.04962030425667763,
      -0.029470760375261307,
      0.04174833744764328,
      -0.03524447977542877,
      0.06031098961830139,
      0.017971262335777283,
      0.017772817984223366,
      0.03802809491753578,
      -0.02278679423034191,
      -0.06879021227359772,
      -0.08543682098388672,
      -0.07884778082370758,
      -0.015608791261911392,
      -0.0233500674366951,
      0.05439165607094765,
      0.04673584923148155,
      -0.0472770594060421,
      -0.004081378225237131,
      0.02412744238972664,
      -0.017661048099398613,
      0.0073507134802639484,
      -0.0008138861740007997,
      0.06575880199670792,
      -0.039072971791028976,
      0.015416570007801056,
      -0.04945496469736099,
      0.087459035217762,
      0.04276226833462715,
      0.0818498358130455,
      -0.02412269450724125,
      -0.10576165467500687,
      0.0052785673178732395,
      -0.04957513138651848,
      0.043236758559942245,
      0.0800163745880127,
      -0.007492754142731428,
      -0.02186346985399723,
      -0.022966761142015457,
      -0.04222986102104187,
      -0.05926160886883736,
      -0.07993066310882568,
      -0.024509485810995102,
      -0.011991994455456734,
      -0.07113508135080338,
      -0.08510059863328934,
      -0.05188946798443794,
      -0.05524233356118202,
      0.10367405414581299,
      0.06374179571866989,
      0.04433055967092514,
      0.10435294359922409,
      0.05770733207464218,
      -0.15355871617794037,
      -0.02035735361278057,
      0.0422041080892086,
      0.01231114100664854,
      0.05870457738637924,
      0.10553725063800812,
      -0.0037727179005742073,
      0.054266419261693954,
      -0.07088576257228851,
      0.04143429920077324,
      0.1483508199453354,
      0.07427939027547836,
      -0.12052111327648163,
      0.004179051611572504,
      0.021954532712697983,
      0.05898232385516167,
      0.07801114022731781,
      0.06514770537614822,
      -0.07322455942630768,
      0.012688681483268738,
      -0.03074309416115284,
      0.01778315380215645,
      -0.028435492888092995,
      -0.07360092550516129,
      0.1195395365357399,
      -0.05019424855709076,
      0.11701827496290207
    ],
    [
      -0.01879062131047249,
      -0.03733265399932861,
      -0.04355949908494949,
      0.08544937521219254,
      0.03768189996480942,
      0.0028754768427461386,
      0.028822598978877068,
      -0.05729573965072632,
      0.06042046472430229,
      0.002068569650873542,
      0.01996220462024212,
      0.07360751181840897,
      -0.06519024074077606,
      0.026251403614878654,
      -0.06832590699195862,
      0.019632423296570778,
      0.07484500855207443,
      -0.06499703973531723,
      -0.06112081930041313,
      0.0007801979081705213,
      -0.024173740297555923,
      0.0694907084107399,
      -0.06753270328044891,
      0.04334428906440735,
      0.0496358759701252,
      0.06166649982333183,
      0.000734639645088464,
      -0.0506882444024086,
      0.05314868316054344,
      0.0033404408022761345,
      -0.08027651160955429,
      -0.0847315564751625,
      0.07171160727739334,
      0.07790333777666092,
      0.03370823338627815,
      0.028705250471830368,
      0.0542915053665638,
      0.08096586167812347,
      -0.026995301246643066,
      0.05303916707634926,
      -0.001707567716948688,
      -0.034348014742136,
      -0.034789834171533585,
      0.01257759053260088,
      0.10311206430196762,
      0.01569858007133007,
      -0.06178128719329834,
      0.08273124694824219,
      0.01487447414547205,
      0.04670385271310806,
      0.019423600286245346,
      -0.012172004207968712,
      0.06461472064256668,
      0.0947977676987648,
      0.025383731350302696,
      -0.10231836885213852,
      -0.06625287234783173,
      -0.047480568289756775,
      0.08219826966524124,
      -0.09931894391775131,
      -0.05160275101661682,
      -0.0399249903857708,
      -0.07406972348690033,
      -0.010908250696957111,
      0.07752473652362823,
      0.0018976202700287104,
      -0.04270947724580765,
      0.045329879969358444,
      -0.01032200176268816,
      -0.0026746997609734535,
      0.08293813467025757,
      -0.036407146602869034,
      -0.059174902737140656,
      -0.018054155632853508,
      0.04190835729241371,
      0.0007500268984586,
      -0.008194202557206154,
      -0.005982131231576204,
      -0.013485773466527462,
      0.008465499617159367,
      0.09839702397584915,
      -0.040178000926971436,
      -0.001991633092984557,
      0.009446070529520512,
      -0.0720919519662857,
      0.008430066518485546,
      -0.09743021428585052,
      0.07006678730249405,
      -0.06178777664899826,
      0.030537350103259087,
      -0.00573962926864624,
      -0.013286822475492954,
      0.05113017186522484,
      -0.005277062766253948,
      0.04279787838459015,
      0.05171983689069748,
      -0.024851294234395027,
      -0.009605778381228447,
      -0.04724518954753876,
      -0.0544712096452713,
      -0.030275003984570503,
      -0.03181760013103485,
      0.028662098571658134,
      0.013129089958965778,
      -0.04992007836699486,
      0.0054328772239387035,
      -0.007118317764252424,
      0.053203754127025604,
      -0.04058021306991577,
      0.10070662200450897,
      -0.07906889915466309,
      0.057342469692230225,
      -0.06327016651630402,
      -0.057269662618637085,
      -0.04380092769861221,
      -0.03499075770378113,
      0.05617653205990791,
      0.07209595292806625,
      0.0191129632294178,
      -0.08646395802497864,
      0.03604114428162575,
      -0.09111485630273819,
      0.03384007513523102,
      -0.023029465228319168,
      -0.06962624192237854,
      0.08240361511707306,
      0.06993968784809113,
      0.01695101521909237
    ],
    [
      0.02564440481364727,
      0.06667705625295639,
      0.010916035622358322,
      0.0017186525510624051,
      -0.08803127706050873,
      -0.020704442635178566,
      0.059803906828165054,
      0.062009576708078384,
      -0.02510317601263523,
      -0.05485998094081879,
      0.02042963169515133,
      0.012870409525930882,
      0.002500528935343027,
      0.0005427292780950665,
      0.0386948399245739,
      0.06295128911733627,
      -0.006970958784222603,
      0.03934634476900101,
      -0.029214248061180115,
      -0.011004654690623283,
      0.0630684643983841,
      -0.023739557713270187,
      -0.033763714134693146,
      0.009719223715364933,
      -0.038355451077222824,
      -0.053494442254304886,
      0.018802009522914886,
      -0.07475251704454422,
      0.05210380628705025,
      0.06257881969213486,
      -0.058697767555713654,
      -0.08658860623836517,
      -0.004422903060913086,
      0.05218466371297836,
      0.07958895713090897,
      0.05693402141332626,
      0.054860375821590424,
      -0.04650183394551277,
      0.03896547108888626,
      0.08170142024755478,
      -0.028086861595511436,
      0.05881572514772415,
      0.0732511505484581,
      0.0924965962767601,
      -0.0031468619126826525,
      0.00848211906850338,
      -0.03259456157684326,
      -0.08907831460237503,
      0.07357930392026901,
      -0.06585406512022018,
      -0.039221517741680145,
      -0.02444208227097988,
      0.016340743750333786,
      -0.027058398351073265,
      -0.07945427298545837,
      0.0487566776573658,
      -0.02298746630549431,
      0.05931035429239273,
      0.016644906252622604,
      -0.09642256051301956,
      0.0448821596801281,
      0.0462624654173851,
      -0.053926561027765274,
      -0.0886545330286026,
      -0.07451898604631424,
      0.05647880956530571,
      0.013228579424321651,
      0.04410785809159279,
      -0.029104329645633698,
      -0.019462458789348602,
      0.04845413193106651,
      -0.044286686927080154,
      0.010678649879992008,
      0.007494850549846888,
      -0.039955418556928635,
      -0.00702437199652195,
      -0.02157520316541195,
      0.07382748275995255,
      -0.06385474652051926,
      -0.07307315617799759,
      -0.01638246327638626,
      0.06744161993265152,
      0.018628181889653206,
      -0.010191109031438828,
      -0.06737149506807327,
      0.011435412801802158,
      -0.06348955631256104,
      0.03223227337002754,
      0.04712958633899689,
      -9.725746349431574e-05,
      -0.05613241717219353,
      0.06452324241399765,
      -0.058708563446998596,
      -0.05979025736451149,
      -0.06622881442308426,
      0.05909905582666397,
      -0.011821668595075607,
      -0.09561759978532791,
      0.02814871072769165,
      -0.05750439316034317,
      0.022274713963270187,
      0.05907630920410156,
      0.03572326526045799,
      0.008430490270256996,
      -0.07786403596401215,
      0.05055547505617142,
      -0.04685085266828537,
      0.022273709997534752,
      0.09629590064287186,
      -0.0757705345749855,
      -0.006049244198948145,
      0.0696687325835228,
      0.09278666228055954,
      -0.0373496375977993,
      -0.03583897650241852,
      0.0943707674741745,
      -0.07049918919801712,
      -0.0082183126360178,
      0.051955778151750565,
      -0.07010770589113235,
      0.02101266197860241,
      -0.0711815133690834,
      -0.025186896324157715,
      0.06642410904169083,
      0.03529291972517967,
      -0.04843251779675484,
      0.06998899579048157,
      -0.012097691185772419
    ],
    [
      -0.05385862663388252,
      -0.030574725940823555,
      -0.03261468559503555,
      -0.06551093608140945,
      -0.004105155356228352,
      0.11720318347215652,
      0.011657366529107094,
      -0.04025512561202049,
      -0.042114391922950745,
      0.007942094467580318,
      0.07148437201976776,
      -0.09360402822494507,
      0.030285513028502464,
      -0.05617727339267731,
      -0.042446136474609375,
      0.07777125388383865,
      0.015568477101624012,
      -0.020761379972100258,
      -0.025468505918979645,
      -0.038147151470184326,
      -0.07743491977453232,
      0.06188585236668587,
      0.06259716302156448,
      0.07417650520801544,
      -0.022059626877307892,
      -0.04817727208137512,
      0.035008613020181656,
      0.038500625640153885,
      0.06770369410514832,
      -0.08387448638677597,
      -0.024683844298124313,
      -0.033680737018585205,
      -0.03198743984103203,
      0.07974226027727127,
      -0.008980649523437023,
      0.044659461826086044,
      -0.02675338089466095,
      0.0023215613327920437,
      0.02008887380361557,
      -0.09380973130464554,
      0.08187681436538696,
      0.05530153587460518,
      -0.02610914222896099,
      -0.0015152825508266687,
      0.01158242765814066,
      -0.032588258385658264,
      0.012212550267577171,
      -0.05867527425289154,
      -0.03343387320637703,
      -0.05988871306180954,
      -0.000660289078950882,
      0.10442765802145004,
      -0.07184506952762604,
      -0.028814785182476044,
      0.06080671772360802,
      0.029313763603568077,
      -0.044142741709947586,
      0.024730777367949486,
      0.04633030295372009,
      -0.05544519051909447,
      0.03622870892286301,
      -0.04308377578854561,
      0.06712568551301956,
      0.08477640897035599,
      -0.01909755915403366,
      0.027979815378785133,
      -0.12246925383806229,
      -0.046865787357091904,
      0.033800460398197174,
      -0.06490941345691681,
      -0.01859370619058609,
      -0.05941038206219673,
      -0.020298127084970474,
      -0.04278741031885147,
      -0.0627862885594368,
      0.04106336832046509,
      -0.06235146149992943,
      0.02037869766354561,
      -0.03177068009972572,
      0.07834096252918243,
      -0.00862626451998949,
      0.04351727291941643,
      -0.045132964849472046,
      -0.05134500190615654,
      0.04267074167728424,
      -0.010225621983408928,
      -0.01931764930486679,
      0.010957428254187107,
      0.04953218623995781,
      -0.016730131581425667,
      0.03442799672484398,
      -0.013875659555196762,
      0.07524652779102325,
      -0.05624188482761383,
      -0.0328863263130188,
      0.005846366286277771,
      0.03738607466220856,
      -0.07032649964094162,
      0.013340695761144161,
      0.05440520495176315,
      0.1359773576259613,
      0.03339740261435509,
      0.037828478962183,
      0.10233630985021591,
      0.0349385105073452,
      -0.05720153823494911,
      0.07254545390605927,
      0.07582804560661316,
      0.09523848444223404,
      -0.04587392136454582,
      0.10223402827978134,
      0.09434797614812851,
      0.019242096692323685,
      0.06397522240877151,
      0.06765788793563843,
      0.041604336351156235,
      0.10302698612213135,
      0.014874760061502457,
      0.08774954825639725,
      -0.02381720207631588,
      0.03460504114627838,
      0.04531918838620186,
      -0.04126884788274765,
      -0.019071752205491066,
      -0.011067016050219536,
      -0.07104356586933136,
      -0.03364282101392746,
      0.006323668174445629
    ],
    [
      0.05627351254224777,
      0.026725754141807556,
      0.06387180089950562,
      0.028239116072654724,
      0.044249098747968674,
      -0.017603306099772453,
      -0.07061757147312164,
      -0.010920734144747257,
      0.07966207712888718,
      -0.037874482572078705,
      -0.059256721287965775,
      0.06458157300949097,
      -0.10501639544963837,
      -0.08258209377527237,
      -0.009380223229527473,
      -0.05479607731103897,
      0.04388995096087456,
      0.0744083821773529,
      0.05193089321255684,
      0.011403998360037804,
      0.07909006625413895,
      0.05374883487820625,
      -0.075260691344738,
      0.037830982357263565,
      -0.049445901066064835,
      0.03867319971323013,
      0.009803996421396732,
      0.01947915367782116,
      0.11308301240205765,
      -0.0524112693965435,
      -0.03263873606920242,
      -0.1147533431649208,
      0.033327531069517136,
      -0.054816290736198425,
      -0.07826175540685654,
      0.05050492286682129,
      0.03103007562458515,
      0.05697133392095566,
      0.05795374512672424,
      0.042730823159217834,
      -0.05912473425269127,
      0.05398863926529884,
      0.00025855665444396436,
      0.02513272687792778,
      -0.0009671960142441094,
      -0.054256144911050797,
      -0.06327493488788605,
      0.05428893491625786,
      -0.05502951890230179,
      0.1258254498243332,
      -0.0020336315501481295,
      0.06273350864648819,
      -0.023730870336294174,
      0.029834158718585968,
      0.1136249378323555,
      0.03847164660692215,
      -0.027256233617663383,
      0.01240999810397625,
      -0.07831349223852158,
      -0.025223735719919205,
      0.08462569117546082,
      -0.06192324683070183,
      -0.007085106335580349,
      0.06294970214366913,
      -0.03016470931470394,
      -0.006790454033762217,
      0.05876091867685318,
      -0.004387969151139259,
      0.008718595840036869,
      0.024698343127965927,
      0.10404694825410843,
      0.005818246863782406,
      -0.026598647236824036,
      0.03584558144211769,
      0.05592166259884834,
      -0.05158752575516701,
      0.018350541591644287,
      -0.06092006713151932,
      0.024072472006082535,
      -0.03066888265311718,
      0.01215563528239727,
      0.06599418073892593,
      0.010676518082618713,
      0.04879187420010567,
      0.06851834803819656,
      -0.04687301442027092,
      -0.045829031616449356,
      0.1010001003742218,
      0.030493896454572678,
      -0.025537151843309402,
      0.05384274944663048,
      -0.035978734493255615,
      -0.030330752953886986,
      0.02375185489654541,
      -0.03945259004831314,
      -0.07544536888599396,
      0.07825452834367752,
      0.06258232891559601,
      -0.007158917840570211,
      -0.06888037174940109,
      0.07817856967449188,
      0.11520212888717651,
      0.09042654186487198,
      -0.10335029661655426,
      0.07701970636844635,
      -0.09096343070268631,
      -0.05012335628271103,
      0.03365836665034294,
      0.0026613171212375164,
      -0.09097503125667572,
      0.0577210858464241,
      -0.09933511912822723,
      -0.07251492887735367,
      -0.006157779600471258,
      0.016645746305584908,
      0.013743201270699501,
      0.06716606765985489,
      0.09804797917604446,
      -0.01564737781882286,
      0.029668273404240608,
      -0.045209839940071106,
      -0.03890698030591011,
      -0.06862739473581314,
      0.04880322888493538,
      -0.08836410939693451,
      0.07634324580430984,
      -0.0299855824559927,
      -0.0045113577507436275
    ],
    [
      -0.012945160269737244,
      -0.00853162631392479,
      -0.027203280478715897,
      -0.01484361570328474,
      -0.06420363485813141,
      0.11968187242746353,
      -0.016075078397989273,
      0.04008706659078598,
      0.08146817982196808,
      0.08888531476259232,
      -0.06485117226839066,
      -0.09417770057916641,
      0.06345334649085999,
      0.09961418807506561,
      0.06418293714523315,
      -0.08652419596910477,
      0.0014313479186967015,
      0.024533487856388092,
      -0.06377414613962173,
      0.07447054237127304,
      0.03990330547094345,
      0.006610002834349871,
      0.10774410516023636,
      0.03173048421740532,
      -0.055045656859874725,
      -0.0778455063700676,
      0.038681402802467346,
      -0.052014995366334915,
      0.09483939409255981,
      0.10168212652206421,
      0.045968230813741684,
      0.005165795795619488,
      -0.08413215726613998,
      -0.06662548333406448,
      -0.04180147498846054,
      0.04746227338910103,
      0.09886665642261505,
      0.03544022887945175,
      0.05404042825102806,
      0.07624576985836029,
      0.008223718032240868,
      -0.015798723325133324,
      -0.03034280426800251,
      -0.05658595263957977,
      0.08271609991788864,
      0.06245149299502373,
      0.0010223510907962918,
      -0.030866924673318863,
      0.074684277176857,
      0.035928551107645035,
      0.10417363047599792,
      -0.041624877601861954,
      0.008670161478221416,
      0.03186025470495224,
      -0.041651401668787,
      0.03025859408080578,
      0.09108735620975494,
      -0.013068812899291515,
      -0.02509252168238163,
      0.013948679901659489,
      0.07119984179735184,
      0.04764427989721298,
      0.05202258378267288,
      -0.07245949655771255,
      0.00012600196350831538,
      0.000388783635571599,
      -0.04864073917269707,
      0.06692059338092804,
      0.06544852256774902,
      -0.040119823068380356,
      0.021600391715765,
      0.06592611968517303,
      0.062269844114780426,
      -0.0341544970870018,
      -0.08813414722681046,
      0.008115039207041264,
      -0.032026585191488266,
      0.005962131544947624,
      -0.007797891739755869,
      -0.001990796299651265,
      -0.004667579662054777,
      -0.04675545170903206,
      0.06539084017276764,
      -0.015908852219581604,
      0.022608131170272827,
      0.05974458158016205,
      0.0034648932050913572,
      0.07256264239549637,
      0.07581166177988052,
      0.0004914856399409473,
      0.010061909444630146,
      0.020146207883954048,
      0.05905737727880478,
      0.05663067847490311,
      -0.028926348313689232,
      0.060441773384809494,
      0.032288674265146255,
      -0.06090788543224335,
      0.0423276424407959,
      0.024377966299653053,
      -0.04903220757842064,
      -0.09690498560667038,
      -0.0801234096288681,
      0.0597953237593174,
      0.05716107413172722,
      -0.09037158638238907,
      -0.0330672487616539,
      -0.02490871213376522,
      0.03748193755745888,
      0.037122681736946106,
      -0.031890250742435455,
      -0.055156733840703964,
      0.11106298118829727,
      0.029834654182195663,
      0.0012131494004279375,
      0.08418387919664383,
      -0.034155506640672684,
      -0.008889585733413696,
      -0.053592145442962646,
      0.04727546125650406,
      -0.07070878893136978,
      -0.005053328815847635,
      0.08723664283752441,
      -0.04679885134100914,
      -0.019044527783989906,
      -0.03959665447473526,
      -0.05727086961269379,
      0.025434646755456924
    ],
    [
      0.03241334483027458,
      -0.07919321954250336,
      -0.01617482677102089,
      0.027984196320176125,
      0.09709179401397705,
      0.010190868750214577,
      0.06257307529449463,
      0.04598125442862511,
      0.00894585344940424,
      -0.060737501829862595,
      0.030641337856650352,
      -0.016732050105929375,
      -0.06669634580612183,
      0.11219758540391922,
      0.009601232595741749,
      -0.03531356528401375,
      -0.04331952705979347,
      -0.058641232550144196,
      0.030975045636296272,
      -0.03031100519001484,
      0.049315255135297775,
      -0.060293059796094894,
      -0.026018546894192696,
      0.041544556617736816,
      -0.010653547011315823,
      0.056818120181560516,
      -0.04491126537322998,
      -0.1026693731546402,
      0.0196527149528265,
      0.04310202598571777,
      0.06864569336175919,
      0.047748614102602005,
      0.03409041464328766,
      0.048092134296894073,
      -0.06320256739854813,
      -0.14369255304336548,
      0.09864471852779388,
      0.07742338627576828,
      -0.029283901676535606,
      -0.060775455087423325,
      0.0073724668473005295,
      -0.08590696007013321,
      0.035573963075876236,
      -0.013034839183092117,
      0.10084936022758484,
      -2.9493472538888454e-05,
      0.12097465991973877,
      -0.06610380858182907,
      -0.017885176464915276,
      -0.1447623372077942,
      0.016707656905055046,
      0.03520841896533966,
      0.05645325034856796,
      -0.020556854084134102,
      -0.053546708077192307,
      0.05624595284461975,
      0.0033214471768587828,
      0.09498216211795807,
      0.1182292178273201,
      -0.0801917091012001,
      0.048219166696071625,
      -0.05273331701755524,
      0.0533217154443264,
      -0.05695148557424545,
      0.14409221708774567,
      0.08047622442245483,
      -0.09888709336519241,
      0.019635360687971115,
      -0.09242767840623856,
      -0.02639666199684143,
      0.08840465545654297,
      0.06707727909088135,
      0.030640792101621628,
      0.030892962589859962,
      0.007940731942653656,
      0.062013059854507446,
      -0.08020778745412827,
      0.06655183434486389,
      0.05626402050256729,
      0.051180943846702576,
      -0.033318545669317245,
      0.0573933981359005,
      0.07403941452503204,
      0.02824660949409008,
      -0.07207253575325012,
      0.0448816679418087,
      -0.0396135151386261,
      0.014151310548186302,
      -0.05079041048884392,
      -0.08371221274137497,
      0.07715938240289688,
      -0.005648013669997454,
      0.003520572790876031,
      0.02582707442343235,
      0.04019594565033913,
      0.05327071249485016,
      -0.06458929926156998,
      -0.0017630415968596935,
      -0.013949289917945862,
      -0.03221999853849411,
      -0.00817940104752779,
      -0.09693602472543716,
      -0.09429144859313965,
      0.08498828113079071,
      0.1153174638748169,
      -0.052312202751636505,
      -0.019504232332110405,
      0.09736073017120361,
      0.03971674293279648,
      0.10901212692260742,
      0.05668359994888306,
      -0.0037990943528711796,
      0.017961891368031502,
      0.028315454721450806,
      0.11900854855775833,
      -0.010143924504518509,
      -0.01903851330280304,
      -0.02191058360040188,
      -0.015390978194773197,
      -0.08302035182714462,
      0.03394554927945137,
      -0.020488442853093147,
      0.0887550562620163,
      0.05289221927523613,
      0.059433817863464355,
      -0.004616286139935255,
      -0.031995225697755814,
      -0.09484689682722092
    ],
    [
      -0.0999726727604866,
      -0.06628145277500153,
      -0.15796849131584167,
      0.025889337062835693,
      -0.05301859602332115,
      -0.03494735434651375,
      0.0951019898056984,
      -0.03550020232796669,
      -0.05870337784290314,
      0.09442610293626785,
      -0.003294952679425478,
      -0.13237914443016052,
      -0.010121169500052929,
      0.0027761096134781837,
      0.05476462095975876,
      0.08329217880964279,
      -0.0674479603767395,
      -0.01769319549202919,
      0.06497571617364883,
      -0.07964026182889938,
      0.007891656830906868,
      -0.006004763767123222,
      0.02064337395131588,
      -0.07340434938669205,
      -0.04176207259297371,
      0.04300621896982193,
      0.08880200982093811,
      0.021622756496071815,
      -0.04182868078351021,
      -0.040401890873909,
      0.07302559912204742,
      0.09400252252817154,
      0.04437369480729103,
      0.006087654270231724,
      -0.024811232462525368,
      -0.14297614991664886,
      0.09839808195829391,
      -0.06767645478248596,
      -0.019416678696870804,
      0.05112679302692413,
      0.07017728686332703,
      -0.020473841577768326,
      0.02380736544728279,
      0.018936457112431526,
      0.07728327065706253,
      0.08645017445087433,
      0.06835609674453735,
      -0.0294945128262043,
      -0.013459841720759869,
      0.055197931826114655,
      0.02487022988498211,
      0.05019107833504677,
      -0.017318665981292725,
      -0.054056186228990555,
      0.06134547293186188,
      0.011535239405930042,
      0.011292311362922192,
      -0.0758630782365799,
      -0.02344653010368347,
      0.004150930792093277,
      -0.0078391432762146,
      0.1558263748884201,
      0.03529965505003929,
      0.07193631678819656,
      -0.005179258994758129,
      -0.08534328639507294,
      0.03029266744852066,
      0.015989068895578384,
      -0.006362203508615494,
      -0.04919090121984482,
      0.004390916787087917,
      0.115974061191082,
      0.04121029004454613,
      0.03625154495239258,
      -0.003121648682281375,
      0.06381881237030029,
      0.0088961748406291,
      0.0821785181760788,
      -0.018471067771315575,
      0.04283355176448822,
      -0.018978729844093323,
      -0.050606850534677505,
      -0.02538725547492504,
      0.06420481204986572,
      0.024901149794459343,
      0.0499703474342823,
      0.008456005714833736,
      0.0915248766541481,
      -0.06923289597034454,
      -0.004101114813238382,
      0.08796557039022446,
      -0.0637303963303566,
      -0.07043140381574631,
      0.036640431731939316,
      0.0404166541993618,
      -0.04628407955169678,
      -0.05032544955611229,
      0.03393307328224182,
      0.12901952862739563,
      0.05752476677298546,
      -0.0626014769077301,
      -0.018940214067697525,
      -0.08465215563774109,
      0.013447873294353485,
      -0.1340693235397339,
      0.04268898442387581,
      -0.0841798484325409,
      0.025687137618660927,
      0.06963428109884262,
      0.018778648227453232,
      -0.013270887546241283,
      0.01191994734108448,
      0.012879820540547371,
      0.046195466071367264,
      0.017236243933439255,
      0.0318271704018116,
      0.07839455455541611,
      0.03246845677495003,
      0.027173180133104324,
      0.015265271998941898,
      -0.04826851934194565,
      0.05876705422997475,
      -0.02688543125987053,
      -0.02851071208715439,
      -0.051339875906705856,
      0.047748979181051254,
      -0.05683208256959915,
      0.07316306233406067
    ],
    [
      8.849609002936631e-05,
      -0.04308869317173958,
      -0.13840344548225403,
      0.06044798716902733,
      -0.1153881624341011,
      0.028882134705781937,
      0.030600832775235176,
      -0.05715661495923996,
