{
  "network.0.weight": [
    [
      -4.534978866577148,
      0.07744322717189789,
      0.04095118120312691,
      -0.029181065037846565,
      0.050776854157447815,
      0.1493590921163559,
      0.10771208256483078,
      0.005124869756400585,
      0.02092127315700054,
      0.4187716245651245,
      0.07597346603870392
    ],
    [
      1.2821388244628906,
      -1.3698426485061646,
      0.3350289463996887,
      -0.14902332425117493,
      -0.6394890546798706,
      -0.24627642333507538,
      -0.08090350776910782,
      -0.03695536404848099,
      0.1746290624141693,
      0.16641058027744293,
      -0.03841429948806763
    ],
    [
      0.2157759666442871,
      -0.23450806736946106,
      -0.05080100893974304,
      -0.06839132308959961,
      -0.17586082220077515,
      -0.04363381862640381,
      0.16199001669883728,
      0.021547257900238037,
      -0.250573992729187,
      -0.11482951045036316,
      0.2008575201034546
    ],
    [
      0.8300844430923462,
      -0.6991933584213257,
      0.049429889768362045,
      -0.9299191236495972,
      0.33522921800613403,
      -0.9300054907798767,
      -0.013553909957408905,
      -0.5678638219833374,
      0.10214020311832428,
      0.489920049905777,
      -0.38636839389801025
    ],
    [
      0.0036540627479553223,
      -0.2711532711982727,
      -0.23713648319244385,
      -0.15064497292041779,
      0.2052209973335266,
      0.06452271342277527,
      -0.027412831783294678,
      -0.21523204445838928,
      -0.14585833251476288,
      -0.04292649030685425,
      -0.15134970843791962
    ],
    [
      -1.3486192226409912,
      -0.426214337348938,
      -1.2572225332260132,
      -0.012811553664505482,
      0.16680364310741425,
      -0.09800419211387634,
      -0.03015705570578575,
      -1.1201972961425781,
      -0.06173228472471237,
      0.15342561900615692,
      -0.012091105803847313
    ],
    [
      -1.0054370164871216,
      -0.017763495445251465,
      0.23766176402568817,
      0.016421590000391006,
      -0.12972195446491241,
      0.05473325774073601,
      0.013450801372528076,
      -0.3321581482887268,
      0.0847274661064148,
      0.0877930149435997,
      -0.003789055859670043
    ],
    [
      0.18074709177017212,
      -0.013553857803344727,
      -0.27212008833885193,
      0.2114405781030655,
      -0.14611123502254486,
      -0.14426207542419434,
      -0.022229790687561035,
      -0.1712043285369873,
      0.07707411795854568,
      -0.24751384556293488,
      -0.20889009535312653
    ],
    [
      -1.2273354530334473,
      -0.2237103283405304,
      -0.12907370924949646,
      -0.5385625958442688,
      0.11824393272399902,
      0.30317696928977966,
      -0.18215695023536682,
      -0.08179488033056259,
      0.17203177511692047,
      0.3575623631477356,
      0.05360272526741028
    ],
    [
      1.5424134731292725,
      -0.39011746644973755,
      -0.7542831301689148,
      -1.7982902526855469,
      0.0733652412891388,
      0.047531843185424805,
      0.05818257853388786,
      -0.25905635952949524,
      0.28538820147514343,
      0.36619651317596436,
      0.1295469105243683
    ],
    [
      -0.5662201642990112,
      0.7701632380485535,
      -0.5804045796394348,
      0.16320684552192688,
      -0.08183039724826813,
      -0.8623896837234497,
      0.004422415513545275,
      -0.19414974749088287,
      0.17015548050403595,
      0.042907871305942535,
      0.01980220526456833
    ],
    [
      -1.4956916570663452,
      0.19534911215305328,
      -0.4005261957645416,
      0.21995680034160614,
      0.7599673867225647,
      -0.6226431131362915,
      0.3155059814453125,
      -0.046863481402397156,
      0.07359662652015686,
      -0.0755339041352272,
      0.06239671632647514
    ],
    [
      -0.4955095946788788,
      -0.23773597180843353,
      -0.2906515896320343,
      -0.3409873843193054,
      -0.14596432447433472,
      0.012865069322288036,
      0.013292772695422173,
      -0.14430145919322968,
      0.13533419370651245,
      -0.22519394755363464,
      -0.2456684410572052
    ],
    [
      -3.263702630996704,
      -0.49467867612838745,
      0.7037915587425232,
      0.019228873774409294,
      -0.012885993346571922,
      -0.04039900377392769,
      -0.014343984425067902,
      0.046098414808511734,
      -0.1482636034488678,
      -0.017491096630692482,
      0.0002476331719662994
    ],
    [
      -0.49252957105636597,
      -0.08532017469406128,
      -0.5229049921035767,
      0.7945836782455444,
      0.16871747374534607,
      0.01826546899974346,
      -0.010220172815024853,
      -0.2298855036497116,
      0.38132596015930176,
      -0.034804049879312515,
      0.026606934145092964
    ],
    [
      0.2353888601064682,
      -0.5199791789054871,
      -1.4518673419952393,
      -0.024513322860002518,
      -0.4132804870605469,
      -0.1588824987411499,
      0.3401075303554535,
      -0.6329604983329773,
      0.38363248109817505,
      -0.23985396325588226,
      0.019482070580124855
    ],
    [
      -0.264350950717926,
      -0.6930816173553467,
      -1.2357964515686035,
      0.019418537616729736,
      -0.6625882983207703,
      0.10269414633512497,
      0.39451220631599426,
      -1.2047072649002075,
      -0.09977517277002335,
      0.19991134107112885,
      0.13978517055511475
    ],
    [
      2.2860875129699707,
      0.05473761260509491,
      -0.15968427062034607,
      -1.8747460842132568,
      0.0002977336407639086,
      0.1837342530488968,
      -0.04581935331225395,
      0.06866060197353363,
      0.305461585521698,
      -0.00558406300842762,
      0.06066638231277466
    ],
    [
      0.38942161202430725,
      0.028053075075149536,
      -1.7065790891647339,
      -0.004012759309262037,
      -0.16854636371135712,
      -0.21425047516822815,
      -0.798417866230011,
      -0.5416127443313599,
      0.42343753576278687,
      -0.07732393592596054,
      0.06129651144146919
    ],
    [
      0.13222956657409668,
      0.1558535397052765,
      -0.2914142310619354,
      -0.13947074115276337,
      -0.11299717426300049,
      0.17814567685127258,
      -0.2001834213733673,
      -0.24292168021202087,
      -0.12649759650230408,
      -0.14241158962249756,
      -0.13001076877117157
    ],
    [
      3.1032721996307373,
      -0.053019847720861435,
      -0.15994048118591309,
      -0.14134038984775543,
      0.01588357798755169,
      -0.48909634351730347,
      0.19402198493480682,
      0.05387537553906441,
      0.22974459826946259,
      -0.21228624880313873,
      -0.012627223506569862
    ],
    [
      0.4312247633934021,
      0.02101868949830532,
      -0.13093878328800201,
      -0.07495681196451187,
      -1.4257049560546875,
      0.3173019587993622,
      -0.1873621940612793,
      0.2788567841053009,
      -0.006183831952512264,
      -0.6524838209152222,
      0.2284286916255951
    ],
    [
      -0.2618245780467987,
      -0.006615845486521721,
      0.10267091542482376,
      0.17451411485671997,
      0.0907289907336235,
      -0.052009467035532,
      0.1524095982313156,
      -0.10286741703748703,
      -0.33740946650505066,
      0.16497957706451416,
      -0.2305433750152588
    ],
    [
      1.8280664682388306,
      -0.15977518260478973,
      0.6777027249336243,
      -0.23097941279411316,
      0.23881188035011292,
      0.17727075517177582,
      -0.09607524424791336,
      0.16264966130256653,
      -0.23089037835597992,
      -0.06820891052484512,
      -0.0742451623082161
    ],
    [
      -0.11680961400270462,
      0.23443490266799927,
      0.0082235811278224,
      -2.1019623279571533,
      0.02624445967376232,
      0.26512598991394043,
      0.11466863751411438,
      0.2547796964645386,
      0.144964337348938,
      0.096642404794693,
      -0.12116425484418869
    ],
    [
      -2.198972225189209,
      -0.10111197829246521,
      0.09088251739740372,
      0.018283167853951454,
      0.21937735378742218,
      -0.28441354632377625,
      -0.07232357561588287,
      -0.13045451045036316,
      0.3316899538040161,
      -0.4781341254711151,
      -0.0171167254447937
    ],
    [
      2.5074546337127686,
      -0.3885142207145691,
      -0.0491153858602047,
      -1.1406325101852417,
      -0.042430002242326736,
      0.29723018407821655,
      0.21359394490718842,
      -0.1959780752658844,
      0.07347618788480759,
      0.3165367841720581,
      -0.027518317103385925
    ],
    [
      1.6083192825317383,
      -0.9631405472755432,
      0.49061593413352966,
      -0.24050134420394897,
      -0.07568380236625671,
      0.02155536599457264,
      0.04387678951025009,
      -0.3869280517101288,
      0.3090859055519104,
      0.08606255799531937,
      -0.04227933660149574
    ],
    [
      -0.2491661012172699,
      0.02486855909228325,
      -0.2760167121887207,
      -0.17107978463172913,
      -0.14635221660137177,
      0.14227807521820068,
      0.048626985400915146,
      0.23330041766166687,
      0.024178707972168922,
      -0.1985497772693634,
      -0.0037527205422520638
    ],
    [
      0.0034306736197322607,
      -0.1656416803598404,
      0.0031769482884556055,
      -0.06886739283800125,
      -0.10798366367816925,
      -0.2577100992202759,
      -0.12003925442695618,
      0.2026650458574295,
      -0.10164826363325119,
      -0.08039986342191696,
      0.1577146202325821
    ],
    [
      -1.2347675561904907,
      0.33599358797073364,
      0.4471058249473572,
      0.4814276099205017,
      -0.06379281729459763,
      0.04403429105877876,
      -0.0199299193918705,
      -0.15176740288734436,
      -0.3150540590286255,
      0.2823236882686615,
      0.09563232958316803
    ],
    [
      -0.22263838350772858,
      -0.04963240027427673,
      -0.1825229823589325,
      0.023760557174682617,
      0.16616904735565186,
      -0.08704686164855957,
      -0.13496176898479462,
      0.13552603125572205,
      -0.2680533826351166,
      -0.25288358330726624,
      0.18435883522033691
    ],
    [
      -0.8044887185096741,
      -0.6310023665428162,
      -0.14153562486171722,
      0.4681997299194336,
      -0.33947229385375977,
      0.5162761211395264,
      0.09137929975986481,
      -0.33722254633903503,
      -0.10772679001092911,
      -0.7747479677200317,
      0.33317801356315613
    ],
    [
      -2.076754093170166,
      -0.25785836577415466,
      0.33683302998542786,
      -0.8403440117835999,
      -0.19223478436470032,
      -2.081541061401367,
      0.03333349898457527,
      0.31517136096954346,
      -0.16599120199680328,
      -0.009060566313564777,
      0.012343231588602066
    ],
    [
      -1.6124004125595093,
      0.19394825398921967,
      -0.2283255010843277,
      -0.05743026360869408,
      -0.13592679798603058,
      -0.568519115447998,
      0.10113896429538727,
      -0.14010396599769592,
      -0.11603766679763794,
      0.27433082461357117,
      0.2271728217601776
    ],
    [
      0.024092303588986397,
      -0.029539015144109726,
      -0.00549577921628952,
      -0.08197538554668427,
      0.14949114620685577,
      -0.16885308921337128,
      -0.2633548974990845,
      0.06450723111629486,
      -0.2465033382177353,
      0.03487766534090042,
      -0.026089727878570557
    ],
    [
      -1.037690281867981,
      0.7309758067131042,
      -0.10746578127145767,
      0.30607154965400696,
      0.048298586159944534,
      -0.85551917552948,
      -0.10148143768310547,
      0.2016061246395111,
      -0.3076215386390686,
      -0.2045869529247284,
      -0.0646900162100792
    ],
    [
      0.49269968271255493,
      -0.6754865050315857,
      0.4179617762565613,
      -1.0807939767837524,
      0.19049346446990967,
      -0.413754940032959,
      0.26234111189842224,
      -0.10272698104381561,
      0.13091377913951874,
      0.05391910672187805,
      0.23490791022777557
    ],
    [
      -2.1809353828430176,
      0.6141782402992249,
      -0.30767539143562317,
      -0.06436744332313538,
      -0.05531613156199455,
      0.02272161655128002,
      -0.016039112582802773,
      0.27654680609703064,
      -0.09113403409719467,
      0.08137582987546921,
      0.04301503300666809
    ],
    [
      0.21797770261764526,
      -0.06207779049873352,
      -0.009936928749084473,
      -0.2302025407552719,
      -0.2790776193141937,
      0.09703430533409119,
      -0.02007317543029785,
      0.19789522886276245,
      -0.26418885588645935,
      -0.22870281338691711,
      0.08653980493545532
    ],
    [
      -4.264567852020264,
      0.11108195036649704,
      -0.022156711667776108,
      0.09520740807056427,
      -0.06964413076639175,
      0.002730347216129303,
      -0.06560468673706055,
      -0.21430258452892303,
      0.3828831911087036,
      -0.11525310575962067,
      -0.0025554574094712734
    ],
    [
      -0.15433767437934875,
      0.18206436932086945,
      -0.24563546478748322,
      -0.2688041031360626,
      0.08162871748209,
      -0.19444260001182556,
      0.050276175141334534,
      -0.1691262125968933,
      -0.061978552490472794,
      -0.00029268674552440643,
      0.09489062428474426
    ],
    [
      -1.0967382192611694,
      -1.2323752641677856,
      -1.6855857372283936,
      -0.3155551850795746,
      0.08706282079219818,
      -0.05325743183493614,
      -0.2325221449136734,
      -1.575942873954773,
      -0.005193574819713831,
      0.31637048721313477,
      0.3603493273258209
    ],
    [
      1.7681572437286377,
      0.23351429402828217,
      -0.42089006304740906,
      -0.9052007794380188,
      -0.0054801879450678825,
      -0.30828651785850525,
      -0.33375340700149536,
      0.17891789972782135,
      -0.025855915620923042,
      0.35458457469940186,
      0.16836589574813843
    ],
    [
      0.0989871546626091,
      0.09927038103342056,
      -0.21876272559165955,
      -0.0975865051150322,
      0.11819492280483246,
      -0.17748115956783295,
      -0.04732794314622879,
      -0.31697699427604675,
      -0.2482442557811737,
      0.0800890326499939,
      0.2598600685596466
    ],
    [
      0.8594750761985779,
      -1.3008707761764526,
      0.20453378558158875,
      0.1573961228132248,
      0.3765346109867096,
      -0.15061770379543304,
      -0.49630871415138245,
      0.003914630506187677,
      -0.10748780518770218,
      -0.15733903646469116,
      0.3670464754104614
    ],
    [
      -0.16613242030143738,
      0.4423428177833557,
      -1.4205316305160522,
      -0.15065258741378784,
      0.7374791502952576,
      -0.24585695564746857,
      -0.19586049020290375,
      -0.272537499666214,
      0.350941926240921,
      -0.29339686036109924,
      -0.16481854021549225
    ],
    [
      -0.21233001351356506,
      -0.2589455842971802,
      -0.2299475222826004,
      -0.01386415958404541,
      -0.09108865261077881,
      -0.01567217707633972,
      0.19216349720954895,
      0.0011615753173828125,
      -0.03941795229911804,
      0.014955192804336548,
      -0.2967938482761383
    ],
    [
      0.297102689743042,
      0.26193711161613464,
      -0.06746455281972885,
      0.16081346571445465,
      -0.3000735342502594,
      0.16891993582248688,
      -0.1879366785287857,
      -0.07298078387975693,
      -0.24968121945858002,
      -0.17866621911525726,
      -0.2932976186275482
    ],
    [
      2.631542444229126,
      0.2116955667734146,
      0.10398301482200623,
      0.22798864543437958,
      0.09980341047048569,
      0.5661823153495789,
      -0.3048149645328522,
      -0.15825898945331573,
      0.1701052188873291,
      -0.3788030743598938,
      0.020344318822026253
    ],
    [
      -0.27271705865859985,
      0.07411029934883118,
      -0.025234028697013855,
      -0.2951302230358124,
      0.25249767303466797,
      0.08041822910308838,
      -0.008583096787333488,
      -0.188724085688591,
      -0.19566071033477783,
      0.2168484479188919,
      -0.2855106592178345
    ],
    [
      -1.1954063177108765,
      -0.06366217136383057,
      -0.1444837599992752,
      -0.052791528403759,
      0.1803945004940033,
      0.0719449445605278,
      0.3766993284225464,
      -0.2607472538948059,
      0.06020398437976837,
      0.46339598298072815,
      -0.13793472945690155
    ],
    [
      -0.2655281722545624,
      -0.0414959192276001,
      -0.10709216445684433,
      0.09507152438163757,
      0.21702535450458527,
      -0.2361774742603302,
      0.014899702742695808,
      -0.022223208099603653,
      0.1348777562379837,
      -0.20987850427627563,
      -0.13135233521461487
    ],
    [
      -2.9980828762054443,
      -0.13911451399326324,
      0.09560736268758774,
      -1.0056586265563965,
      0.018913360312581062,
      -1.0128666162490845,
      0.0006771458429284394,
      -0.12803302705287933,
      0.15296435356140137,
      0.26551365852355957,
      0.09093842655420303
    ],
    [
      1.0230019092559814,
      -1.5384101867675781,
      -0.20881018042564392,
      -1.026089072227478,
      0.3013684153556824,
      0.14902183413505554,
      0.3318607211112976,
      -0.5812532901763916,
      0.3888896703720093,
      -0.17419841885566711,
      0.025501448661088943
    ],
    [
      1.2913042306900024,
      -0.16760215163230896,
      0.1247248575091362,
      -0.4135473072528839,
      -0.24345526099205017,
      0.41422897577285767,
      0.28215956687927246,
      -0.18550199270248413,
      -0.17098712921142578,
      0.26843464374542236,
      0.3141310214996338
    ],
    [
      -1.0864390134811401,
      -0.32642462849617004,
      -0.043447092175483704,
      0.5949190855026245,
      0.1643567979335785,
      0.6582348346710205,
      0.01798359863460064,
      0.15258058905601501,
      -0.021016614511609077,
      -0.17579588294029236,
      -0.33651652932167053
    ],
    [
      -0.7203993201255798,
      0.21201995015144348,
      0.1984572410583496,
      0.22527867555618286,
      0.1050538569688797,
      -0.34906747937202454,
      -0.3961792588233948,
      0.2085479497909546,
      -0.06289812922477722,
      0.3177899718284607,
      0.074771948158741
    ],
    [
      -0.35472309589385986,
      0.5262439250946045,
      -0.3283649682998657,
      0.031100669875741005,
      -0.5509504675865173,
      -0.7103822827339172,
      0.18556945025920868,
      0.052519019693136215,
      -0.395049124956131,
      0.21391743421554565,
      -0.037777144461870193
    ],
    [
      -1.2991076707839966,
      -0.4821448028087616,
      -0.49345070123672485,
      0.16141045093536377,
      -0.009863024577498436,
      -0.09411978721618652,
      -0.11158401519060135,
      -0.5386289358139038,
      0.4351634681224823,
      0.2815188467502594,
      0.08248966187238693
    ],
    [
      4.298281669616699,
      0.13293170928955078,
      0.09627968817949295,
      0.15805450081825256,
      0.12876661121845245,
      0.0324300117790699,
      -0.024742430076003075,
      -0.36417800188064575,
      0.19518792629241943,
      0.07243409752845764,
      0.049077823758125305
    ],
    [
      0.1096157431602478,
      -0.06715454906225204,
      -0.44019123911857605,
      0.4929009974002838,
      -0.0335393100976944,
      0.0736839696764946,
      0.03764059767127037,
      0.17851220071315765,
      0.09055513143539429,
      -0.6819733381271362,
      -0.18340210616588593
    ],
    [
      -0.18214091658592224,
      -2.5310981273651123,
      0.18548975884914398,
      -0.2695123255252838,
      -0.016719015315175056,
      -0.30934280157089233,
      -0.02477898634970188,
      -0.7726502418518066,
      0.15382181107997894,
      0.2847535014152527,
      0.03775036334991455
    ],
    [
      0.07516971975564957,
      -0.170453280210495,
      0.12123100459575653,
      0.06359437108039856,
      0.057331833988428116,
      -0.028680112212896347,
      0.0394202396273613,
      -0.2819540798664093,
      -0.19941242039203644,
      -0.04537803679704666,
      -0.07285889238119125
    ],
    [
      1.2224972248077393,
      0.3765302896499634,
      -0.6032505035400391,
      -0.7820228338241577,
      -0.02812310867011547,
      -0.9411965012550354,
      0.36936190724372864,
      -0.27519142627716064,
      -0.08227252215147018,
      0.24342191219329834,
      0.13317641615867615
    ],
    [
      -1.0707378387451172,
      -0.3849121332168579,
      0.38058510422706604,
      0.41917622089385986,
      0.44892260432243347,
      -2.2593166828155518,
      -0.1550658643245697,
      -0.42150169610977173,
      0.23633690178394318,
      0.03663208335638046,
      -0.11359111219644547
    ],
    [
      -2.1705424785614014,
      -0.16361191868782043,
      0.47303611040115356,
      0.14211083948612213,
      0.0484711192548275,
      0.20521938800811768,
      0.19197916984558105,
      0.17841090261936188,
      -0.3407902717590332,
      -0.41888511180877686,
      -0.08422975987195969
    ],
    [
      0.7213056087493896,
      -0.7612156271934509,
      0.42174825072288513,
      0.4782177805900574,
      0.08100808411836624,
      0.03594614937901497,
      0.012572240084409714,
      -0.047995395958423615,
      -0.23297929763793945,
      0.10746222734451294,
      0.08297580480575562
    ],
    [
      2.0299229621887207,
      -0.30104923248291016,
      0.5674439072608948,
      -0.4389793276786804,
      0.06400752067565918,
      -0.08273463696241379,
      -0.22355914115905762,
      0.4595969021320343,
      0.025814572349190712,
      -0.5010275840759277,
      -0.05569004639983177
    ],
    [
      2.7696142196655273,
      -0.06893538683652878,
      0.11257494986057281,
      -0.4461747109889984,
      0.10982290655374527,
      -0.6508678197860718,
      -0.17793528735637665,
      -0.08093427866697311,
      0.0858825147151947,
      0.022882334887981415,
      0.2675102651119232
    ],
    [
      -3.2151129245758057,
      0.3395085036754608,
      -0.013285547494888306,
      0.036119356751441956,
      0.13250786066055298,
      -0.6547642946243286,
      -0.11872140318155289,
      -0.02803950384259224,
      -0.2128584086894989,
      0.09338811784982681,
      0.005551033653318882
    ],
    [
      0.3440912365913391,
      0.321882426738739,
      0.1858145296573639,
      -0.059621114283800125,
      3.5357021261006594e-05,
      0.20606683194637299,
      -0.21831852197647095,
      -0.19549359381198883,
      0.12976691126823425,
      -0.6379521489143372,
      -0.583308219909668
    ],
    [
      -0.018187856301665306,
      -0.1235639899969101,
      0.24376612901687622,
      0.0935135930776596,
      -0.1291133314371109,
      -0.15869483351707458,
      -0.21067999303340912,
      0.060482803732156754,
      -0.2885299324989319,
      -0.29664942622184753,
      -0.03476826101541519
    ],
    [
      -0.06048564612865448,
      -0.289914071559906,
      0.1918630599975586,
      -0.2642422318458557,
      -0.023098954930901527,
      0.04897435009479523,
      -0.024127990007400513,
      -0.3019156754016876,
      -0.14737507700920105,
      0.24652338027954102,
      -0.25595542788505554
    ],
    [
      0.32770010828971863,
      -0.18718621134757996,
      -0.0884053036570549,
      0.16950665414333344,
      0.33293986320495605,
      0.2930188775062561,
      0.4291829466819763,
      -0.37462493777275085,
      0.10143719613552094,
      -0.7394244074821472,
      -0.03954873979091644
    ],
    [
      -2.455815315246582,
      -0.25599411129951477,
      0.328892320394516,
      0.2557740807533264,
      -0.302927702665329,
      -1.0787602663040161,
      0.024363843724131584,
      -0.2456270009279251,
      0.14109282195568085,
      -0.22124409675598145,
      -0.045220304280519485
    ],
    [
      -0.34672021865844727,
      0.5821586847305298,
      0.5781704783439636,
      -1.5547460317611694,
      -0.004071632865816355,
      -0.02265344187617302,
      -0.01666702888906002,
      0.2920319736003876,
      -0.2826841473579407,
      -0.012799590826034546,
      -0.006583336740732193
    ],
    [
      -3.9430510997772217,
      -0.5064753293991089,
      0.47676509618759155,
      -0.04917485639452934,
      -0.02377833053469658,
      -0.3736916780471802,
      -0.023970726877450943,
      0.06152011826634407,
      0.04433140903711319,
      -0.017306387424468994,
      -0.025618668645620346
    ],
    [
      1.377873420715332,
      0.25475412607192993,
      0.6857748031616211,
      0.0014383603120222688,
      -0.03144632279872894,
      -0.27577075362205505,
      -0.028428535908460617,
      0.24843089282512665,
      -0.5450586676597595,
      0.06429605185985565,
      0.013522302731871605
    ],
    [
      -3.167229652404785,
      -0.39715543389320374,
      -0.09054592251777649,
      0.023301277309656143,
      0.03250836953520775,
      -0.36350375413894653,
      0.17998778820037842,
      -0.33409979939460754,
      0.22100843489170074,
      0.11334466934204102,
      0.05150327458977699
    ],
    [
      4.286042213439941,
      -0.3275890350341797,
      -0.07636765390634537,
      0.0975518524646759,
      -0.29225954413414,
      0.13893277943134308,
      -0.03366396203637123,
      0.23578792810440063,
      0.05020366981625557,
      -0.020441144704818726,
      -0.06814959645271301
    ],
    [
      -3.2549214363098145,
      0.4389413297176361,
      0.16787046194076538,
      0.14839746057987213,
      0.031247947365045547,
      0.050025440752506256,
      0.05382322892546654,
      0.3345114588737488,
      0.026976415887475014,
      -0.3350178599357605,
      -0.08329055458307266
    ],
    [
      0.42276400327682495,
      -0.6143417954444885,
      0.6668004393577576,
      0.42513909935951233,
      0.22769223153591156,
      0.13092435896396637,
      -0.06702220439910889,
      0.16479778289794922,
      -0.12579427659511566,
      -0.34535208344459534,
      -0.0798254981637001
    ],
    [
      1.1789963245391846,
      -0.03717604652047157,
      0.05326658859848976,
      -0.8489300608634949,
      -0.1355716735124588,
      0.03391110152006149,
      0.09959330409765244,
      -0.20625178515911102,
      0.3195621371269226,
      -0.32691043615341187,
      -0.04048893600702286
    ],
    [
      -2.1912896633148193,
      -0.08565885573625565,
      -0.4130057394504547,
      0.04882289469242096,
      -0.024003613740205765,
      -0.004866293631494045,
      0.20352695882320404,
      0.13951097428798676,
      0.3073296546936035,
      -0.29441118240356445,
      -0.2760523855686188
    ],
    [
      0.6183735132217407,
      -0.28297457098960876,
      0.4050421416759491,
      -0.18339917063713074,
      -0.781842052936554,
      -0.36610957980155945,
      -0.20135055482387543,
      0.050001874566078186,
      -0.13181520998477936,
      -0.21497520804405212,
      0.24051129817962646
    ],
    [
      0.2706543207168579,
      -2.9253342151641846,
      -0.6384069919586182,
      -0.03295702487230301,
      0.0292714424431324,
      0.18994885683059692,
      -0.012295766733586788,
      -1.4183008670806885,
      7.937576447147876e-05,
      -0.0936540812253952,
      -0.06603331118822098
    ],
    [
      -2.7107298374176025,
      0.18114514648914337,
      -0.1912723034620285,
      0.07587184756994247,
      -0.044360656291246414,
      0.16125242412090302,
      -0.21070736646652222,
      0.03547386825084686,
      -0.10016041994094849,
      0.6109450459480286,
      0.21609513461589813
    ],
    [
      0.1614341139793396,
      -0.296269029378891,
      -0.03809636831283569,
      0.09850180149078369,
      -0.1669025719165802,
      -0.18967610597610474,
      -0.17007504403591156,
      0.14453843235969543,
      -0.2779095470905304,
      -0.2798517346382141,
      -0.21456900238990784
    ],
    [
      -0.9066084623336792,
      -0.9187714457511902,
      -2.151106119155884,
      -0.1334458887577057,
      0.13444778323173523,
      -0.4783203899860382,
      0.08559055626392365,
      -1.288258671760559,
      0.30507174134254456,
      0.24951940774917603,
      0.015696007758378983
    ],
    [
      0.0674327164888382,
      -0.05760110914707184,
      -0.23202836513519287,
      -0.14242787659168243,
      0.2750367522239685,
      0.21309684216976166,
      0.0013824061024934053,
      -0.08769820630550385,
      0.09713800996541977,
      -0.4597187638282776,
      -0.037350885570049286
    ],
    [
      -0.19560161232948303,
      -0.17772753536701202,
      -0.0750591978430748,
      0.562464714050293,
      -0.08854281902313232,
      0.482538640499115,
      -0.25656554102897644,
      -0.26835542917251587,
      -0.06779775768518448,
      -0.7488166093826294,
      0.3246521055698395
    ],
    [
      -0.3472316861152649,
      -0.08943689614534378,
      0.34739214181900024,
      -0.5881567001342773,
      0.18726414442062378,
      -0.3029636740684509,
      -0.05552555248141289,
      0.09943070262670517,
      0.006399821490049362,
      -0.08294018357992172,
      -0.04998892918229103
    ],
    [
      -0.6509815454483032,
      -1.1960656642913818,
      -1.585485816001892,
      -0.08741501718759537,
      -0.06358407437801361,
      0.04446069896221161,
      -0.11614374816417694,
      -1.6743665933609009,
      0.0479046031832695,
      -0.02414850704371929,
      0.12201367318630219
    ],
    [
      -1.1193209886550903,
      -1.2863386869430542,
      0.4804254174232483,
      -0.05867834761738777,
      -0.0923813208937645,
      -0.37953299283981323,
      0.1772889643907547,
      -0.11124308407306671,
      -0.1260172724723816,
      -0.30913615226745605,
      0.2734966576099396
    ],
    [
      -1.6226178407669067,
      0.6734776496887207,
      -0.23411250114440918,
      0.01904255710542202,
      -0.31611981987953186,
      -0.9792318940162659,
      0.22264452278614044,
      -0.2390402853488922,
      0.12552185356616974,
      -0.590506911277771,
      -0.10259408503770828
    ],
    [
      4.045135974884033,
      -0.18564461171627045,
      0.32492735981941223,
      -0.520313024520874,
      0.1257205605506897,
      -0.33777424693107605,
      0.15966950356960297,
      -0.1972781866788864,
      0.09550215303897858,
      0.21120098233222961,
      0.0792696624994278
    ],
    [
      1.975982427597046,
      -0.1802571713924408,
      -0.28113433718681335,
      -0.9589812159538269,
      0.2488035261631012,
      -0.09039896726608276,
      -0.10654506832361221,
      -0.04482557624578476,
      0.02987993322312832,
      0.20786258578300476,
      0.018125072121620178
    ],
    [
      -0.9343891143798828,
      0.07248802483081818,
      -0.2235330045223236,
      0.11430417001247406,
      0.3645331859588623,
      0.49164217710494995,
      -0.09508253633975983,
      -0.24297092854976654,
      -0.2503443658351898,
      -0.03885064274072647,
      0.41751816868782043
    ],
    [
      -0.048322178423404694,
      -0.1799653023481369,
      -0.2806037962436676,
      0.09451517462730408,
      -0.2901877462863922,
      -0.1273595541715622,
      -0.2538902759552002,
      0.07693731784820557,
      -0.11057746410369873,
      -0.11750175803899765,
      0.14374485611915588
    ],
    [
      0.159722700715065,
      -0.23733404278755188,
      -0.36665305495262146,
      0.015162610448896885,
      0.15026479959487915,
      -0.03675662726163864,
      -0.255594402551651,
      0.0009458503918722272,
      -0.06650155037641525,
      0.21019746363162994,
      -0.22067050635814667
    ],
    [
      -0.20582330226898193,
      -0.15496183931827545,
      -0.2971716523170471,
      -0.18332895636558533,
      -0.3034549057483673,
      -0.17339029908180237,
      0.26251325011253357,
      0.017220737412571907,
      0.004352387506514788,
      -0.13416308164596558,
      -0.010601322166621685
    ],
    [
      1.8107353448867798,
      -0.3845192492008209,
      0.12380585819482803,
      0.15251424908638,
      0.054928701370954514,
      -2.8273253440856934,
      0.01861189678311348,
      -0.07036006450653076,
      -0.011881315149366856,
      0.07125145941972733,
      -0.003824298968538642
    ],
    [
      -2.2873384952545166,
      -1.8870282173156738,
      -1.3174781799316406,
      0.22585947811603546,
      -0.01115129142999649,
      0.06760695576667786,
      0.031462594866752625,
      -1.9785693883895874,
      0.05151898413896561,
      0.07153573632240295,
      -0.07015854865312576
    ],
    [
      0.8653566837310791,
      0.2908915579319,
      -0.21728567779064178,
      -0.8562487363815308,
      0.13089647889137268,
      0.25344470143318176,
      0.10432655364274979,
      -0.0964956134557724,
      0.01072350051254034,
      0.0017057314980775118,
      -0.01258221734315157
    ],
    [
      3.0201218128204346,
      -1.371543288230896,
      0.12762263417243958,
      -0.1086801141500473,
      0.01317313127219677,
      -0.038958460092544556,
      -0.22516867518424988,
      -0.5215055346488953,
      0.22544284164905548,
      0.07390425354242325,
      -0.03913726285099983
    ],
    [
      -3.5359795093536377,
      0.1350002884864807,
      0.1500517874956131,
      -0.6254885196685791,
      -0.0691971704363823,
      -0.1649884432554245,
      -0.00750332185998559,
      -0.21620768308639526,
      0.0501183420419693,
      0.11256098002195358,
      -0.008298425003886223
    ],
    [
      0.20175805687904358,
      -0.1536603718996048,
      0.3159610331058502,
      -1.4489468336105347,
      -0.1908566653728485,
      -1.6402946710586548,
      -0.27619192004203796,
      -0.24437576532363892,
      -0.07160214334726334,
      -0.3880058228969574,
      0.3052009344100952
    ],
    [
      -0.18484726548194885,
      -0.015912745147943497,
      -0.29408279061317444,
      0.02194097824394703,
      -0.24878652393817902,
      0.23628319799900055,
      -0.2632835805416107,
      -0.15141600370407104,
      0.037016093730926514,
      -0.22635897994041443,
      0.13974618911743164
    ],
    [
      -0.2400946319103241,
      -0.0708194151520729,
      0.2656281888484955,
      -0.30907750129699707,
      -0.466607004404068,
      0.023781459778547287,
      -0.10453515499830246,
      0.07588054239749908,
      -0.27290284633636475,
      -0.35263848304748535,
      -0.3492293655872345
    ],
    [
      -3.4333622455596924,
      -1.2733826637268066,
      -2.562464475631714,
      -0.6459648609161377,
      -0.047908078879117966,
      -0.4482620060443878,
      0.08045820146799088,
      -2.0144522190093994,
      0.30034515261650085,
      0.08442908525466919,
      0.07852864265441895
    ],
    [
      0.015535746701061726,
      -0.04779902845621109,
      -0.30770596861839294,
      0.27589938044548035,
      -0.11146952956914902,
      0.12165214866399765,
      0.04556238651275635,
      0.2607387900352478,
      -0.27012503147125244,
      -0.2199854552745819,
      0.20294584333896637
    ],
    [
      0.22930549085140228,
      -0.4366195797920227,
      -0.4691105782985687,
      0.08648450672626495,
      0.2152518630027771,
      0.6823019981384277,
      -0.08420851826667786,
      -0.3733508884906769,
      -0.20024727284908295,
      0.42198577523231506,
      -0.028165144845843315
    ],
    [
      -4.098955154418945,
      0.09151018410921097,
      0.22441832721233368,
      -0.15433017909526825,
      0.03423100337386131,
      0.03186098486185074,
      -0.11460544914007187,
      0.13432490825653076,
      0.1838875710964203,
      -0.07813107222318649,
      0.07636576145887375
    ],
    [
      3.4357047080993652,
      -0.22099773585796356,
      0.6034101843833923,
      0.014071309939026833,
      -0.03989594057202339,
      0.0170615054666996,
      0.010173216462135315,
      0.2896227240562439,
      -0.2796263098716736,
      -0.07095134258270264,
      -0.016637515276670456
    ],
    [
      2.2265188694000244,
      0.12759536504745483,
      -0.5991100668907166,
      0.12427963316440582,
      -0.06224193051457405,
      0.19634020328521729,
      0.08128264546394348,
      -0.3878355920314789,
      0.023250848054885864,
      0.2774248421192169,
      0.11891934275627136
    ],
    [
      1.6495345830917358,
      -0.13004441559314728,
      0.09792941808700562,
      -0.9349082112312317,
      -0.23702283203601837,
      -0.10992227494716644,
      -0.5736492276191711,
      0.06366408616304398,
      0.28335264325141907,
      -0.17882049083709717,
      0.023118481040000916
    ],
    [
      0.7275680899620056,
      0.36596179008483887,
      0.40316617488861084,
      -0.04196960851550102,
      -0.0006835600943304598,
      -0.19967828691005707,
      0.010558082722127438,
      0.5329291224479675,
      -0.42497390508651733,
      0.022914862260222435,
      0.001036131288856268
    ],
    [
      1.4824531078338623,
      0.3714582622051239,
      -0.5141944885253906,
      -0.2568615674972534,
      0.0008901205728761852,
      -0.014299264177680016,
      -0.13996073603630066,
      0.07500367611646652,
      0.20580995082855225,
      -0.33256444334983826,
      -0.059580784291028976
    ],
    [
      3.825779676437378,
      0.45073866844177246,
      -0.274393230676651,
      -0.0305380467325449,
      0.10287589579820633,
      -0.028486723080277443,
      0.038293562829494476,
      -0.07094196230173111,
      -0.022692719474434853,
      0.054231297224760056,
      0.002721864264458418
    ],
    [
      0.05792788416147232,
      -0.7341549396514893,
      0.5503678321838379,
      0.16689705848693848,
      -0.028006291016936302,
      -0.9817986488342285,
      -0.11531922221183777,
      0.28819239139556885,
      -0.39282840490341187,
      0.22977802157402039,
      0.027832001447677612
    ],
    [
      0.2423803210258484,
      -0.29428616166114807,
      -0.14014452695846558,
      0.006711244583129883,
      -0.07417267560958862,
      0.0322093665599823,
      -0.03839743137359619,
      -0.2644308805465698,
      0.07221391797065735,
      -0.0839805006980896,
      -0.04366716742515564
    ],
    [
      -2.22714900970459,
      0.1427663266658783,
      0.1984015703201294,
      -0.12904901802539825,
      0.24174648523330688,
      -0.8309054374694824,
      0.2874419391155243,
      0.3888627886772156,
      -0.054927483201026917,
      -0.3326621353626251,
      -0.07714494317770004
    ],
    [
      4.25299072265625,
      -0.2525944709777832,
      -0.18061552941799164,
      0.08619774132966995,
      0.0005476468941196799,
      -0.6381964683532715,
      -0.025086931884288788,
      0.06779716163873672,
      0.33106735348701477,
      -0.11554183810949326,
      -0.022787002846598625
    ],
    [
      2.4157540798187256,
      -0.20472197234630585,
      0.1833573877811432,
      -1.2412233352661133,
      -0.19051001965999603,
      0.1414826661348343,
      -0.16768032312393188,
      -0.007704226300120354,
      0.06182215362787247,
      -0.19825385510921478,
      -0.05944589525461197
    ],
    [
      -0.24251142144203186,
      -0.29407331347465515,
      0.10275006294250488,
      0.28060001134872437,
      0.10664477944374084,
      -0.24665485322475433,
      -0.14436404407024384,
      -0.14787815511226654,
      -0.12266837060451508,
      -0.08245684206485748,
      0.08325788378715515
    ],
    [
      -0.5419568419456482,
      0.5683047771453857,
      -0.10058924555778503,
      0.2926144301891327,
      -0.3239194452762604,
      0.7608094811439514,
      -0.13914664089679718,
      0.10533604025840759,
      -0.33336004614830017,
      -0.2665853798389435,
      -0.06476686149835587
    ],
    [
      -0.16022294759750366,
      0.10857893526554108,
      0.006292069796472788,
      0.5846196413040161,
      -0.1686524748802185,
      0.7134143710136414,
      -0.610848069190979,
      -0.15481342375278473,
      -0.19396154582500458,
      0.1037680059671402,
      0.030900996178388596
    ]
  ],
  "network.0.bias": [
    -0.39846664667129517,
    0.12470409274101257,
    -0.24070392549037933,
    -0.03245564550161362,
    -0.28644177317619324,
    0.4667999744415283,
    -0.24805039167404175,
    -0.15926948189735413,
    -0.06041109189391136,
    0.04414147138595581,
    -0.13304269313812256,
    -0.2075217068195343,
    0.013704520650207996,
    0.0598488412797451,
    -0.10703687369823456,
    0.2041708528995514,
    -0.039526671171188354,
    -0.023413505405187607,
    0.3027746081352234,
    -0.25438573956489563,
    0.09260424971580505,
    0.0795661062002182,
    -0.18217165768146515,
    -0.4295703172683716,
    -0.12388455122709274,
    0.2855413854122162,
    0.009623659774661064,
    0.3078744411468506,
    -0.163736030459404,
    -0.12986356019973755,
    -0.37999629974365234,
    -0.24307191371917725,
    0.019682545214891434,
    0.20400409400463104,
    0.19530904293060303,
    -0.017829077318310738,
    -0.20743852853775024,
    -0.22223274409770966,
    -0.3804384768009186,
    0.04267987608909607,
    0.4477299153804779,
    -0.20990526676177979,
    -0.16662496328353882,
    -0.14393830299377441,
    -0.1879650503396988,
    -0.16144391894340515,
    -0.0046069566160440445,
    -0.23215413093566895,
    -0.027263419702649117,
    -0.28028246760368347,
    -0.308398962020874,
    -0.32543638348579407,
    -0.2682202458381653,
    0.1845272332429886,
    -0.055317122489213943,
    -0.1710200011730194,
    -0.06663646548986435,
    -0.43864381313323975,
    -0.010981828905642033,
    0.2280648648738861,
    -0.15901623666286469,
    0.2909475862979889,
    0.03640615940093994,
    0.12358397990465164,
    -0.07212229073047638,
    -0.2313256561756134,
    0.14109577238559723,
    -0.028779318556189537,
    -0.21957740187644958,
    -0.08950391411781311,
    0.34891900420188904,
    0.2044556736946106,
    0.09406203776597977,
    -0.16452087461948395,
    -0.25960537791252136,
    0.3147858679294586,
    -0.37751394510269165,
    0.1892121434211731,
    -0.49141156673431396,
    0.3734681308269501,
    0.17866356670856476,
    -0.47944176197052,
    -0.17558495700359344,
    0.26285234093666077,
    0.314334511756897,
    0.1421927511692047,
    0.39226239919662476,
    -0.40598806738853455,
    -0.10919390618801117,
    -0.05148991569876671,
    -0.4043600261211395,
    -0.022775109857320786,
    -0.004114061128348112,
    0.36922645568847656,
    0.2813552916049957,
    0.08056648820638657,
    -0.25997063517570496,
    0.36929675936698914,
    -0.0925522893667221,
    -0.07172544300556183,
    -0.2803196907043457,
    -0.19848033785820007,
    0.3837677538394928,
    0.1639130860567093,
    0.0330176018178463,
    0.1557019203901291,
    0.26565536856651306,
    0.23025910556316376,
    -0.1855614334344864,
    0.11012226343154907,
    0.06328639388084412,
    -0.2482595443725586,
    -0.12684138119220734,
    -0.2520906627178192,
    -0.3785445988178253,
    0.24267105758190155,
    0.17075958847999573,
    -0.23801390826702118,
    0.18510933220386505,
    -0.15096159279346466,
    0.17739400267601013,
    -0.1275157481431961,
    -0.26749616861343384,
    0.10050492733716965,
    0.3912004828453064,
    -0.2802618145942688,
    -0.04674719646573067,
    -0.2550915479660034
  ],
  "network.2.weight": [
    1.2110379934310913,
    0.8995106220245361,
    0.7666108012199402,
    1.0235791206359863,
    0.932426393032074,
    0.7437324523925781,
    0.5902524590492249,
    0.9146130084991455,
    0.4993479251861572,
    0.8021712899208069,
    1.0446295738220215,
    0.504751980304718,
    0.9011126160621643,
    1.8323575258255005,
    0.6738953590393066,
    0.8247079253196716,
    1.1576875448226929,
    1.5334019660949707,
    0.9960725903511047,
    0.8622850179672241,
    0.4961514174938202,
    0.8370205163955688,
    0.7151929140090942,
    0.8847400546073914,
    1.192285418510437,
    0.821334719657898,
    0.935596764087677,
    1.0996750593185425,
    0.7956430912017822,
    0.8037437200546265,
    0.604282796382904,
    0.7747756838798523,
    0.8959766626358032,
    1.039754867553711,
    0.5054462552070618,
    0.8988619446754456,
    1.5222375392913818,
    0.942590057849884,
    1.296424150466919,
    0.7948451042175293,
    1.372568130493164,
    0.8553213477134705,
    1.4561604261398315,
    0.6363435983657837,
    1.0385364294052124,
    1.2620935440063477,
    1.1972655057907104,
    0.9588313102722168,
    0.828898012638092,
    0.7412203550338745,
    0.8692381978034973,
    0.7866271734237671,
    1.0818158388137817,
    1.1967524290084839,
    1.2657639980316162,
    0.4892811179161072,
    0.672208309173584,
    0.40151241421699524,
    0.8203014731407166,
    0.8590878844261169,
    1.08077871799469,
    0.590248167514801,
    1.2007684707641602,
    0.7587352395057678,
    0.8931841850280762,
    0.9513995051383972,
    0.6629789471626282,
    0.5247681140899658,
    1.0263067483901978,
    0.7247759103775024,
    0.5840009450912476,
    0.7664610147476196,
    0.9064740538597107,
    0.7572341561317444,
    1.2436949014663696,
    0.7669250965118408,
    1.297275185585022,
    1.726401925086975,
    1.899298071861267,
    1.0178608894348145,
    1.1506001949310303,
    1.1967800855636597,
    1.1453742980957031,
    0.9717683792114258,
    0.5523433685302734,
    0.6135969161987305,
    1.1450796127319336,
    1.1692548990249634,
    0.9420026540756226,
    1.3541902303695679,
    1.1931289434432983,
    1.066526174545288,
    0.7433019876480103,
    1.8770915269851685,
    0.754906952381134,
    0.9167010188102722,
    1.0980168581008911,
    0.8272576928138733,
    0.5732038021087646,
    0.9912618398666382,
    0.7838990092277527,
    1.068708062171936,
    1.4808412790298462,
    2.082676410675049,
    0.6604352593421936,
    0.7932358980178833,
    0.8799571990966797,
    1.028386116027832,
    0.8078696727752686,
    0.8673487305641174,
    1.9329569339752197,
    1.1715060472488403,
    0.9482195973396301,
    0.5958463549613953,
    2.2620410919189453,
    0.8256978988647461,
    0.5664353370666504,
    1.7326033115386963,
    0.6641355156898499,
    1.3991237878799438,
    1.3780049085617065,
    0.7988232970237732,
    0.773253321647644,
    1.3130862712860107,
    1.3383721113204956,
    0.9113868474960327,
    0.9313358664512634,
    0.9342992901802063
  ],
  "network.2.bias": [
    0.06120489165186882,
    0.39501261711120605,
    0.30444756150245667,
    0.18312793970108032,
    0.10944654792547226,
    -0.12089388072490692,
    0.2516930401325226,
    0.1235128715634346,
    0.17517222464084625,
    0.3448677659034729,
    -0.1266157031059265,
    -0.2071247547864914,
    0.12835106253623962,
    0.3154665231704712,
    -0.2717002034187317,
    0.18943601846694946,
    -0.006896758917719126,
    0.8902724385261536,
    0.16964857280254364,
    0.15814827382564545,
    -0.35339584946632385,
    -0.15174579620361328,
    0.2877199053764343,
    0.09935224056243896,
    0.803480863571167,
    -0.2396758496761322,
    0.3625544309616089,
    0.3602725863456726,
    0.3186803162097931,
    0.31734204292297363,
    -0.17290464043617249,
    0.23969535529613495,
    0.3537493646144867,
    0.1947915107011795,
    -0.03350449725985527,
    0.14023636281490326,
    -0.012832550331950188,
    0.2561213970184326,
    -0.06881650537252426,
    0.30240172147750854,
    -0.0815563052892685,
    0.1978181153535843,
    0.32475024461746216,
    0.20820121467113495,
    -0.04190012440085411,
    0.36086663603782654,
    0.49704742431640625,
    0.07508237659931183,
    0.34916552901268005,
    -0.4689454436302185,
    0.16673225164413452,
    -0.23304887115955353,
    -0.05781574919819832,
    0.40871939063072205,
    -0.08962354809045792,
    0.016842253506183624,
    0.002367807552218437,
    -0.2340707927942276,
    -0.0044214543886482716,
    -0.2188333421945572,
    -0.7405951619148254,
    -0.07131194323301315,
    -0.11278282105922699,
    0.2961063086986542,
    0.16551066935062408,
    0.21567966043949127,
    0.10309037566184998,
    0.15058422088623047,
    0.1850913166999817,
    -0.0027085263282060623,
    -0.03645137697458267,
    0.041119854897260666,
    0.138586163520813,
    0.256602019071579,
    -0.27068379521369934,
    -0.2024059146642685,
    0.3948954939842224,
    -0.07258340716362,
    0.19969454407691956,
    0.16208040714263916,
    -0.6046949625015259,
    -0.08719536662101746,
    0.11585214734077454,
    0.11684981733560562,
    0.16584835946559906,
    -0.2737634479999542,
    0.3822229206562042,
    0.10031607747077942,
    0.04087960347533226,
    0.13823962211608887,
    -0.0959661453962326,
    0.12742003798484802,
    0.20645327866077423,
    -0.0006039420841261744,
    0.2518821954727173,
    0.25544464588165283,
    -0.09155675768852234,
    0.3055553734302521,
    0.030190685763955116,
    0.05784193053841591,
    0.30543819069862366,
    -0.043842993676662445,
    -0.4191158413887024,
    -0.36792489886283875,
    0.3929755985736847,
    -0.23236998915672302,
    0.1859600991010666,
    0.11564521491527557,
    0.3330897390842438,
    0.3618735074996948,
    -0.12418893724679947,
    -0.14572152495384216,
    0.1598386913537979,
    0.22364452481269836,
    -0.09638996422290802,
    -0.6679250001907349,
    -0.022493479773402214,
    -0.48655450344085693,
    -0.16522684693336487,
    -0.3335835933685303,
    -0.177815780043602,
    0.257092148065567,
    0.2033994346857071,
    -0.292105495929718,
    0.33937257528305054,
    0.12037618458271027,
    0.08984226733446121,
    -0.21382823586463928
  ],
  "network.3.weight": [
    [
      0.12727586925029755,
      0.03882010281085968,
      -0.03820081427693367,
      -0.3716621696949005,
      0.20805826783180237,
      0.008346919901669025,
      -0.2829262614250183,
      0.18271183967590332,
      0.16550999879837036,
      0.34820738434791565,
      0.016942033544182777,
      0.02550499513745308,
      0.16754403710365295,
      0.025107864290475845,
      -0.40747639536857605,
      -0.19119301438331604,
      0.04147527739405632,
      0.021668097004294395,
      0.11126316338777542,
      0.12578244507312775,
      -0.20449958741664886,
      0.2154865264892578,
      -0.06412874907255173,
      -0.08474139869213104,
      -0.13014256954193115,
      0.10718946158885956,
      0.1445796638727188,
      0.041449807584285736,
      -0.0629437118768692,
      -0.07728954404592514,
      -0.5823208689689636,
      0.11979231983423233,
      -0.1282203495502472,
      0.07747884839773178,
      -0.27826204895973206,
      0.17259187996387482,
      0.1494913101196289,
      -0.028885195031762123,
      0.06017358601093292,
      0.018174361437559128,
      -0.09687669575214386,
      0.1202579140663147,
      0.21480752527713776,
      -0.11868271231651306,
      0.1437453180551529,
      -0.08787676692008972,
      -0.018709590658545494,
      0.23015326261520386,
      -0.10918591916561127,
      -0.02973785065114498,
      0.08665885776281357,
      0.15894679725170135,
      0.19665849208831787,
      -0.7570029497146606,
      -0.12754806876182556,
      0.2703792452812195,
      0.15753328800201416,
      0.1409766972064972,
      0.022075243294239044,
      0.3204602003097534,
      -0.2754130959510803,
      -0.17142783105373383,
      0.40232595801353455,
      -0.02564147673547268,
      -0.3045494556427002,
      -0.12326350063085556,
      0.06580884754657745,
      0.1548018604516983,
      0.4665059447288513,
      0.016446389257907867,
      0.08254212141036987,
      -0.5998177528381348,
      0.19067345559597015,
      0.07587217539548874,
      0.21635042130947113,
      -0.0052217659540474415,
      -0.9112464189529419,
      -0.13242009282112122,
      0.1651194989681244,
      -0.32172277569770813,
      -0.07315628230571747,
      -0.48513010144233704,
      0.25239285826683044,
      0.0873565673828125,
      0.43639999628067017,
      0.11254693567752838,
      0.32201099395751953,
      0.05827108398079872,
      0.10693883895874023,
      -0.006007437594234943,
      0.16626937687397003,
      0.20331422984600067,
      -0.7340903282165527,
      0.15138916671276093,
      -0.46157100796699524,
      0.11670810729265213,
      -0.2595374882221222,
      0.002074254211038351,
      0.309878408908844,
      0.2367456704378128,
      0.040612027049064636,
      0.12720441818237305,
      0.043991975486278534,
      0.17740081250667572,
      0.04993117228150368,
      -0.7997358441352844,
      -0.10548479855060577,
      0.08132340759038925,
      -0.13462311029434204,
      -0.11176734417676926,
      0.07924235612154007,
      0.22922122478485107,
      0.4823736250400543,
      -0.618775486946106,
      -0.21591098606586456,
      0.6997595429420471,
      -0.3275735676288605,
      -0.3307437002658844,
      0.40143248438835144,
      -0.17052623629570007,
      0.13001258671283722,
      0.16692987084388733,
      0.12867818772792816,
      -0.2583320140838623,
      -0.0638517215847969,
      0.14463365077972412,
      -0.22592826187610626,
      0.4395299255847931
    ],
    [
      0.0511242151260376,
      0.04020010679960251,
      0.1515631228685379,
      0.028865644708275795,
      0.01875784993171692,
      0.09966990351676941,
      0.09019339829683304,
      0.016915922984480858,
      0.012442482635378838,
      -0.004178503528237343,
      0.02216201275587082,
      0.0739985778927803,
      0.04368056356906891,
      -0.09386704862117767,
      -0.031626615673303604,
      0.08228567987680435,
      0.09378907829523087,
      0.023519987240433693,
      0.09729126840829849,
      0.16533707082271576,
      -0.04328146576881409,
      0.03738739341497421,
      0.010041844099760056,
      -0.007614829111844301,
      0.04760554060339928,
      -0.0748264491558075,
      -0.06536085158586502,
      -0.03524757921695709,
      0.15681925415992737,
      0.030141832306981087,
      -0.07113056629896164,
      0.11397375166416168,
      0.1293446570634842,
      0.033237092196941376,
      0.036728281527757645,
      0.05459025874733925,
      0.012818020768463612,
      0.08893785625696182,
      -0.012904739007353783,
      0.0467103011906147,
      -0.14563144743442535,
      0.059497687965631485,
      -0.011495940387248993,
      0.06408987939357758,
      0.03631117194890976,
      0.045641135424375534,
      0.08131390810012817,
      0.17653873562812805,
      0.0472380667924881,
      0.04407716542482376,
      0.11191876232624054,
      0.06757419556379318,
      0.06612017005681992,
      -0.04529723897576332,
      0.12608730792999268,
      0.04862312972545624,
      0.05210119113326073,
      -0.03253702446818352,
      0.06266238540410995,
      -0.03718096390366554,
      -0.0803782120347023,
      -0.0059822662733495235,
      0.14286933839321136,
      0.14504864811897278,
      0.1396750807762146,
      0.02416488155722618,
      -0.08291874080896378,
      -0.020898357033729553,
      0.11299040168523788,
      -0.05806176736950874,
      -0.01123115886002779,
      -0.038871873170137405,
      0.1411384493112564,
      0.10994832217693329,
      0.13713186979293823,
      -0.014766859821975231,
      0.07999212294816971,
      -0.04104052111506462,
      -0.052611056715250015,
      -0.07506968080997467,
      -0.013795603066682816,
      0.038446273654699326,
      0.0828576609492302,
      -0.011545073240995407,
      0.04375825077295303,
      -0.039990782737731934,
      0.08200237154960632,
      0.04786939546465874,
      0.019086439162492752,
      0.03869054093956947,
      0.10958936810493469,
      0.11299440264701843,
      -0.11280670762062073,
      0.001144516747444868,
      -0.023225927725434303,
      -0.007845817133784294,
      -0.08313842862844467,
      -0.055957138538360596,
      0.062396612018346786,
      0.05840056389570236,
      0.09772275388240814,
      0.04198002070188522,
      0.0918956845998764,
      -0.02800196409225464,
      -0.029322214424610138,
      0.041263382881879807,
      -0.12281714379787445,
      0.15386423468589783,
      0.07991038262844086,
      0.1574379950761795,
      0.11436131596565247,
      0.034173138439655304,
      0.05615770444273949,
      -0.0019470725674182177,
      0.0895366370677948,
      -0.04814271256327629,
      -0.014621321111917496,
      0.033575430512428284,
      0.041441649198532104,
      0.0663977861404419,
      0.01703318953514099,
      0.04305882751941681,
      -0.08151859045028687,
      0.103066086769104,
      -0.06889397650957108,
      0.11669005453586578,
      -0.09574580192565918,
      0.026003746315836906
    ],
    [
      0.016610801219940186,
      -0.035569675266742706,
      0.12471234053373337,
      -0.014941072091460228,
      0.026737645268440247,
      -0.00295412540435791,
      0.02636580914258957,
      0.0917796641588211,
      -0.08807373046875,
      -0.03014070726931095,
      -0.015828588977456093,
      0.03493371605873108,
      0.11026789993047714,
      -0.01232125237584114,
      -0.09862861782312393,
      0.07427959889173508,
      0.02655290625989437,
      -0.09314049035310745,
      0.062047556042671204,
      0.09802445769309998,
      -0.009957494214177132,
      0.0894506424665451,
      -0.000265768903773278,
      0.013108274899423122,
      0.02270536497235298,
      -0.12293773889541626,
      0.01757144369184971,
      0.027353405952453613,
      0.07503938674926758,
      0.12521500885486603,
      -0.002870798809453845,
      0.17560449242591858,
      0.011988760903477669,
      0.02701902575790882,
      0.0297385323792696,
      0.02617604471743107,
      0.042624581605196,
      0.036841981112957,
      -0.07155615836381912,
      0.16565561294555664,
      -0.16615860164165497,
      0.03087734431028366,
      0.09244506806135178,
      0.028974182903766632,
      0.1383194625377655,
      0.006091415416449308,
      0.15051989257335663,
      0.16984915733337402,
      0.1648133099079132,
      -0.06605809926986694,
      0.021846860647201538,
      0.06980886310338974,
      0.0709565132856369,
      -0.028584664687514305,
      0.10176552087068558,
      0.107835553586483,
      0.04003068432211876,
      0.04302912577986717,
      -0.02657325752079487,
      0.09044120460748672,
      -0.0687258318066597,
      0.0196113009005785,
      0.13745179772377014,
      0.17648227512836456,
      0.04740193858742714,
      0.14665581285953522,
      -0.032741423696279526,
      -0.020301302894949913,
      -0.03196651116013527,
      -0.0243777297437191,
      0.08778595924377441,
      0.10354918986558914,
      0.1035885363817215,
      0.13253992795944214,
      0.08322800695896149,
      0.006023870315402746,
      -0.09639430791139603,
      0.009034857153892517,
      0.017668381333351135,
      0.048970017582178116,
      0.10694640129804611,
      -0.006298039574176073,
      -0.04745354503393173,
      -0.1322157233953476,
      -0.05370652303099632,
      0.003951883874833584,
      0.09444426745176315,
      0.09017118066549301,
      0.021523702889680862,
      0.03633566573262215,
      0.12577952444553375,
      0.05917155742645264,
      -0.09435650706291199,
      0.02938055619597435,
      0.04126144200563431,
      -0.12582845985889435,
      -0.06088683381676674,
      -0.02200477570295334,
      -0.02226782776415348,
      0.1470973640680313,
      0.04586724564433098,
      0.15980924665927887,
      -0.05784590542316437,
      0.10852532833814621,
      0.036468904465436935,
      0.044258877635002136,
      -0.029280852526426315,
      0.04469180107116699,
      0.09668432176113129,
      0.06755968928337097,
      0.005721312016248703,
      0.07892254739999771,
      0.0397486537694931,
      0.02165786363184452,
      0.043135106563568115,
      -0.0038473401218652725,
      0.0925327017903328,
      0.0737096443772316,
      0.006995668634772301,
      0.00674670422449708,
      -0.06795760244131088,
      0.06914597004652023,
      -0.041837241500616074,
      -0.013693530112504959,
      -0.026267196983098984,
      0.03768593445420265,
      0.03786442056298256,
      0.08438724279403687
    ],
    [
      -0.8264833092689514,
      0.42984840273857117,
      0.01039244793355465,
      0.06892285495996475,
      -0.01793506182730198,
      -0.2586875557899475,
      -0.027090057730674744,
      0.038036148995161057,
      -0.10551038384437561,
      -0.9522193670272827,
      -0.09066686034202576,
      -0.012359396554529667,
      0.046069204807281494,
      -0.3101541996002197,
      -0.0031435845885425806,
      -0.11663150042295456,
      -0.025233348831534386,
      0.346630722284317,
      -0.06746567785739899,
      -0.015877297148108482,
      0.0739481970667839,
      -0.2974071800708771,
      -0.03460177406668663,
      0.033202629536390305,
      0.1627524048089981,
      -0.49904391169548035,
      0.6615674495697021,
      0.0271007027477026,
      0.03380317986011505,
      0.05275518819689751,
      -0.14164677262306213,
      -0.04300377145409584,
      -0.396618127822876,
      -0.05404840037226677,
      -0.6398038268089294,
      0.05347396060824394,
      -0.18557848036289215,
      0.23376069962978363,
      0.04095457121729851,
      0.049725960940122604,
      -1.3052934408187866,
      -0.0038462099619209766,
      0.0022463465575128794,
      0.3791949450969696,
      0.035221368074417114,
      0.0055556390434503555,
      0.19382509589195251,
      0.08649718761444092,
      0.02886071801185608,
      -0.14286135137081146,
      0.0686340257525444,
      -0.22643445432186127,
      0.044148821383714676,
      -1.2245135307312012,
      -0.04264006391167641,
      0.357637882232666,
      0.4281916618347168,
      0.2763875424861908,
      -0.5471193790435791,
      -0.03260495141148567,
      0.2354840487241745,
      0.04906230419874191,
      -0.4234713315963745,
      -0.03235943615436554,
      -0.18122953176498413,
      -0.0925234779715538,
      -0.06728579103946686,
      0.031319767236709595,
      0.47102534770965576,
      0.054634831845760345,
      0.2930818796157837,
      -0.20063211023807526,
      -0.02707960456609726,
      -0.021165460348129272,
      -0.04553179070353508,
      -0.14771826565265656,
      -0.22340728342533112,
      -0.6474410891532898,
      0.3619784414768219,
      -0.45263275504112244,
      0.42711761593818665,
      -0.36304038763046265,
      0.13043968379497528,
      0.026690160855650902,
      -0.5257631540298462,
      -0.1885240077972412,
      0.025264475494623184,
      -0.2676475942134857,
      0.021931765601038933,
      -0.08738020807504654,
      0.052038516849279404,
      -0.12102007865905762,
      -0.09607736766338348,
      0.011069961823523045,
      -0.06468532234430313,
      -0.4239850342273712,
      0.5005934834480286,
      0.302714079618454,
      0.14437368512153625,
      -0.05924089998006821,
      -0.029708772897720337,
      0.036324601620435715,
      -0.1150575801730156,
      -0.03390848636627197,
      0.15953423082828522,
      -0.017041688784956932,
      -0.17620930075645447,
      0.11500053852796555,
      0.006012859288603067,
      -0.02506951428949833,
      -0.05034053325653076,
      -0.08128462731838226,
      -0.031004274263978004,
      -0.21180614829063416,
      0.3866732120513916,
      0.5130290985107422,
      -0.31781822443008423,
      0.2986045479774475,
      -0.49555253982543945,
      0.20184268057346344,
      -0.0018413359066471457,
      0.06262248754501343,
      0.2510068714618683,
      0.7009345889091492,
      0.23956874012947083,
      -0.055180929601192474,
      -0.16438566148281097,
      -0.10044793784618378
    ],
    [
      -0.009567220695316792,
      -0.04533737525343895,
      0.11985254287719727,
      0.10912313312292099,
      0.008995838463306427,
      -0.032627176493406296,
      0.038670048117637634,
      0.05323127284646034,
      0.036909252405166626,
      0.05178873613476753,
      0.02605724334716797,
      -0.019470687955617905,
      -0.005207754671573639,
      -0.034274954348802567,
      -0.007804607506841421,
      0.13979500532150269,
      0.05373676121234894,
      -0.0839093029499054,
      0.00324159930460155,
      0.05363753065466881,
      0.030584316700696945,
      0.08906456083059311,
      -0.008120376616716385,
      0.00542032066732645,
      0.06857745349407196,
      -0.04435235634446144,
      0.09204777330160141,
      0.08223844319581985,
      0.04059433937072754,
      0.12513850629329681,
      0.022330831736326218,
      0.13669486343860626,
      0.10910309851169586,
      0.12757742404937744,
      -0.0403229258954525,
      0.12117093801498413,
      0.04938829690217972,
      0.07715416699647903,
      0.05977460741996765,
      0.04294043779373169,
      -0.12420392036437988,
      0.09031493961811066,
      0.07741837203502655,
      0.026159344241023064,
      0.03654306381940842,
      0.07296962291002274,
      0.054427001625299454,
      0.0832371711730957,
      0.04888425022363663,
      0.06823720037937164,
      0.05741313472390175,
      0.10169683396816254,
      -0.0034103260841220617,
      0.019662151113152504,
      0.10815232992172241,
      0.06408374756574631,
      0.05490042641758919,
      -0.04208129644393921,
      0.014468514360487461,
      0.055747609585523605,
      0.025168906897306442,
      -0.0037566199898719788,
      0.1513608694076538,
      0.07181011140346527,
      0.10119864344596863,
      0.08611174672842026,
      -0.05404502898454666,
      -0.09173320978879929,
      0.0514325387775898,
      -0.024686748161911964,
      0.023748241364955902,
      0.08024727553129196,
      0.10049654543399811,
      0.13090123236179352,
      0.13885629177093506,
      0.08336833119392395,
      -0.019352998584508896,
      -0.05600060150027275,
      0.03876134380698204,
      -0.03801194578409195,
      0.0813438892364502,
      0.024881349876523018,
      0.07583822309970856,
      0.0901966392993927,
      -0.015532249584794044,
      0.00307786138728261,
      -0.023092683404684067,
      0.09452947974205017,
      0.04731772840023041,
      0.02008052170276642,
      0.04076928645372391,
      0.12256161868572235,
      -0.099331334233284,
      0.04601120948791504,
      0.010540192946791649,
      -0.025061769410967827,
      0.025823181495070457,
      0.02720731496810913,
      -0.00011017025099135935,
      0.14237567782402039,
      0.12224716693162918,
      0.15950986742973328,
      0.08066391199827194,
      0.08579231053590775,
      -0.04827143996953964,
      0.08816151320934296,
      -0.08161706477403641,
      0.14048436284065247,
      0.08650028705596924,
      0.04743991047143936,
      0.03328768536448479,
      0.14885668456554413,
      0.0031805180478841066,
      -0.009153339080512524,
      0.07188273966312408,
      -0.0649111345410347,
      0.10723542422056198,
      0.04654930159449577,
      -0.0627046674489975,
      -0.04625039920210838,
      0.01719929277896881,
      0.08966771513223648,
      -0.023566722869873047,
      -0.043667808175086975,
      -0.06572069972753525,
      0.15822677314281464,
      -0.005893191788345575,
      0.052379585802555084
    ],
    [
      0.107248954474926,
      0.08458752930164337,
      0.23590277135372162,
      0.041659288108348846,
      0.15918850898742676,
      0.18222038447856903,
      0.16520582139492035,
      0.11020078510046005,
      -0.5963242650032043,
      -0.05620187520980835,
      0.5535100698471069,
      0.056942347437143326,
      0.09144376963376999,
      0.45945310592651367,
      0.06573983281850815,
      0.3247750997543335,
      0.08963383734226227,
      -0.29964056611061096,
      0.16688016057014465,
      0.10933415591716766,
      -0.1121010035276413,
      0.06011458486318588,
      0.3085879683494568,
      0.2181067168712616,
      -0.32845091819763184,
      -0.06346629559993744,
      0.01918037422001362,
      -0.4236302673816681,
      0.26166394352912903,
      0.24625420570373535,
      0.2085438221693039,
      0.14847314357757568,
      0.040222473442554474,
      -0.2818835377693176,
      0.34231171011924744,
      0.20343048870563507,
      0.46448463201522827,
      0.15488865971565247,
      0.25334060192108154,
      0.3255108594894409,
      -0.16511081159114838,
      0.2602598965167999,
      0.023956477642059326,
      -0.3400358259677887,
      0.2074434608221054,
      0.2620386779308319,
      0.6024255752563477,
      0.19410407543182373,
      0.20092061161994934,
      0.3410174250602722,
      0.12798306345939636,
      0.19838683307170868,
      0.22267574071884155,
      -0.41249457001686096,
      0.25258442759513855,
      -0.15487545728683472,
      -0.26168912649154663,
      0.19182409346103668,
      0.22900472581386566,
      -0.010291091166436672,
      -0.22166506946086884,
      0.07979527860879898,
      0.18345224857330322,
      0.2443697303533554,
      0.38509657979011536,
      0.1831253319978714,
      0.1767890304327011,
      0.03253256529569626,
      0.10830876976251602,
      -0.5827690362930298,
      0.15187975764274597,
      -0.03365194424986839,
      0.1842261701822281,
      0.2964629530906677,
      0.20591126382350922,
      -0.17587415874004364,
      -0.1096731647849083,
      0.48193731904029846,
      -0.10898751020431519,
      -0.28905364871025085,
      0.08322598040103912,
      0.22626358270645142,
      0.16273528337478638,
      -0.9278534054756165,
      -0.22414200007915497,
      0.05751533433794975,
      0.14618557691574097,
      -0.29147207736968994,
      0.23492638766765594,
      0.1303240954875946,
      0.16966383159160614,
      -0.07478118687868118,
      -0.3500220477581024,
      -0.10490380972623825,
      0.14451448619365692,
      0.5668206214904785,
      -0.11607998609542847,
      0.5039534568786621,
      0.016469446942210197,
      0.10096947848796844,
      0.26178595423698425,
      0.2030942738056183,
      -0.3165750801563263,
      0.07119590044021606,
      0.12588009238243103,
      0.0839594155550003,
      0.041897013783454895,
      0.19353538751602173,
      0.18656811118125916,
      0.153593048453331,
      0.14474350214004517,
      0.1297396868467331,
      0.14042578637599945,
      0.00708691356703639,
      -0.2018936276435852,
      -0.053116194903850555,
      -0.0045375339686870575,
      0.3744088411331177,
      -0.07771659642457962,
      -0.1744460016489029,
      -0.422403484582901,
      0.24068759381771088,
      0.20401398837566376,
      -0.43933892250061035,
      -0.630594789981842,
      0.11415322870016098,
      0.0409185029566288,
      0.015760958194732666
    ],
    [
      -0.08983444422483444,
      -0.0401805117726326,
      -0.02563432604074478,
      0.03440430015325546,
      0.003410410601645708,
      -0.013482855632901192,
      0.021624961867928505,
      0.059569235891103745,
      -0.04734405130147934,
      0.06039136275649071,
      0.05354217812418938,
      0.00043047015788033605,
      -0.0035876105539500713,
      0.03047027625143528,
      -0.007050626445561647,
      0.04942850396037102,
      -0.026154300197958946,
      0.06222749501466751,
      0.054843608289957047,
      0.03955895081162453,
      -0.10620632022619247,
      0.08870573341846466,
      0.011527626775205135,
      0.038370974361896515,
      0.028982779011130333,
      -0.02987244538962841,
      -0.015006998553872108,
      -0.06501567363739014,
      0.016811607405543327,
      -0.01985730230808258,
      -0.029407847672700882,
      0.13380774855613708,
      0.055310048162937164,
      0.05435767397284508,
      -0.0109498780220747,
      0.022506602108478546,
      0.04983741044998169,
      0.07766761630773544,
      0.0519503615796566,
      0.14647434651851654,
      -0.1519142985343933,
      0.14659622311592102,
      0.0005510383634828031,
      -0.07049226760864258,
      0.062114641070365906,
      0.09230995178222656,
      0.10783609002828598,
      0.07151572406291962,
      0.04588712379336357,
      -0.0006542208720929921,
      0.1336217075586319,
      -0.01596054807305336,
      -0.016178175806999207,
      0.029285520315170288,
      0.12522967159748077,
      0.020114149898290634,
      -0.009432191960513592,
      -0.024424172937870026,
      0.03838106617331505,
      -0.027847236022353172,
      -0.06084141880273819,
      -0.01149621233344078,
      0.06713588535785675,
      0.10504604130983353,
      0.007808859925717115,
      0.14099019765853882,
      0.05615969002246857,
      -0.020109334960579872,
      0.00426110066473484,
      0.03675316274166107,
      -0.07452201843261719,
      0.011355939321219921,
      0.0886821523308754,
      0.12924796342849731,
      -0.019302742555737495,
      -0.039474260061979294,
      0.0006732617039233446,
      -0.0821199044585228,
      0.050135355442762375,
      -0.07370804995298386,
      0.10799867659807205,
      -0.0528387725353241,
      0.035416509956121445,
      -0.04217613488435745,
      0.023952223360538483,
      0.07922840863466263,
      0.017911605536937714,
      0.05013041943311691,
      0.11217387020587921,
      -0.02308679185807705,
      0.060934945940971375,
      -0.00799252837896347,
      -0.01259348914027214,
      0.060960955917835236,
      -0.02695631794631481,
      -0.04947085678577423,
      0.04637058079242706,
      -0.03921937569975853,
      -0.008393146097660065,
      -0.02736380696296692,
      0.05785517394542694,
      0.09936641901731491,
      0.04336390271782875,
      0.010090639814734459,
      -0.03968510404229164,
      -0.015764975920319557,
      0.036224473267793655,
      0.041701268404722214,
      0.14285968244075775,
      -0.020022517070174217,
      0.03376651927828789,
      -0.007566963788121939,
      0.11258102208375931,
      -0.058775320649147034,
      0.05818169191479683,
      0.05394168943166733,
      0.06598025560379028,
      0.02104635164141655,
      0.026221049949526787,
      0.037064939737319946,
      0.0014149990165606141,
      0.006269996054470539,
      -0.05909288674592972,
      0.07518384605646133,
      0.02071426436305046,
      0.1329343020915985,
      0.028409473598003387,
      0.057586707174777985
    ],
    [
      0.4074314534664154,
      -0.41406214237213135,
      0.2697332501411438,
      -0.11542914807796478,
      -0.04361138120293617,
      0.9138756394386292,
      0.37354400753974915,
      0.01703687570989132,
      -0.1442997306585312,
      -0.7043670415878296,
      -0.35753142833709717,
      -0.011843666434288025,
      -0.04118293896317482,
      -0.5685549378395081,
      -0.15689291059970856,
      0.08961648494005203,
      0.4417054057121277,
      -0.8222066760063171,
      0.5855923891067505,
      0.009985051117837429,
      0.23862324655056,
      -0.28204429149627686,
      0.1965900957584381,
      0.12952940165996552,
      -0.37037500739097595,
      0.1520051509141922,
      -0.6961924433708191,
      0.24991168081760406,
      0.22974161803722382,
      0.19454817473888397,
      -0.05010669305920601,
      0.008293025195598602,
      -0.495000958442688,
      -0.3451700210571289,
      0.12325741350650787,
      0.09845373034477234,
      -0.8214681148529053,
      -0.5334126949310303,
      -0.47984227538108826,
      0.11271410435438156,
      0.18351638317108154,
      -0.014960919506847858,
      0.9348198771476746,
      0.49395397305488586,
      0.0026899639051407576,
      -0.3111687898635864,
      0.5284281969070435,
      -0.044706229120492935,
      0.35003966093063354,
      -0.49841469526290894,
      0.008389568887650967,
      0.8378092646598816,
      0.014239886775612831,
      -0.14078201353549957,
      -0.07500877976417542,
      -0.06739358603954315,
      -0.6548964977264404,
      -1.0855270624160767,
      0.5901877880096436,
      0.26637890934944153,
      0.23091603815555573,
      -0.0280567929148674,
      -0.29926490783691406,
      0.23491859436035156,
      -0.04810221493244171,
      -0.33203500509262085,
      -0.5986612439155579,
      -0.08882832527160645,
      -0.02171768806874752,
      -0.031014349311590195,
      -0.692359209060669,
      -0.27892082929611206,
      0.07529255002737045,
      0.0787421315908432,
      -0.10809577256441116,
      0.02740790694952011,
      -0.36129066348075867,
      0.07033412158489227,
      -0.7346123456954956,
      0.7733749747276306,
      0.27763831615448,
      -0.4727019667625427,
      -0.08438926190137863,
      -0.3895522356033325,
      -0.04370665177702904,
      -0.24986901879310608,
      0.08276977390050888,
      -0.36320236325263977,
      0.07909023761749268,
      0.3238072395324707,
      -0.021552585065364838,
      0.2543119788169861,
      -0.8048490881919861,
      0.7265881299972534,
      -0.40924662351608276,
      -0.7906109094619751,
      -0.08636794239282608,
      -0.22198425233364105,
      -0.19742977619171143,
      -0.022615564987063408,
      0.27178025245666504,
      0.06483969837427139,
      0.31246885657310486,
      0.7656802535057068,
      -0.30064865946769714,
      -0.2899908125400543,
      -0.2418408989906311,
      0.08774677664041519,
      0.3442528545856476,
      0.3945211172103882,
      -0.14202015101909637,
      -0.04014173150062561,
      -0.3095358610153198,
      -0.7471538782119751,
      -0.40327373147010803,
      0.3806374967098236,
      0.040274765342473984,
      -0.013839353807270527,
      0.1974390149116516,
      -0.6267225742340088,
      -0.6734286546707153,
      0.01570427417755127,
      -0.32351577281951904,
      -0.02853027731180191,
      -1.1145830154418945,
      -0.011874822899699211,
      -1.2063449621200562,
      -0.10196889936923981
    ],
    [
      0.16232702136039734,
      0.7915446758270264,
      -0.10433445125818253,
      0.172324076294899,
      0.08013031631708145,
      0.4356071949005127,
      -0.2150474637746811,
      0.12256848812103271,
      0.31481248140335083,
      0.05358921363949776,
      -0.0882597416639328,
      0.41866350173950195,
      0.16517573595046997,
      0.31546008586883545,
      0.16869494318962097,
      0.09427183121442795,
      -0.21822522580623627,
      -0.3199596107006073,
      0.4761795997619629,
      0.11127612739801407,
      0.17589715123176575,
      -0.29701945185661316,
      0.002876889193430543,
      0.5795100331306458,
      -0.19290052354335785,
      -0.09652651101350784,
      0.20957930386066437,
      0.13749876618385315,
      -0.10838998109102249,
      -0.1083827018737793,
      -0.13587987422943115,
      0.12768897414207458,
      0.21016301214694977,
      -0.08925820142030716,
      0.020918982103466988,
      0.13419310748577118,
      -0.5943034291267395,
      0.012027615681290627,
      0.12770771980285645,
      0.011393756605684757,
      -0.2413218468427658,
      0.091550812125206,
      -0.6503806710243225,
      -0.31586772203445435,
      0.04907781630754471,
      0.3687001168727875,
      -0.049540355801582336,
      0.12480131536722183,
      -0.18041591346263885,
      -0.024947697296738625,
      0.029891448095440865,
      0.2960453927516937,
      0.14867264032363892,
      -0.20091819763183594,
      0.05619051307439804,
      0.27121222019195557,
      0.15350154042243958,
      -0.9035102128982544,
      0.09363057464361191,
      0.5893740057945251,
      0.12161631882190704,
      0.1962348222732544,
      -0.04599294066429138,
      -0.07487498968839645,
      0.16283003985881805,
      0.058625735342502594,
      -0.15130415558815002,
      0.2440885603427887,
      0.31778833270072937,
      0.1452948898077011,
      -0.6197893619537354,
      -0.6989039778709412,
      0.15226860344409943,
      0.0600983202457428,
      0.5277460217475891,
      -0.1073184460401535,
      0.33607929944992065,
      0.6138076186180115,
      0.02591725066304207,
      0.5942944288253784,
      0.22074411809444427,
      -0.3862512409687042,
      0.2147311419248581,
      0.19627556204795837,
      0.16682368516921997,
      -0.0017596596153452992,
      0.1230616644024849,
      0.08132719993591309,
      0.06274338066577911,
      -0.33620375394821167,
      0.14046742022037506,
      0.24944202601909637,
      -0.06494324654340744,
      -0.45449572801589966,
      0.23890286684036255,
      -0.5868032574653625,
      0.42599135637283325,
      0.24407730996608734,
      -0.025366537272930145,
      0.10199473053216934,
      -0.03567080572247505,
      0.12283305823802948,
      0.1218203455209732,
      0.10662312060594559,
      -0.36076515913009644,
      0.18677867949008942,
      -0.04283478483557701,
      -0.016004282981157303,
      -0.17307716608047485,
      -0.1571931093931198,
      0.11839216947555542,
      0.14314764738082886,
      0.19146345555782318,
      -0.3079409599304199,
      0.7629472017288208,
      0.7718469500541687,
      0.10873493552207947,
      0.2958330810070038,
      0.061942558735609055,
      -0.3940935432910919,
      -0.4053725600242615,
      0.0502937026321888,
      -0.1201280802488327,
      0.16301001608371735,
      0.1889793872833252,
      0.039772603660821915,
      -0.9309337139129639,
      0.0954914391040802
    ],
    [
      -0.058458372950553894,
      -0.02103622630238533,
      0.024304961785674095,
      0.031058000400662422,
      0.07634985446929932,
      0.03828379884362221,
      0.06138687953352928,
      -0.016969643533229828,
      -0.045103881508111954,
      -0.05119355767965317,
      0.012485489249229431,
      9.138194582192227e-05,
      0.1379271000623703,
      0.03088225983083248,
      -0.05902452766895294,
      0.050279032438993454,
      -0.004806424956768751,
      -0.05933878570795059,
      0.043590422719717026,
      0.0902164876461029,
      -0.11111327260732651,
      -0.013863583095371723,
      0.044513702392578125,
      -0.03149029612541199,
      -0.024550171568989754,
      0.02440987527370453,
      0.07633475959300995,
      -0.07501862943172455,
      0.12270477414131165,
      0.02590125799179077,
      0.007853361777961254,
      0.026061637327075005,
      0.017270661890506744,
      0.07906553149223328,
      0.0015224968083202839,
      0.14645180106163025,
      0.07892808318138123,
      0.04668324068188667,
      -0.0715937614440918,
      0.0697038397192955,
      -0.05311064422130585,
      0.009167629294097424,
      0.019411928951740265,
      -0.014490106143057346,
      0.014446225948631763,
      0.06982066482305527,
      0.00109722965862602,
      0.12833712995052338,
      0.12519599497318268,
      -0.002348363632336259,
      0.040503740310668945,
      0.045716069638729095,
      0.025746282190084457,
      -0.03493868187069893,
      -0.021088270470499992,
      0.058936286717653275,
      0.0051914965733885765,
      -0.00807204470038414,
      -0.018368899822235107,
      0.07247138768434525,
      0.0029609426856040955,
      0.08357105404138565,
      0.1345827430486679,
      0.07977918535470963,
      0.07396490126848221,
      0.0887177437543869,
      0.07016932964324951,
      -0.07298089563846588,
      0.1294659823179245,
      -0.05953681468963623,
      0.07051100581884384,
      0.02549995668232441,
      -0.018969088792800903,
      -0.01567910984158516,
      0.09903159737586975,
      -0.07293534278869629,
      -0.06087223067879677,
      -0.0780058279633522,
      0.046533457934856415,
      -0.12947268784046173,
      0.03404597193002701,
      -0.012388900853693485,
      0.003004045458510518,
      0.015696033835411072,
      -0.055363740772008896,
      0.06085614487528801,
      -0.015814349055290222,
      0.08654762804508209,
      0.15140147507190704,
      -0.023681966587901115,
      0.01803728938102722,
      0.07499536126852036,
      0.0540316104888916,
      0.06880086660385132,
      0.0037230949383229017,
      0.04082915186882019,
      0.010187066160142422,
      -0.06553778052330017,
      -0.02927653305232525,
      0.11090085655450821,
      -0.00268418132327497,
      0.05770018324255943,
      0.06217662990093231,
      0.08726486563682556,
      0.041530925780534744,
      -0.12337733060121536,
      0.011280607432126999,
      0.05433252081274986,
      0.14549648761749268,
      0.07534334063529968,
      0.10366297513246536,
      0.06661795824766159,
      0.13287635147571564,
      0.027072856202721596,
      0.059055570513010025,
      -0.052052196115255356,
      0.004455581773072481,
      -0.018186181783676147,
      -0.08002546429634094,
      0.07727455347776413,
      0.007051344960927963,
      0.0023227697238326073,
      -0.08955547958612442,
      -0.008251670747995377,
      -0.03785449266433716,
      0.028346490114927292,
      0.008343731053173542,
      0.07168745994567871
    ],
    [
      -0.5194153785705566,
      -0.03872969001531601,
      0.22330695390701294,
      0.18472254276275635,
      0.2460392713546753,
      0.11821505427360535,
      0.21493037045001984,
      0.18957625329494476,
      0.23184408247470856,
      -0.11676570773124695,
      -0.4478389620780945,
      0.21143971383571625,
      0.16335316002368927,
      -0.8641887903213501,
      0.4324595034122467,
      0.09638195484876633,
      0.19629551470279694,
      -0.8451513051986694,
      -0.3597184121608734,
      0.2413167804479599,
      -0.06837259978055954,
      -0.16439349949359894,
      0.15171672403812408,
      -0.1719600409269333,
      -0.5288995504379272,
      -0.13784582912921906,
      -0.03967945650219917,
      -0.222698375582695,
      0.26657184958457947,
      0.18155968189239502,
      0.11859600991010666,
      0.17012453079223633,
      0.04857194423675537,
      0.12969185411930084,
      -0.18348073959350586,
      0.15509703755378723,
      0.2699247896671295,
      -0.183365136384964,
      0.24445411562919617,
      0.219873309135437,
      -0.4356919527053833,
      0.22646567225456238,
      0.21654994785785675,
      0.22339163720607758,
      0.2017987221479416,
      0.5611311197280884,
      -0.08062602579593658,
      0.23709134757518768,
      0.34707146883010864,
      -0.010773396119475365,
      0.27987468242645264,
      -0.13838256895542145,
      0.17862743139266968,
      -0.0541364811360836,
      0.20044510066509247,
      -0.058444563299417496,
      -0.06582310050725937,
      0.011981090530753136,
      0.3839525580406189,
      0.4519345462322235,
      0.09820834547281265,
      -0.14006571471691132,
      0.09556905180215836,
      0.2348836064338684,
      0.20798064768314362,
      0.2636485993862152,
      0.2712763845920563,
      0.15122389793395996,
      0.42143115401268005,
      -0.07426108419895172,
      -0.006786325015127659,
      0.09569421410560608,
      0.24309830367565155,
      0.23824584484100342,
      0.4068760573863983,
      -0.31004783511161804,
      -0.09787548333406448,
      -0.8150932192802429,
      0.5165025591850281,
      -0.14841921627521515,
      0.07025265693664551,
      0.3152111768722534,
      0.1339639127254486,
      0.38497668504714966,
      -0.44157490134239197,
      0.16423071920871735,
      0.15961430966854095,
      0.09160155802965164,
      0.1990518867969513,
      0.2982363998889923,
      0.3110979199409485,
      0.09067058563232422,
      0.016636667773127556,
      0.008125413209199905,
      0.028413908556103706,
      0.3646099269390106,
      -0.16580349206924438,
      -0.302877277135849,
      0.27225133776664734,
      0.20365378260612488,
      0.23540720343589783,
      0.24486762285232544,
      -0.5135620832443237,
      0.22468794882297516,
      -0.1132916808128357,
      0.36066344380378723,
      0.1945190280675888,
      0.235561802983284,
      0.310380220413208,
      0.27807632088661194,
      0.22137676179409027,
      0.3114071786403656,
      0.20399662852287292,
      0.018964432179927826,
      0.15310287475585938,
      0.05836505442857742,
      -0.07745708525180817,
      0.5702642798423767,
      -0.1474400907754898,
      0.4528855085372925,
      0.29862523078918457,
      0.2807163596153259,
      -0.11261783540248871,
      -0.4281136691570282,
      -0.8492305874824524,
      0.23115579783916473,
      0.1621038168668747,
      0.16985206305980682
    ],
    [
      -0.008235123939812183,
      0.00021194934379309416,
      0.06909408420324326,
      0.001783821382559836,
      -0.0072129638865590096,
      0.02108255960047245,
      0.004226197022944689,
      0.14365406334400177,
      0.03153936192393303,
      0.022483553737401962,
      -9.172200225293636e-05,
      0.0216843131929636,
      0.15006332099437714,
      0.02413257770240307,
      -0.05482026934623718,
      0.05626780539751053,
      0.1297919750213623,
      -0.06446683406829834,
      0.026471074670553207,
      -0.010967385955154896,
      -0.07018423825502396,
      0.004611504729837179,
      -0.06164063885807991,
      0.12765535712242126,
      -0.01987621560692787,
      -0.08031472563743591,
      0.009773961268365383,
      -0.12938041985034943,
      0.06465891748666763,
      0.04767860844731331,
      -0.03741232678294182,
      0.13170388340950012,
      0.10039761662483215,
      0.02225186862051487,
      0.06008998677134514,
      0.10765763372182846,
      0.025348102673888206,
      0.01607215404510498,
      -0.05345175042748451,
      0.029032127931714058,
      -0.13286347687244415,
      0.15209825336933136,
      0.020058127120137215,
      -0.11797083169221878,
      -0.0019197521032765508,
      0.051340993493795395,
      0.08411434292793274,
      0.014788679778575897,
      0.05584625154733658,
      -0.043102968484163284,
      0.14114266633987427,
      0.05348886176943779,
      -0.02006433717906475,
      0.04221586138010025,
      0.1163206398487091,
      0.08328597992658615,
      -0.11553507298231125,
      0.054208070039749146,
      -0.0008104877197183669,
      -0.06534034758806229,
      0.015544261783361435,
      0.11317402124404907,
      0.04363276809453964,
      0.11421400308609009,
      0.024777105078101158,
      -0.0014783386141061783,
      -0.004335092380642891,
      -0.07529611885547638,
      0.01155309472233057,
      0.020872337743639946,
      0.08715745806694031,
      0.07140080630779266,
      0.04911423102021217,
      0.13662971556186676,
      0.09108660370111465,
      0.0630805566906929,
      0.08450514078140259,
      -0.017006419599056244,
      0.05244725942611694,
      0.03247375413775444,
      -0.04329996556043625,
      0.023754438385367393,
      0.0978098213672638,
      -0.08899973332881927,
      -0.12778916954994202,
      0.008091866970062256,
      0.08101104199886322,
      0.018733548000454903,
      0.027637457475066185,
      -0.03586379438638687,
      -0.01326256338506937,
      0.02942424640059471,
      0.01614062488079071,
      -0.018758999183773994,
      -0.05049018934369087,
      -0.10533734411001205,
      0.009782089851796627,
      0.013433297164738178,
      0.010026602074503899,
      0.0872325673699379,
      -0.002059896243736148,
      0.06541991978883743,
      0.09610336273908615,
      0.017246071249246597,
      0.014579666778445244,
      -0.026894638314843178,
      -0.009798770770430565,
      0.13533492386341095,
      -0.015287455171346664,
      0.06800445169210434,
      0.022685818374156952,
      0.15325866639614105,
      0.09403682500123978,
      -0.05900493264198303,
      -0.05232205241918564,
      0.007210838608443737,
      0.116602823138237,
      -0.03379135578870773,
      -0.0421617291867733,
      -0.11220408231019974,
      -0.10535962134599686,
      0.10239766538143158,
      -0.00014950076001696289,
      0.052727196365594864,
      -0.030198048800230026,
      0.06145167723298073,
      0.06270509958267212,
      -0.009874792769551277
    ],
    [
      -0.12534721195697784,
      0.815114438533783,
      0.5510892271995544,
      0.05149228125810623,
      0.305998831987381,
      -0.027815990149974823,
      0.41904768347740173,
      0.3357527554035187,
      0.1984623670578003,
      -0.10077425092458725,
      -0.5237005352973938,
      0.6820099353790283,
      0.35488975048065186,
      -0.5704613924026489,
      0.16770653426647186,
      0.0323675237596035,
      0.34651991724967957,
      -0.25500407814979553,
      -0.5926795601844788,
      0.28166693449020386,
      0.10213153064250946,
      0.5800800323486328,
      0.5059549808502197,
      0.02167559787631035,
      -0.840969443321228,
      0.15356366336345673,
      0.09549206495285034,
      0.2138899862766266,
      0.5198877453804016,
      0.5569181442260742,
      -0.0526815764605999,
      0.2315487414598465,
      -0.07526940852403641,
      0.02313239499926567,
      -0.31270065903663635,
      0.30853235721588135,
      -0.27725377678871155,
      0.710067868232727,
      0.4781956672668457,
      0.5084489583969116,
      -0.12066429853439331,
      0.23869383335113525,
      -0.18802715837955475,
      0.04064236581325531,
      0.29831191897392273,
      -0.12383690476417542,
      0.5054977536201477,
      0.19818052649497986,
      0.4428410828113556,
      0.16818682849407196,
      0.32475507259368896,
      0.15899533033370972,
      0.26065635681152344,
      -0.2323387861251831,
      0.014685376547276974,
      0.025072703137993813,
      0.3620843291282654,
      -0.07200729846954346,
      0.1365407109260559,
      0.39643675088882446,
      0.19753381609916687,
      0.43438225984573364,
      -0.16130128502845764,
      0.4727124869823456,
      -0.07563579827547073,
      -0.07467151433229446,
      -0.051471028476953506,
      0.43204301595687866,
      -0.5016823410987854,
      0.15630210936069489,
      -0.21557147800922394,
      -0.03543691709637642,
      0.21760497987270355,
      0.33228448033332825,
      -0.29991769790649414,
      -0.18017078936100006,
      0.28709691762924194,
      0.5577751398086548,
      -0.09894788265228271,
      0.19681145250797272,
      0.2673231065273285,
      0.2270476520061493,
      0.38723212480545044,
      0.2666880488395691,
      -0.22149378061294556,
      0.4497750699520111,
      0.6441417336463928,
      0.4066522717475891,
      0.2601107954978943,
      0.4276411235332489,
      0.17842476069927216,
      0.7256258726119995,
      -0.09433561563491821,
      -0.06578647345304489,
      0.4353611469268799,
      -0.0291887354105711,
      0.2948359549045563,
      -0.2597337067127228,
      0.28555402159690857,
      0.3123455345630646,
      0.5028001070022583,
      0.300621896982193,
      -0.3959217965602875,
      0.0588478185236454,
      -0.23740752041339874,
      0.23647986352443695,
      0.34770911931991577,
      0.3014562726020813,
      0.4130643904209137,
      0.5012328028678894,
      0.3416331708431244,
      0.26684489846229553,
      0.7669373750686646,
      -0.2939581573009491,
      0.0009867096086964011,
      0.06127496436238289,
      -0.20705288648605347,
      -0.17292213439941406,
      -0.34653186798095703,
      -0.24865934252738953,
      0.013761530630290508,
      0.3247431516647339,
      0.23392774164676666,
      0.14355716109275818,
      -0.12519055604934692,
      0.2595692574977875,
      0.47846078872680664,
      0.5652446150779724
    ],
    [
      -0.11201827228069305,
      -0.2862626612186432,
      -0.04405214264988899,
      0.17205999791622162,
      0.24222546815872192,
      -0.03445839881896973,
      -0.3389509916305542,
      0.2019166350364685,
      -0.6527945399284363,
      -0.6519796848297119,
      -0.09872999787330627,
      0.6622067093849182,
      0.1563512086868286,
      0.5018548369407654,
      -0.38682836294174194,
      0.12297040224075317,
      0.08429314196109772,
      -0.11769405752420425,
      0.13009534776210785,
      0.19561736285686493,
      0.6018667817115784,
      0.5670948624610901,
      -0.06467456370592117,
      -0.3079947531223297,
      -0.04566403478384018,
      0.4588751494884491,
      -0.5641402006149292,
      -0.2730272710323334,
      0.04980849474668503,
      0.13989399373531342,
      0.1122874841094017,
      0.11852175742387772,
      0.13778196275234222,
      -0.09624853730201721,
      0.2196594923734665,
      0.06541391462087631,
      -0.36592674255371094,
      0.0888611227273941,
      0.2759200930595398,
      0.11491180956363678,
      -0.20076726377010345,
      0.07006192207336426,
      0.19066011905670166,
      0.6001741886138916,
      0.16502292454242706,
      0.10016191005706787,
      0.2469480335712433,
      0.1240115687251091,
      -0.218133807182312,
      -0.16865694522857666,
      0.21225197613239288,
      -0.34290847182273865,
      0.08717934042215347,
      -1.1982401609420776,
      0.204409658908844,
      -0.27584728598594666,
      -0.29821670055389404,
      -0.05275527760386467,
      0.025027964264154434,
      -0.27283594012260437,
      0.15053153038024902,
      -0.14604826271533966,
      0.08929847925901413,
      0.14037910103797913,
      0.8139322996139526,
      0.037875946611166,
      -1.9461766481399536,
      -0.05372568592429161,
      -0.24738481640815735,
      0.04236917942762375,
      0.3572235405445099,
      -0.2286047637462616,
      0.21509912610054016,
      0.2425127923488617,
      0.1459730863571167,
      -0.14543336629867554,
      -0.7820448279380798,
      -0.3545251190662384,
      0.23135040700435638,
      -0.38525307178497314,
      0.015043443068861961,
      0.15897640585899353,
      -0.6709089875221252,
      -0.2102215439081192,
      -1.021700143814087,
      0.7245243787765503,
      0.1840188354253769,
      -0.14552095532417297,
      0.22371681034564972,
      0.19037596881389618,
      0.14860965311527252,
      0.008228135295212269,
      -0.27592599391937256,
      0.1558404117822647,
      -0.1822812259197235,
      0.6898099780082703,
      0.17720697820186615,
      -0.4646710455417633,
      0.3647177219390869,
      0.17886431515216827,
      0.09031300246715546,
      0.204015851020813,
      -0.3422110974788666,
      0.08478614687919617,
      0.1661503165960312,
      -0.0792345330119133,
      -0.0336502343416214,
      0.0979263037443161,
      -0.14597328007221222,
      -0.15943332016468048,
      0.19632822275161743,
      0.16323402523994446,
      0.18335045874118805,
      0.14104925096035004,
      -0.8852165341377258,
      -0.5263686776161194,
      -0.1730586588382721,
      0.34965255856513977,
      0.11223120987415314,
      0.37252768874168396,
      -0.3432394564151764,
      0.21103322505950928,
      -0.32710039615631104,
      -0.36231860518455505,
      -0.9538551568984985,
      0.17592038214206696,
      -0.6253349781036377,
      -0.2541235685348511
    ],
    [
      0.016638899222016335,
      -0.29727986454963684,
      0.02937145344913006,
      -0.12352615594863892,
      0.2046220898628235,
      0.2652696371078491,
      0.03435815870761871,
      0.21237632632255554,
      0.11250349134206772,
      0.2591610550880432,
      0.1888168454170227,
      0.13432693481445312,
      0.17963683605194092,
      -0.05477004498243332,
      0.11120796203613281,
      0.5238264203071594,
      0.07851608842611313,
      0.08720583468675613,
      0.5019575357437134,
      0.14378073811531067,
      0.4640571177005768,
      0.03893725574016571,
      0.07880407571792603,
      -0.03213634714484215,
      -0.014589858241379261,
      0.07393719255924225,
      -0.2892603576183319,
      -0.16286535561084747,
      0.012747271917760372,
      0.07771474868059158,
      0.06820348650217056,
      0.19687813520431519,
      -0.22668972611427307,
      0.1460731327533722,
      0.19587154686450958,
      0.20217692852020264,
      0.0693977028131485,
      -0.13618527352809906,
      -0.26787102222442627,
      0.1527632474899292,
      0.015945812687277794,
      0.18436230719089508,
      -0.41149047017097473,
      0.5770799517631531,
      0.2323942333459854,
      -0.06749724596738815,
      0.3953966498374939,
