{
  "model_type": "sgd_neural_network",
  "architecture": {
    "input_size": 11,
    "hidden_layers": [
      64,
      32
    ],
    "output_size": 1
  },
  "weights": {
    "0.weight": [
      [
        0.2501477599143982,
        -0.09002126753330231,
        -0.2485467493534088,
        0.08205477148294449,
        0.11718272417783737,
        0.08159187436103821,
        -0.038820311427116394,
        0.30256387591362,
        0.28319698572158813,
        -0.11802290380001068,
        0.10218385607004166
      ],
      [
        0.16013014316558838,
        0.06887117028236389,
        -0.15747830271720886,
        -0.13746307790279388,
        0.06880459189414978,
        -0.2884080111980438,
        0.030799448490142822,
        -0.0508342981338501,
        -0.12705078721046448,
        -0.26044681668281555,
        -0.2108047753572464
      ],
      [
        0.10562770813703537,
        0.25236061215400696,
        0.06551896035671234,
        0.2905253469944,
        0.10998453944921494,
        0.035760581493377686,
        0.005921220872551203,
        0.22905156016349792,
        0.307010680437088,
        0.17504478991031647,
        -0.02328813262283802
      ],
      [
        0.18226104974746704,
        0.022460104897618294,
        0.3127504885196686,
        0.2926713228225708,
        0.06818587332963943,
        0.020095020532608032,
        0.21798251569271088,
        -0.18955722451210022,
        -0.19042697548866272,
        0.16925692558288574,
        0.17465367913246155
      ],
      [
        -0.2540637254714966,
        -0.10511243343353271,
        0.17645776271820068,
        0.1602441966533661,
        0.14723920822143555,
        0.0658176839351654,
        -0.08724494278430939,
        -0.23083922266960144,
        -0.2852032780647278,
        -0.04296433925628662,
        -0.2783207893371582
      ],
      [
        0.07724758237600327,
        -0.1440267115831375,
        0.21273314952850342,
        0.059311844408512115,
        -0.08241061866283417,
        -0.12078438699245453,
        -0.18422535061836243,
        0.14233629405498505,
        0.06290269643068314,
        -0.29483363032341003,
        -0.09779981523752213
      ],
      [
        -0.18999634683132172,
        0.12301424145698547,
        -0.2478174865245819,
        0.050972115248441696,
        -0.142616868019104,
        0.29448628425598145,
        0.06136534363031387,
        0.05542566254734993,
        0.2533451318740845,
        -0.1596328318119049,
        -0.2977592945098877
      ],
      [
        0.09761010110378265,
        0.1020762249827385,
        0.2533382177352905,
        -0.16807293891906738,
        -0.2961404025554657,
        0.13144266605377197,
        0.036025021225214005,
        -0.13759981095790863,
        -0.08931535482406616,
        0.17369702458381653,
        0.002034496981650591
      ],
      [
        0.003805845510214567,
        0.17571595311164856,
        0.20520417392253876,
        0.20101697742938995,
        -0.22209958732128143,
        -0.10444806516170502,
        0.2759163975715637,
        0.04289405420422554,
        -0.21244698762893677,
        0.17608113586902618,
        -0.09455841779708862
      ],
      [
        0.21368516981601715,
        -0.021339263767004013,
        -0.15270298719406128,
        -0.06470975279808044,
        0.27177417278289795,
        -0.13747023046016693,
        -0.20356254279613495,
        0.30656152963638306,
        -0.01678512431681156,
        0.2209833711385727,
        0.27139928936958313
      ],
      [
        -0.26448696851730347,
        -0.285096675157547,
        0.006589174270629883,
        0.0604257769882679,
        0.18050482869148254,
        0.08174273371696472,
        -0.10282028466463089,
        -0.24468673765659332,
        -0.08693142980337143,
        -0.27945923805236816,
        -0.10436612367630005
      ],
      [
        0.2912853956222534,
        0.08655877411365509,
        -0.11443879455327988,
        -0.03554460406303406,
        0.15159788727760315,
        0.05767419934272766,
        0.2801462709903717,
        0.11496782302856445,
        -0.16226376593112946,
        -0.014978436753153801,
        -0.23982809484004974
      ],
      [
        0.19276438653469086,
        0.2001265585422516,
        -0.06909079849720001,
        -0.06935997307300568,
        -0.25018563866615295,
        0.06881833076477051,
        -0.005962322931736708,
        -0.21740777790546417,
        0.002105706138536334,
        0.11716236919164658,
        0.24006341397762299
      ],
      [
        -0.14688800275325775,
        0.2612258791923523,
        0.02577890083193779,
        -0.2703261077404022,
        0.24523618817329407,
        -0.11950312554836273,
        -0.079798124730587,
        0.12511269748210907,
        -0.2660241723060608,
        0.06390418112277985,
        -0.16281291842460632
      ],
      [
        -0.24954961240291595,
        0.2887991964817047,
        -0.2259187400341034,
        -0.05034404620528221,
        0.30019906163215637,
        0.040525466203689575,
        -0.08254805952310562,
        0.1829759180545807,
        -0.07807769626379013,
        -0.04043605923652649,
        0.2443261444568634
      ],
      [
        -0.2914436161518097,
        -0.2443779706954956,
        -0.09569764137268066,
        -0.12695589661598206,
        -0.027522176504135132,
        0.14985382556915283,
        -0.16366635262966156,
        0.11610221862792969,
        -0.26440194249153137,
        -0.2385188788175583,
        -0.06259098649024963
      ],
      [
        -0.23461303114891052,
        -0.0029207344632595778,
        0.01385805569589138,
        0.20107968151569366,
        0.27514806389808655,
        -0.022657543420791626,
        -0.053710561245679855,
        0.23599201440811157,
        -0.14093820750713348,
        0.18505240976810455,
        0.1091603934764862
      ],
      [
        -0.010525666177272797,
        0.2897528409957886,
        -0.2259231060743332,
        0.2706591486930847,
        0.12831030786037445,
        0.1786220669746399,
        -0.07937032729387283,
        -0.07460252195596695,
        -0.23539571464061737,
        -0.16048318147659302,
        -0.10747788846492767
      ],
      [
        0.2777165174484253,
        -0.16741563379764557,
        -0.16400739550590515,
        0.2393111288547516,
        -0.17068976163864136,
        -0.28742167353630066,
        -0.14840185642242432,
        0.05082510784268379,
        -0.002576661529019475,
        -0.14725595712661743,
        0.04714715853333473
      ],
      [
        -0.23135991394519806,
        -0.11046496033668518,
        0.1574743390083313,
        0.05392572283744812,
        0.2225639820098877,
        0.19963127374649048,
        -0.21585945785045624,
        0.11962655931711197,
        0.2477867603302002,
        -0.07040943205356598,
        0.15447472035884857
      ],
      [
        0.07516773790121078,
        0.19669972360134125,
        0.13917087018489838,
        0.2838864326477051,
        -0.1692768931388855,
        -0.22616466879844666,
        0.0547390952706337,
        -0.09724466502666473,
        -0.15380336344242096,
        -0.20280271768569946,
        -0.2365679293870926
      ],
      [
        0.16690711677074432,
        0.07011687755584717,
        -0.029073692858219147,
        -0.18761815130710602,
        0.0985230803489685,
        -0.29097917675971985,
        -0.04060934856534004,
        -0.2625095248222351,
        0.31113433837890625,
        0.24081258475780487,
        0.08083322644233704
      ],
      [
        0.10582905262708664,
        0.25051748752593994,
        -0.19219961762428284,
        0.01135314255952835,
        0.07035521417856216,
        -0.1944039762020111,
        -0.15164625644683838,
        -0.162783682346344,
        0.13893365859985352,
        -0.2134113758802414,
        0.20212404429912567
      ],
      [
        0.13335168361663818,
        0.08717833459377289,
        0.03722303733229637,
        -0.11412244290113449,
        -0.08490186184644699,
        -0.021797984838485718,
        0.2651807367801666,
        0.20641149580478668,
        -0.1167457327246666,
        0.04493557661771774,
        0.09386763721704483
      ],
      [
        -0.25268709659576416,
        -0.028269529342651367,
        0.24388474225997925,
        -0.09995515644550323,
        -0.17270492017269135,
        0.06671419739723206,
        -0.1296156495809555,
        0.2971378564834595,
        -0.29146608710289,
        -0.25268396735191345,
        0.01149800419807434
      ],
      [
        -0.1303980052471161,
        -0.10930727422237396,
        -0.18175047636032104,
        0.052999239414930344,
        -0.05024901404976845,
        0.016740083694458008,
        0.24659068882465363,
        -0.03904447332024574,
        0.042462438344955444,
        0.25099149346351624,
        0.19853493571281433
      ],
      [
        0.035624172538518906,
        0.10369468480348587,
        0.09759382903575897,
        -0.2036917358636856,
        0.26700353622436523,
        -0.18470537662506104,
        -0.2452220767736435,
        -0.03238067030906677,
        0.05669182911515236,
        -0.043078452348709106,
        -0.06862998008728027
      ],
      [
        0.15845081210136414,
        -0.06811293959617615,
        0.06791824102401733,
        -0.221868634223938,
        -0.014508962631225586,
        -0.21795746684074402,
        0.10931402444839478,
        -0.0812816470861435,
        0.07573547959327698,
        -0.046010106801986694,
        -0.08835263550281525
      ],
      [
        0.12405676394701004,
        0.031933385878801346,
        -0.24999837577342987,
        0.0592532716691494,
        -0.13559603691101074,
        0.2013956904411316,
        -0.1578732281923294,
        -0.014241243712604046,
        -0.2851659655570984,
        0.21149437129497528,
        -0.0647457167506218
      ],
      [
        -0.0069696344435215,
        0.12718096375465393,
        0.12336959689855576,
        -0.2060766965150833,
        -0.08624289184808731,
        -0.2451811134815216,
        0.25978246331214905,
        0.1563054919242859,
        -0.2595962882041931,
        0.037262678146362305,
        0.2933353781700134
      ],
      [
        -0.22482386231422424,
        0.20129722356796265,
        -0.22520363330841064,
        -0.2455388307571411,
        -0.10862588882446289,
        -0.04004433751106262,
        -0.11047372221946716,
        0.13182702660560608,
        -0.11857889592647552,
        -0.2046610414981842,
        -0.017872244119644165
      ],
      [
        0.251017302274704,
        -0.2243652641773224,
        -0.11532711237668991,
        0.29084062576293945,
        -0.08210398256778717,
        0.11239480972290039,
        0.2907451093196869,
        -0.139245867729187,
        -0.05381370708346367,
        0.08672334998846054,
        0.1511063277721405
      ],
      [
        0.19522294402122498,
        -0.09828567504882812,
        -0.22031228244304657,
        0.02233167737722397,
        0.24406732618808746,
        0.08639919757843018,
        -0.2562812864780426,
        -0.21622394025325775,
        0.0314149335026741,
        0.21729305386543274,
        -0.22754237055778503
      ],
      [
        -0.23014798760414124,
        0.13023005425930023,
        0.26284059882164,
        0.23470881581306458,
        0.07500358670949936,
        -0.2161872684955597,
        0.2719874680042267,
        0.2031286209821701,
        -0.1724565029144287,
        0.19198767840862274,
        0.1382153034210205
      ],
      [
        0.09349848330020905,
        0.18412455916404724,
        0.2862854301929474,
        -0.012128382921218872,
        -0.12858250737190247,
        -0.24630700051784515,
        0.0469825342297554,
        0.25371161103248596,
        0.19543124735355377,
        -0.0786832720041275,
        0.28467705845832825
      ],
      [
        0.2689092457294464,
        -0.1390780359506607,
        -0.2793525755405426,
        -0.18659161031246185,
        0.19384203851222992,
        0.01401016116142273,
        -0.1796179711818695,
        0.25088703632354736,
        -0.048104796558618546,
        -0.26470327377319336,
        0.10504051297903061
      ],
      [
        0.0192929208278656,
        -0.12490750849246979,
        0.17521071434020996,
        -0.09158986806869507,
        -0.2538168430328369,
        -0.036592036485672,
        0.13254475593566895,
        0.007797151803970337,
        -0.14384829998016357,
        -0.2762259244918823,
        -0.10773853957653046
      ],
      [
        0.02405487187206745,
        0.24572283029556274,
        0.23756292462348938,
        -0.1879396140575409,
        -0.13687066733837128,
        -0.13692206144332886,
        -0.022181082516908646,
        -0.23111893236637115,
        -0.12691818177700043,
        0.1887924075126648,
        0.19648128747940063
      ],
      [
        0.07158245891332626,
        -0.26217859983444214,
        0.06407098472118378,
        -0.20500415563583374,
        -0.08155183494091034,
        -0.133302703499794,
        -0.20781701803207397,
        -0.2641255259513855,
        0.19866269826889038,
        0.22887171804904938,
        -0.06025435030460358
      ],
      [
        -0.013613270595669746,
        -0.23270411789417267,
        0.2548489272594452,
        0.11058489978313446,
        0.30560892820358276,
        -0.154887855052948,
        -0.19843259453773499,
        0.031189341098070145,
        0.20279109477996826,
        0.21456730365753174,
        0.19074088335037231
      ],
      [
        -0.2555006444454193,
        -0.03051457367837429,
        0.09399618953466415,
        -0.2741011381149292,
        0.15238001942634583,
        -0.19031769037246704,
        -0.2678731679916382,
        0.15551185607910156,
        -0.06160641461610794,
        0.06349947303533554,
        -0.13562025129795074
      ],
      [
        0.16005025804042816,
        -0.17009341716766357,
        -0.08936446905136108,
        -0.23710940778255463,
        -0.15950071811676025,
        -0.18489357829093933,
        0.0657278373837471,
        0.26274099946022034,
        -0.11916040629148483,
        -0.15748699009418488,
        0.28925371170043945
      ],
      [
        -0.2577345073223114,
        0.2367662489414215,
        0.17276319861412048,
        -0.292278528213501,
        -0.016467465087771416,
        0.08710935711860657,
        -0.06023312732577324,
        0.0020455587655305862,
        0.09646406769752502,
        -0.06925179809331894,
        -0.05837110057473183
      ],
      [
        0.25828784704208374,
        0.29162734746932983,
        0.06399311870336533,
        0.010619093663990498,
        -0.09326338768005371,
        0.22952258586883545,
        0.018619241192936897,
        0.20672178268432617,
        -0.03162088617682457,
        0.20602452754974365,
        -0.26874274015426636
      ],
      [
        0.02045762725174427,
        -0.19159242510795593,
        0.10351036489009857,
        -0.19112206995487213,
        -0.030558951199054718,
        -0.078168123960495,
        0.21496783196926117,
        -0.2771565914154053,
        0.28460898995399475,
        0.2007596492767334,
        -0.293255478143692
      ],
      [
        -0.06586091965436935,
        0.13123612105846405,
        -0.2616156339645386,
        0.09730149805545807,
        -0.19188259541988373,
        0.21179819107055664,
        -0.06537538021802902,
        0.1839933693408966,
        -0.22179555892944336,
        -0.16813452541828156,
        -0.2454858273267746
      ],
      [
        -0.04168378934264183,
        0.14145727455615997,
        -0.18164213001728058,
        -0.2285849004983902,
        -0.026622409000992775,
        0.13769188523292542,
        -0.1080058366060257,
        -0.15834319591522217,
        -0.07894806563854218,
        -0.04200854152441025,
        -0.10812090337276459
      ],
      [
        -0.24728921055793762,
        0.1731833964586258,
        -0.059018999338150024,
        0.1009455993771553,
        0.266582727432251,
        0.30104148387908936,
        -0.2659202218055725,
        0.19534820318222046,
        0.06920205056667328,
        -0.21588711440563202,
        -0.17699524760246277
      ],
      [
        -0.009298162534832954,
        -0.17052467167377472,
        0.01487796101719141,
        0.0894755870103836,
        -0.043332476168870926,
        0.25019603967666626,
        0.1345953345298767,
        -0.1816234290599823,
        0.18617740273475647,
        -0.08159419894218445,
        -0.1546335518360138
      ],
      [
        0.18025198578834534,
        0.16865862905979156,
        -0.2655051052570343,
        0.2033703476190567,
        -0.20780664682388306,
        0.05788421630859375,
        0.30469170212745667,
        -0.10579714924097061,
        0.040047600865364075,
        0.11884058266878128,
        0.004576126579195261
      ],
      [
        -0.07986514270305634,
        -0.2021428346633911,
        -0.1307574361562729,
        0.044977083802223206,
        0.12713207304477692,
        -0.06233730912208557,
        0.16376475989818573,
        -0.13244232535362244,
        0.16519519686698914,
        -0.21338950097560883,
        -0.27370142936706543
      ],
      [
        0.1610935479402542,
        0.20912249386310577,
        0.28595292568206787,
        0.26311635971069336,
        0.19840887188911438,
        0.15800908207893372,
        0.18227332830429077,
        0.09679652005434036,
        -0.17762701213359833,
        -0.20115315914154053,
        0.27074694633483887
      ],
      [
        -0.16570399701595306,
        -0.20273880660533905,
        -0.08864328265190125,
        -0.18985019624233246,
        0.2780331075191498,
        -0.1373104602098465,
        -0.2542767822742462,
        -0.21764850616455078,
        0.02086101844906807,
        -0.14352022111415863,
        -0.06300503015518188
      ],
      [
        -0.10856300592422485,
        0.23362821340560913,
        0.0984361544251442,
        -0.03798080235719681,
        0.1803687959909439,
        0.08507424592971802,
        -0.16582058370113373,
        0.3015443980693817,
        -0.11747132986783981,
        -0.21459011733531952,
        0.1303696483373642
      ],
      [
        -0.265500545501709,
        -0.22989167273044586,
        -0.24664521217346191,
        -0.29744434356689453,
        -0.1283234804868698,
        -0.14617787301540375,
        -0.1613551825284958,
        0.15414509177207947,
        0.2190723866224289,
        0.1643800586462021,
        -0.1257583498954773
      ],
      [
        -0.2080594152212143,
        -0.14026232063770294,
        -0.11487958580255508,
        0.04577880725264549,
        0.1213354617357254,
        0.1471962332725525,
        -0.12592843174934387,
        0.25312113761901855,
        0.08981166034936905,
        -0.010670829564332962,
        0.11970731616020203
      ],
      [
        0.09093955904245377,
        0.2163511961698532,
        -0.15002688765525818,
        -0.12116400897502899,
        0.2497834414243698,
        0.16550108790397644,
        -0.19158220291137695,
        0.10086371749639511,
        -0.03424712270498276,
        0.07001792639493942,
        0.19935297966003418
      ],
      [
        -0.23514249920845032,
        -0.11903133988380432,
        -0.22864633798599243,
        -0.15811939537525177,
        -0.07332519441843033,
        0.06338369846343994,
        -0.25861045718193054,
        0.04776834324002266,
        -0.08685844391584396,
        0.15175196528434753,
        0.13050402700901031
      ],
      [
        0.3007251024246216,
        0.018659422174096107,
        0.009557616896927357,
        -0.29053640365600586,
        -0.04222385585308075,
        0.2337743639945984,
        0.047239262610673904,
        0.21442511677742004,
        0.060741178691387177,
        0.26074013113975525,
        -0.15319068729877472
      ],
      [
        0.2138124257326126,
        -0.268178790807724,
        0.2552885413169861,
        0.0857003778219223,
        0.08596060425043106,
        -0.2717881202697754,
        -0.17211876809597015,
        0.1649198830127716,
        -0.1705937683582306,
        -0.27581456303596497,
        0.0008060671389102936
      ],
      [
        -0.14811326563358307,
        -0.3001334071159363,
        -0.14602218568325043,
        0.18497832119464874,
        -0.007619990035891533,
        0.08243736624717712,
        0.1617581993341446,
        -0.2983105480670929,
        -0.05899491906166077,
        0.11181534826755524,
        -0.12583526968955994
      ],
      [
        0.15504011511802673,
        0.2710896134376526,
        0.09632740914821625,
        0.22493699193000793,
        0.17765748500823975,
        -0.08163000643253326,
        -0.19163744151592255,
        -0.1222333163022995,
        0.2779223918914795,
        0.009330308996140957,
        -0.27586543560028076
      ],
      [
        -0.178858682513237,
        0.2563782334327698,
        0.2044493705034256,
        -0.1077805683016777,
        0.043376170098781586,
        0.06942752003669739,
        -0.04479527473449707,
        -0.09265013784170151,
        0.13327746093273163,
        0.028933661058545113,
        -0.13066120445728302
      ],
      [
        -0.12282853573560715,
        0.27492839097976685,
        -0.2370120882987976,
        0.28666406869888306,
        0.20670662820339203,
        -0.20242410898208618,
        0.2469484955072403,
        0.01967083103954792,
        -0.13420189917087555,
        0.1455432027578354,
        0.01308076549321413
      ]
    ],
    "0.bias": [
      0.3029929995536804,
      -0.280018150806427,
      -0.1776520162820816,
      0.2946362793445587,
      -0.2757565677165985,
      0.07933828979730606,
      -0.15678969025611877,
      0.008912571705877781,
      -0.19974970817565918,
      0.2219383716583252,
      0.12284369021654129,
      -0.14806342124938965,
      -0.14267157018184662,
      -0.15465356409549713,
      -0.2302740067243576,
      0.27130037546157837,
      0.09635559469461441,
      0.10752718895673752,
      0.23717133700847626,
      -0.21200008690357208,
      -0.25025317072868347,
      0.2571406364440918,
      0.02995227836072445,
      -0.2795024514198303,
      -0.28497588634490967,
      -0.2885207533836365,
      -0.1760011613368988,
      -0.21979773044586182,
      0.2938992977142334,
      0.25772127509117126,
      -0.2122557908296585,
      -0.19076426327228546,
      0.04143653064966202,
      0.17536160349845886,
      0.09923360496759415,
      0.2858257591724396,
      -0.034001678228378296,
      -0.13966143131256104,
      -0.13570624589920044,
      -0.12437526881694794,
      -0.17988276481628418,
      -0.04730651527643204,
      0.08545312285423279,
      0.28570830821990967,
      -0.09495458006858826,
      0.26367589831352234,
      0.18529267609119415,
      -0.03751659020781517,
      0.11846274882555008,
      -0.043114762753248215,
      -0.2008080780506134,
      0.21330510079860687,
      0.12327046692371368,
      0.10723254829645157,
      -0.10423017293214798,
      0.19155803322792053,
      -0.2511291205883026,
      0.18266147375106812,
      -0.015455684624612331,
      -0.06296823173761368,
      -0.1359100341796875,
      0.06718605756759644,
      -0.1304648518562317,
      -0.2575283646583557
    ],
    "2.weight": [
      [
        0.0287932101637125,
        -0.11304445564746857,
        0.09689203649759293,
        0.10794641077518463,
        -0.09631460905075073,
        -0.01344121340662241,
        0.03608812391757965,
        -0.11907557398080826,
        -0.03586168214678764,
        -0.08117873966693878,
        -0.05810098350048065,
        0.06825896352529526,
        -0.03698223456740379,
        -0.07355892658233643,
        -0.026800736784934998,
        0.0607646107673645,
        -0.0648852288722992,
        0.06754576414823532,
        0.11810256540775299,
        0.04252331703901291,
        0.02256551757454872,
        -0.08967497944831848,
        -0.04611916095018387,
        0.06801784038543701,
        0.056574344635009766,
        0.08409386873245239,
        -0.12039020657539368,
        0.12234361469745636,
        0.11513501405715942,
        -0.05556551367044449,
        -0.10117186605930328,
        0.020016875118017197,
        -0.005027087405323982,
        -0.0754738450050354,
        0.021961864084005356,
        0.034932974725961685,
        0.11721782386302948,
        -0.05729701370000839,
        0.07652942836284637,
        0.08722981810569763,
        0.12085333466529846,
        -0.08268368244171143,
        -0.06752031296491623,
        -0.11440742760896683,
        0.1065630242228508,
        -0.0771799311041832,
        -0.07313178479671478,
        -0.011353998444974422,
        0.0071318382397294044,
        0.047440797090530396,
        0.012303411029279232,
        0.07824943959712982,
        -0.10092515498399734,
        0.07552585750818253,
        -0.08549593389034271,
        0.0561264231801033,
        -0.05536946654319763,
        -0.08852223306894302,
        -0.013758438639342785,
        0.024008626118302345,
        -0.05664774030447006,
        0.0012571032857522368,
        0.06238377094268799,
        0.08746760338544846
      ],
      [
        -0.11955161392688751,
        0.037155792117118835,
        -0.0773950070142746,
        -0.008492857217788696,
        -0.07381303608417511,
        -0.09817659854888916,
        -0.08814619481563568,
        -0.003812462091445923,
        0.03980925679206848,
        -0.11466918885707855,
        -0.02071923017501831,
        -0.025428488850593567,
        0.08227308094501495,
        0.03884631395339966,
        -0.029687821865081787,
        -0.12373675405979156,
        -0.09918180108070374,
        -0.04637598991394043,
        -0.11458010971546173,
        -0.02523788809776306,
        0.08988171815872192,
        0.11984899640083313,
        0.09957654774188995,
        -0.02811245620250702,
        -0.12480518221855164,
        0.0350477397441864,
        0.10336300730705261,
        0.04625524580478668,
        -0.033290401101112366,
        -0.014403671026229858,
        0.06885932385921478,
        -0.054391101002693176,
        -0.013378307223320007,
        -0.08343933522701263,
        0.030347377061843872,
        0.02727659046649933,
        -0.10864938795566559,
        -0.11215543746948242,
        -0.01033252477645874,
        0.057830989360809326,
        -0.10415525734424591,
        0.001372024416923523,
        -0.04911334812641144,
        -0.08778810501098633,
        0.078873410820961,
        0.08467185497283936,
        0.01685185730457306,
        0.007792636752128601,
        -0.11415813863277435,
        0.10433188080787659,
        -0.10085506737232208,
        -0.0131349116563797,
        -0.005664899945259094,
        -0.03739655017852783,
        -0.08195576071739197,
        0.011225461959838867,
        -0.10857506096363068,
        0.015760034322738647,
        -0.0006056874990463257,
        -0.07010222971439362,
        0.029333889484405518,
        -0.015660643577575684,
        0.039596304297447205,
        0.016906902194023132
      ],
      [
        0.04487619549036026,
        -0.0749284029006958,
        0.09901870042085648,
        -0.07903331518173218,
        -0.11733880639076233,
        -0.05361232906579971,
        0.04074660316109657,
        0.013291253708302975,
        0.09320753067731857,
        0.08755215257406235,
        0.006564348936080933,
        -0.03701471537351608,
        -0.06328056007623672,
        0.11585347354412079,
        -0.06673795729875565,
        0.04850545525550842,
        -0.10097867995500565,
        -0.09705788642168045,
        -0.08871988952159882,
        -0.012541868723928928,
        0.02231547236442566,
        -0.10847333818674088,
        -0.11934790015220642,
        0.03382096812129021,
        -0.12409250438213348,
        -0.10709596425294876,
        -0.08258595317602158,
        0.10554692149162292,
        0.07201605290174484,
        0.05399164929986,
        0.06949546933174133,
        0.08833667635917664,
        -0.020784880965948105,
        0.11279626190662384,
        -0.01566348597407341,
        -0.03487687557935715,
        0.030282244086265564,
        -0.013968479819595814,
        -0.12206776440143585,
        -0.09302012622356415,
        -0.07191620022058487,
        0.1171797662973404,
        -0.10997039824724197,
        -0.004801188595592976,
        -0.016293352469801903,
        0.022362619638442993,
        -0.030334025621414185,
        -0.04200461134314537,
        0.030132923275232315,
        0.06967006623744965,
        -0.03679651394486427,
        0.011507726274430752,
        -0.003851473331451416,
        0.04192259907722473,
        0.09830258786678314,
        0.10795247554779053,
        -0.08894185721874237,
        0.01812622882425785,
        -0.04711044207215309,
        0.08210599422454834,
        0.008536751382052898,
        0.05166944861412048,
        -0.03316287696361542,
        -0.11217606067657471
      ],
      [
        0.09030044078826904,
        -0.09694983065128326,
        -0.05436870828270912,
        0.10446039587259293,
        0.11324460804462433,
        -0.019106119871139526,
        -0.07588326930999756,
        -0.09600050747394562,
        -0.017911052331328392,
        -0.01995081827044487,
        -0.08038461208343506,
        -0.11492963880300522,
        -0.10728732496500015,
        0.010119994170963764,
        -0.03515186905860901,
        -0.004124552011489868,
        0.07562008500099182,
        0.10708405822515488,
        0.0880325436592102,
        0.1060071811079979,
        -0.05307316407561302,
        -0.09702292829751968,
        -0.085245780646801,
        0.082625612616539,
        0.08695827424526215,
        0.10031420737504959,
        0.01652432419359684,
        0.03849238157272339,
        -0.10743410885334015,
        0.09032418578863144,
        -0.07145091891288757,
        0.04840044304728508,
        0.09283967316150665,
        -0.04312853887677193,
        0.03783784061670303,
        -0.011218096129596233,
        -0.10694171488285065,
        0.007006967440247536,
        0.0662701204419136,
        0.0926525741815567,
        -0.07839049398899078,
        -0.03632761165499687,
        -0.11865124106407166,
        -0.03645557165145874,
        -0.0007077291957102716,
        0.09988483041524887,
        -0.0021436065435409546,
        -0.09488529711961746,
        -0.12336783111095428,
        0.052209045737981796,
        0.021904557943344116,
        0.09799297153949738,
        0.01534243393689394,
        -0.08112963289022446,
        -0.005037850234657526,
        0.018855057656764984,
        0.011566493660211563,
        -0.008328359574079514,
        -0.0001858057948993519,
        0.016437694430351257,
        0.05254865437746048,
        -0.13331273198127747,
        -0.061741314828395844,
        -0.07027678191661835
      ],
      [
        0.008670598268508911,
        -0.04569031298160553,
        0.06999217718839645,
        0.1665094941854477,
        0.10222505033016205,
        -0.11163362860679626,
        0.09654225409030914,
        -0.014727099798619747,
        -0.0059624845162034035,
        -0.018549004569649696,
        -0.06822894513607025,
        0.09265386313199997,
        -0.022205566987395287,
        0.023661062121391296,
        0.12328784167766571,
        0.10158675909042358,
        0.11263129860162735,
        0.10885798931121826,
        -0.09644114971160889,
        0.1257963478565216,
        -0.0930848941206932,
        -0.050377342849969864,
        -0.07032730430364609,
        -0.00863929558545351,
        0.008985370397567749,
        0.02397264912724495,
        -0.12146051228046417,
        0.02658708393573761,
        0.06962785869836807,
        0.09907505661249161,
        0.017471686005592346,
        0.017294764518737793,
        0.0575084425508976,
        0.03468872234225273,
        0.10265512764453888,
        -0.02862265706062317,
        0.10567742586135864,
        0.1111266165971756,
        0.1177065372467041,
        0.05414962396025658,
        -0.06113925203680992,
        -0.08721883594989777,
        0.05979190394282341,
        0.1423170268535614,
        -0.0775863379240036,
        0.04718327894806862,
        0.1091187447309494,
        -0.0911005362868309,
        -0.01435235794633627,
        0.03172807767987251,
        0.08293241262435913,
        -0.03209356218576431,
        -0.04669927805662155,
        -0.08877883851528168,
        0.07554687559604645,
        0.11080486327409744,
        0.10352768748998642,
        0.10409744828939438,
        0.018550468608736992,
        -0.11780783534049988,
        0.04445573687553406,
        -0.06741959601640701,
        0.06674432754516602,
        -0.07041042298078537
      ],
      [
        0.12458508461713791,
        -0.04604746401309967,
        0.06005723774433136,
        0.11934458464384079,
        0.050088465213775635,
        -0.07970011979341507,
        0.015964150428771973,
        0.011894406750798225,
        -0.017185108736157417,
        0.03959519416093826,
        -0.03168521448969841,
        0.004253828432410955,
        -0.05125383660197258,
        -0.04078677296638489,
        -0.014330887235701084,
        -0.04137307405471802,
        0.026294564828276634,
        -0.03186992183327675,
        -0.016083896160125732,
        -0.08310194313526154,
        -0.08670754730701447,
        -0.04761869087815285,
        -0.07884284108877182,
        -0.08300246298313141,
        -0.0746224969625473,
        0.02066817134618759,
        0.10848701745271683,
        -0.09768672287464142,
        -0.04012781381607056,
        -0.03765754774212837,
        -0.07617861032485962,
        0.06846783310174942,
        -0.11118702590465546,
        0.04857470840215683,
        0.14177215099334717,
        -0.09718535095453262,
        -0.038832589983940125,
        0.10897022485733032,
        -0.12431759387254715,
        0.05028672516345978,
        -0.0020190374925732613,
        0.051240358501672745,
        0.06873148679733276,
        0.13664989173412323,
        -0.019727198407053947,
        -0.12049147486686707,
        -0.012315789237618446,
        0.06849786639213562,
        -0.02788163162767887,
        0.0963689461350441,
        -0.07010074704885483,
        0.029180990532040596,
        0.0029451053123921156,
        0.06802169233560562,
        -0.07711300998926163,
        0.14471209049224854,
        -0.027677100151777267,
        -0.026236191391944885,
        -0.06045379489660263,
        -0.09079515933990479,
        0.10235004127025604,
        0.009038190357387066,
        0.06717030704021454,
        0.13471871614456177
      ],
      [
        0.05667194351553917,
        -0.11894351243972778,
        -0.07684938609600067,
        0.021602941676974297,
        -0.007619425654411316,
        0.11993661522865295,
        -0.01994592323899269,
        0.00020072940969839692,
        0.016593851149082184,
        0.0972948670387268,
        0.047407276928424835,
        -0.015396131202578545,
        0.04680600389838219,
        -0.002937127836048603,
        0.08167091012001038,
        -0.08326500654220581,
        0.03683839738368988,
        -0.08354612439870834,
        -0.012290558777749538,
        0.09674088656902313,
        -0.06672786176204681,
        -0.1414591372013092,
        0.04790894687175751,
        -0.04800279065966606,
        -0.1060943603515625,
        0.08391064405441284,
        0.08055543899536133,
        0.06104300916194916,
        -0.012601515278220177,
        0.025406165048480034,
        -0.11043955385684967,
        -0.017466304823756218,
        0.04825861379504204,
        -0.04424157366156578,
        -0.005786907859146595,
        0.10434582829475403,
        -0.062015682458877563,
        0.11080846935510635,
        -0.057051945477724075,
        -0.04191792383790016,
        -0.07059142738580704,
        -0.08170471340417862,
        0.06405583769083023,
        0.09347852319478989,
        0.0467914417386055,
        -0.06254468113183975,
        0.11174055188894272,
        0.06721308082342148,
        0.058932825922966,
        0.03279033675789833,
        -0.040124308317899704,
        0.08933186531066895,
        -0.12380437552928925,
        -0.13354183733463287,
        0.043080009520053864,
        -0.01246196124702692,
        0.0484943613409996,
        0.12124320864677429,
        0.1163201630115509,
        0.005698698107153177,
        -0.009724173694849014,
        -0.12462332844734192,
        0.011294418945908546,
        -0.011251550167798996
      ],
      [
        0.0010548585560172796,
        -0.010813266038894653,
        -0.0473678782582283,
        -0.055771954357624054,
        0.0677054226398468,
        0.05759535729885101,
        0.03300921618938446,
        -0.10363104939460754,
        0.05532798171043396,
        -0.029368843883275986,
        -0.06630046665668488,
        0.07762125134468079,
        -0.02758004143834114,
        0.05510973930358887,
        -0.05657993257045746,
        -0.01859453320503235,
        0.08176019042730331,
        -0.09798559546470642,
        -0.02428450435400009,
        -0.091375432908535,
        0.09768225252628326,
        -0.11001529544591904,
        0.060382675379514694,
        -0.0294419527053833,
        0.09503103792667389,
        0.12116383016109467,
        0.1208147406578064,
        -0.018935710191726685,
        -0.10035544633865356,
        0.02011127397418022,
        -0.07513083517551422,
        0.11885501444339752,
        0.07417412102222443,
        0.01763448864221573,
        -0.04108154773712158,
        -0.09578211605548859,
        0.03469674289226532,
        0.06366080045700073,
        -0.07050354778766632,
        -0.019225213676691055,
        0.12408366799354553,
        0.06498277187347412,
        0.000974997878074646,
        -0.024723688140511513,
        0.007518400903791189,
        -0.020479828119277954,
        -0.05612945556640625,
        -0.010949820280075073,
        0.10576619952917099,
        0.0030142907053232193,
        -0.05914139747619629,
        0.0059015885926783085,
        0.11377766728401184,
        -0.1149175614118576,
        0.10555818676948547,
        -0.06867650896310806,
        0.1160489171743393,
        -0.08905470371246338,
        -0.03715977072715759,
        0.06116281449794769,
        -0.01693987101316452,
        -0.04694266617298126,
        0.0723455548286438,
        -0.0722450315952301
      ],
      [
        0.11188254505395889,
        -0.12276098132133484,
        0.05793551355600357,
        -0.009724955074489117,
        -0.0124453604221344,
        -0.08219370990991592,
        -0.007485457230359316,
        -0.11195511370897293,
        -0.08612462133169174,
        0.09748278558254242,
        -0.002984178951010108,
        0.11331181228160858,
        0.013854877091944218,
        -0.12190021574497223,
        0.03300336003303528,
        0.026133596897125244,
        0.09402388334274292,
        -0.03330599144101143,
        -0.08786877244710922,
        -0.12016870826482773,
        0.008478149771690369,
        0.02505381405353546,
        0.051458265632390976,
        0.011639994569122791,
        -0.11130955815315247,
        0.019415849819779396,
        0.020602675154805183,
        0.059136226773262024,
        0.11966021358966827,
        0.11699342727661133,
        -0.004798918962478638,
        -3.850925622828072e-07,
        -0.12398935854434967,
        -0.00648076506331563,
        -0.11829368770122528,
        -0.0724068135023117,
        -0.12192413210868835,
        -0.014881127513945103,
        0.06442292779684067,
        -0.027600042521953583,
        0.06773941963911057,
        -0.018937285989522934,
        -0.09531302005052567,
        -0.02167685516178608,
        0.0014379519270732999,
        -0.05494878441095352,
        -0.03643406182527542,
        -0.020427769050002098,
        0.022850628942251205,
        -0.03743575140833855,
        -0.07727345824241638,
        -0.03873267024755478,
        0.10573945939540863,
        -0.10179196298122406,
        0.030786791816353798,
        -0.11297307908535004,
        0.05945233628153801,
        0.014814132824540138,
        -0.07650580257177353,
        -0.0037572085857391357,
        0.05750105530023575,
        0.038358233869075775,
        0.0001894577289931476,
        0.014525455422699451
      ],
      [
        0.15932752192020416,
        -0.062448650598526,
        0.0015517182182520628,
        0.16825784742832184,
        -0.09252429008483887,
        0.03991232439875603,
        -0.05677714943885803,
        0.026522940024733543,
        -0.013880985789000988,
        0.01181868277490139,
        -0.06782224774360657,
        -0.0935642421245575,
        -0.0131821995601058,
        -0.11471548676490784,
        -0.002039943588897586,
        -0.06403078138828278,
        0.1126919835805893,
        -0.02138788066804409,
        0.039540279656648636,
        0.03925155848264694,
        0.059499651193618774,
        0.09097780287265778,
        -0.1013784408569336,
        -0.050430137664079666,
        0.04183652997016907,
        -0.08132538944482803,
        -0.04447769373655319,
        0.07924707233905792,
        -0.07874082028865814,
        0.12263600528240204,
        -0.007963836193084717,
        0.0019543003290891647,
        0.050511546432971954,
        -0.03582099825143814,
        0.09837335348129272,
        -0.022007441148161888,
        0.07164636254310608,
        -0.045704614371061325,
        -0.005523242522031069,
        0.04240458831191063,
        -0.03818750008940697,
        -0.05215805768966675,
        0.020344750955700874,
        -0.0705462172627449,
        0.0027327747084200382,
        -0.07408354431390762,
        0.04415743052959442,
        0.05210566148161888,
        -0.014124532230198383,
        0.04006856679916382,
        -0.023928077891469002,
        0.1151856854557991,
        0.09633825719356537,
        -0.06620237231254578,
        0.12276947498321533,
        -0.05931558087468147,
        -0.08847738802433014,
        0.05271846428513527,
        -0.0016115739708766341,
        -0.07786788791418076,
        0.08357909321784973,
        0.03616189584136009,
        -0.11346089839935303,
        -0.0051343427039682865
      ],
      [
        -0.10374918580055237,
        0.11935070157051086,
        -0.09340308606624603,
        0.08579003810882568,
        0.011264339089393616,
        -0.11168116331100464,
        0.07430526614189148,
        -0.02542698383331299,
        -0.003774583339691162,
        -0.03642334043979645,
        0.10143207013607025,
        -0.028654024004936218,
        -0.040010154247283936,
        -0.058422982692718506,
        -0.048894524574279785,
        0.051276713609695435,
        -0.034188225865364075,
        0.11253638565540314,
        -0.020946815609931946,
        -0.11604030430316925,
        0.10647805035114288,
        -0.02160698175430298,
        0.06176373362541199,
        0.04630938172340393,
        0.06935061514377594,
        -0.004008695483207703,
        -0.08699208498001099,
        0.007338792085647583,
        0.01955871284008026,
        -0.06990332901477814,
        -0.010448664426803589,
        -0.11953859031200409,
        0.001425236463546753,
        -0.06401117146015167,
        -0.025494709610939026,
        -0.03513483703136444,
        -0.08868853747844696,
        -0.047514691948890686,
        0.04593828320503235,
        -0.10991567373275757,
        0.0815858393907547,
        0.1078648716211319,
        0.09632422029972076,
        0.08689837157726288,
        0.06623616814613342,
        -0.04070304334163666,
        0.08450767397880554,
        0.02786998450756073,
        0.016802236437797546,
        -0.04704985022544861,
        0.0067043304443359375,
        -0.07498601078987122,
        0.10643745958805084,
        -0.005680710077285767,
        -0.12077026069164276,
        0.0001353621482849121,
        0.10721614956855774,
        0.11315365135669708,
        0.01870681345462799,
        0.04174235463142395,
        0.03812311589717865,
        -0.040997132658958435,
        -0.10449095070362091,
        0.0492994487285614
      ],
      [
        -0.09321387857198715,
        0.025175631046295166,
        0.056807536631822586,
        0.07894720882177353,
        -0.009576022624969482,
        -0.11932612210512161,
        -0.06518729776144028,
        -0.01594441942870617,
        -0.0431133396923542,
        -0.025080189108848572,
        -0.009742438793182373,
        -0.05053948611021042,
        -0.08836417645215988,
        -0.10797557979822159,
        -0.05176994204521179,
        -0.06356911361217499,
        0.05340757220983505,
        0.03171147406101227,
        -0.010821291245520115,
        -0.064765065908432,
        0.06449076533317566,
        0.09454643726348877,
        0.03298204764723778,
        -0.10020650923252106,
        -0.09663146734237671,
        0.08111584186553955,
        -0.10210895538330078,
        0.02362905442714691,
        -0.04559580236673355,
        -0.08058009296655655,
        0.024297744035720825,
        0.011275439523160458,
        0.02861567586660385,
        -0.05818615108728409,
        0.08430531620979309,
        0.0755656361579895,
        0.08617058396339417,
        0.10108207166194916,
        -0.01254204660654068,
        -0.07385902106761932,
        -0.09994685649871826,
        -0.09756523370742798,
        0.03225022554397583,
        0.03743360936641693,
        -0.07708614319562912,
        -0.0936584621667862,
        0.1042681485414505,
        -0.12112358957529068,
        -0.09896119683980942,
        0.09749425202608109,
        -0.011479146778583527,
        -0.11980168521404266,
        -0.0924629420042038,
        0.10930436104536057,
        0.07730992138385773,
        -0.048062119632959366,
        -0.11458954960107803,
        0.03278109431266785,
        -0.017398638650774956,
        -0.07658211886882782,
        0.06978019326925278,
        -0.018125565722584724,
        -0.06327155977487564,
        0.04317491874098778
      ],
      [
        0.06724463403224945,
        0.0454285591840744,
        -0.07123295962810516,
        0.006760004907846451,
        0.0607132762670517,
        0.0334528312087059,
        -0.06976199150085449,
        -0.11755087226629257,
        0.10768435150384903,
        -0.07244608551263809,
        0.03351202234625816,
        -0.115468829870224,
        0.07325568795204163,
        -0.07423512637615204,
        0.015841549262404442,
        0.08482407033443451,
        0.050265081226825714,
        0.01627284474670887,
        -0.016812432557344437,
        0.10572109371423721,
        0.02934529073536396,
        -0.07499950379133224,
        -0.015794426202774048,
        0.08618161827325821,
        0.1156369298696518,
        0.0613773874938488,
        -0.04872259125113487,
        -0.031810760498046875,
        0.0489947535097599,
        0.10822026431560516,
        -0.09884069859981537,
        -0.08897610753774643,
        -0.10964945703744888,
        0.044316116720438004,
        0.059741780161857605,
        0.01665046624839306,
        0.08389092981815338,
        0.11691436916589737,
        0.09259377419948578,
        0.07791833579540253,
        0.04665789380669594,
        -0.05506950616836548,
        -0.040792230516672134,
        -0.11146795749664307,
        0.058237455785274506,
        0.10375045984983444,
        0.05016392096877098,
        0.11370069533586502,
        -0.10929666459560394,
        -0.09927938878536224,
        0.022821184247732162,
        -0.08855250477790833,
        0.10203704982995987,
        0.06675104051828384,
        0.055345915257930756,
        0.03213978558778763,
        -0.0808115005493164,
        -0.0669875219464302,
        -0.10970935970544815,
        0.022010227665305138,
        0.09651345014572144,
        -0.014054959639906883,
        0.11953971534967422,
        0.013590325601398945
      ],
      [
        -0.01681101880967617,
        0.027513831853866577,
        -0.011096064932644367,
        0.09677346050739288,
        0.018259674310684204,
        0.05501282215118408,
        -0.03341440483927727,
        0.03918614983558655,
        -0.032740503549575806,
        -0.122219517827034,
        0.12374487519264221,
        -0.12291684746742249,
        0.03052726946771145,
        0.10128684341907501,
        -0.033544450998306274,
        -0.021921008825302124,
        0.02379261888563633,
        0.06109460070729256,
        0.05887916311621666,
        0.017497427761554718,
        0.08530084043741226,
        -0.05966643616557121,
        0.06958521902561188,
        -0.017608508467674255,
        -0.055227041244506836,
        -0.11696822941303253,
        0.04456847533583641,
        0.11706224083900452,
        0.10217676311731339,
        -0.0804489478468895,
        0.034955814480781555,
        5.019836680730805e-05,
        0.06487966328859329,
        0.045938920229673386,
        0.017803562805056572,
        0.042223941534757614,
        0.03068619966506958,
        0.10351516306400299,
        0.12360453605651855,
        0.06845420598983765,
        0.06202514097094536,
        0.04398993030190468,
        0.055905576795339584,
        0.06689000874757767,
        0.09216391295194626,
        -0.10292191803455353,
        0.08305047452449799,
        0.008995743468403816,
        0.024503938853740692,
        -0.06172022223472595,
        0.06398985534906387,
        -0.13352806866168976,
        -0.04639628529548645,
        0.07188598811626434,
        -0.019834890961647034,
        0.05782317742705345,
        -0.033977508544921875,
        -0.09242960065603256,
        0.08343499898910522,
        0.06022726744413376,
        -0.0022760475985705853,
        -0.03819800168275833,
        0.007856238633394241,
        -0.037607792764902115
      ],
      [
        -0.0048837619833648205,
        -0.04765164852142334,
        -0.05899989977478981,
        0.061366353183984756,
        -0.046061232686042786,
        0.07794764637947083,
        -0.0274677537381649,
        -0.014479964971542358,
        -0.10606378316879272,
        -0.13572463393211365,
        -0.12087686359882355,
        -0.0233935359865427,
        -0.10306438058614731,
        0.012951654382050037,
        -0.08354969322681427,
        -0.11329758167266846,
        -0.10365014523267746,
        0.031011227518320084,
        0.06763862073421478,
        -0.07685329765081406,
        -0.0789591446518898,
        0.04571585729718208,
        0.04356381669640541,
        0.04744311422109604,
        -0.10969160497188568,
        0.07995901256799698,
        -0.011442490853369236,
        -0.02289511263370514,
        0.08677122741937637,
        0.1048908680677414,
        0.05590692162513733,
        0.03726675361394882,
        -0.05411040782928467,
        -0.049016185104846954,
        -0.10886867344379425,
        -0.10790801793336868,
        0.012017622590065002,
        0.11373528838157654,
        0.07872291654348373,
        0.050451088696718216,
        0.032336145639419556,
        0.09937094897031784,
        -0.08752205222845078,
        -0.023327184841036797,
        -0.019396668300032616,
        -0.08661288022994995,
        -0.02882091887295246,
        0.02861650474369526,
        -0.050650835037231445,
        -0.08462847769260406,
        0.10769888013601303,
        0.09733961522579193,
        0.07735422998666763,
        0.11929528415203094,
        0.004086230415850878,
        -0.1312064230442047,
        -0.04872523620724678,
        -0.10357644408941269,
        0.03176946938037872,
        -0.11514520645141602,
        0.06902526319026947,
        0.0843581110239029,
        -0.07546871900558472,
        -0.014961370266973972
      ],
      [
        -0.030261129140853882,
        0.10977666079998016,
        0.07215115427970886,
        -0.006201758980751038,
        -0.03691162168979645,
        0.025646105408668518,
        0.045224130153656006,
        -0.02433374524116516,
        -0.07688933610916138,
        0.012296214699745178,
        0.0009007900953292847,
        -0.03923526406288147,
        -0.1102546751499176,
        0.042709022760391235,
        0.029592514038085938,
        -0.12018647789955139,
        -0.11731205880641937,
        0.10894416272640228,
        -0.04923388361930847,
        0.0961323231458664,
        -0.07492029666900635,
        -0.005685463547706604,
        -0.039286985993385315,
        -0.06981043517589569,
        0.08564716577529907,
        -0.0125771164894104,
        0.07279503345489502,
        0.11676530539989471,
        0.013049215078353882,
        -0.09873765707015991,
        -0.04873231053352356,
        0.09891346096992493,
        0.12096530199050903,
        0.0634935051202774,
        -0.0742102712392807,
        -0.10827530920505524,
        -0.11560019850730896,
        0.00872473418712616,
        -0.04535646736621857,
        -0.07416777312755585,
        0.00578683614730835,
        -0.0666290819644928,
        -0.10395102202892303,
        -0.10119611024856567,
        -0.1013273298740387,
        0.12430097162723541,
        -0.08890083432197571,
        -0.06840017437934875,
        -0.10342417657375336,
        -0.036830827593803406,
        0.08244803547859192,
        -0.07263249158859253,
        0.11356344819068909,
        -0.12448063492774963,
        -0.006502971053123474,
        -0.11862155795097351,
        0.12226277589797974,
        -0.01073966920375824,
        0.07188141345977783,
        0.04892060160636902,
        -0.04434162378311157,
        0.0642525851726532,
        0.020786240696907043,
        0.09601689875125885
      ],
      [
        0.006802426651120186,
        -0.08506429195404053,
        -0.060038793832063675,
        0.08134303241968155,
        0.07482722401618958,
        -0.09248171746730804,
        -0.04328355938196182,
        0.12435317784547806,
        -0.11078799515962601,
        -0.08781339228153229,
        -0.09247493743896484,
        0.05868251249194145,
        0.037705570459365845,
        -0.007898439653217793,
        0.07311810553073883,
        -0.027997121214866638,
        -0.03801281750202179,
        0.07666832208633423,
        -0.12728968262672424,
        0.114741250872612,
        0.05000114068388939,
        0.01592308096587658,
        -0.06169508397579193,
        0.08186358213424683,
        -0.006205648183822632,
        0.10160080343484879,
        -0.000999122392386198,
        -0.07192325592041016,
        0.09384357184171677,
        0.08133291453123093,
        -0.06148190796375275,
        0.06319456547498703,
        0.03880961611866951,
        -0.012803568504750729,
        0.08739136904478073,
        0.0659361332654953,
        -0.06321461498737335,
        0.015089727938175201,
        -0.09658946841955185,
        -0.07821385562419891,
        -0.11153731495141983,
        -0.11126463115215302,
        -0.09951146692037582,
        0.06983134150505066,
        -0.09884081035852432,
        -0.058256056159734726,
        0.006450582295656204,
        -0.007596537936478853,
        -0.09196875989437103,
        0.09926148504018784,
        -0.04968653991818428,
        0.0063901059329509735,
        -0.02427632175385952,
        0.1066322848200798,
        0.11309165507555008,
        0.09372206032276154,
        0.1148025393486023,
        -0.050535693764686584,
        0.045128725469112396,
        0.10746432095766068,
        -0.12153249233961105,
        -0.08440644294023514,
        0.11589352786540985,
        -0.07132319360971451
      ],
      [
        -0.008911416865885258,
        0.02002863585948944,
        0.09861892461776733,
        0.08017346262931824,
        -0.032654955983161926,
        -0.07160907983779907,
        0.0017326549859717488,
        -0.013216045685112476,
        0.02028125897049904,
        0.1458355337381363,
        0.11255352199077606,
        0.11085373163223267,
        0.05577518418431282,
        0.07556883990764618,
        0.018431443721055984,
        0.08632434904575348,
        -0.07042662054300308,
        -0.002969837747514248,
        0.010852906852960587,
        0.021971192210912704,
        0.06203186884522438,
        0.08282852172851562,
        -0.05912170931696892,
        -0.07841010391712189,
        -0.11955961585044861,
        0.08683452755212784,
        -0.050556693226099014,
        0.06838150322437286,
        0.05849764496088028,
        0.13753817975521088,
        -0.012572050094604492,
        0.10807804018259048,
        -0.011387404054403305,
        0.11547557264566422,
        0.13185472786426544,
        -0.08140092343091965,
        0.027985364198684692,
        0.03668037801980972,
        0.0684976875782013,
        0.003001586999744177,
        -0.014243064448237419,
        -0.04653860628604889,
        -0.08979648351669312,
        -0.05543702468276024,
        0.12442923337221146,
        0.035362742841243744,
        -0.05506081134080887,
        -0.04861709102988243,
        -0.04086169973015785,
        0.03573570400476456,
        -0.02221139334142208,
        0.14845706522464752,
        0.10965003073215485,
        0.13566114008426666,
        -0.080909863114357,
        -0.047354523092508316,
        0.07902494072914124,
        0.08557108789682388,
        0.13051050901412964,
        0.01858210563659668,
        0.0764101892709732,
        0.04062437266111374,
        -0.00657472712919116,
        -0.08734139055013657
      ],
      [
        -0.1106395423412323,
        0.10791352391242981,
        0.060653023421764374,
        -0.07763686776161194,
        -0.007650583982467651,
        -0.01665508933365345,
        0.03404691442847252,
        -0.08768706023693085,
        -0.027982376515865326,
        -0.043020155280828476,
        0.11988197267055511,
        -0.05879123508930206,
        -0.03650429844856262,
        -0.10378269851207733,
        -0.04207020625472069,
        0.1070583164691925,
        -0.05396121367812157,
        -0.04762988165020943,
        -0.009521928615868092,
        -0.07124076783657074,
        -0.012027516961097717,
        0.0068452442064881325,
        -0.06053093075752258,
        -0.09548726677894592,
        -0.0906333476305008,
        0.0839107558131218,
        0.056768618524074554,
        0.05348996818065643,
        0.0566217415034771,
        0.00034463859628885984,
        -0.10145437717437744,
        0.1049000695347786,
        -0.07971090078353882,
        0.040683817118406296,
        -0.05042271688580513,
        0.04119136929512024,
        -0.06188632547855377,
        -0.1057574599981308,
        -0.0029572397470474243,
        0.09680869430303574,
        0.027955755591392517,
        0.013343408703804016,
        0.11934448778629303,
        0.005711771547794342,
        0.0411156602203846,
        -0.11682737618684769,
        0.049845486879348755,
        -0.05027232691645622,
        -0.03405610844492912,
        0.07638508826494217,
        -0.054322659969329834,
        0.04396664351224899,
        -0.12373380362987518,
        0.07005541026592255,
        0.025434836745262146,
        0.03156276419758797,
        0.04025781527161598,
        0.08557933568954468,
        -0.10127414017915726,
        -0.1117253303527832,
        -0.06573565304279327,
        0.03315602242946625,
        0.08131299167871475,
        0.09921025484800339
      ],
      [
        -0.019596895202994347,
        -0.12338164448738098,
        0.08921786397695541,
        -0.02514619380235672,
        0.1022663414478302,
        -0.059418778866529465,
        0.026273861527442932,
        -0.002930608345195651,
        0.10271413624286652,
        -0.04997063800692558,
        -0.01643785834312439,
        0.10771358013153076,
        0.11622866988182068,
        0.03297712281346321,
        0.11635994166135788,
        0.0911436378955841,
        -0.016739919781684875,
        -0.010734745301306248,
        0.08372434973716736,
        0.09764086455106735,
        -0.020929355174303055,
        -0.04954291880130768,
        0.10105445981025696,
        -0.0019634149502962828,
        0.09890075027942657,
        0.023308541625738144,
        0.1020369753241539,
        -0.034409746527671814,
        -0.04280120134353638,
        0.04784829169511795,
        0.056987568736076355,
        -0.05634903907775879,
        -0.03876350447535515,
        -0.05519748851656914,
        0.006834520027041435,
        0.026321550831198692,
        0.03430730104446411,
        -0.08728808164596558,
        -0.010941088199615479,
        0.0057548657059669495,
        -0.07388030737638474,
        0.12439753115177155,
        0.06695728749036789,
        0.07297693938016891,
        -0.028526736423373222,
        -0.09979540854692459,
        -0.04855019599199295,
        0.0759178027510643,
        -0.09799088537693024,
        -0.055703483521938324,
        0.01946716010570526,
        -0.041092753410339355,
        0.024817733094096184,
        -0.006643068045377731,
        -0.003791123628616333,
        -0.050607409328222275,
        0.032455265522003174,
        -0.03395984321832657,
        0.10349398106336594,
        -0.052271515130996704,
        0.11287666857242584,
        -0.03660948947072029,
        -0.08884065598249435,
        -0.052797235548496246
      ],
      [
        -0.10527036339044571,
        -0.023490503430366516,
        -0.04753774777054787,
        0.0086508234962821,
        0.12298610806465149,
        0.014062312431633472,
        0.047403622418642044,
        0.11864009499549866,
        -0.02760397270321846,
        0.010001085698604584,
        0.03771485388278961,
        -0.11457671225070953,
        0.06108583137392998,
        0.07319760322570801,
        -0.0442182682454586,
        0.03602804243564606,
        -0.011913950555026531,
        0.09425973147153854,
        -0.08912289142608643,
        -0.09420733898878098,
        0.08799278736114502,
        -0.07235763221979141,
        0.11301453411579132,
        0.06060108542442322,
        -0.029440730810165405,
        0.03768056631088257,
        0.03439703583717346,
        0.08062641322612762,
        0.0947357788681984,
        0.029738793149590492,
        0.041798099875450134,
        0.02718193642795086,
        0.04892927408218384,
        0.014370664022862911,
        0.12046577036380768,
        0.057636767625808716,
        -0.0721987783908844,
        0.019483892247080803,
        -0.031327709555625916,
        0.03858816251158714,
        -0.0036010444164276123,
        0.07012583315372467,
        -0.11007026582956314,
        0.013817387633025646,
        0.1077377125620842,
        0.052631646394729614,
        -0.05433277785778046,
        -0.0693490207195282,
        -0.019006533548235893,
        0.08295311033725739,
        0.07084038853645325,
        -0.11783171445131302,
        0.04317052662372589,
        0.0883091613650322,
        -0.04807998239994049,
        -0.005437328480184078,
        0.055649533867836,
        0.061468079686164856,
        -0.1113542690873146,
        -0.04990255832672119,
        0.10275813192129135,
        -0.0033667043317109346,
        0.04751324653625488,
        0.08753661811351776
      ],
      [
        -0.016108181327581406,
        0.04481072723865509,
        0.05905883014202118,
        0.0742863342165947,
        -0.052848801016807556,
        0.07273051887750626,
        -0.11715824902057648,
        -0.005697372369468212,
        -0.0026054726913571358,
        0.00505983829498291,
        0.03936547785997391,
        -0.06975243985652924,
        -0.04807157441973686,
        -0.028392676264047623,
        -0.03245752304792404,
        -0.00651298463344574,
        0.03453906998038292,
        0.11609725654125214,
        0.08707309514284134,
        0.03656165301799774,
        -0.0784410834312439,
        0.021577512845396996,
        -0.04577361047267914,
        -0.06796257942914963,
        -0.09081083536148071,
        -0.022772863507270813,
        0.11656054854393005,
        0.0041065514087677,
        0.11103281378746033,
        -0.023212723433971405,
        -0.05336761474609375,
        0.027750317007303238,
        0.021763985976576805,
        -0.05468001589179039,
        -0.04796075448393822,
        0.039738163352012634,
        -0.09054706990718842,
        -0.12046526372432709,
        0.006796800531446934,
        -0.052665747702121735,
        0.12275069206953049,
        -0.0799700915813446,
        -0.06578952074050903,
        0.08326297253370285,
        -0.06351801007986069,
        -0.004422415979206562,
        0.03443438932299614,
        0.10508891195058823,
        -0.03281036764383316,
        -0.117014080286026,
        0.11225353926420212,
        0.011193318292498589,
        0.12109733372926712,
        0.07636275142431259,
        -0.0951547920703888,
        0.06630036234855652,
        0.06847656518220901,
        -0.05011128634214401,
        -0.04181390255689621,
        0.11009788513183594,
        -0.12264943867921829,
        0.021342763677239418,
        -0.09451781958341599,
        -0.03107977658510208
      ],
      [
        0.03699006885290146,
        0.09436824917793274,
        0.11528345197439194,
        0.10613910853862762,
        -0.11568950116634369,
        -0.10924256592988968,
        -0.09926720708608627,
        -0.031147688627243042,
        0.09346849471330643,
        0.06921282410621643,
        -0.12216246873140335,
        -0.09963840991258621,
        -0.0846560075879097,
        0.03823019564151764,
        0.0008257160079665482,
        0.1146383285522461,
        0.04086843878030777,
        0.08557542413473129,
        -0.07712534070014954,
        0.061225589364767075,
        -0.06454445421695709,
        0.10519587993621826,
        -0.026718366891145706,
        0.08254633098840714,
        0.009832829236984253,
        -0.04176716133952141,
        0.11455772072076797,
        -0.04436993598937988,
        0.1095639020204544,
        -0.0436568409204483,
        0.06215484440326691,
        0.12000839412212372,
        0.08272896707057953,
        0.1429101675748825,
        0.15904058516025543,
        0.03562471270561218,
        -0.11741001904010773,
        -0.07913560420274734,
        -0.041950203478336334,
        -0.061617836356163025,
        0.06166938319802284,
        0.10361979156732559,
        -0.10534064471721649,
        -0.03370431438088417,
        -0.08322791755199432,
        -0.06822920590639114,
        -0.0073842438869178295,
        0.10801703482866287,
        0.009326575323939323,
        0.0030691521242260933,
        -0.04651535302400589,
        0.02452472411096096,
        0.044212982058525085,
        0.027652807533740997,
        0.028912097215652466,
        0.011883447878062725,
        0.10315792262554169,
        0.0957973375916481,
        -0.0977000892162323,
        -0.09244812279939651,
        -0.08580010384321213,
        0.014186006039381027,
        -0.01489933580160141,
        -0.08642810583114624
      ],
      [
        0.06744019687175751,
        0.008580103516578674,
        0.04108986631035805,
        -0.02012263610959053,
        0.09800322353839874,
        0.10987219214439392,
        0.08571204543113708,
        0.0210107434540987,
        -0.10907332599163055,
        -0.029975151643157005,
        0.013498968444764614,
        0.1024167463183403,
        0.037356406450271606,
        0.019880816340446472,
        -0.062468115240335464,
        0.012613609433174133,
        0.014535735361278057,
        0.11730283498764038,
        -0.03785914182662964,
        0.008693922311067581,
        0.08539887517690659,
        -0.09967256337404251,
        -0.028850441798567772,
        -0.07324640452861786,
        -0.1233062744140625,
        -0.07729537039995193,
        0.040481775999069214,
        -0.012731865048408508,
        -0.09704139828681946,
        0.007559118326753378,
        0.09176759421825409,
        0.040668584406375885,
        -0.11552044749259949,
        0.06074972078204155,
        0.02410334348678589,
        -0.09082293510437012,
        -0.06010168790817261,
        -0.10469678789377213,
        0.12312862277030945,
        -0.11340086907148361,
        0.0553719699382782,
        -0.05842137336730957,
        -0.030723867937922478,
        -0.08019530028104782,
        -0.013920276425778866,
        0.11369140446186066,
        -0.0006786882877349854,
        -0.04306179657578468,
        -0.07341274619102478,
        0.09730430692434311,
        0.03791187331080437,
        0.02374955825507641,
        0.04464179649949074,
        -0.1199282631278038,
        -0.04669256508350372,
        -0.07386714220046997,
        -0.05102125555276871,
        -0.08354531228542328,
        -0.03055858612060547,
        0.04460311681032181,
        -0.0747072622179985,
        -0.03149973601102829,
        -0.06366536021232605,
        -0.011369500309228897
      ],
      [
        -0.05973782390356064,
        -0.010958284139633179,
        0.006040364038199186,
        0.03701823204755783,
        0.016655489802360535,
        -0.01139521598815918,
        0.057931579649448395,
        0.0975966602563858,
        0.11842110008001328,
        -0.08593085408210754,
        -0.08696445822715759,
        -0.11492104083299637,
        -0.10985007882118225,
        0.07737401127815247,
        -0.060070738196372986,
        -0.018864944577217102,
        -0.12404224276542664,
        0.02879474312067032,
        -0.01599111407995224,
        -0.0005355179309844971,
        0.09009137749671936,
        0.12294887006282806,
        0.09854760766029358,
        -0.05840348079800606,
        0.07312008738517761,
        0.054518669843673706,
        0.021390631794929504,
        0.01860131323337555,
        -0.047162603586912155,
        0.04905465990304947,
        0.10177968442440033,
        -0.004198580048978329,
        -0.03826461359858513,
        -0.07289111614227295,
        0.01246111560612917,
        -0.033385008573532104,
        -0.054570868611335754,
        -0.11080282926559448,
        0.0009189099073410034,
        0.037127409130334854,
        -0.019992858171463013,
        -0.0028272420167922974,
        0.04851184040307999,
        -0.04402120038866997,
        -0.03415130451321602,
        -0.10061609745025635,
        0.029158413410186768,
        -0.09802071750164032,
        -0.06056622415781021,
        0.04461044818162918,
        -0.05493655800819397,
        -0.06535569578409195,
        0.06860558688640594,
        0.06983064860105515,
        0.07457651197910309,
        -0.07889652997255325,
        -0.07181788980960846,
        0.11748425662517548,
        0.06603223085403442,
        -0.06297050416469574,
        0.0007288687629625201,
        -0.016683926805853844,
        0.09514018148183823,
        0.1140657439827919
      ],
      [
        0.07789559662342072,
        -0.029727667570114136,
        0.04360946640372276,
        -0.05499665066599846,
        0.11838267743587494,
        0.04562613368034363,
        -0.02811642549932003,
        -0.010886434465646744,
        0.03659328445792198,
        0.04695570841431618,
        0.0643981397151947,
        -0.12170224636793137,
        0.06949196010828018,
        0.016989894211292267,
        -0.04244295507669449,
        -0.08166426420211792,
        0.016955694183707237,
        -0.0911773070693016,
        0.01268867589533329,
        0.10017247498035431,
        -0.056046873331069946,
        -0.08471386134624481,
        -0.1089666560292244,
        0.0033409905154258013,
        -0.04887479543685913,
        -0.07810273766517639,
        0.06769745796918869,
        -0.004871249198913574,
        -0.01790696009993553,
        -0.06379653513431549,
        0.09022122621536255,
        0.062377043068408966,
        0.09336858242750168,
        0.06842796504497528,
        0.07742317020893097,
        -0.021860551089048386,
        -0.0972377210855484,
        0.02348817139863968,
        -0.017196200788021088,
        -0.07526316493749619,
        -0.1227421686053276,
        -0.10594102740287781,
        -0.055991850793361664,
        0.12091585993766785,
        -0.1177389919757843,
        -0.03191216662526131,
        -0.05693269520998001,
        -0.04216768220067024,
        0.07754781097173691,
        0.11661449074745178,
        0.09253952652215958,
        -0.021506989374756813,
        -0.06453884392976761,
        -0.012607507407665253,
        0.03944845125079155,
        0.13023731112480164,
        -0.11540225148200989,
        0.10135827958583832,
        -0.01572241447865963,
        0.06772296130657196,
        0.09531249105930328,
        -0.04467468708753586,
        -0.04324372857809067,
        -0.12044623494148254
      ],
      [
        0.09923872351646423,
        0.01645718514919281,
        0.12524521350860596,
        0.11400257050991058,
        -0.030731141567230225,
        -0.0440281443297863,
        0.08939500153064728,
        0.041682396084070206,
        -0.08035431802272797,
        0.06392130255699158,
        0.036311790347099304,
        0.1020892858505249,
        -0.1033775806427002,
        0.1041325107216835,
        -0.057690661400556564,
        -0.0366041362285614,
        -0.019542552530765533,
        -0.06409937888383865,
        0.1248648390173912,
        0.01234977226704359,
        -0.07793556898832321,
        0.06256494671106339,
        0.09405583888292313,
        -0.07396415621042252,
        -0.03125385940074921,
        -0.10626862198114395,
        -0.07237634062767029,
        -0.08101490139961243,
        -0.06305810064077377,
        0.04993199184536934,
        -0.09227557480335236,
        0.10016635805368423,
        -0.09804707020521164,
        0.043499115854501724,
        0.14465220272541046,
        -0.019258197396993637,
        0.02449648082256317,
        0.08305908739566803,
        -0.09016256034374237,
        0.15021005272865295,
        -0.06915229558944702,
        0.11511635035276413,
        -0.09822734445333481,
        0.14052928984165192,
        0.030904993414878845,
        -0.04946836829185486,
        -0.0532277449965477,
        -0.06680795550346375,
        -0.08686942607164383,
        0.09116163104772568,
        -0.05855559930205345,
        -0.005232284776866436,
        -0.01850735768675804,
        0.13083665072917938,
        -0.002172673586755991,
        0.013779474422335625,
        -0.07397706806659698,
        0.04197102040052414,
        -0.07092376798391342,
        -0.0870940163731575,
        -0.03940601646900177,
        -0.03474810719490051,
        0.11257995665073395,
        0.07788515836000443
      ],
      [
        0.06809719651937485,
        0.010085523128509521,
        -0.017017986625432968,
        0.10895136743783951,
        0.06485395133495331,
        -0.015153151005506516,
        -0.05048290640115738,
        0.008547190576791763,
        -0.017027229070663452,
        0.0007810634560883045,
        0.06584422290325165,
        -0.12405724078416824,
        0.04246513545513153,
        0.08055449277162552,
        -0.013424632139503956,
        -0.03403733670711517,
        -0.1320803165435791,
        0.059168990701436996,
        -0.08677712827920914,
        -0.03812706470489502,
        0.02324536442756653,
        -0.007539489306509495,
        0.07762981206178665,
        -0.06507077813148499,
        0.11888952553272247,
        -0.06604835391044617,
        0.02906637452542782,
        -0.013268157839775085,
        -0.029965506866574287,
        -0.0823344960808754,
        0.03276965022087097,
        0.06765179336071014,
        -0.0692327693104744,
        -0.06936833262443542,
        -0.07575099915266037,
        0.1063278540968895,
        -0.11983880400657654,
        0.05211006477475166,
        0.012276403605937958,
        -0.10923018306493759,
        -0.11653263121843338,
        0.010274780914187431,
        0.06724574416875839,
        0.029275109991431236,
        -0.07470211386680603,
        -0.07392924278974533,
        -0.04692485183477402,
        0.10427196323871613,
        0.005664884578436613,
        -0.03692958503961563,
        -0.08402220904827118,
        -0.0029436557088047266,
        0.0009306506835855544,
        -0.09995148330926895,
        -0.04799212887883186,
        0.060435112565755844,
        -0.08873672783374786,
        -0.06904744356870651,
        0.011142930015921593,
        0.07833357155323029,
        0.12163196504116058,
        -0.016697634011507034,
        0.10973844677209854,
        0.06010701507329941
      ],
      [
        0.004153111018240452,
        -0.07379455864429474,
        0.1655799150466919,
        0.059548795223236084,
        0.113786980509758,
        0.12673768401145935,
        -0.04446856677532196,
        -0.12072186172008514,
        0.03408980369567871,
        0.12954305112361908,
        0.050268158316612244,
        -0.0759720727801323,
        -0.04434606432914734,
        -0.005974551662802696,
        0.11839791387319565,
        -0.05514174699783325,
        -0.03981740027666092,
        -0.05828079953789711,
        -0.021978581324219704,
        -0.05739735811948776,
        0.02669662795960903,
        0.14507819712162018,
        0.12896937131881714,
        0.06160254776477814,
        -0.0369526743888855,
        -0.06943397969007492,
        -0.10335110127925873,
        0.07249310612678528,
        -0.09202627092599869,
        0.01607525534927845,
        -0.07383909821510315,
        0.1284380555152893,
        0.11432013660669327,
        0.1016198992729187,
        -0.07489808648824692,
        0.01648489013314247,
        -0.08719265460968018,
        -0.015489068813621998,
        -0.05230284482240677,
        0.14223651587963104,
        -0.022546635940670967,
        0.014998425729572773,
        -0.1043180376291275,
        0.011869153939187527,
        0.13485056161880493,
        0.09881468862295151,
        -0.06127021089196205,
        0.037728141993284225,
        -0.013382467441260815,
        -0.039394084364175797,
        -0.07810301333665848,
        0.023996682837605476,
        -0.03759748861193657,
        -0.05978630483150482,
        -0.0388968400657177,
        0.11513559520244598,
        -0.019708653911948204,
        0.003791721537709236,
        0.087538942694664,
        -0.038729894906282425,
        0.12381734699010849,
        0.011099020019173622,
        0.061272475868463516,
        0.13712766766548157
      ],
      [
        -0.029910674318671227,
        0.11159826815128326,
        0.07819230109453201,
        0.09122331440448761,
        0.011565178632736206,
        -0.11763393878936768,
        -0.06266109645366669,
        0.09417899698019028,
        -0.07889852672815323,
        0.015812166035175323,
        0.11172588169574738,
        0.07631205022335052,
        0.07372108846902847,
        0.012979364953935146,
        0.10452485829591751,
        -0.10621847212314606,
        -0.07437776774168015,
        0.12249156087636948,
        -0.08988267183303833,
        0.0037600549403578043,
        -0.10735148936510086,
        0.09913613647222519,
        0.08786319941282272,
        0.06359726190567017,
        0.07284155488014221,
        -0.06301312148571014,
        -0.006727986969053745,
        -0.11947771906852722,
        0.04634850472211838,
        0.03563360497355461,
        0.02723078429698944,
        0.005092473700642586,
        -0.07655924558639526,
        0.0018373694038018584,
        0.092584528028965,
        -0.05383823812007904,
        0.06364627182483673,
        -0.0855194553732872,
        -0.06945298612117767,
        -0.03537152335047722,
        -0.06489206105470657,
        0.1069725975394249,
        0.02000846154987812,
        0.0003250461886636913,
        0.04178091511130333,
        -0.03563539683818817,
        -0.07940107583999634,
        0.04970183223485947,
        0.0151155861094594,
        0.10971333831548691,
        -0.05208045244216919,
        0.10897388309240341,
        -0.04002796858549118,
        0.09672525525093079,
        -0.07230184972286224,
        0.03864213079214096,
        0.08272794634103775,
        -0.08906210958957672,
        0.09742763638496399,
        -0.10533560812473297,
        0.05482802912592888,
        -0.01202397607266903,
        -0.022379063069820404,
        0.04747719690203667
      ],
      [
        -0.058939918875694275,
        0.044357478618621826,
        -0.007596015930175781,
        -0.0805189460515976,
        -0.008403360843658447,
        0.08826881647109985,
        -0.028128907084465027,
        0.0648777037858963,
        -0.09759701788425446,
        -0.08289304375648499,
        0.06808988749980927,
        0.0632588267326355,
        -0.01831194758415222,
        0.10988189280033112,
        -0.11784152686595917,
        -0.09953787922859192,
        -0.07900276780128479,
        -0.10247752070426941,
        0.08456842601299286,
        0.0874285101890564,
        0.08510974049568176,
        -0.11766873300075531,
        0.08514127135276794,
        0.06951844692230225,
        -0.0651063472032547,
        -0.07427029311656952,
        0.030248746275901794,
        0.0733872801065445,
        0.02861468493938446,
        0.10342904925346375,
        -0.06484648585319519,
        0.08642511069774628,
        -0.05323229730129242,
        -0.08244332671165466,
        0.006829380989074707,
        0.12210312485694885,
        0.050072893500328064,
        -0.04973888397216797,
        -0.09250812232494354,
        0.08460688591003418,
        0.07773172855377197,
        -0.11677661538124084,
        0.0766984075307846,
        0.059856414794921875,
        0.014939814805984497,
        0.05735403299331665,
        0.0557682067155838,
        0.0495833158493042,
        0.11825922131538391,
        0.11460675299167633,
        0.09126193821430206,
        -0.03537119925022125,
        -0.09618070721626282,
        0.008452534675598145,
        -0.05814138054847717,
        -0.03241454064846039,
        0.026684090495109558,
        -0.02058415114879608,
        0.09442999958992004,
        0.05336277186870575,
        0.022347137331962585,
        -0.06067898869514465,
        -0.12143966555595398,
        -0.052846670150756836
      ],
      [
        0.07729867100715637,
        0.015518322587013245,
        -0.09983789920806885,
        0.06715913861989975,
        -0.03391687572002411,
        -0.11994288861751556,
        -0.058277569711208344,
        -0.10773716121912003,
        0.04569204896688461,
        0.09153059124946594,
        0.02239494025707245,
        -0.11291507631540298,
        0.05643857270479202,
        -0.10379962623119354,
        0.06263191998004913,
        0.08334799110889435,
        0.016222406178712845,
        -0.013014988042414188,
        -0.07234238088130951,
        -0.10160034894943237,
        0.1100914478302002,
        -0.09087547659873962,
        0.029892727732658386,
        0.08608711510896683,
        -0.11618579924106598,
        -0.02517916075885296,
        0.05949731171131134,
        0.09035642445087433,
        0.038450442254543304,
        -0.05187010020017624,
        0.10446551442146301,
        0.01723187044262886,
        -0.058682773262262344,
        0.10647949576377869,
        -0.12093684822320938,
        -0.04341965913772583,
        0.01364809274673462,
        -0.0115041583776474,
        -0.061215147376060486,
        -0.049870315939188004,
        0.12388832867145538,
        -0.03462107479572296,
        -0.11333240568637848,
        0.08130764216184616,
        -0.06852871924638748,
        0.10635428130626678,
        0.044066935777664185,
        0.10252740979194641,
        -0.03868645429611206,
        0.005381973460316658,
        0.0406215637922287,
        -0.04441795125603676,
        0.0026525557041168213,
        -0.0870637446641922,
        0.1020793616771698,
        0.09319303184747696,
        0.065268874168396,
        0.0564814954996109,
        -0.0664297491312027,
        0.012997239828109741,
        -0.07831719517707825,
        -0.1041494756937027,
        0.025711670517921448,
        0.05263844132423401
      ]
    ],
    "2.bias": [
      0.10860298573970795,
      0.03873142600059509,
      -0.07546715438365936,
      -0.10256458818912506,
      0.17628389596939087,
      0.09692174196243286,
      -0.0893857479095459,
      -0.01675787940621376,
      -0.05466865375638008,
      0.026411596685647964,
      -0.010100916028022766,
      0.030735164880752563,
      0.046435143798589706,
      -0.007859451696276665,
      0.07551075518131256,
      -0.01600426435470581,
      0.08681368082761765,
      0.18771637976169586,
      -0.08225660771131516,
      -0.08672279864549637,
      -0.012686312198638916,
      -0.08974894881248474,
      0.11531722545623779,
      0.11677078902721405,
      0.019930748268961906,
      0.12909601628780365,
      0.22337974607944489,
      0.08535229414701462,
      0.21075940132141113,
      -0.07822464406490326,
      -0.048851147294044495,
      -0.01623772643506527
    ],
    "4.weight": [
      [
        0.027203163132071495,
        -0.12341330945491791,
        0.05020081251859665,
        -0.14739888906478882,
        0.24649427831172943,
        0.23207755386829376,
        -0.13404302299022675,
        0.04924304038286209,
        -0.05385475978255272,
        0.24213875830173492,
        -0.0057729631662368774,
        0.012185334227979183,
        -0.06472045183181763,
        -0.061946116387844086,
        -0.15131764113903046,
        -0.08061054348945618,
        -0.02475917711853981,
        0.2945677936077118,
        0.014395412057638168,
        -0.060412876307964325,
        -0.12768594920635223,
        0.08398978412151337,
        0.260741651058197,
        0.11169517040252686,
        -0.14639435708522797,
        0.10246542096138,
        0.3574369549751282,
        -0.08398652821779251,
        0.30555853247642517,
        0.049761150032281876,
        0.0062578171491622925,
        -0.07046391069889069
      ]
    ],
    "4.bias": [
      0.4444110691547394
    ]
  },
  "state_features": [
    "own_funds",
    "own_score",
    "opponent_score",
    "own_survivors",
    "opponent_survivors",
    "consecutive_losses",
    "is_ct_side",
    "round_number",
    "half_length",
    "last_round_reason",
    "last_bomb_planted"
  ],
  "normalization": {
    "own_funds": 999999.0,
    "own_score": 16.0,
    "opponent_score": 16.0,
    "own_survivors": 5.0,
    "opponent_survivors": 5.0,
    "consecutive_losses": 5.0,
    "round_number": 30.0,
    "half_length": 15.0,
    "last_round_reason": 4.0
  }
}