{
  "model_type": "sgd_neural_network",
  "architecture": {
    "input_size": 11,
    "hidden_layers": [
      64,
      32
    ],
    "output_size": 1
  },
  "weights": {
    "0.weight": [
      [
        -0.01502149272710085,
        0.07973740994930267,
        -0.08342621475458145,
        0.23024900257587433,
        0.21978746354579926,
        0.01790595054626465,
        -0.04592351242899895,
        0.12479760497808456,
        -0.18302856385707855,
        -0.19839158654212952,
        -0.018734272569417953
      ],
      [
        -0.19624777138233185,
        -0.04148530960083008,
        -0.2154185175895691,
        0.044603943824768066,
        -0.2062777876853943,
        0.1587730050086975,
        0.028033137321472168,
        -0.2827896773815155,
        0.0907038152217865,
        -0.1759554147720337,
        -0.10673590004444122
      ],
      [
        0.13332337141036987,
        -0.2889131009578705,
        -0.07169784605503082,
        -0.043003007769584656,
        -0.21198274195194244,
        0.10909879207611084,
        0.007035869639366865,
        0.23628830909729004,
        0.031894389539957047,
        0.17277809977531433,
        0.08427067846059799
      ],
      [
        0.30134931206703186,
        0.24525538086891174,
        -0.24886848032474518,
        -0.05936848744750023,
        0.3046456575393677,
        0.24209660291671753,
        -0.1476651132106781,
        0.18644534051418304,
        0.18979652225971222,
        0.30985787510871887,
        -0.2595043480396271
      ],
      [
        0.03929736092686653,
        0.25355711579322815,
        -0.307842493057251,
        0.08293285220861435,
        -0.1505875438451767,
        -0.037919849157333374,
        0.04449698328971863,
        0.06347475945949554,
        0.19361203908920288,
        -0.17276230454444885,
        0.056980546563863754
      ],
      [
        -0.286573588848114,
        -0.21732255816459656,
        0.1411764919757843,
        -0.11211426556110382,
        -0.05290083587169647,
        0.14109012484550476,
        0.1505155861377716,
        0.10645368695259094,
        -0.29436153173446655,
        -0.20560091733932495,
        -0.12345358729362488
      ],
      [
        0.13208958506584167,
        0.20755831897258759,
        -0.293199360370636,
        0.21226535737514496,
        0.28372010588645935,
        -0.014743417501449585,
        -0.15790213644504547,
        -0.30034568905830383,
        0.058873094618320465,
        0.27437838912010193,
        0.14710702002048492
      ],
      [
        -0.24463559687137604,
        0.26762303709983826,
        0.27121374011039734,
        -0.2759142220020294,
        -0.06363283842802048,
        -0.05223165452480316,
        -0.09801571816205978,
        -0.07789270579814911,
        -0.187251478433609,
        -0.2372550219297409,
        -0.2892771363258362
      ],
      [
        0.09714259207248688,
        -0.13617488741874695,
        -0.058059073984622955,
        0.29924508929252625,
        0.14987684786319733,
        0.16898059844970703,
        -0.13093724846839905,
        0.13196788728237152,
        -0.2554216682910919,
        0.26593971252441406,
        0.13241860270500183
      ],
      [
        0.20518383383750916,
        -0.28845804929733276,
        0.19329747557640076,
        -0.2020118683576584,
        -0.2316722273826599,
        0.21005868911743164,
        0.28315794467926025,
        0.009767372161149979,
        0.179599791765213,
        -0.20345091819763184,
        -0.299051970243454
      ],
      [
        -0.20483845472335815,
        0.036292221397161484,
        -0.027760036289691925,
        -0.21369771659374237,
        -0.13498978316783905,
        0.002223193645477295,
        0.2808955907821655,
        -0.02910170704126358,
        0.3861118257045746,
        -0.008070521987974644,
        0.20937581360340118
      ],
      [
        0.15614502131938934,
        -0.13104325532913208,
        0.27222123742103577,
        0.27032437920570374,
        -0.2537030875682831,
        0.2799157500267029,
        -0.04886091127991676,
        -0.24409353733062744,
        -0.2022150307893753,
        -0.015798106789588928,
        -0.2575128972530365
      ],
      [
        -0.14751718938350677,
        -0.18533176183700562,
        0.203080952167511,
        -0.1299227923154831,
        0.037560537457466125,
        0.04508724808692932,
        -0.28045427799224854,
        -0.011408397927880287,
        0.17978745698928833,
        0.04284181818366051,
        -0.019214484840631485
      ],
      [
        0.1297566145658493,
        0.22698535025119781,
        0.06007777526974678,
        0.29261401295661926,
        0.23209898173809052,
        -0.16494832932949066,
        0.2431844174861908,
        -0.06873013079166412,
        0.19225884974002838,
        0.2691306471824646,
        0.24910837411880493
      ],
      [
        -0.23950324952602386,
        0.038376182317733765,
        0.15772423148155212,
        0.10949420928955078,
        0.08070698380470276,
        -0.2814469337463379,
        -0.21537858247756958,
        -0.26870447397232056,
        -0.3004453778266907,
        0.15493953227996826,
        0.29889434576034546
      ],
      [
        -0.0831366553902626,
        0.1639011651277542,
        0.1552954912185669,
        -0.12736089527606964,
        0.14225608110427856,
        -0.29008975625038147,
        -0.19295230507850647,
        -0.09607124328613281,
        0.01215741690248251,
        -0.1205470934510231,
        -0.19381803274154663
      ],
      [
        -0.11535592377185822,
        -0.09674021601676941,
        0.260750949382782,
        -0.028993425890803337,
        0.1699177771806717,
        -0.20242521166801453,
        -0.05772078409790993,
        0.01851247251033783,
        -0.2827790081501007,
        0.030417591333389282,
        -0.1456841677427292
      ],
      [
        0.2876361608505249,
        -0.11391521990299225,
        -0.2795988917350769,
        0.1519273966550827,
        0.08505361527204514,
        -0.1582670658826828,
        0.05244774743914604,
        0.22230295836925507,
        0.011009139008820057,
        -0.13794749975204468,
        0.08025739341974258
      ],
      [
        -0.16196736693382263,
        -0.25207456946372986,
        -0.18165655434131622,
        -0.031048081815242767,
        0.1159510686993599,
        -0.22445443272590637,
        -0.25685128569602966,
        -0.07410754263401031,
        0.10555943101644516,
        -0.20726650953292847,
        0.0781080350279808
      ],
      [
        0.2907729744911194,
        0.022253790870308876,
        0.032367486506700516,
        0.287917822599411,
        0.22489722073078156,
        0.14912673830986023,
        0.3065897822380066,
        0.10262466222047806,
        0.2306644767522812,
        -0.08025532215833664,
        -0.09905220568180084
      ],
      [
        -0.012153731659054756,
        0.0809367224574089,
        0.12027716636657715,
        0.16540734469890594,
        0.04207479581236839,
        -0.19295147061347961,
        -0.1321420818567276,
        0.11641380190849304,
        0.2408771514892578,
        0.29741165041923523,
        -0.026334302499890327
      ],
      [
        0.030356084927916527,
        -0.15986649692058563,
        0.028722034767270088,
        -0.04068247228860855,
        0.13281796872615814,
        0.19508054852485657,
        0.13926227390766144,
        -0.23281395435333252,
        -0.20322813093662262,
        -0.20588208734989166,
        -0.06487120687961578
      ],
      [
        -0.025024039670825005,
        0.13658934831619263,
        -0.12952449917793274,
        0.2888927757740021,
        -0.12674330174922943,
        -0.08533492684364319,
        -0.15553945302963257,
        0.10789473354816437,
        -0.13943162560462952,
        0.1060403361916542,
        0.11208754777908325
      ],
      [
        -0.09725669771432877,
        0.18429593741893768,
        -0.06733320653438568,
        0.14563214778900146,
        0.019695213064551353,
        0.12580165266990662,
        -0.20602041482925415,
        -0.02075986936688423,
        -0.18889935314655304,
        0.1697310507297516,
        -0.12446509301662445
      ],
      [
        -0.2617436647415161,
        -0.17814147472381592,
        -0.14433830976486206,
        0.2925071716308594,
        -0.24071601033210754,
        -0.11871375143527985,
        0.21400515735149384,
        0.3026028573513031,
        0.2518404722213745,
        -0.0789932981133461,
        -0.16502955555915833
      ],
      [
        -0.21885137259960175,
        0.0023317120503634214,
        -0.06813228130340576,
        0.11431083083152771,
        -0.28158989548683167,
        0.11840954422950745,
        -0.1715557873249054,
        -0.08098956197500229,
        -0.009062256664037704,
        0.11708448082208633,
        -0.14444351196289062
      ],
      [
        -0.14806513488292694,
        -0.12315565347671509,
        -0.062461838126182556,
        -0.0266568660736084,
        -0.17373859882354736,
        -0.26969632506370544,
        -0.28863540291786194,
        -0.028679460287094116,
        0.1542714238166809,
        -0.20034387707710266,
        -0.21900171041488647
      ],
      [
        -0.23970268666744232,
        -0.2588481605052948,
        0.009526184760034084,
        0.10380023717880249,
        0.15881529450416565,
        0.26741212606430054,
        0.15295423567295074,
        -0.2581029534339905,
        -0.12284073233604431,
        0.23490728437900543,
        -0.03361506760120392
      ],
      [
        -0.09788493812084198,
        -0.10973276942968369,
        -0.1366567462682724,
        -0.043806999921798706,
        0.1512056589126587,
        -0.24306613206863403,
        -0.2904157340526581,
        -0.057727571576833725,
        0.29356449842453003,
        0.03131667897105217,
        0.08808188885450363
      ],
      [
        -0.11006008833646774,
        -0.14800409972667694,
        0.20562142133712769,
        -0.26445284485816956,
        -0.23807278275489807,
        -0.14380107820034027,
        0.03318299353122711,
        0.1279301643371582,
        0.3263113498687744,
        0.0027117764111608267,
        0.3000773787498474
      ],
      [
        0.08936989307403564,
        0.24589897692203522,
        0.09585882723331451,
        0.18515938520431519,
        -0.023348163813352585,
        -0.25256410241127014,
        0.20473603904247284,
        0.2511078119277954,
        0.26134243607521057,
        0.24017666280269623,
        0.027607599273324013
      ],
      [
        -0.1752869039773941,
        0.14796224236488342,
        0.23187865316867828,
        0.14171327650547028,
        0.2790674865245819,
        -0.08926472067832947,
        0.09938839077949524,
        0.15136297047138214,
        -0.14984749257564545,
        0.26793965697288513,
        -0.16468006372451782
      ],
      [
        0.1881173849105835,
        0.11522123217582703,
        -0.11107414960861206,
        0.23132352530956268,
        -0.1318618208169937,
        -0.22285163402557373,
        -0.27522629499435425,
        0.10487373173236847,
        0.14911401271820068,
        0.12423369288444519,
        0.13435795903205872
      ],
      [
        0.2526894807815552,
        0.2293824702501297,
        -0.06255603581666946,
        -0.1731484830379486,
        0.16083164513111115,
        0.269936203956604,
        -0.18729829788208008,
        0.0933401882648468,
        -0.01766887493431568,
        -0.053990282118320465,
        0.307100772857666
      ],
      [
        0.28712159395217896,
        0.2248172014951706,
        -0.19945713877677917,
        0.16429871320724487,
        0.07162129133939743,
        -0.2741445302963257,
        -0.19589842855930328,
        -0.1790439933538437,
        -0.25734850764274597,
        0.3004997670650482,
        -0.06190183758735657
      ],
      [
        0.2215232253074646,
        -0.28827065229415894,
        0.2202705442905426,
        -0.22343309223651886,
        -0.03149833157658577,
        0.09467852115631104,
        0.274211049079895,
        -0.2157803624868393,
        0.12268217653036118,
        0.26725509762763977,
        0.033252425491809845
      ],
      [
        0.044472161680459976,
        0.04822267219424248,
        -0.03804434463381767,
        -0.01295960322022438,
        0.25096267461776733,
        -0.22430965304374695,
        0.12114813923835754,
        -0.06360039114952087,
        0.26813873648643494,
        -0.1336892545223236,
        0.04806051403284073
      ],
      [
        -0.2242380678653717,
        -0.05207698419690132,
        0.230026975274086,
        0.008976847864687443,
        0.050463419407606125,
        0.14704740047454834,
        -0.1751435250043869,
        0.032624486833810806,
        -0.10429666191339493,
        0.0023125463631004095,
        -0.170399472117424
      ],
      [
        0.27754244208335876,
        -0.24395139515399933,
        -0.16814737021923065,
        0.05570611730217934,
        0.27475857734680176,
        0.15784364938735962,
        0.2472970336675644,
        0.04823562502861023,
        0.11014898121356964,
        -0.20214109122753143,
        -0.14147533476352692
      ],
      [
        0.18918676674365997,
        -0.050682779401540756,
        -0.020153779536485672,
        -0.014186066575348377,
        -0.20073696970939636,
        -0.0594632625579834,
        0.06867687404155731,
        0.21599075198173523,
        0.07510463893413544,
        0.10554537922143936,
        -0.03760109469294548
      ],
      [
        -0.1201767772436142,
        -0.050715282559394836,
        0.06281806528568268,
        -0.18330314755439758,
        0.25783199071884155,
        0.0354253351688385,
        -0.16045057773590088,
        -0.199731707572937,
        -0.09988638013601303,
        -0.14672023057937622,
        0.13472656905651093
      ],
      [
        -0.06553488969802856,
        -0.26643288135528564,
        0.04973470792174339,
        0.23183514177799225,
        0.17547167837619781,
        0.1448277235031128,
        -0.1253419816493988,
        -0.020388592034578323,
        0.22835683822631836,
        0.24200493097305298,
        -0.05322735384106636
      ],
      [
        0.1750682145357132,
        0.13612520694732666,
        -0.14752739667892456,
        -0.28257596492767334,
        0.10843601077795029,
        -0.04684615135192871,
        -0.00878384243696928,
        0.12544849514961243,
        -0.2816268503665924,
        -0.2642589509487152,
        0.056133296340703964
      ],
      [
        -0.010028633289039135,
        0.17054300010204315,
        0.1537206470966339,
        -0.1226445883512497,
        0.18443791568279266,
        0.3010854721069336,
        0.30210810899734497,
        0.04968024045228958,
        0.2889990508556366,
        -0.2601678669452667,
        -0.07711989432573318
      ],
      [
        0.15442189574241638,
        -0.28087812662124634,
        -0.13045786321163177,
        -0.2361101359128952,
        0.04126106947660446,
        -0.23093703389167786,
        0.11956338584423065,
        -0.17098332941532135,
        -0.08089222013950348,
        -0.021475346758961678,
        -0.06412877887487411
      ],
      [
        -0.18828195333480835,
        0.21364396810531616,
        0.17807899415493011,
        0.09123460948467255,
        -0.033270418643951416,
        -0.2603500783443451,
        0.20794762670993805,
        -0.15532848238945007,
        -0.04327629879117012,
        0.21459339559078217,
        -0.1997992992401123
      ],
      [
        -0.2826014757156372,
        0.10753069818019867,
        0.28782781958580017,
        0.06949327886104584,
        0.27644675970077515,
        -0.175044983625412,
        -0.24847982823848724,
        0.29411569237709045,
        0.023706937208771706,
        -0.2760416567325592,
        0.30255478620529175
      ],
      [
        0.2903417944908142,
        -0.1645044982433319,
        0.26896989345550537,
        0.1387709230184555,
        -0.193163201212883,
        0.017762601375579834,
        0.2826639711856842,
        -0.23975937068462372,
        0.22713114321231842,
        0.3419950604438782,
        0.2761760950088501
      ],
      [
        -0.14692677557468414,
        0.2637180984020233,
        -0.27296486496925354,
        -0.23215538263320923,
        0.00831626821309328,
        -0.0781816691160202,
        -0.2666374444961548,
        0.2477886825799942,
        -0.14469996094703674,
        0.309237539768219,
        0.28525158762931824
      ],
      [
        0.14575350284576416,
        -0.1512148380279541,
        0.23514246940612793,
        0.0039512962102890015,
        0.1982310563325882,
        -0.23264209926128387,
        0.12204070389270782,
        0.2248319685459137,
        0.05293469876050949,
        0.28257155418395996,
        -0.021821314468979836
      ],
      [
        0.2243872731924057,
        0.0046304976567626,
        0.03406078740954399,
        -0.1003585234284401,
        -0.2921602427959442,
        0.2719752788543701,
        0.04040674865245819,
        -0.18098318576812744,
        0.08993922919034958,
        0.22386062145233154,
        -0.20753274857997894
      ],
      [
        0.07092256098985672,
        -0.20147839188575745,
        0.2503267526626587,
        -0.20933154225349426,
        0.0221595149487257,
        -0.04363757371902466,
        -0.16232676804065704,
        0.12053490430116653,
        -0.017651431262493134,
        -0.1797846108675003,
        0.09036951512098312
      ],
      [
        -0.04752923920750618,
        0.16110765933990479,
        -0.030446287244558334,
        0.29399678111076355,
        -0.043248310685157776,
        -0.17286227643489838,
        -0.0021244357340037823,
        0.14974774420261383,
        0.10626448690891266,
        -0.023404931649565697,
        0.17051011323928833
      ],
      [
        0.24232128262519836,
        -0.2703266143798828,
        0.2838819921016693,
        -0.21961136162281036,
        -0.09723862260580063,
        -0.28171300888061523,
        -0.2906082272529602,
        0.18214908242225647,
        -0.2428385466337204,
        -0.07460817694664001,
        -0.08184216171503067
      ],
      [
        0.23367588222026825,
        0.023097777739167213,
        0.26650023460388184,
        0.07902432233095169,
        0.23380932211875916,
        -0.04561871290206909,
        0.22461877763271332,
        0.18680439889431,
        -0.12914679944515228,
        -0.08047018200159073,
        0.2512846291065216
      ],
      [
        0.07650729268789291,
        -0.11732213944196701,
        0.11867967993021011,
        -0.303321897983551,
        0.26182329654693604,
        0.035870254039764404,
        0.09391507506370544,
        0.04861678555607796,
        -0.015155913308262825,
        0.28616222739219666,
        -0.15675775706768036
      ],
      [
        0.009855548851191998,
        -0.1073567196726799,
        -0.021958013996481895,
        -0.1301395148038864,
        0.12511059641838074,
        0.21619409322738647,
        0.05245351418852806,
        0.24683432281017303,
        0.09623560309410095,
        -0.1566971391439438,
        0.20500792562961578
      ],
      [
        -0.232379749417305,
        -0.036459751427173615,
        -0.26468974351882935,
        0.05061553046107292,
        -0.1834576427936554,
        0.27885985374450684,
        -0.05093497037887573,
        0.21509949862957,
        -0.1727571338415146,
        -0.000827315088827163,
        -0.05980433151125908
      ],
      [
        0.11051204800605774,
        0.21148978173732758,
        -0.02439793385565281,
        -0.2267691195011139,
        -0.22147591412067413,
        0.10611829161643982,
        0.15105792880058289,
        0.15415702760219574,
        0.27682214975357056,
        0.10457004606723785,
        -0.17230165004730225
      ],
      [
        -0.20537975430488586,
        -0.1256016045808792,
        0.2936490476131439,
        0.2913919687271118,
        -0.23563697934150696,
        0.16003009676933289,
        -0.1203898936510086,
        0.15566742420196533,
        -0.1958850622177124,
        -0.12827806174755096,
        0.060701239854097366
      ],
      [
        0.09272462129592896,
        0.2938014566898346,
        0.024568121880292892,
        -0.1352354884147644,
        -0.1573258638381958,
        0.08861234784126282,
        -0.05824079364538193,
        -0.018182413652539253,
        0.30644920468330383,
        -0.13747259974479675,
        -0.280708372592926
      ],
      [
        0.16127264499664307,
        0.04146738722920418,
        0.2559080719947815,
        0.2875921428203583,
        0.16857248544692993,
        0.23680627346038818,
        0.002847884315997362,
        -0.08070861548185349,
        0.05168445035815239,
        0.017255835235118866,
        0.1799740344285965
      ],
      [
        0.0909796953201294,
        0.26502278447151184,
        0.013746082782745361,
        0.31679320335388184,
        -0.04041166231036186,
        0.22432160377502441,
        0.3260853588581085,
        0.05855709686875343,
        0.36754798889160156,
        -0.0815642848610878,
        0.30877137184143066
      ],
      [
        -0.1830437183380127,
        -0.017785148695111275,
        0.07760512083768845,
        -0.0008285174844786525,
        -0.08448591828346252,
        0.29858964681625366,
        0.08752628415822983,
        -0.13501320779323578,
        0.046802178025245667,
        0.173373743891716,
        0.08549126982688904
      ]
    ],
    "0.bias": [
      0.24191631376743317,
      -0.10663408041000366,
      0.04105518385767937,
      0.000809858669526875,
      0.017495809122920036,
      -0.19691875576972961,
      -0.2215084284543991,
      0.13787299394607544,
      -0.057470016181468964,
      0.192472904920578,
      0.32569506764411926,
      -0.0430757999420166,
      0.05718456581234932,
      0.19762633740901947,
      -0.2655036449432373,
      -0.27976855635643005,
      0.292379230260849,
      0.095773845911026,
      0.1567225307226181,
      0.17443375289440155,
      0.22657109797000885,
      0.07143674045801163,
      -0.1405169665813446,
      -0.2573912441730499,
      -0.02579721435904503,
      -0.09383803606033325,
      -0.04785171151161194,
      0.1356487274169922,
      0.04712889343500137,
      0.3335174322128296,
      0.29409661889076233,
      -0.23839318752288818,
      -0.29337844252586365,
      0.21203139424324036,
      -0.0747452899813652,
      -0.004459691699594259,
      0.3447282612323761,
      0.2506280839443207,
      0.2533387243747711,
      0.23881225287914276,
      0.14143651723861694,
      -0.1465143859386444,
      0.2540089786052704,
      -0.2263597995042801,
      0.14413900673389435,
      0.13212285935878754,
      0.11428174376487732,
      0.35574519634246826,
      0.12473445385694504,
      -0.19410379230976105,
      0.10978975147008896,
      -0.10169561952352524,
      -0.11642461270093918,
      0.11854106932878494,
      -0.09680638462305069,
      -0.0046730972826480865,
      -0.026022305712103844,
      0.13354574143886566,
      0.07830353081226349,
      -0.29568395018577576,
      0.231169655919075,
      -0.1796696037054062,
      0.20702329277992249,
      0.14842943847179413
    ],
    "2.weight": [
      [
        -0.06054478511214256,
        -0.08642058074474335,
        -0.08393687754869461,
        -0.08522989600896835,
        -0.08493877202272415,
        0.03415025770664215,
        -0.04299139231443405,
        -0.06202562898397446,
        -0.05778693035244942,
        -0.07810293883085251,
        0.10303442925214767,
        0.04587550461292267,
        0.11369946599006653,
        0.10315804928541183,
        -0.10359406471252441,
        0.07706185430288315,
        -0.03577316552400589,
        -0.1009838804602623,
        -0.01558785792440176,
        0.13966314494609833,
        0.049071721732616425,
        -0.11068888008594513,
        0.09620963782072067,
        0.02891891822218895,
        -0.07581132650375366,
        -0.07059644162654877,
        0.025781244039535522,
        0.11785980314016342,
        0.12008967995643616,
        0.10882527381181717,
        0.1458788365125656,
        -0.04146497696638107,
        -0.06399311125278473,
        0.13123910129070282,
        0.10403743386268616,
        0.08525925129652023,
        0.14033293724060059,
        0.09274141490459442,
        0.053921278566122055,
        -0.05259077996015549,
        0.02619214728474617,
        -0.019973140209913254,
        0.06714499741792679,
        -0.0846429243683815,
        -0.05799638852477074,
        0.10771588236093521,
        0.12678077816963196,
        0.08379694074392319,
        0.021184958517551422,
        -0.09700767695903778,
        0.07817933708429337,
        0.09573690593242645,
        0.0701761469244957,
        -0.08581969141960144,
        -0.03853864222764969,
        0.0451262891292572,
        0.025078825652599335,
        -0.0012923083268105984,
        -0.07529003918170929,
        -0.08339155465364456,
        -0.10480276495218277,
        -0.10237197577953339,
        0.06694929301738739,
        0.0687265619635582
      ],
      [
        0.03545862063765526,
        -0.0308694988489151,
        0.09139332175254822,
        -0.09210197627544403,
        0.03587787598371506,
        -0.0779067873954773,
        -0.04261960834264755,
        0.10413344949483871,
        0.05139375105500221,
        -0.0955287516117096,
        -0.04609980061650276,
        -0.11729451268911362,
        -0.05654416233301163,
        -0.036707084625959396,
        0.09775379300117493,
        -0.010097499936819077,
        0.11175389587879181,
        -0.007480999454855919,
        0.11555800586938858,
        0.10861571133136749,
        -0.09268977493047714,
        -0.07704368233680725,
        0.03296918794512749,
        0.06709711253643036,
        -0.01700359210371971,
        -0.048497043550014496,
        -0.09932936728000641,
        -0.11290974169969559,
        0.02001340687274933,
        -0.10036619007587433,
        -0.054973501712083817,
        -0.06353818625211716,
        -0.06719205528497696,
        0.04642397165298462,
        -0.04854559898376465,
        0.04278939589858055,
        0.07804887741804123,
        -0.002721106866374612,
        0.0438908152282238,
        0.08675376325845718,
        -0.1064956858754158,
        0.09984559565782547,
        -0.06130346283316612,
        0.10307026654481888,
        -0.1152234748005867,
        -0.11693765223026276,
        -0.13057492673397064,
        -0.03775307163596153,
        -0.05987395718693733,
        0.001733911456540227,
        0.009273297153413296,
        0.10458821803331375,
        -0.07907120883464813,
        0.02135474421083927,
        0.08595144003629684,
        0.08756206929683685,
        0.11958830058574677,
        0.02644685097038746,
        0.08274880796670914,
        -0.036731965839862823,
        -0.06744898110628128,
        -0.07676572352647781,
        0.0019431265536695719,
        0.02713696099817753
      ],
      [
        -0.0776808112859726,
        0.045110881328582764,
        -0.12367977201938629,
        0.05120551586151123,
        -0.004526108503341675,
        0.07021784782409668,
        -0.06120885908603668,
        0.10727046430110931,
        -0.00940154492855072,
        0.07738339900970459,
        0.05930487811565399,
        0.008860379457473755,
        -0.00668179988861084,
        0.0006185621023178101,
        -0.0858054906129837,
        0.05031871795654297,
        0.07665486633777618,
        0.09556181728839874,
        0.02956196665763855,
        -0.011161848902702332,
        0.011855989694595337,
        0.10026833415031433,
        0.05506518483161926,
        -0.009696781635284424,
        -0.10962158441543579,
        0.017547637224197388,
        0.11629940569400787,
        0.022241413593292236,
        -0.08856144547462463,
        0.014244109392166138,
        -0.12166823446750641,
        -0.013663128018379211,
        0.05737780034542084,
        0.08522823452949524,
        0.06322029232978821,
        0.004631176590919495,
        0.013580232858657837,
        -0.07334822416305542,
        0.01010984182357788,
        -0.08492743968963623,
        -0.09402734041213989,
        -0.011068612337112427,
        0.034211188554763794,
        0.04649154841899872,
        -0.05299878120422363,
        -0.008124932646751404,
        -0.07008807361125946,
        -0.023677974939346313,
        0.05855642259120941,
        -0.08284957706928253,
        -0.05353093147277832,
        -0.1052558422088623,
        -0.04473654925823212,
        0.06830717623233795,
        -0.10133503377437592,
        0.05477212369441986,
        -0.10019119083881378,
        0.043874144554138184,
        -0.1163562536239624,
        0.09840358793735504,
        0.06721609830856323,
        0.1193702220916748,
        -0.12474747002124786,
        -0.0932176411151886
      ],
      [
        -0.09522968530654907,
        -0.10016368329524994,
        0.10152990370988846,
        0.047821298241615295,
        0.002482869429513812,
        0.00635799765586853,
        0.11384611576795578,
        -0.07938497513532639,
        0.03669069707393646,
        0.0014764202060177922,
        0.09702006727457047,
        -0.04502880573272705,
        0.077867791056633,
        0.06077636778354645,
        -0.00949050486087799,
        -0.05645931512117386,
        -0.08651164919137955,
        -0.12493227422237396,
        0.04003994166851044,
        -0.1353764683008194,
        0.019654331728816032,
        0.09703118354082108,
        -0.020002424716949463,
        0.10939758270978928,
        0.0323672741651535,
        0.013048349879682064,
        -0.08475254476070404,
        0.04272546246647835,
        -0.00038921594386920333,
        -0.044388409703969955,
        0.009909461252391338,
        -0.12373088300228119,
        0.040025144815444946,
        -0.058327816426754,
        -0.08010093122720718,
        0.0386502631008625,
        -0.11846161633729935,
        0.11386820673942566,
        -0.008786045014858246,
        -0.04353722184896469,
        -0.06652150303125381,
        0.0798090323805809,
        -0.11866449564695358,
        -0.06875093281269073,
        0.02433890476822853,
        -0.0403597392141819,
        -0.041278548538684845,
        -0.02634406089782715,
        0.09570545703172684,
        -0.12138822674751282,
        0.03915311396121979,
        0.06296811252832413,
        -0.07293342053890228,
        -0.024994919076561928,
        0.11080246418714523,
        0.05613156035542488,
        0.04671026021242142,
        -0.07057330757379532,
        0.11452540755271912,
        -0.007563259452581406,
        -0.12218830734491348,
        -0.07172878086566925,
        0.037847474217414856,
        -0.0868220180273056
      ],
      [
        0.026170639321208,
        0.10609425604343414,
        0.09338556975126266,
        0.0664072260260582,
        -0.1113375574350357,
        -0.07425978779792786,
        -0.07442477345466614,
        0.037054479122161865,
        -0.03421846032142639,
        -0.048175226897001266,
        0.06487222760915756,
        0.04026558995246887,
        -0.08219223469495773,
        -0.13012750446796417,
        -0.051844656467437744,
        0.03103955276310444,
        0.008354364894330502,
        0.07682396471500397,
        0.052957937121391296,
        -0.11038516461849213,
        -0.027719929814338684,
        0.032844483852386475,
        0.023460829630494118,
        0.10346106439828873,
        -0.01797584816813469,
        -0.043129876255989075,
        0.03712959587574005,
        -0.06478246301412582,
        -0.12102622538805008,
        0.07474859058856964,
        0.1133512631058693,
        0.053972840309143066,
        -0.05296365171670914,
        0.004341151565313339,
        -0.058028820902109146,
        -0.059504855424165726,
        -0.008927365764975548,
        -0.11353963613510132,
        0.016459496691823006,
        0.0018630482954904437,
        0.11257217824459076,
        0.04085824638605118,
        0.06627178937196732,
        -0.12136436998844147,
        -0.016461452469229698,
        -0.008498487062752247,
        0.09451822936534882,
        -0.07627738267183304,
        0.01778702437877655,
        -0.06072305887937546,
        -0.02163643389940262,
        -0.10617861151695251,
        0.033618491142988205,
        0.09803933650255203,
        -0.014434152282774448,
        0.0605120025575161,
        0.10696829110383987,
        0.06049029529094696,
        0.038872577250003815,
        -0.014832628890872002,
        -0.01218977477401495,
        0.12020896375179291,
        -0.11686772853136063,
        -0.1133856549859047
      ],
      [
        -0.11912287771701813,
        -0.06754128634929657,
        -0.11628654599189758,
        -0.11684958636760712,
        -0.03884005546569824,
        -0.12164227664470673,
        0.11146478354930878,
        0.10366339981555939,
        0.00533825159072876,
        0.06642229855060577,
        -0.07810567319393158,
        0.022178933024406433,
        0.12173624336719513,
        -0.12055784463882446,
        0.09685201942920685,
        0.05016474425792694,
        -0.06884258985519409,
        0.02096724510192871,
        0.04851587116718292,
        -0.02384568750858307,
        -0.004305541515350342,
        -0.04042862355709076,
        -0.07903431355953217,
        -0.11309649050235748,
        -0.06191657483577728,
        0.062277376651763916,
        -0.11640116572380066,
        -0.02805134654045105,
        0.046627387404441833,
        -0.06477561593055725,
        0.010716423392295837,
        -0.04346399009227753,
        0.07667529582977295,
        -0.08796964585781097,
        0.03635804355144501,
        -0.05026908218860626,
        -0.036051809787750244,
        0.076158806681633,
        -0.0214778333902359,
        -0.03374761343002319,
        -0.036919817328453064,
        -0.04852558672428131,
        -0.04482744634151459,
        0.08733554184436798,
        -0.1024928092956543,
        -0.021642670035362244,
        -0.030700460076332092,
        0.05833812057971954,
        0.051664263010025024,
        0.0637407898902893,
        0.012434378266334534,
        0.014764159917831421,
        -0.05478222668170929,
        -0.10826899111270905,
        -0.008983984589576721,
        0.05856044590473175,
        -0.0802251547574997,
        0.12253183126449585,
        -0.0031799674034118652,
        0.05554342269897461,
        0.015367001295089722,
        0.11045794188976288,
        0.06170016527175903,
        0.10775494575500488
      ],
      [
        0.11037547141313553,
        -0.016638919711112976,
        -0.09705573320388794,
        -0.0070268213748931885,
        -0.11063843220472336,
        -0.08566923439502716,
        0.08329899609088898,
        -0.017292750999331474,
        -0.09133784472942352,
        0.05553973838686943,
        -0.0684635117650032,
        0.006265516858547926,
        0.0007949155988171697,
        0.08427301794290543,
        -0.0925426334142685,
        -0.010433151386678219,
        0.0101662902161479,
        -0.0053976052440702915,
        0.014004229567945004,
        -0.00823935866355896,
        -0.062181442975997925,
        0.010681182146072388,
        0.049252692610025406,
        -0.05658343434333801,
        -0.1308533251285553,
        -0.08643478155136108,
        -0.06348960101604462,
        0.013493368402123451,
        -0.11014541983604431,
        0.032913584262132645,
        0.005423514172434807,
        -0.11383238434791565,
        0.11444589495658875,
        0.04910818859934807,
        0.00032957710209302604,
        -0.03126337006688118,
        -0.056450050324201584,
        0.0246902983635664,
        -0.0832977145910263,
        0.06977853924036026,
        0.09195447713136673,
        0.11447398364543915,
        -0.06446714699268341,
        0.09209645539522171,
        -0.1114906519651413,
        0.07034137099981308,
        -0.1341044157743454,
        0.055730391293764114,
        0.10931546241044998,
        0.013953161425888538,
        0.04191088303923607,
        -0.025290749967098236,
        -0.011137527413666248,
        -0.12486477196216583,
        -0.11375873535871506,
        0.03798839449882507,
        0.03487852215766907,
        -0.02584112249314785,
        0.05620307847857475,
        0.040685657411813736,
        0.03610412776470184,
        0.09407557547092438,
        0.018244821578264236,
        -0.12065166234970093
      ],
      [
        -0.0724782645702362,
        -0.008548915386199951,
        0.07522943615913391,
        0.07104083895683289,
        -0.09786438941955566,
        -0.004076972603797913,
        -0.11206753551959991,
        0.09983496367931366,
        0.08715076744556427,
        -0.10035833716392517,
        0.10781621932983398,
        0.02154216170310974,
        0.11995616555213928,
        -0.06889694929122925,
        -0.07720036804676056,
        -0.078507199883461,
        -0.099642813205719,
        0.11694394052028656,
        -0.01857203245162964,
        -0.0006566941738128662,
        -0.09476976096630096,
        -0.04893796145915985,
        -0.05527012050151825,
        -0.02604585886001587,
        -0.10740910470485687,
        0.0680556446313858,
        -0.03427717089653015,
        -0.10636104643344879,
        -0.00864572823047638,
        -0.060199663043022156,
        0.047052159905433655,
        0.09241345524787903,
        0.07545523345470428,
        -0.023009851574897766,
        -0.02871425449848175,
        -0.018035441637039185,
        -0.10883703827857971,
        0.0167311429977417,
        -0.014356598258018494,
        -0.11445821821689606,
        -0.11996260285377502,
        -0.025957748293876648,
        0.109195277094841,
        0.0032841265201568604,
        0.08444288372993469,
        -0.028922513127326965,
        0.03205014765262604,
        -0.09053976833820343,
        0.0008202940225601196,
        -0.03605656325817108,
        0.01290944218635559,
        0.08613009750843048,
        -0.024514079093933105,
        0.004281625151634216,
        -0.11189821362495422,
        0.11240889132022858,
        -0.11013644933700562,
        0.11676563322544098,
        0.06422734260559082,
        0.03679355978965759,
        -0.03473258018493652,
        0.0801323801279068,
        0.02717190980911255,
        -0.061572641134262085
      ],
      [
        0.02146441675722599,
        0.09203280508518219,
        -0.07677041739225388,
        0.08195946365594864,
        0.01940186321735382,
        -0.11348916590213776,
        -0.06743912398815155,
        -0.08038124442100525,
        -0.008195397444069386,
        -0.08064529299736023,
        0.03915242850780487,
        0.0567205473780632,
        0.03514672815799713,
        0.01509705837816,
        0.07091738283634186,
        -0.006304285489022732,
        -0.08414831757545471,
        0.05869665741920471,
        0.07859122008085251,
        0.1320168375968933,
        -0.02165006659924984,
        -0.11741474270820618,
        -0.0776720941066742,
        -0.09262673556804657,
        -0.008178861811757088,
        0.12357955425977707,
        -0.10349170863628387,
        -0.003439650870859623,
        0.06626283377408981,
        0.08434780687093735,
        0.10067728906869888,
        -0.10883752256631851,
        0.06492623686790466,
        0.0027259874623268843,
        -0.05548899620771408,
        -0.056883305311203,
        0.05791466310620308,
        -0.0760301724076271,
        0.04665442556142807,
        0.045067332684993744,
        0.04662695899605751,
        -0.005475225858390331,
        0.013555295765399933,
        0.12247680127620697,
        -0.11865854263305664,
        -0.09041918814182281,
        -0.047693490982055664,
        0.1283039152622223,
        0.0769590437412262,
        -0.0321132130920887,
        0.1126965880393982,
        0.062103550881147385,
        0.1374460756778717,
        -0.03515608608722687,
        0.0174516960978508,
        -0.055704958736896515,
        0.133980393409729,
        -0.11462526768445969,
        0.11172714084386826,
        0.07292892038822174,
        0.07104141265153885,
        0.0005061391857452691,
        0.10121504217386246,
        0.0047021545469760895
      ],
      [
        -0.015239909291267395,
        0.06869420409202576,
        0.10367295145988464,
        -0.017450839281082153,
        0.009039968252182007,
        0.0524725466966629,
        -0.0604013055562973,
        -0.013861343264579773,
        -0.12255041301250458,
        -0.09450465440750122,
        -0.05390933156013489,
        -0.10989665985107422,
        -0.07097971439361572,
        -0.07614220678806305,
        -0.10158456861972809,
        0.0056032538414001465,
        -0.04929518699645996,
        0.07330852746963501,
        0.06619729101657867,
        0.10282164812088013,
        -0.07910826802253723,
        -0.05617864429950714,
        -0.05003325641155243,
        -0.02909882366657257,
        -0.09973709285259247,
        0.019421547651290894,
        0.06162381172180176,
        -0.1006699651479721,
        -0.02934548258781433,
        0.060739919543266296,
        -0.08500055968761444,
        -0.05421985685825348,
        -0.11836603283882141,
        -0.10158155858516693,
        -0.07675009965896606,
        0.010775282979011536,
        -0.0009342581033706665,
        0.09848909080028534,
        0.04209306836128235,
        0.061954230070114136,
        0.045302942395210266,
        0.03206953406333923,
        0.0016227364540100098,
        -0.11496800184249878,
        0.08067940175533295,
        0.07959651947021484,
        -0.09634871780872345,
        0.044023141264915466,
        0.11788499355316162,
        -0.022187843918800354,
        -0.029513731598854065,
        0.09456980228424072,
        -0.1065211147069931,
        0.046481043100357056,
        -0.08816705644130707,
        -0.12066970765590668,
        -0.09241966903209686,
        0.09652693569660187,
        -0.08203442394733429,
        -0.03417053818702698,
        0.12060600519180298,
        0.019023478031158447,
        -0.03889100253582001,
        -0.02008792757987976
      ],
      [
        0.003924277611076832,
        -0.0779055804014206,
        0.06114602088928223,
        0.1616113781929016,
        -0.05836319923400879,
        -0.0908735990524292,
        0.13482946157455444,
        0.08288103342056274,
        0.09959287196397781,
        0.08653727173805237,
        0.15955714881420135,
        0.07854192703962326,
        0.03555416315793991,
        0.10149440169334412,
        -0.11345246434211731,
        0.07101771980524063,
        -0.0982443243265152,
        0.07510089129209518,
        -0.013020021840929985,
        0.0058685424737632275,
        0.12186802178621292,
        0.04631737247109413,
        0.10489281266927719,
        0.03322217985987663,
        0.04038483276963234,
        -0.07546361535787582,
        0.08414633572101593,
        0.10126397758722305,
        -0.05344242602586746,
        0.11712923645973206,
        -0.0034855103585869074,
        -0.05733111500740051,
        -0.02225450426340103,
        0.11405293643474579,
        0.012421904131770134,
        0.08100899308919907,
        0.1180594265460968,
        0.10576552897691727,
        0.09630119800567627,
        0.04736771434545517,
        -0.027618959546089172,
        0.08597471565008163,
        0.07754848897457123,
        0.13143882155418396,
        -0.06318680942058563,
        0.028314748778939247,
        0.07959236949682236,
        0.16684988141059875,
        0.12975464761257172,
        0.016015904024243355,
        -0.09717872738838196,
        0.06673836708068848,
        0.14002758264541626,
        0.010161924175918102,
        0.005821996834129095,
        -0.04977826029062271,
        0.044128526002168655,
        -0.09880844503641129,
        -0.055647026747465134,
        -0.0049430252984166145,
        0.07538744807243347,
        -0.01742398925125599,
        0.06856255978345871,
        -0.04338132217526436
      ],
      [
        0.05867066606879234,
        0.08976118266582489,
        0.12140242010354996,
        0.16289310157299042,
        -0.0279068723320961,
        0.05439238250255585,
        0.0123371547088027,
        0.054026294499635696,
        -0.0955478847026825,
        0.07858734577894211,
        0.11372686177492142,
        -0.1070316806435585,
        0.033191923052072525,
        0.0008563513401895761,
        0.09205900132656097,
        0.06454172730445862,
        0.027552248910069466,
        0.13091856241226196,
        0.03201061114668846,
        0.18792353570461273,
        0.18924205005168915,
        -0.11625605821609497,
        -0.05771994963288307,
        -0.07818754017353058,
        0.07214893400669098,
        -0.10516481101512909,
        0.04331497848033905,
        -0.08611594885587692,
        -0.06642840057611465,
        0.15136893093585968,
        0.16112136840820312,
        0.13300180435180664,
        -0.1055106520652771,
        0.09413815289735794,
        -0.03416013717651367,
        0.0902094841003418,
        0.11715091019868851,
        -0.04009484127163887,
        0.13202564418315887,
        0.1602260023355484,
        0.011876258999109268,
        0.039013028144836426,
        -0.04499857872724533,
        -0.01277919765561819,
        -0.039447683840990067,
        0.06923094391822815,
        -0.02972165308892727,
        0.14407803118228912,
        0.029222052544355392,
        -0.05469416081905365,
        -0.11280378699302673,
        0.044801294803619385,
        0.10948259383440018,
        0.034371692687273026,
        -0.086927130818367,
        -0.07177945971488953,
        -0.08254441618919373,
        -0.031270500272512436,
        0.10954516381025314,
        -0.08681222796440125,
        0.09733620285987854,
        -0.06814116984605789,
        0.024844558909535408,
        0.06762218475341797
      ],
      [
        -0.015061242505908012,
        -0.043024688959121704,
        -0.09311389178037643,
        0.0030177936423569918,
        -0.009504280053079128,
        0.048378437757492065,
        -0.09369619190692902,
        -0.030853260308504105,
        0.046621572226285934,
        0.1281217634677887,
        0.17427007853984833,
        -0.060704149305820465,
        0.048389360308647156,
        0.2440849393606186,
        -0.11333924531936646,
        -0.009157327003777027,
        0.06327760219573975,
        0.04478050395846367,
        -0.039601486176252365,
        0.04378208518028259,
        0.07247087359428406,
        -0.024866826832294464,
        0.0009825878078117967,
        -0.12373847514390945,
        0.0934678390622139,
        -0.05824209377169609,
        -0.023631736636161804,
        -0.07376861572265625,
        0.054531171917915344,
        -0.021515201777219772,
        0.14262771606445312,
        -0.035712022334337234,
        -0.01730412244796753,
        0.14158837497234344,
        0.07406939566135406,
        0.09333968162536621,
        0.12447813898324966,
        -0.05620704963803291,
        0.0722820982336998,
        -0.041709087789058685,
        -0.05507613718509674,
        -0.06693441420793533,
        -0.07002749294042587,
        0.10333103686571121,
        0.015304597094655037,
        0.10510987788438797,
        0.030605046078562737,
        0.1823408156633377,
        0.1382514238357544,
        0.017648449167609215,
        -0.007732453290373087,
        0.10469180345535278,
        0.10797370225191116,
        0.0432610958814621,
        -0.07394369691610336,
        0.04081045091152191,
        -0.030488498508930206,
        -0.11194276064634323,
        -0.06382367014884949,
        -0.03899027407169342,
        0.02193288318812847,
        0.02381083555519581,
        0.23564454913139343,
        0.026578443124890327
      ],
      [
        0.11263395845890045,
        0.07664825022220612,
        -0.08045601844787598,
        0.06253145635128021,
        -0.048639729619026184,
        0.05696879327297211,
        -0.1028420627117157,
        -0.02693404257297516,
        0.08170929551124573,
        -0.03150090575218201,
        0.02797272801399231,
        -0.09936824440956116,
        0.11164869368076324,
        0.011111736297607422,
        0.045507192611694336,
        -0.10068812966346741,
        0.06223408877849579,
        -0.07178108394145966,
        -0.01741151511669159,
        0.02336639165878296,
        -0.0531807541847229,
        0.0791473388671875,
        -0.02072945237159729,
        -0.09366272389888763,
        -0.04890117049217224,
        -0.024039119482040405,
        -0.1039562076330185,
        0.0238940566778183,
        -0.077688068151474,
        -0.060171276330947876,
        0.002985328435897827,
        -0.098009392619133,
        0.07171580195426941,
        -0.0009513348340988159,
        0.06260769069194794,
        0.06319499015808105,
        -0.028204619884490967,
        -0.09923699498176575,
        0.03802107274532318,
        0.0952373743057251,
        0.03381599485874176,
        -0.0343010276556015,
        -0.04032258689403534,
        0.09935350716114044,
        -0.02058573067188263,
        -0.018646612763404846,
        -0.1094096451997757,
        0.04566989839076996,
        0.0650676041841507,
        -0.1229500025510788,
        -0.05826979875564575,
        0.07539138197898865,
        0.12259098887443542,
        -0.05903664231300354,
        -0.023041173815727234,
        -0.018971577286720276,
        0.06337542831897736,
        0.06905458867549896,
        -0.028165295720100403,
        -0.05391320586204529,
        -0.10183201730251312,
        -0.12482132017612457,
        -0.0897575169801712,
        -0.08973085880279541
      ],
      [
        -0.07750099897384644,
        0.03645743429660797,
        0.12812165915966034,
        0.07733415812253952,
        0.051828786730766296,
        0.04653184115886688,
        0.06307093799114227,
        0.0857149139046669,
        0.05664113163948059,
        0.029077794402837753,
        0.10137093812227249,
        0.005802060477435589,
        0.08227880299091339,
        0.032561980187892914,
        -0.07479377090930939,
        0.021063612774014473,
        -0.09020058065652847,
        0.007766482420265675,
        0.07938496023416519,
        0.016000593081116676,
        -0.020222648978233337,
        0.04963726922869682,
        -0.035198889672756195,
        0.0058471569791436195,
        0.061248164623975754,
        -0.024386091157794,
        0.005806669592857361,
        0.040913429111242294,
        -0.019333504140377045,
        0.05369623750448227,
        -0.0501583069562912,
        0.10887838900089264,
        -0.058330729603767395,
        0.07700597494840622,
        -0.1053277775645256,
        -0.023739701136946678,
        0.14211341738700867,
        -0.05621473118662834,
        0.09979908913373947,
        0.027899550274014473,
        -0.025160765275359154,
        0.1299505978822708,
        0.06947099417448044,
        0.02533167414367199,
        -0.0821036547422409,
        0.006142366677522659,
        0.12910784780979156,
        0.007920496165752411,
        0.11908148229122162,
        0.08783084154129028,
        -0.11014065891504288,
        0.11696988344192505,
        -0.020746398717164993,
        0.008455348201096058,
        0.13636037707328796,
        -0.09771332144737244,
        0.11116503924131393,
        -0.07989373803138733,
        0.07997103780508041,
        0.032411668449640274,
        0.02071748673915863,
        0.014311078004539013,
        0.08341838419437408,
        0.12705209851264954
      ],
      [
        -0.09892012178897858,
        -0.035134151577949524,
        0.028002453967928886,
        0.11510522663593292,
        -0.04634968936443329,
        0.002991124987602234,
        -0.02186810038983822,
        0.054129332304000854,
        -0.0007918811752460897,
        -0.006400269456207752,
        0.04772864654660225,
        -0.055972762405872345,
        -0.12010621279478073,
        0.0923115685582161,
        0.07090823352336884,
        0.06421824544668198,
        -0.06352236121892929,
        -0.11430013924837112,
        -0.09843137860298157,
        -0.011281685903668404,
        0.028218790888786316,
        0.04986270144581795,
        0.10505379736423492,
        -0.07053855806589127,
        0.039123132824897766,
        -0.10403025150299072,
        0.043904468417167664,
        0.014488288201391697,
        -0.10003827512264252,
        0.054610952734947205,
        0.10571695119142532,
        0.09550376981496811,
        -0.046088654547929764,
        -0.08340418338775635,
        -0.040400438010692596,
        -0.06291218847036362,
        0.032063327729701996,
        -0.02950889803469181,
        0.08090537041425705,
        -0.1080436185002327,
        0.053387898951768875,
        -0.021062694489955902,
        0.10475531965494156,
        0.12677662074565887,
        -0.007616047747433186,
        -0.03963277116417885,
        -0.0438232347369194,
        0.11254467815160751,
        0.019311487674713135,
        0.0004863576323259622,
        0.029600068926811218,
        -0.12218888849020004,
        0.028518036007881165,
        0.07891936600208282,
        -0.09606464207172394,
        -0.006806176621466875,
        0.04845718666911125,
        -0.09530847519636154,
        0.10211648792028427,
        -0.12313095480203629,
        -0.06388981640338898,
        0.003985449206084013,
        0.03620586916804314,
        -0.029360637068748474
      ],
      [
        0.08355209976434708,
        0.01747193932533264,
        0.1027040034532547,
        0.07673612236976624,
        -0.0065184165723621845,
        0.045557230710983276,
        0.06430332362651825,
        -0.12063758075237274,
        0.10714425146579742,
        0.07765810936689377,
        0.16464118659496307,
        0.11813495308160782,
        0.09965555369853973,
        0.005867051891982555,
        0.07510747015476227,
        -0.11701053380966187,
        0.014553293585777283,
        0.03997500613331795,
        0.08817048370838165,
        -0.0008113409276120365,
        -0.027183188125491142,
        0.11320282518863678,
        -0.016515566036105156,
        0.11337872594594955,
        -0.09212539345026016,
        -0.02502039447426796,
        0.03794574737548828,
        0.09772901237010956,
        0.030532201752066612,
        0.11865957081317902,
        0.2125811129808426,
        0.012131107971072197,
        -0.005194418132305145,
        -0.09523668140172958,
        0.014684058725833893,
        -0.0618223212659359,
        0.06997755169868469,
        0.016902921721339226,
        0.09956835955381393,
        0.06999942660331726,
        0.12370187789201736,
        0.14454662799835205,
        0.07518838346004486,
        0.1283496618270874,
        0.10450871288776398,
        -0.08249767124652863,
        0.06824249029159546,
        0.12965764105319977,
        0.036175329238176346,
        0.10839714109897614,
        -0.021067947149276733,
        -0.0026414054445922375,
        0.05944453552365303,
        0.11437376588582993,
        -0.03176843747496605,
        -0.0351506806910038,
        0.12009941041469574,
        0.08022170513868332,
        -0.03705773875117302,
        0.008040995337069035,
        0.028950003907084465,
        0.10085877776145935,
        0.001940480200573802,
        0.0900341048836708
      ],
      [
        0.08016857504844666,
        -0.017277806997299194,
        0.022575080394744873,
        -0.09010469913482666,
        -0.07120625674724579,
        -0.0031996071338653564,
        -0.02441975474357605,
        0.08862300217151642,
        0.06579793989658356,
        0.019107818603515625,
        -0.10786360502243042,
        0.10163062810897827,
        -0.03967404365539551,
        -0.0722019374370575,
        0.023500218987464905,
        -0.0994051843881607,
        -0.02874225378036499,
        -0.043867528438568115,
        -0.0923554003238678,
        0.05410051345825195,
        0.08013328909873962,
        0.084090456366539,
        -0.04198750853538513,
        -0.10329188406467438,
        0.09587299823760986,
        0.027247264981269836,
        -0.0552750825881958,
        0.11628523468971252,
        -0.12320585548877716,
        -0.09034813940525055,
        -0.11846493184566498,
        -0.04695756733417511,
        -0.023217424750328064,
        -0.014765530824661255,
        0.01337859034538269,
        0.013110071420669556,
        -0.09992939233779907,
        0.07140545547008514,
        -0.05016876757144928,
        0.10561966896057129,
        0.10029879212379456,
        -0.05485466122627258,
        0.08358946442604065,
        -0.056101322174072266,
        -0.020694151520729065,
        -0.014668002724647522,
        0.07232853770256042,
        -0.11511227488517761,
        -0.04536254703998566,
        -0.08445961773395538,
        -0.0786706805229187,
        -0.04856574535369873,
        -0.062388718128204346,
        0.0416833758354187,
        0.07697248458862305,
        0.09497447311878204,
        0.03443628549575806,
        -0.043860793113708496,
        -0.038141846656799316,
        0.11637610197067261,
        -0.04276047646999359,
        -0.08204285800457001,
        -0.10952933132648468,
        -0.08289287984371185
      ],
      [
        -0.06931603699922562,
        0.0960632860660553,
        -0.09045015275478363,
        -0.00897634495049715,
        0.01367280911654234,
        -0.034428492188453674,
        0.08600613474845886,
        0.09577897191047668,
        0.05820842832326889,
        0.08575399965047836,
        -0.11749496310949326,
        0.03906693682074547,
        0.04863860458135605,
        -0.04107247665524483,
        -0.021406427025794983,
        0.04052576422691345,
        -0.0012271621963009238,
        0.10210712254047394,
        -0.016950266435742378,
        -0.0964277908205986,
        -0.05452034994959831,
        0.04212016239762306,
        0.06623433530330658,
        0.10486598312854767,
        0.027281830087304115,
        0.035020146518945694,
        0.09847454726696014,
        -0.0038533848710358143,
        0.0902060940861702,
        0.07045884430408478,
        0.07337284833192825,
        0.0606309212744236,
        0.020369669422507286,
        0.011288232170045376,
        -0.007126355543732643,
        -0.06022670120000839,
        0.004896691534668207,
        -0.07032966613769531,
        -0.00562957813963294,
        0.10726482421159744,
        0.02244056761264801,
        -0.05349264666438103,
        0.036379482597112656,
        -0.03035103715956211,
        0.08703289926052094,
        0.10634537041187286,
        0.039769247174263,
        -0.02128140814602375,
        0.028437063097953796,
        0.01074188482016325,
        0.08340543508529663,
        -0.05399239808320999,
        -0.05325842648744583,
        -0.09492506086826324,
        -0.0027988667134195566,
        -0.04424915462732315,
        -0.05446014553308487,
        0.07605047523975372,
        -0.025531424209475517,
        -0.10957273095846176,
        -0.021006418392062187,
        0.12012667953968048,
        0.10304871946573257,
        -0.0030911415815353394
      ],
      [
        0.05309537798166275,
        -0.009115293622016907,
        0.10743482410907745,
        -0.04137204959988594,
        0.11604738235473633,
        -0.10265190899372101,
        -0.04904719069600105,
        0.09167122095823288,
        0.06702685356140137,
        0.07660270482301712,
        0.085518479347229,
        -0.035157207399606705,
        -0.06907030940055847,
        0.005732527934014797,
        0.11817073822021484,
        0.04727804660797119,
        -0.04974030330777168,
        0.07696039229631424,
        0.10217063874006271,
        -0.10979634523391724,
        -0.06062785163521767,
        0.09141421318054199,
        0.08961735665798187,
        0.0571407824754715,
        0.07945145666599274,
        -0.05234510824084282,
        -0.10810872912406921,
        -0.06810742616653442,
        -0.022942163050174713,
        0.0837286040186882,
        0.04091046005487442,
        0.02695012278854847,
        -0.026537684723734856,
        0.01485184021294117,
        0.005367775447666645,
        0.041500844061374664,
        -0.06249701976776123,
        0.11399179697036743,
        -0.07973941415548325,
        0.08424864709377289,
        -0.05853651836514473,
        -0.07793300598859787,
        -0.07184144854545593,
        0.09510635584592819,
        -0.06528636068105698,
        -0.11403363198041916,
        -0.025522354990243912,
        0.05143887922167778,
        -0.06890306621789932,
        -0.008006368763744831,
        -0.03812463954091072,
        0.003267429070547223,
        -0.08646012097597122,
        -0.024019137024879456,
        -0.017985152080655098,
        -0.1085798591375351,
        0.004928643815219402,
        0.030669137835502625,
        0.061146724969148636,
        0.12086821347475052,
        0.07330217212438583,
        -0.07699339091777802,
        -0.1238689050078392,
        0.03502456098794937
      ],
      [
        0.006545582786202431,
        -0.08062714338302612,
        0.12299035489559174,
        -0.04975809156894684,
        -0.10459914803504944,
        -0.008709609508514404,
        -0.09668853878974915,
        -0.001028299331665039,
        -0.11487455666065216,
        0.041890814900398254,
        -0.07196144759654999,
        -0.04218548908829689,
        -0.04946914315223694,
        -0.09984864294528961,
        -0.000962182879447937,
        -0.12272004783153534,
        0.005645537283271551,
        0.08268296718597412,
        0.04383428394794464,
        -0.0584520660340786,
        -0.1153842881321907,
        -0.0777299553155899,
        0.08675666153430939,
        -0.03989988565444946,
        0.04779192805290222,
        0.006504639983177185,
        0.10845509171485901,
        0.11160627752542496,
        -0.11282317340373993,
        0.08778368681669235,
        0.10073474794626236,
        0.1036873385310173,
        -0.11620505154132843,
        0.04309085011482239,
        -0.030479878187179565,
        0.1175791323184967,
        0.03046000935137272,
        -0.033251140266656876,
        -0.0638563483953476,
        0.03072827309370041,
        -0.06317108869552612,
        0.057944510132074356,
        -0.10031767189502716,
        -0.014323285780847073,
        0.038169875741004944,
        -0.10639949887990952,
        -0.10399695485830307,
        -0.06528358906507492,
        -0.03404678404331207,
        -0.05305119976401329,
        -0.011762063018977642,
        -0.1116817444562912,
        -0.029493115842342377,
        -0.08730313181877136,
        -0.009198145009577274,
        -0.05467976629734039,
        -0.08467522263526917,
        -0.01828862726688385,
        0.03856012597680092,
        -9.94950532913208e-05,
        -0.05608043819665909,
        0.048942629247903824,
        0.07822262495756149,
        -0.07413385063409805
      ],
      [
        0.05262867361307144,
        0.0628206878900528,
        0.11379004269838333,
        -0.010908990167081356,
        -0.10664889961481094,
        -0.05763264000415802,
        0.11675959080457687,
        0.06904689222574234,
        -0.04474984109401703,
        0.057667385786771774,
        0.028378644958138466,
        -0.0998721793293953,
        -0.06683411449193954,
        -0.005223465152084827,
        0.056741490960121155,
        0.05550558120012283,
        0.04811980202794075,
        0.06718409806489944,
        -0.014983860775828362,
        0.15756678581237793,
        -0.010041194967925549,
        -0.05085497349500656,
        -0.037277135998010635,
        -0.10199958086013794,
        0.10550402849912643,
        -0.06172801926732063,
        0.08088187873363495,
        0.018048210069537163,
        0.06571628898382187,
        0.07608107477426529,
        0.17322075366973877,
        -0.040710609406232834,
        0.06949660181999207,
        0.1192268505692482,
        -0.03799957036972046,
        -0.05376551300287247,
        0.018922751769423485,
        0.09800878912210464,
        -0.04556886479258537,
        -0.06579090654850006,
        -0.043107811361551285,
        -0.08348382264375687,
        0.027677500620484352,
        0.08342466503381729,
        -0.03708155080676079,
        0.0007782778120599687,
        0.0703330934047699,
        0.13367587327957153,
        -0.08637569844722748,
        0.03746260702610016,
        -0.026665259152650833,
        0.027419593185186386,
        -0.0014780649216845632,
        0.08472339808940887,
        0.11177096515893936,
        0.12115133553743362,
        0.1073828935623169,
        -0.02244757115840912,
        0.1007738932967186,
        0.10241423547267914,
        -0.09248579293489456,
        0.07853960990905762,
        0.1287076324224472,
        0.0714867115020752
      ],
      [
        0.11000623553991318,
        -0.013369709253311157,
        -0.05380460247397423,
        0.10174225270748138,
        0.028612876310944557,
        -0.0968809723854065,
        -0.018942100927233696,
        0.03650590032339096,
        -0.1099383607506752,
        0.11305062472820282,
        -0.06790214776992798,
        -0.12031576037406921,
        0.025877058506011963,
        0.08361705392599106,
        -0.06984671950340271,
        0.07029271125793457,
        0.04315448924899101,
        0.06280510872602463,
        0.11330042034387589,
        -0.06672245264053345,
        -0.030880505219101906,
        -0.09467317163944244,
        -0.06405460834503174,
        0.11634662747383118,
        -0.0846414715051651,
        0.06996594369411469,
        -0.048727139830589294,
        -0.10626254975795746,
        -0.10440465062856674,
        0.07223646342754364,
        -0.08152288943529129,
        0.023656761273741722,
        0.06513457000255585,
        0.06006857380270958,
        0.08244092017412186,
        0.09311620146036148,
        0.0026819249615073204,
        -0.005186368711292744,
        -0.03444117680191994,
        -0.0029828648548573256,
        -0.01359451375901699,
        0.040617089718580246,
        0.06448589265346527,
        -0.07976023852825165,
        0.032131537795066833,
        -0.03354101628065109,
        0.07500336319208145,
        0.10794755816459656,
        0.030206017196178436,
        -0.12193872034549713,
        -0.10458114743232727,
        0.1191224679350853,
        -0.09899751096963882,
        0.04944543167948723,
        -0.03520265966653824,
        -0.019130511209368706,
        0.11725708097219467,
        0.041439130902290344,
        -0.09812168031930923,
        -0.06689253449440002,
        0.07198762148618698,
        -0.10268884897232056,
        -0.10346919298171997,
        -0.0875745639204979
      ],
      [
        -0.042915791273117065,
        0.009343057870864868,
        0.061775024980306625,
        0.037293266505002975,
        0.06093938276171684,
        -0.0858977735042572,
        -0.13056647777557373,
        -0.02834976650774479,
        0.03700992465019226,
        0.025672907009720802,
        0.04081365093588829,
        -0.07070839405059814,
        -0.01415493618696928,
        0.005044718738645315,
        -0.09677879512310028,
        -0.039927318692207336,
        -0.02104964107275009,
        -0.035854313522577286,
        0.0337367057800293,
        0.0035113112535327673,
        0.09464594721794128,
        -0.0029228085186332464,
        0.100579634308815,
        0.1051003485918045,
        -0.002090044552460313,
        0.10795710980892181,
        0.09534019231796265,
        -0.12301594763994217,
        0.015081821009516716,
        -0.024138102307915688,
        -0.13089987635612488,
        0.04169708117842674,
        0.04092593863606453,
        0.04385989159345627,
        -0.04524390399456024,
        0.11476506292819977,
        -0.06319065392017365,
        0.009012860246002674,
        0.09822716563940048,
        -0.03921657055616379,
        0.09371583163738251,
        0.10438060015439987,
        -0.03661706671118736,
        -0.09647636860609055,
        -0.010305611416697502,
        -0.06034161522984505,
        -0.011235490441322327,
        0.08422147482633591,
        0.059940703213214874,
        -0.02180984430015087,
        -0.10781340301036835,
        -0.04548661783337593,
        -0.12235607951879501,
        -0.12018170952796936,
        0.0034061074256896973,
        -0.007821187376976013,
        0.015795156359672546,
        0.11133568733930588,
        0.03916967287659645,
        0.11600041389465332,
        0.0024410018231719732,
        -0.07786791026592255,
        -0.07899539172649384,
        0.04653283953666687
      ],
      [
        0.06877508014440536,
        0.1147540807723999,
        -0.05473031476140022,
        0.16203278303146362,
        -0.0954820066690445,
        0.08246955275535583,
        -0.014099547639489174,
        -0.09422769397497177,
        0.037479743361473083,
        0.009989180602133274,
        0.17512866854667664,
        -0.021545423194766045,
        0.09606919437646866,
        0.02253255993127823,
        -0.02375619113445282,
        0.006831259932368994,
        0.03188743814826012,
        -0.03150558099150658,
        -0.02680794894695282,
        0.201940655708313,
        0.20722225308418274,
        0.0713362842798233,
        -0.008644512854516506,
        -0.0034300002735108137,
        0.07573894411325455,
        -0.02121886797249317,
        0.06713458895683289,
        0.13843253254890442,
        0.08820927143096924,
        -0.026693908497691154,
        0.22759850323200226,
        0.14116115868091583,
        -0.07117743790149689,
        0.10862479358911514,
        -0.04652109369635582,
        0.04994586110115051,
        0.1636866182088852,
        0.018049512058496475,
        0.09805487841367722,
        -0.012550692074000835,
        0.07488904148340225,
        0.06668411195278168,
        0.007051288615912199,
        0.11132432520389557,
        -0.0048490469343960285,
        -0.006656292825937271,
        0.06613043695688248,
        0.03301439806818962,
        0.06679555773735046,
        0.05862090364098549,
        0.06165114790201187,
        -0.045346297323703766,
        -0.04269663244485855,
        0.056025180965662,
        -0.017992323264479637,
        0.055039312690496445,
        -0.021202528849244118,
        0.07196054607629776,
        0.1383408010005951,
        0.06816416233778,
        0.14332284033298492,
        0.06804972141981125,
        0.22469393908977509,
        -0.07090280950069427
      ],
      [
        0.08131951838731766,
        0.059425562620162964,
        -0.09397565573453903,
        -0.11807329952716827,
        -0.08895111083984375,
        0.02159462869167328,
        -0.11880748718976974,
        -0.09637186676263809,
        -0.04167088866233826,
        0.022248392924666405,
        -0.11084125936031342,
        -0.04010695964097977,
        -0.08429940044879913,
        0.016203150153160095,
        0.10086670517921448,
        -0.07990600913763046,
        0.020482970401644707,
        0.05626856908202171,
        -0.1140100285410881,
        0.006341178435832262,
        -0.043453849852085114,
        -0.05741669610142708,
        -0.12076035887002945,
        -0.008835317566990852,
        0.09561809152364731,
        0.05329876393079758,
        0.052947163581848145,
        -0.1015854999423027,
        -0.10341896861791611,
        0.10715503245592117,
        -2.4027773179113865e-05,
        0.1124669685959816,
        -0.002088001696392894,
        -0.10179571062326431,
        -0.09767532348632812,
        -0.045951228588819504,
        -0.08084922283887863,
        -0.10424471646547318,
        0.09097129851579666,
        -0.09938183426856995,
        0.12264366447925568,
        0.0295804925262928,
        -0.06725277751684189,
        0.07690222561359406,
        0.08386167138814926,
        -0.046738602221012115,
        -0.04071260616183281,
        0.09578005969524384,
        -0.04536782205104828,
        -0.08943833410739899,
        -0.0776897743344307,
        0.07541467249393463,
        0.021688280627131462,
        -0.07531772553920746,
        0.04402605816721916,
        0.11594784259796143,
        0.08477457612752914,
        0.014943752437829971,
        0.11947333067655563,
        -0.036033011972904205,
        0.11828035861253738,
        0.10062064230442047,
        0.0005958601832389832,
        0.04951916262507439
      ],
      [
        -0.04123338684439659,
        -0.07369162142276764,
        -0.009596779942512512,
        -0.02131194993853569,
        0.10189399123191833,
        0.038387030363082886,
        -0.09396825730800629,
        -0.06632637232542038,
        0.0007640028488822281,
        0.025790851563215256,
        0.037016361951828,
        0.12320080399513245,
        -0.08449100703001022,
        0.16608060896396637,
        -0.022784337401390076,
        0.11132200807332993,
        0.11021575331687927,
        0.03437912091612816,
        -0.11237773299217224,
        0.15557722747325897,
        0.1197948157787323,
        0.09379973262548447,
        -0.09855658560991287,
        0.09646590799093246,
        -0.05717039480805397,
        -0.028019854798913002,
        0.11906714737415314,
        -0.10677614063024521,
        0.11907795071601868,
        0.15769357979297638,
        0.12963004410266876,
        0.12808038294315338,
        -0.08761924505233765,
        0.11465641856193542,
        -0.01975538209080696,
        -0.06955182552337646,
        0.08847873657941818,
        0.010913310572504997,
        -0.005326520185917616,
        0.11240479350090027,
        0.11141791194677353,
        0.06624158471822739,
        -0.05409235134720802,
        0.03821320831775665,
        -0.07202798873186111,
        0.1126755028963089,
        -0.06386501342058182,
        0.05603966489434242,
        -0.051815055310726166,
        -0.010250567458570004,
        0.13235624134540558,
        0.07395655661821365,
        -0.025206228718161583,
        0.06443191319704056,
        0.06109384447336197,
        0.023531708866357803,
        0.03173913061618805,
        -0.026407180353999138,
        -0.004508430603891611,
        -0.09096003323793411,
        -0.08204671740531921,
        -0.027149640023708344,
        0.1531422883272171,
        0.06321047246456146
      ],
      [
        0.09215465188026428,
        -0.004109859466552734,
        -0.04552373290061951,
        0.04974295198917389,
        0.012514963746070862,
        -0.10901357233524323,
        -0.08898515999317169,
        -0.12395446002483368,
        -0.10417409241199493,
        0.12097251415252686,
        -0.04628308117389679,
        -0.10790248215198517,
        0.0350755900144577,
        -0.013692036271095276,
        -0.0768371969461441,
        0.012174367904663086,
        -0.09719246625900269,
        -0.09276629984378815,
        0.029430851340293884,
        0.02358897030353546,
        0.03878188133239746,
        0.013857007026672363,
        0.08685947954654694,
        -0.0933043360710144,
        0.08582565188407898,
        0.05312216281890869,
        -0.0888340175151825,
        0.010969191789627075,
        -0.10146389901638031,
        0.08442263305187225,
        -0.025026574730873108,
        -0.026474177837371826,
        -0.07362625002861023,
        -0.05456313490867615,
        0.08547663688659668,
        0.0246446430683136,
        0.10001859068870544,
        0.09186826646327972,
        -0.07109673321247101,
        -0.05849197506904602,
        0.09088020026683807,
        -0.09981714189052582,
        -0.052212491631507874,
        0.006105154752731323,
        -0.0004006326198577881,
        0.06806062161922455,
        -0.09754025936126709,
        -0.05854766070842743,
        -0.0827101320028305,
        -0.11560174822807312,
        0.022525250911712646,
        0.10310500860214233,
        0.07527849078178406,
        -0.012405544519424438,
        -0.021760955452919006,
        0.09499257802963257,
        0.07603168487548828,
        -0.10823561251163483,
        -0.07116343080997467,
        0.10053777694702148,
        -0.04951116442680359,
        -0.006787985563278198,
        -0.11058966815471649,
        -0.11343558132648468
      ],
      [
        -0.03577808663249016,
        0.04422995448112488,
        -0.05453864857554436,
        0.07669956982135773,
        -0.07291588187217712,
        0.07025520503520966,
        0.10848119109869003,
        0.034424200654029846,
        0.11598105728626251,
        -0.05319126322865486,
        -0.022149546071887016,
        0.028325155377388,
        -0.08273022621870041,
        0.07889988273382187,
        -0.02574741840362549,
        0.0633610412478447,
        -0.06738964468240738,
        0.04114251583814621,
        -0.043509192764759064,
        0.08800022304058075,
        -0.06304977089166641,
        -0.11541788280010223,
        -0.11049094796180725,
        0.09666977822780609,
        -0.1013651192188263,
        0.012262238189578056,
        -0.006163150072097778,
        0.10468825697898865,
        -0.011350304819643497,
        0.014520752243697643,
        -0.007907665334641933,
        -0.10062200576066971,
        -0.0781330019235611,
        0.07361363619565964,
        0.11369066685438156,
        -0.09917241334915161,
        0.05905752256512642,
        -0.02906901389360428,
        -0.012640767730772495,
        -0.003402333240956068,
        -0.12494882941246033,
        -0.09030745178461075,
        0.0678284540772438,
        0.10917073488235474,
        0.06526067107915878,
        -0.04545160382986069,
        0.08633620291948318,
        -0.044718630611896515,
        -0.05850156396627426,
        -0.004237266257405281,
        -0.12072734534740448,
        0.03210731968283653,
        -0.04549736529588699,
        0.08663087338209152,
        -0.09582045674324036,
        -0.07254484295845032,
        -0.08953620493412018,
        0.028396891430020332,
        0.0235358364880085,
        0.002395135583356023,
        0.018882980570197105,
        0.014866027981042862,
        -0.062150776386260986,
        0.012945837341248989
      ],
      [
        -0.06826584041118622,
        0.05212801694869995,
        -0.02540525794029236,
        -0.06731480360031128,
        -0.0029836297035217285,
        0.07278941571712494,
        0.04531824588775635,
        0.05256469547748566,
        0.05178391933441162,
        0.007821589708328247,
        -0.010166913270950317,
        -0.00565493106842041,
        0.05845533311367035,
        -0.10876239836215973,
        0.02595171332359314,
        -0.08164528012275696,
        -0.09738065302371979,
        0.10410475730895996,
        0.08079904317855835,
        0.005478084087371826,
        0.03208315372467041,
        -0.11367392539978027,
        -0.10521814227104187,
        -0.05763727426528931,
        0.012640982866287231,
        -0.12420150637626648,
        0.07696139812469482,
        -0.043267711997032166,
        0.09979972243309021,
        -0.0994272381067276,
        0.08642010390758514,
        -0.0323457270860672,
        -0.027920037508010864,
        -0.11503387987613678,
        0.12080134451389313,
        0.056161969900131226,
        -0.006439134478569031,
        0.07427164912223816,
        0.007017076015472412,
        -0.09797967970371246,
        -0.0837104469537735,
        0.07571670413017273,
        0.01813502609729767,
        0.09599503874778748,
        0.0644182413816452,
        0.08008018136024475,
        -0.005797088146209717,
        -0.08943958580493927,
        0.10454687476158142,
        -0.09349007904529572,
        -0.060642778873443604,
        -0.07789798080921173,
        -0.11849077045917511,
        -0.06374701857566833,
        0.030631810426712036,
        0.044185101985931396,
        0.05050598084926605,
        -0.0038772672414779663,
        -0.04769463837146759,
        0.042014509439468384,
        0.03391021490097046,
        0.007841765880584717,
        -0.07467085123062134,
        0.10745464265346527
      ],
      [
        -0.10239610075950623,
        0.052535563707351685,
        -0.06578027456998825,
        0.12079652398824692,
        0.06380117684602737,
        -0.005046278238296509,
        0.0377182736992836,
        0.08565680682659149,
        0.12217260152101517,
        -0.08206713199615479,
        0.12514279782772064,
        0.013302229344844818,
        -0.07710592448711395,
        -0.04669617488980293,
        -0.07285979390144348,
        -0.06393951922655106,
        -0.11827868968248367,
        0.08389970660209656,
        0.058891795575618744,
        -0.03155328333377838,
        0.09069088101387024,
        -0.026188142597675323,
        0.1059633120894432,
        -0.1023515984416008,
        0.055908579379320145,
        -0.11245804280042648,
        0.021607592701911926,
        -0.038920849561691284,
        0.09896605461835861,
        -0.06121034547686577,
        0.07965247333049774,
        -0.11356407403945923,
        -0.057579316198825836,
        0.08110792189836502,
        -0.053915493190288544,
        -0.07173105329275131,
        0.06826648116111755,
        0.0774705782532692,
        0.04999392107129097,
        -0.057552944868803024,
        0.04071526229381561,
        0.03444240987300873,
        0.027890339493751526,
        0.09914501756429672,
        -0.07719562947750092,
        0.13026957213878632,
        -0.04575420916080475,
        0.00942819844931364,
        0.04845017194747925,
        0.12707985937595367,
        -0.06099404767155647,
        0.039279211312532425,
        -0.019911248236894608,
        -0.08553934097290039,
        -0.05256705731153488,
        0.01334623247385025,
        0.10433097183704376,
        -0.015087037347257137,
        0.11584382504224777,
        -0.0239576268941164,
        -0.006009591743350029,
        -0.09657763689756393,
        0.047596774995326996,
        0.013137060217559338
      ],
      [
        -0.029958337545394897,
        -0.014571741223335266,
        -0.06816577911376953,
        -0.08289127051830292,
        -0.029446184635162354,
        -0.08732515573501587,
        0.08880285918712616,
        -0.03720766305923462,
        0.07426385581493378,
        -0.11216726899147034,
        -0.013565942645072937,
        0.11852480471134186,
        -0.11111664772033691,
        0.008116602897644043,
        0.07595232129096985,
        -0.026569336652755737,
        -0.11784495413303375,
        -0.06648540496826172,
        0.11475832760334015,
        -0.06730487942695618,
        -0.06806056201457977,
        0.09125728905200958,
        0.10333599150180817,
        0.046498119831085205,
        -0.11297900974750519,
        -0.005114063620567322,
        0.017700091004371643,
        0.05587857961654663,
        -0.03099614381790161,
        0.0009160041809082031,
        0.00018753111362457275,
        -0.05753122270107269,
        -0.037749409675598145,
        -0.11135968565940857,
        -0.04939776659011841,
        -0.02049650251865387,
        0.1030949056148529,
        -0.07978160679340363,
        0.07852569222450256,
        -0.12235601246356964,
        -0.024059176445007324,
        0.0883217602968216,
        0.027006998658180237,
        0.06918063759803772,
        -0.10982784628868103,
        -0.09691701829433441,
        0.08068901300430298,
        -0.051579803228378296,
        0.03297920525074005,
        -0.033963724970817566,
        -0.12344537675380707,
        0.11638498306274414,
        -0.057097747921943665,
        -0.039541006088256836,
        0.03502301871776581,
        -0.05643182992935181,
        -0.12308971583843231,
        0.09465895593166351,
        0.006807014346122742,
        -0.02047458291053772,
        -0.01928950846195221,
        -0.026125043630599976,
        0.01456277072429657,
        -0.02123674750328064
      ]
    ],
    "2.bias": [
      -0.01859964057803154,
      0.06567543745040894,
      0.06993566453456879,
      -0.0017675487324595451,
      0.10293231159448624,
      0.02974770963191986,
      -0.09632591158151627,
      -0.018988460302352905,
      0.19566619396209717,
      0.012398198246955872,
      0.2267131805419922,
      0.11659802496433258,
      0.26534777879714966,
      -0.0338221937417984,
      0.12567627429962158,
      -0.004892975091934204,
      0.2070092409849167,
      -0.05030125379562378,
      -0.06022976338863373,
      0.044554729014635086,
      0.04638269543647766,
      -0.020604250952601433,
      -0.023545650765299797,
      -0.01326017826795578,
      0.20031657814979553,
      0.0020523397251963615,
      0.03451542556285858,
      -0.09449957311153412,
      -0.012400835752487183,
      -0.06806725263595581,
      -0.010693344287574291,
      -0.09294691681861877
    ],
    "4.weight": [
      [
        0.20903578400611877,
        -0.11724547296762466,
        -0.04707436263561249,
        -0.12412606924772263,
        -0.04272818937897682,
        -0.10725175589323044,
        -0.11371277272701263,
        -0.04789477586746216,
        0.32178694009780884,
        -0.12620845437049866,
        0.39532485604286194,
        0.3967040777206421,
        0.4980647563934326,
        -0.17555832862854004,
        0.2518788278102875,
        0.15175268054008484,
        0.35938888788223267,
        -0.03265745937824249,
        0.0013565828558057547,
        -0.09870108217000961,
        -0.0015603238716721535,
        0.2370971143245697,
        -0.04236091673374176,
        -0.16080434620380402,
        0.49718767404556274,
        -0.0013830324169248343,
        0.3407757580280304,
        0.1200362890958786,
        -0.10961399972438812,
        -0.13363036513328552,
        0.11707142740488052,
        -0.1409958004951477
      ]
    ],
    "4.bias": [
      0.5663595199584961
    ]
  },
  "state_features": [
    "own_funds",
    "own_score",
    "opponent_score",
    "own_survivors",
    "opponent_survivors",
    "consecutive_losses",
    "is_ct_side",
    "round_number",
    "half_length",
    "last_round_reason",
    "last_bomb_planted"
  ],
  "normalization": {
    "own_funds": 999999.0,
    "own_score": 16.0,
    "opponent_score": 16.0,
    "own_survivors": 5.0,
    "opponent_survivors": 5.0,
    "consecutive_losses": 5.0,
    "round_number": 30.0,
    "half_length": 15.0,
    "last_round_reason": 4.0
  }
}