{"learner":{"attributes":{"scikit_learn":"{\"_estimator_type\": \"classifier\"}"},"feature_names":["ct_score_start","t_score_start","score_diff","ct_starting_equipment","t_starting_equipment","ct_money_start","t_money_start"],"feature_types":["int","int","int","float","float","float","float"],"gradient_booster":{"model":{"gbtree_model_param":{"num_parallel_tree":"1","num_trees":"100"},"iteration_indptr":[0,1,2,3,4,5,6,7,8,9,10,11,12,13,14,15,16,17,18,19,20,21,22,23,24,25,26,27,28,29,30,31,32,33,34,35,36,37,38,39,40,41,42,43,44,45,46,47,48,49,50,51,52,53,54,55,56,57,58,59,60,61,62,63,64,65,66,67,68,69,70,71,72,73,74,75,76,77,78,79,80,81,82,83,84,85,86,87,88,89,90,91,92,93,94,95,96,97,98,99,100],"tree_info":[0,0,0,0,0,0,0,0,0,0,0,0,0,0,0,0,0,0,0,0,0,0,0,0,0,0,0,0,0,0,0,0,0,0,0,0,0,0,0,0,0,0,0,0,0,0,0,0,0,0,0,0,0,0,0,0,0,0,0,0,0,0,0,0,0,0,0,0,0,0,0,0,0,0,0,0,0,0,0,0,0,0,0,0,0,0,0,0,0,0,0,0,0,0,0,0,0,0,0,0],"trees":[{"base_weights":[1.375192E-6,2.1097341E-1,-9.393096E-1,1.060341E-2,1.5386367E0,-1.4103018E0,6.545847E-1,3.685337E-1,-4.7237447E-1,-1.0307504E0,1.5932475E0,-1.6834941E0,-9.004356E-1,3.372673E-1,1.4378204E0,6.090396E-1,-2.679722E-1,-8.444609E-1,5.220963E-1,-1.9666211E-1,1.9632922E-1,9.692277E-1,1.7749528E0,-2.5034237E-1,-1.7162607E0,-7.327316E-1,-1.3258561E0,3.7343692E-2,7.069038E-1,1.090823E0,1.5974019E0,1.0785236E0,2.345496E-1,-1.2012784E0,-8.615251E-2,-5.368622E-1,-1.2371918E0,-2.736141E-1,8.8740224E-1,7.207607E-1,1.2306521E0,1.6065885E0,1.8657813E0,1.9246572E-1,-2.014211E-1,-1.8838478E0,-1.5378081E0,-4.644009E-1,-9.7106165E-1,-1.6374729E0,-6.8942434E-1,-1.6033441E-1,3.7166706E-1,1.0389088E0,2.973467E-1,8.6318535E-1,1.2524316E0,1.4191198E0,1.6586496E0,-1.5207835E-1,1.1446627E-1,-6.263297E-3,3.9971188E-2,-1.310982E-1,-1.0424701E-1,2.5105083E-2,-3.5129275E-2,-3.594842E-2,-6.933766E-2,1.6167884E-1,-1.329896E-1,3.758036E-2,-4.264322E-2,5.626995E-2,1.1582672E-1,9.487861E-2,4.5543738E-2,1.3739324E-1,1.04563855E-1,1.4634013E-1,1.756087E-1,1.7174165E-1,1.900717E-1,-1.7813009E-1,-1.956561E-1,-1.36164E-1,-1.7244682E-1,-6.6933714E-2,-7.074198E-3,-1.2376672E-1,-8.361552E-2,-1.5471785E-1,-2.0230177E-1,1.8960332E-2,-1.04033284E-1,-4.6868328E-2,-1.1553065E-3,7.5385705E-2,2.3971584E-2,7.305171E-2,1.9378851E-1,6.423592E-2,1.1810767E-2,7.215801E-2,1.0206872E-1,1.0306151E-1,1.4039354E-1,1.5492408E-1,1.2935703E-1,1.5952726E-1,1.7294185E-1],"categories":[],"categories_nodes":[],"categories_segments":[],"categories_sizes":[],"default_left":[0,0,0,0,0,0,0,0,0,0,0,0,0,0,0,0,0,0,0,0,0,0,0,0,0,0,0,0,0,0,0,0,0,0,0,0,0,0,0,0,0,0,0,0,0,0,0,0,0,0,0,0,0,0,0,0,0,0,0,0,0,0,0,0,0,0,0,0,0,0,0,0,0,0,0,0,0,0,0,0,0,0,0,0,0,0,0,0,0,0,0,0,0,0,0,0,0,0,0,0,0,0,0,0,0,0,0,0,0,0,0],"id":0,"left_children":[1,3,5,7,9,11,13,15,17,19,21,23,25,27,29,31,33,35,37,-1,-1,39,41,43,45,47,49,51,53,55,57,59,61,63,65,67,69,71,73,75,77,79,81,-1,-1,83,85,87,89,91,93,95,97,99,101,103,105,107,109,-1,-1,-1,-1,-1,-1,-1,-1,-1,-1,-1,-1,-1,-1,-1,-1,-1,-1,-1,-1,-1,-1,-1,-1,-1,-1,-1,-1,-1,-1,-1,-1,-1,-1,-1,-1,-1,-1,-1,-1,-1,-1,-1,-1,-1,-1,-1,-1,-1,-1,-1,-1],"loss_changes":[9.318935E4,1.0215445E5,6.474879E4,5.767932E4,7.067164E3,9.2719375E3,4.889091E3,2.9336191E4,5.2551355E4,2.9420334E3,5.5890625E3,2.0351719E3,1.6562988E3,1.552333E3,3.123457E2,2.4452746E4,8.91783E3,1.2484367E4,1.1240577E4,0E0,0E0,7.215293E2,5.809531E2,3.7255696E3,1.2645078E3,1.0651934E3,1.3012002E3,5.110075E2,8.52562E2,6.47688E1,4.004883E1,1.0611266E4,3.79758E3,1.4791504E2,3.9326682E3,1.6088027E3,1.201193E4,1.2077294E3,2.3302637E3,3.4469873E2,1.4219238E2,2.8402344E2,1.2527344E2,0E0,0E0,1.5944531E2,6.7273047E2,6.3246533E2,3.1634082E2,1.503086E2,6.665161E2,2.2291948E2,1.4470828E2,9.588508E2,1.7366626E2,1.5910156E1,3.365735E1,1.4329956E1,1.0176758E1,0E0,0E0,0E0,0E0,0E0,0E0,0E0,0E0,0E0,0E0,0E0,0E0,0E0,0E0,0E0,0E0,0E0,0E0,0E0,0E0,0E0,0E0,0E0,0E0,0E0,0E0,0E0,0E0,0E0,0E0,0E0,0E0,0E0,0E0,0E0,0E0,0E0,0E0,0E0,0E0,0E0,0E0,0E0,0E0,0E0,0E0,0E0,0E0,0E0,0E0,0E0,0E0],"parents":[2147483647,0,0,1,1,2,2,3,3,4,4,5,5,6,6,7,7,8,8,9,9,10,10,11,11,12,12,13,13,14,14,15,15,16,16,17,17,18,18,21,21,22,22,23,23,24,24,25,25,26,26,27,27,28,28,29,29,30,30,31,31,32,32,33,33,34,34,35,35,36,36,37,37,38,38,39,39,40,40,41,41,42,42,45,45,46,46,47,47,48,48,49,49,50,50,51,51,52,52,53,53,54,54,55,55,56,56,57,57,58,58],"right_children":[2,4,6,8,10,12,14,16,18,20,22,24,26,28,30,32,34,36,38,-1,-1,40,42,44,46,48,50,52,54,56,58,60,62,64,66,68,70,72,74,76,78,80,82,-1,-1,84,86,88,90,92,94,96,98,100,102,104,106,108,110,-1,-1,-1,-1,-1,-1,-1,-1,-1,-1,-1,-1,-1,-1,-1,-1,-1,-1,-1,-1,-1,-1,-1,-1,-1,-1,-1,-1,-1,-1,-1,-1,-1,-1,-1,-1,-1,-1,-1,-1,-1,-1,-1,-1,-1,-1,-1,-1,-1,-1,-1,-1],"split_conditions":[1.2E1,1.2E1,0E0,1E0,2E0,-3E0,2E0,5E0,5E0,1.4E1,4E0,2E0,1.5E1,1E0,1.5E1,-2E0,-3E0,4E0,9E0,-1.9666211E-1,1.9632922E-1,3E0,6E0,1.4E1,-6E0,4.7E3,1.5E1,1.165E4,2.975E4,2.255E4,1.98E4,7.85E3,1.77E4,1.725E4,9E0,1.05E4,7.9E3,7.9E3,3E0,5.2E3,5.4E3,1.4E1,1.3E1,1.9246572E-1,-2.014211E-1,1.4E1,1.4E1,-1E0,-2E0,1.4E1,1.7E1,2.285E4,1.915E4,1.5E1,4.3E3,9.85E3,9.7E3,1.3E1,3E0,-1.5207835E-1,1.1446627E-1,-6.263297E-3,3.9971188E-2,-1.310982E-1,-1.0424701E-1,2.5105083E-2,-3.5129275E-2,-3.594842E-2,-6.933766E-2,1.6167884E-1,-1.329896E-1,3.758036E-2,-4.264322E-2,5.626995E-2,1.1582672E-1,9.487861E-2,4.5543738E-2,1.3739324E-1,1.04563855E-1,1.4634013E-1,1.756087E-1,1.7174165E-1,1.900717E-1,-1.7813009E-1,-1.956561E-1,-1.36164E-1,-1.7244682E-1,-6.6933714E-2,-7.074198E-3,-1.2376672E-1,-8.361552E-2,-1.5471785E-1,-2.0230177E-1,1.8960332E-2,-1.04033284E-1,-4.6868328E-2,-1.1553065E-3,7.5385705E-2,2.3971584E-2,7.305171E-2,1.9378851E-1,6.423592E-2,1.1810767E-2,7.215801E-2,1.0206872E-1,1.0306151E-1,1.4039354E-1,1.5492408E-1,1.2935703E-1,1.5952726E-1,1.7294185E-1],"split_indices":[1,0,2,2,1,2,2,0,1,0,2,0,1,2,0,2,2,2,0,0,0,2,2,1,2,4,0,3,6,5,5,6,6,5,1,3,5,5,2,4,4,0,0,0,0,1,1,2,2,0,1,5,6,0,3,3,3,1,2,0,0,0,0,0,0,0,0,0,0,0,0,0,0,0,0,0,0,0,0,0,0,0,0,0,0,0,0,0,0,0,0,0,0,0,0,0,0,0,0,0,0,0,0,0,0,0,0,0,0,0,0],"split_type":[0,0,0,0,0,0,0,0,0,0,0,0,0,0,0,0,0,0,0,0,0,0,0,0,0,0,0,0,0,0,0,0,0,0,0,0,0,0,0,0,0,0,0,0,0,0,0,0,0,0,0,0,0,0,0,0,0,0,0,0,0,0,0,0,0,0,0,0,0,0,0,0,0,0,0,0,0,0,0,0,0,0,0,0,0,0,0,0,0,0,0,0,0,0,0,0,0,0,0,0,0,0,0,0,0,0,0,0,0,0,0],"sum_hessian":[4.702515E5,3.8400384E5,8.624763E4,3.3365056E5,5.0353297E4,6.6574984E4,1.9672643E4,1.9163323E5,1.4201733E5,1.0475846E3,4.9305715E4,4.3346906E4,2.3228082E4,1.4001539E4,5.6711045E3,1.3908103E5,5.25522E4,1.0334893E5,3.8668395E4,7.983739E2,2.4921065E2,1.1120744E4,3.818497E4,9.69097E2,4.237781E4,1.666237E4,6.5657134E3,7.7302793E3,6.27126E3,1.7889675E3,3.882137E3,6.1712504E4,7.736853E4,8.567647E3,4.3984555E4,5.7957348E4,4.5391582E4,1.2166829E4,2.6501564E4,5.703599E3,5.4171445E3,1.3387636E4,2.4797334E4,4.339315E2,5.3516547E2,2.1849299E4,2.0528508E4,7.839262E3,8.823106E3,4.406554E3,2.159159E3,4.858233E3,2.8720464E3,3.4627031E3,2.8085564E3,7.4538226E2,1.0435852E3,9.988423E2,2.8832947E3,1.5307583E3,6.0181746E4,2.7638385E4,4.973015E4,5.0629507E3,3.5046965E3,1.9361193E4,2.4623361E4,2.7169459E4,3.0787889E4,1.4275245E3,4.396406E4,2.317384E3,9.849444E3,1.2054347E4,1.4447219E4,3.0660159E3,2.6375835E3,3.0492686E3,2.367876E3,6.8436694E3,6.543967E3,4.735752E3,2.0061582E4,9.075566E3,1.2773732E4,1.0565332E4,9.963177E3,5.154936E3,2.6843262E3,2.9617822E3,5.861324E3,3.5744355E3,8.321186E2,6.161527E2,1.5430063E3,1.5805004E3,3.2777324E3,7.358838E2,2.1361626E3,2.5795925E3,8.8311053E2,9.593485E2,1.849208E3,3.9543756E2,3.4994473E2,4.2668262E2,6.169026E2,4.8492343E2,5.139188E2,1.5335078E3,1.3497869E3],"tree_param":{"num_deleted":"0","num_feature":"7","num_nodes":"111","size_leaf_vector":"1"}},{"base_weights":[7.2690935E-5,1.9049144E-1,-8.4872943E-1,9.599797E-3,1.3974652E0,-1.2746246E0,5.9121364E-1,3.3236244E-1,-4.258144E-1,-9.355375E-1,1.4470705E0,-1.5236335E0,-8.117018E-1,3.0409488E-1,1.3039476E0,5.495393E-1,-2.4129626E-1,-7.6107025E-1,4.7106057E-1,-1.7833523E-1,1.7900169E-1,8.758552E-1,1.6144545E0,-2.2731139E-1,-1.5531507E0,-6.5996385E-1,-1.197702E0,3.3636402E-2,6.382791E-1,9.865977E-1,1.4504682E0,1.1167208E0,2.935497E-1,-1.0835518E0,-7.7543214E-2,-4.8323032E-1,-1.1168065E0,-2.4626905E-1,8.0144066E-1,6.503157E-1,1.1138787E0,1.5021381E0,1.7315304E0,1.7537308E-1,-1.8274021E-1,-1.6669179E0,-1.3229419E0,-8.63098E-1,-3.9096978E-1,-1.4809943E0,-6.2121683E-1,-1.2654707E-1,3.73256E-1,9.3974215E-1,2.6785642E-1,8.602827E-1,1.2425948E0,1.2866204E0,1.5068792E0,-1.3858457E-1,1.2078911E-1,5.6139536E-2,1.0127005E-2,-1.1831174E-1,-9.39599E-2,2.2605909E-2,-3.161187E-2,-3.8053997E-2,-7.347403E-2,1.4682338E-1,-1.2002893E-1,1.6668655E-2,-4.4294234E-2,5.0722834E-2,1.0476837E-1,4.720445E-2,9.5430955E-2,7.1456276E-2,1.1733802E-1,1.3796435E-1,1.6295587E-1,1.6689453E-1,1.7754476E-1,-1.556599E-1,-1.7528933E-1,-1.1475074E-1,-1.5097634E-1,-9.9929385E-2,-5.8325734E-2,-7.395053E-2,-2.2585446E-2,-1.3982943E-1,-1.8354134E-1,-1.4416333E-1,-2.9060477E-2,-5.0999265E-2,-2.4812135E-3,7.072907E-2,2.5308779E-2,6.5904096E-2,1.765844E-1,5.507012E-2,6.8745553E-3,7.328983E-2,1.0238445E-1,1.5284213E-1,1.1619059E-1,1.4061865E-1,1.17151394E-1,1.4433447E-1,1.5789305E-1],"categories":[],"categories_nodes":[],"categories_segments":[],"categories_sizes":[],"default_left":[0,0,0,0,0,0,0,0,0,0,0,0,0,0,0,0,0,0,0,0,0,0,0,0,0,0,0,0,0,0,0,0,0,0,0,0,0,0,0,0,0,0,0,0,0,0,0,0,0,0,0,0,0,0,0,0,0,0,0,0,0,0,0,0,0,0,0,0,0,0,0,0,0,0,0,0,0,0,0,0,0,0,0,0,0,0,0,0,0,0,0,0,0,0,0,0,0,0,0,0,0,0,0,0,0,0,0,0,0,0,0],"id":1,"left_children":[1,3,5,7,9,11,13,15,17,19,21,23,25,27,29,31,33,35,37,-1,-1,39,41,43,45,47,49,51,53,55,57,59,61,63,65,67,69,71,73,75,77,79,81,-1,-1,83,85,87,89,91,93,95,97,99,101,103,105,107,109,-1,-1,-1,-1,-1,-1,-1,-1,-1,-1,-1,-1,-1,-1,-1,-1,-1,-1,-1,-1,-1,-1,-1,-1,-1,-1,-1,-1,-1,-1,-1,-1,-1,-1,-1,-1,-1,-1,-1,-1,-1,-1,-1,-1,-1,-1,-1,-1,-1,-1,-1,-1],"loss_changes":[7.578765E4,8.361749E4,5.2691234E4,4.680797E4,5.778258E3,7.642078E3,4.0130469E3,2.3830633E4,4.2634258E4,2.4060967E3,4.6719844E3,1.6493359E3,1.3576973E3,1.2636857E3,2.6042676E2,2.0145207E4,7.2448174E3,1.0200543E4,9.143558E3,0E0,0E0,5.940488E2,4.944453E2,3.049478E3,1.1018125E3,9.0952344E2,1.0677373E3,4.2049963E2,6.9812476E2,5.6552612E1,3.3652344E1,9.846359E3,4.923629E3,1.214375E2,3.1856099E3,1.4964766E3,9.769086E3,9.8822217E2,1.9131953E3,3.0797437E2,1.272041E2,2.989922E2,4.7890625E1,0E0,0E0,2.648203E2,4.55375E2,3.6096582E2,4.1223132E2,1.26012695E2,5.848623E2,2.0488443E2,9.9258575E1,7.9827954E2,1.5807097E2,2.4177917E1,1.175061E1,1.2019653E1,1.0806641E1,0E0,0E0,0E0,0E0,0E0,0E0,0E0,0E0,0E0,0E0,0E0,0E0,0E0,0E0,0E0,0E0,0E0,0E0,0E0,0E0,0E0,0E0,0E0,0E0,0E0,0E0,0E0,0E0,0E0,0E0,0E0,0E0,0E0,0E0,0E0,0E0,0E0,0E0,0E0,0E0,0E0,0E0,0E0,0E0,0E0,0E0,0E0,0E0,0E0,0E0,0E0,0E0],"parents":[2147483647,0,0,1,1,2,2,3,3,4,4,5,5,6,6,7,7,8,8,9,9,10,10,11,11,12,12,13,13,14,14,15,15,16,16,17,17,18,18,21,21,22,22,23,23,24,24,25,25,26,26,27,27,28,28,29,29,30,30,31,31,32,32,33,33,34,34,35,35,36,36,37,37,38,38,39,39,40,40,41,41,42,42,45,45,46,46,47,47,48,48,49,49,50,50,51,51,52,52,53,53,54,54,55,55,56,56,57,57,58,58],"right_children":[2,4,6,8,10,12,14,16,18,20,22,24,26,28,30,32,34,36,38,-1,-1,40,42,44,46,48,50,52,54,56,58,60,62,64,66,68,70,72,74,76,78,80,82,-1,-1,84,86,88,90,92,94,96,98,100,102,104,106,108,110,-1,-1,-1,-1,-1,-1,-1,-1,-1,-1,-1,-1,-1,-1,-1,-1,-1,-1,-1,-1,-1,-1,-1,-1,-1,-1,-1,-1,-1,-1,-1,-1,-1,-1,-1,-1,-1,-1,-1,-1,-1,-1,-1,-1,-1,-1,-1,-1,-1,-1,-1,-1],"split_conditions":[1.2E1,1.2E1,0E0,1E0,2E0,-3E0,2E0,5E0,5E0,1.4E1,4E0,2E0,1.5E1,1E0,1.5E1,-3E0,-3E0,4E0,9E0,-1.7833523E-1,1.7900169E-1,3E0,7E0,1.4E1,-5E0,1.185E4,1.5E1,1.305E4,2.975E4,2.835E4,1.98E4,7.85E3,-1E0,1.725E4,9E0,3E0,7.9E3,1.67E4,3E0,1.455E4,1.595E4,1.4E1,1.4E1,1.7537308E-1,-1.8274021E-1,1.4E1,1.4E1,-1E0,-2E0,1.4E1,-1E0,1.905E4,1.915E4,1.5E1,3.495E4,1.105E4,1.85E4,1.3E1,1.235E4,-1.3858457E-1,1.2078911E-1,5.6139536E-2,1.0127005E-2,-1.1831174E-1,-9.39599E-2,2.2605909E-2,-3.161187E-2,-3.8053997E-2,-7.347403E-2,1.4682338E-1,-1.2002893E-1,1.6668655E-2,-4.4294234E-2,5.0722834E-2,1.0476837E-1,4.720445E-2,9.5430955E-2,7.1456276E-2,1.1733802E-1,1.3796435E-1,1.6295587E-1,1.6689453E-1,1.7754476E-1,-1.556599E-1,-1.7528933E-1,-1.1475074E-1,-1.5097634E-1,-9.9929385E-2,-5.8325734E-2,-7.395053E-2,-2.2585446E-2,-1.3982943E-1,-1.8354134E-1,-1.4416333E-1,-2.9060477E-2,-5.0999265E-2,-2.4812135E-3,7.072907E-2,2.5308779E-2,6.5904096E-2,1.765844E-1,5.507012E-2,6.8745553E-3,7.328983E-2,1.0238445E-1,1.5284213E-1,1.1619059E-1,1.4061865E-1,1.17151394E-1,1.4433447E-1,1.5789305E-1],"split_indices":[1,0,2,2,1,2,2,0,1,0,2,0,1,2,0,2,2,2,0,0,0,2,2,1,2,3,0,3,6,5,5,6,2,5,1,2,5,5,2,3,5,0,0,0,0,1,1,2,2,0,2,5,6,0,5,3,6,1,3,0,0,0,0,0,0,0,0,0,0,0,0,0,0,0,0,0,0,0,0,0,0,0,0,0,0,0,0,0,0,0,0,0,0,0,0,0,0,0,0,0,0,0,0,0,0,0,0,0,0,0,0],"split_type":[0,0,0,0,0,0,0,0,0,0,0,0,0,0,0,0,0,0,0,0,0,0,0,0,0,0,0,0,0,0,0,0,0,0,0,0,0,0,0,0,0,0,0,0,0,0,0,0,0,0,0,0,0,0,0,0,0,0,0,0,0,0,0,0,0,0,0,0,0,0,0,0,0,0,0,0,0,0,0,0,0,0,0,0,0,0,0,0,0,0,0,0,0,0,0,0,0,0,0,0,0,0,0,0,0,0,0,0,0,0,0],"sum_hessian":[4.689002E5,3.8298322E5,8.591699E4,3.330668E5,4.99164E4,6.630572E4,1.9611277E4,1.9127744E5,1.4178938E5,1.0388739E3,4.8877523E4,4.31128E4,2.3192914E4,1.3980699E4,5.630578E3,1.3874944E5,5.2528004E4,1.0320939E5,3.857998E4,7.9265515E2,2.4621873E2,1.1078213E4,3.779931E4,9.600158E2,4.2152785E4,1.6650326E4,6.5425874E3,7.727699E3,6.253E3,1.7809484E3,3.8496301E3,4.3147234E4,9.5602195E4,8.549331E3,4.397867E4,5.7950664E4,4.525873E4,1.2165718E4,2.6414264E4,5.6901943E3,5.3880186E3,1.9298844E4,1.8500467E4,4.28903E2,5.311128E2,2.8206926E4,1.394586E4,9.4852295E3,7.165096E3,4.3857866E3,2.1568013E3,5.2514507E3,2.4762485E3,3.4465437E3,2.806456E3,1.1954474E3,5.8550104E2,9.920356E2,2.8575945E3,1.5161334E3,4.16311E4,3.9949957E4,5.5652242E4,5.049561E3,3.4997705E3,1.935204E4,2.4626633E4,4.115129E4,1.6799373E4,1.4153658E3,4.3843363E4,3.9248494E3,8.240868E3,1.2036301E4,1.4377963E4,3.5884004E3,2.101794E3,7.004279E2,4.6875903E3,9.84565E3,9.453193E3,7.644888E3,1.0855578E4,1.2362785E4,1.5844141E4,7.1957993E3,6.7500605E3,6.378367E3,3.1068628E3,2.3021335E3,4.862963E3,3.5600334E3,8.25753E2,6.185368E2,1.5382644E3,1.1003074E3,4.151143E3,6.5384705E2,1.8224014E3,2.5737925E3,8.727514E2,1.1587048E3,1.6477512E3,6.751279E2,5.203194E2,1.2494905E2,4.6055197E2,4.8109027E2,5.1094534E2,1.5297218E3,1.3278726E3],"tree_param":{"num_deleted":"0","num_feature":"7","num_nodes":"111","size_leaf_vector":"1"}},{"base_weights":[1.222191E-4,1.7275535E-1,-7.736539E-1,8.709703E-3,1.283897E0,-1.1637123E0,5.361342E-1,3.9751136E-1,-2.8863618E-1,-8.634343E-1,1.329339E0,-1.3971195E0,-7.350207E-1,2.747238E-1,1.1932753E0,6.640444E-1,-3.1724003E-1,-5.2589077E-1,3.3463165E-1,-1.6445608E-1,1.6589099E-1,7.948817E-1,1.488318E0,-2.0997575E-1,-1.4239434E0,-5.032176E-1,-9.521689E-1,3.0312564E-2,5.7831883E-1,8.969557E-1,1.3313701E0,1.0178776E0,4.208741E-1,3.4326014E-1,-6.1510646E-1,-2.0046087E-1,-9.199509E-1,-1.509472E-1,6.245416E-1,3.316833E-1,8.9443624E-1,1.3359275E0,1.5711552E0,1.6232781E-1,-1.6873811E-1,-1.5733352E0,-1.2662241E0,-3.0662486E-1,-7.6126635E-1,-1.1262753E0,-6.2806654E-1,-1.4523973E-1,2.8758755E-1,8.575535E-1,2.4422842E-1,6.989205E-1,1.0385778E0,1.1764625E0,1.3849804E0,-1.2651928E-1,1.100926E-1,2.6602164E-2,5.548798E-2,7.097008E-2,1.1196224E-2,-8.759855E-2,-2.9813632E-2,3.3325113E-3,-3.5729036E-2,1.3433957E-1,-9.723435E-2,-2.0196051E-3,-5.5464763E-2,3.6767874E-2,9.529731E-2,1.3756677E-2,6.776336E-2,1.05157666E-1,7.122593E-2,1.209852E-1,1.468763E-1,1.4963299E-1,1.6291179E-1,-1.4844942E-1,-1.6367121E-1,-1.17750466E-1,-1.551737E-1,-4.5894787E-2,-1.5713895E-3,-8.697681E-2,-5.3951915E-2,-9.480106E-2,-1.2825671E-1,-1.0175593E-1,-2.9548952E-2,-3.986026E-2,-5.791494E-4,6.355268E-2,1.7166665E-2,5.984622E-2,1.6358605E-1,5.3644467E-2,8.66625E-3,5.809908E-2,8.308657E-2,1.2287344E-1,8.981694E-2,1.2892932E-1,1.0684216E-1,1.3245584E-1,1.4527152E-1],"categories":[],"categories_nodes":[],"categories_segments":[],"categories_sizes":[],"default_left":[0,0,0,0,0,0,0,0,0,0,0,0,0,0,0,0,0,0,0,0,0,0,0,0,0,0,0,0,0,0,0,0,0,0,0,0,0,0,0,0,0,0,0,0,0,0,0,0,0,0,0,0,0,0,0,0,0,0,0,0,0,0,0,0,0,0,0,0,0,0,0,0,0,0,0,0,0,0,0,0,0,0,0,0,0,0,0,0,0,0,0,0,0,0,0,0,0,0,0,0,0,0,0,0,0,0,0,0,0,0,0],"id":2,"left_children":[1,3,5,7,9,11,13,15,17,19,21,23,25,27,29,31,33,35,37,-1,-1,39,41,43,45,47,49,51,53,55,57,59,61,63,65,67,69,71,73,75,77,79,81,-1,-1,83,85,87,89,91,93,95,97,99,101,103,105,107,109,-1,-1,-1,-1,-1,-1,-1,-1,-1,-1,-1,-1,-1,-1,-1,-1,-1,-1,-1,-1,-1,-1,-1,-1,-1,-1,-1,-1,-1,-1,-1,-1,-1,-1,-1,-1,-1,-1,-1,-1,-1,-1,-1,-1,-1,-1,-1,-1,-1,-1,-1,-1],"loss_changes":[6.2170758E4,6.93613E4,4.337392E4,3.8332855E4,4.777875E3,6.544492E3,3.3463076E3,2.7373791E4,2.77833E4,2.0026951E3,4.0720078E3,1.3484219E3,1.1604141E3,1.0342631E3,2.2566748E2,9.004836E3,7.67884E3,1.745102E4,7.292523E3,0E0,0E0,5.0661035E2,4.643047E2,2.5406514E3,9.7389844E2,5.657781E2,6.711748E2,3.488567E2,5.797368E2,4.8787598E1,2.97583E1,8.0842305E3,1.2870996E3,1.0281201E3,2.22404E3,2.7327427E3,7.300203E3,1.02224475E3,2.7360664E3,1.3060654E2,2.5825293E2,2.1623438E2,1.0134766E2,0E0,0E0,1.1730859E2,5.086504E2,2.8068433E2,1.15592285E2,2.1455664E2,5.389946E2,1.6221336E2,1.2624655E2,6.8180005E2,1.3033443E2,1.101886E1,2.6323853E1,1.0549316E1,9.543945E0,0E0,0E0,0E0,0E0,0E0,0E0,0E0,0E0,0E0,0E0,0E0,0E0,0E0,0E0,0E0,0E0,0E0,0E0,0E0,0E0,0E0,0E0,0E0,0E0,0E0,0E0,0E0,0E0,0E0,0E0,0E0,0E0,0E0,0E0,0E0,0E0,0E0,0E0,0E0,0E0,0E0,0E0,0E0,0E0,0E0,0E0,0E0,0E0,0E0,0E0,0E0,0E0],"parents":[2147483647,0,0,1,1,2,2,3,3,4,4,5,5,6,6,7,7,8,8,9,9,10,10,11,11,12,12,13,13,14,14,15,15,16,16,17,17,18,18,21,21,22,22,23,23,24,24,25,25,26,26,27,27,28,28,29,29,30,30,31,31,32,32,33,33,34,34,35,35,36,36,37,37,38,38,39,39,40,40,41,41,42,42,45,45,46,46,47,47,48,48,49,49,50,50,51,51,52,52,53,53,54,54,55,55,56,56,57,57,58,58],"right_children":[2,4,6,8,10,12,14,16,18,20,22,24,26,28,30,32,34,36,38,-1,-1,40,42,44,46,48,50,52,54,56,58,60,62,64,66,68,70,72,74,76,78,80,82,-1,-1,84,86,88,90,92,94,96,98,100,102,104,106,108,110,-1,-1,-1,-1,-1,-1,-1,-1,-1,-1,-1,-1,-1,-1,-1,-1,-1,-1,-1,-1,-1,-1,-1,-1,-1,-1,-1,-1,-1,-1,-1,-1,-1,-1,-1,-1,-1,-1,-1,-1,-1,-1,-1,-1,-1,-1,-1,-1,-1,-1,-1,-1],"split_conditions":[1.2E1,1.2E1,0E0,0E0,2E0,-3E0,2E0,5E0,5E0,1.4E1,4E0,2E0,1.4E1,1E0,1.5E1,-3E0,9E0,3E0,9E0,-1.6445608E-1,1.6589099E-1,2E0,6E0,1.4E1,-6E0,7.8E3,-1E0,1.05E4,2.96E4,2.255E4,1.98E4,7.85E3,5.9E3,-1E0,-2E0,1.725E4,7.9E3,2E0,3E0,1.455E4,4.85E3,1.4E1,1.4E1,1.6232781E-1,-1.6873811E-1,1.4E1,1.5E1,-1E0,-1E0,1.5E1,2.61E4,2.41E4,1.915E4,1.5E1,4.85E3,9.85E3,2.165E4,1.3E1,3E0,-1.2651928E-1,1.100926E-1,2.6602164E-2,5.548798E-2,7.097008E-2,1.1196224E-2,-8.759855E-2,-2.9813632E-2,3.3325113E-3,-3.5729036E-2,1.3433957E-1,-9.723435E-2,-2.0196051E-3,-5.5464763E-2,3.6767874E-2,9.529731E-2,1.3756677E-2,6.776336E-2,1.05157666E-1,7.122593E-2,1.209852E-1,1.468763E-1,1.4963299E-1,1.6291179E-1,-1.4844942E-1,-1.6367121E-1,-1.17750466E-1,-1.551737E-1,-4.5894787E-2,-1.5713895E-3,-8.697681E-2,-5.3951915E-2,-9.480106E-2,-1.2825671E-1,-1.0175593E-1,-2.9548952E-2,-3.986026E-2,-5.791494E-4,6.355268E-2,1.7166665E-2,5.984622E-2,1.6358605E-1,5.3644467E-2,8.66625E-3,5.809908E-2,8.308657E-2,1.2287344E-1,8.981694E-2,1.2892932E-1,1.0684216E-1,1.3245584E-1,1.4527152E-1],"split_indices":[1,0,2,2,1,2,2,0,1,0,2,0,1,2,0,2,1,2,0,0,0,2,2,1,2,4,2,3,6,5,5,6,4,2,2,5,5,2,2,3,4,0,0,0,0,1,1,2,2,1,5,5,6,0,3,3,6,1,2,0,0,0,0,0,0,0,0,0,0,0,0,0,0,0,0,0,0,0,0,0,0,0,0,0,0,0,0,0,0,0,0,0,0,0,0,0,0,0,0,0,0,0,0,0,0,0,0,0,0,0,0],"split_type":[0,0,0,0,0,0,0,0,0,0,0,0,0,0,0,0,0,0,0,0,0,0,0,0,0,0,0,0,0,0,0,0,0,0,0,0,0,0,0,0,0,0,0,0,0,0,0,0,0,0,0,0,0,0,0,0,0,0,0,0,0,0,0,0,0,0,0,0,0,0,0,0,0,0,0,0,0,0,0,0,0,0,0,0,0,0,0,0,0,0,0,0,0,0,0,0,0,0,0,0,0,0,0,0,0,0,0,0,0,0,0],"sum_hessian":[4.6541978E5,3.8052388E5,8.489591E4,3.3157253E5,4.8951367E4,6.54152E4,1.9480703E4,1.4368867E5,1.8788386E5,1.01407263E3,4.7937297E4,4.235316E4,2.3062043E4,1.3937709E4,5.5429946E3,1.0466051E5,3.902816E4,1.3608252E5,5.1801332E4,7.745545E2,2.3951814E2,1.0991599E4,3.69457E4,9.360319E2,4.1417125E4,1.1156224E4,1.1905818E4,7.722089E3,6.21562E3,1.764429E3,3.7785657E3,4.2628816E4,6.2031688E4,1.2130152E4,2.6898008E4,7.453236E4,6.155016E4,1.936567E4,3.2435662E4,1.9452494E3,9.04635E3,1.3016733E4,2.3928963E4,4.176669E2,5.1836505E2,2.1265475E4,2.0151652E4,6.3333735E3,4.8228506E3,7.743544E3,4.162274E3,4.5903125E3,3.1317766E3,3.3849187E3,2.8307014E3,7.381637E2,1.0262653E3,9.7737604E2,2.8011897E3,1.4957297E3,4.113309E4,2.8778828E4,3.325286E4,4.693022E3,7.4371304E3,1.4753517E4,1.2144492E4,2.9924559E4,4.4607805E4,1.3919872E3,6.015817E4,1.462874E4,4.7369297E3,1.8202104E4,1.4233558E4,1.2469625E3,6.9828687E2,4.8543555E3,4.1919937E3,6.683484E3,6.33325E3,1.0456829E4,1.3472135E4,8.864194E3,1.240128E4,1.5378198E4,4.7734546E3,4.1564497E3,2.1769238E3,3.2363633E3,1.5864874E3,3.6207834E3,4.1227607E3,1.9161466E3,2.2461274E3,1.6289045E3,2.961408E3,7.8152606E2,2.3502505E3,2.540859E3,8.440599E2,9.907979E2,1.8399034E3,3.9263693E2,3.455268E2,4.3261685E2,5.9364844E2,4.727423E2,5.046337E2,1.4913773E3,1.3098124E3],"tree_param":{"num_deleted":"0","num_feature":"7","num_nodes":"111","size_leaf_vector":"1"}},{"base_weights":[1.7338264E-4,1.5716545E-1,-7.0961916E-1,7.931457E-3,1.189537E0,-1.0701021E0,4.8759356E-1,2.2034088E-1,-4.3972245E-1,-8.06906E-1,1.2314198E0,-1.2934608E0,-6.6742224E-1,2.4854761E-1,1.0992118E0,5.360691E-2,7.1481997E-1,-7.3293805E-1,5.356251E-1,-1.5356866E-1,1.5564907E-1,7.2345334E-1,1.3858463E0,-1.9647297E-1,-1.3179855E0,-5.361932E-1,-1.0076255E0,2.7328903E-2,5.253114E-1,8.184513E-1,1.2318207E0,1.3392913E-1,-4.076792E-1,1.2043865E0,4.3839353E-1,1.2406931E0,-7.6646596E-1,-5.003562E-1,7.8318805E-1,5.22416E-1,9.384463E-1,1.2366546E0,1.4676507E0,1.520394E-1,-1.578754E-1,-1.4253228E0,-1.1042197E0,-3.621324E-1,-7.973656E-1,-1.2617272E0,-5.0412923E-1,-1.0460988E-1,3.0800456E-1,7.812512E-1,2.1735838E-1,7.0646256E-1,1.0484002E0,1.0824125E0,1.2839179E0,4.2522233E-2,-5.1837147E-4,-6.644091E-2,1.726743E-2,1.4202262E-1,1.05165474E-1,5.6679744E-2,-3.0454595E-2,1.2544268E-1,-3.3809915E-2,-5.409034E-2,-1.15078725E-1,-6.1250128E-2,-3.3924054E-2,6.1900653E-2,1.0226468E-1,3.482884E-2,7.5432085E-2,7.445225E-2,1.045984E-1,1.1650854E-1,1.4631072E-1,1.3298929E-1,1.500433E-1,-1.3211136E-1,-1.507548E-1,-9.419854E-2,-1.2796406E-1,-9.11695E-2,-2.7399573E-2,-9.131758E-2,-5.6047466E-2,-1.1746382E-1,-1.6378073E-1,2.3007993E-2,-8.017995E-2,-3.2332454E-2,2.5292127E-3,5.727848E-2,2.0735389E-2,5.3959824E-2,1.5325366E-1,4.6762384E-2,4.1841767E-3,5.9479672E-2,8.512802E-2,8.414186E-2,1.14536084E-1,1.19089715E-1,9.793307E-2,1.22172736E-1,1.354758E-1],"categories":[],"categories_nodes":[],"categories_segments":[],"categories_sizes":[],"default_left":[0,0,0,0,0,0,0,0,0,0,0,0,0,0,0,0,0,0,0,0,0,0,0,0,0,0,0,0,0,0,0,0,0,0,0,0,0,0,0,0,0,0,0,0,0,0,0,0,0,0,0,0,0,0,0,0,0,0,0,0,0,0,0,0,0,0,0,0,0,0,0,0,0,0,0,0,0,0,0,0,0,0,0,0,0,0,0,0,0,0,0,0,0,0,0,0,0,0,0,0,0,0,0,0,0,0,0,0,0,0,0],"id":3,"left_children":[1,3,5,7,9,11,13,15,17,19,21,23,25,27,29,31,33,35,37,-1,-1,39,41,43,45,47,49,51,53,55,57,59,61,63,65,67,69,71,73,75,77,79,81,-1,-1,83,85,87,89,91,93,95,97,99,101,103,105,107,109,-1,-1,-1,-1,-1,-1,-1,-1,-1,-1,-1,-1,-1,-1,-1,-1,-1,-1,-1,-1,-1,-1,-1,-1,-1,-1,-1,-1,-1,-1,-1,-1,-1,-1,-1,-1,-1,-1,-1,-1,-1,-1,-1,-1,-1,-1,-1,-1,-1,-1,-1,-1],"loss_changes":[5.1315062E4,5.8097805E4,3.599685E4,3.1328402E4,3.9833828E3,5.764883E3,2.8218857E3,1.8422559E4,3.0322314E4,1.6890002E3,3.6582656E3,1.1090391E3,1.02063965E3,8.497794E2,2.0093408E2,6.191531E3,7.6246855E3,5.3952188E3,6.2857925E3,0E0,0E0,4.6965088E2,4.347578E2,2.1449968E3,9.238203E2,7.5018945E2,8.1382666E2,2.8573477E2,4.8579895E2,4.414441E1,2.727002E1,5.7673086E3,3.6925415E3,6.687988E2,3.4357383E3,2.9958008E1,6.94816E3,8.520935E1,7.770459E2,2.2681714E2,1.0881006E2,2.0371289E2,1.0231641E2,0E0,0E0,2.2803516E2,3.8259766E2,4.796703E2,1.8059277E2,1.3662402E2,4.671985E2,1.49134E2,6.563368E1,6.10427E2,1.2296811E2,1.8498169E1,1.0451294E1,9.550415E0,1.0349121E1,0E0,0E0,0E0,0E0,0E0,0E0,0E0,0E0,0E0,0E0,0E0,0E0,0E0,0E0,0E0,0E0,0E0,0E0,0E0,0E0,0E0,0E0,0E0,0E0,0E0,0E0,0E0,0E0,0E0,0E0,0E0,0E0,0E0,0E0,0E0,0E0,0E0,0E0,0E0,0E0,0E0,0E0,0E0,0E0,0E0,0E0,0E0,0E0,0E0,0E0,0E0,0E0],"parents":[2147483647,0,0,1,1,2,2,3,3,4,4,5,5,6,6,7,7,8,8,9,9,10,10,11,11,12,12,13,13,14,14,15,15,16,16,17,17,18,18,21,21,22,22,23,23,24,24,25,25,26,26,27,27,28,28,29,29,30,30,31,31,32,32,33,33,34,34,35,35,36,36,37,37,38,38,39,39,40,40,41,41,42,42,45,45,46,46,47,47,48,48,49,49,50,50,51,51,52,52,53,53,54,54,55,55,56,56,57,57,58,58],"right_children":[2,4,6,8,10,12,14,16,18,20,22,24,26,28,30,32,34,36,38,-1,-1,40,42,44,46,48,50,52,54,56,58,60,62,64,66,68,70,72,74,76,78,80,82,-1,-1,84,86,88,90,92,94,96,98,100,102,104,106,108,110,-1,-1,-1,-1,-1,-1,-1,-1,-1,-1,-1,-1,-1,-1,-1,-1,-1,-1,-1,-1,-1,-1,-1,-1,-1,-1,-1,-1,-1,-1,-1,-1,-1,-1,-1,-1,-1,-1,-1,-1,-1,-1,-1,-1,-1,-1,-1,-1,-1,-1,-1,-1],"split_conditions":[1.2E1,1.2E1,0E0,2E0,2E0,-3E0,2E0,3.065E4,5E0,1.4E1,4E0,2E0,1.5E1,1E0,1.5E1,1E1,-4E0,7.9E3,9E0,-1.5356866E-1,1.5564907E-1,3E0,6E0,1.4E1,-5E0,2.785E4,1.5E1,1.305E4,2.975E4,2.835E4,1.98E4,-1E0,-1E0,-6E0,7E0,1.92E4,5E0,5.5E3,4E0,1.27E4,2.12E4,1.5E1,1.3E1,1.520394E-1,-1.578754E-1,1.4E1,1.4E1,1.64E4,-1E0,1.4E1,1.7E1,2.41E4,1.94E4,1.5E1,3.495E4,1.105E4,9.7E3,1.3E1,1.235E4,4.2522233E-2,-5.1837147E-4,-6.644091E-2,1.726743E-2,1.4202262E-1,1.05165474E-1,5.6679744E-2,-3.0454595E-2,1.2544268E-1,-3.3809915E-2,-5.409034E-2,-1.15078725E-1,-6.1250128E-2,-3.3924054E-2,6.1900653E-2,1.0226468E-1,3.482884E-2,7.5432085E-2,7.445225E-2,1.045984E-1,1.1650854E-1,1.4631072E-1,1.3298929E-1,1.500433E-1,-1.3211136E-1,-1.507548E-1,-9.419854E-2,-1.2796406E-1,-9.11695E-2,-2.7399573E-2,-9.131758E-2,-5.6047466E-2,-1.1746382E-1,-1.6378073E-1,2.3007993E-2,-8.017995E-2,-3.2332454E-2,2.5292127E-3,5.727848E-2,2.0735389E-2,5.3959824E-2,1.5325366E-1,4.6762384E-2,4.1841767E-3,5.9479672E-2,8.512802E-2,8.414186E-2,1.14536084E-1,1.19089715E-1,9.793307E-2,1.22172736E-1,1.354758E-1],"split_indices":[1,0,2,2,1,2,2,6,1,0,2,0,1,2,0,1,2,5,0,0,0,2,2,1,2,6,0,3,6,5,5,2,2,2,0,6,2,4,2,3,5,0,0,0,0,1,1,5,2,0,1,5,6,0,5,3,3,1,3,0,0,0,0,0,0,0,0,0,0,0,0,0,0,0,0,0,0,0,0,0,0,0,0,0,0,0,0,0,0,0,0,0,0,0,0,0,0,0,0,0,0,0,0,0,0,0,0,0,0,0,0],"split_type":[0,0,0,0,0,0,0,0,0,0,0,0,0,0,0,0,0,0,0,0,0,0,0,0,0,0,0,0,0,0,0,0,0,0,0,0,0,0,0,0,0,0,0,0,0,0,0,0,0,0,0,0,0,0,0,0,0,0,0,0,0,0,0,0,0,0,0,0,0,0,0,0,0,0,0,0,0,0,0,0,0,0,0,0,0,0,0,0,0,0,0,0,0,0,0,0,0,0,0,0,0,0,0,0,0,0,0,0,0,0,0],"sum_hessian":[4.605044E5,3.7709847E5,8.340594E4,3.294727E5,4.7625766E4,6.4104168E4,1.9301771E4,2.234482E5,1.06024484E5,9.7822217E2,4.6647543E4,4.1231586E4,2.2872582E4,1.3878774E4,5.4229976E3,1.6710348E5,5.634471E4,8.151819E4,2.45063E4,7.479373E2,2.3028485E2,1.0876459E4,3.5771086E4,9.0183295E2,4.0329754E4,1.6507572E4,6.3650093E3,7.7140186E3,6.1647554E3,1.741997E3,3.6810007E3,1.4232212E5,2.478137E4,2.0332092E4,3.6012617E4,1.3610931E3,8.015709E4,4.7264434E3,1.9779857E4,5.6224263E3,5.2540327E3,1.2673599E4,2.3097486E4,4.0219073E2,4.9964224E2,2.6844691E4,1.34850625E4,9.907208E3,6.6003643E3,4.2291562E3,2.1358528E3,5.2477886E3,2.4662302E3,3.3658557E3,2.7989E3,1.1742103E3,5.677866E2,9.5731635E2,2.7236843E3,4.59997E4,9.632242E4,1.718093E4,7.6004404E3,8.421942E3,1.191015E4,3.0705889E4,5.3067305E3,1.349559E3,1.1534166E1,5.05129E4,2.9644193E4,2.7850793E3,1.941364E3,1.1736486E4,8.0433706E3,3.2126694E3,2.4097566E3,1.8770516E3,3.3769812E3,9.634733E3,3.0388652E3,4.447942E3,1.8649545E4,1.1847122E4,1.499757E4,7.0091597E3,6.475903E3,1.3679878E3,8.53922E3,4.431203E3,2.169161E3,3.4373022E3,7.918543E2,6.1620337E2,1.5196494E3,1.954883E3,3.2929053E3,6.77982E2,1.7882482E3,2.5480022E3,8.178536E2,1.1530813E3,1.6458185E3,6.658749E2,5.0833545E2,1.8421696E2,3.8356964E2,4.6129294E2,4.9602338E2,1.4601057E3,1.2635786E3],"tree_param":{"num_deleted":"0","num_feature":"7","num_nodes":"111","size_leaf_vector":"1"}},{"base_weights":[1.9860284E-4,1.432067E-1,-6.5393007E-1,7.209843E-3,1.109079E0,-1.0814067E0,2.1376719E-1,3.3050752E-1,-2.3936138E-1,-7.613694E-1,1.1478521E0,-1.2606677E0,-8.0513567E-1,-1.631827E-1,7.28265E-1,5.582442E-1,-2.737375E-1,-4.3657267E-1,2.7714914E-1,-1.447888E0,1.4745003E-1,6.599628E-1,1.3002015E0,-1.856763E-1,-1.2893233E0,-6.014764E-1,-1.0101777E0,-7.1553546E-1,-8.301699E-2,4.7797748E-1,1.0174309E0,8.712996E-1,3.4895378E-1,2.8493693E-1,-5.269898E-1,-1.6750535E-1,-7.707846E-1,-1.2832165E-1,5.2254677E-1,-1.449144E-1,-5.3447247E-2,4.7383955E-1,8.6125404E-1,1.1915545E0,1.4158969E0,1.4371209E-1,-1.4922504E-1,-1.4192468E0,-1.1847271E0,-8.1821954E-1,-4.1777635E-1,-8.6086375E-1,-1.1504171E0,-5.914661E-1,-1.5499549E-1,-2.5150278E-1,8.188593E-2,7.313887E-1,2.106644E-1,7.487809E-1,1.1464324E0,-1.11349605E-1,9.434926E-2,2.3063837E-2,4.8014026E-2,-2.2283887E-2,4.2566277E-2,-7.52403E-2,-2.5667373E-2,3.2729183E-3,-3.0214531E-2,1.1574929E-1,-8.139975E-2,7.3861065E-3,-3.0472824E-2,3.1212276E-2,7.988029E-2,4.3914057E-3,5.6248784E-2,7.0764445E-2,9.907834E-2,1.0754322E-1,1.3150993E-1,1.3016263E-1,1.4396165E-1,-1.3514292E-1,-1.4620028E-1,-1.06236935E-1,-1.3162082E-1,-9.164214E-2,-6.2087256E-2,-1.653855E-2,-5.092431E-2,-7.54106E-2,-1.13942325E-1,-1.2439313E-1,-1.0008583E-1,-7.374988E-2,-4.4003885E-2,-1.3250165E-2,-5.2508928E-2,2.5406128E-2,-9.562654E-3,5.003912E-2,1.4697395E-1,4.2122077E-2,4.840265E-3,5.709788E-2,8.779567E-2,1.0003495E-1,1.1978487E-1],"categories":[],"categories_nodes":[],"categories_segments":[],"categories_sizes":[],"default_left":[0,0,0,0,0,0,0,0,0,0,0,0,0,0,0,0,0,0,0,0,0,0,0,0,0,0,0,0,0,0,0,0,0,0,0,0,0,0,0,0,0,0,0,0,0,0,0,0,0,0,0,0,0,0,0,0,0,0,0,0,0,0,0,0,0,0,0,0,0,0,0,0,0,0,0,0,0,0,0,0,0,0,0,0,0,0,0,0,0,0,0,0,0,0,0,0,0,0,0,0,0,0,0,0,0,0,0,0,0,0,0],"id":4,"left_children":[1,3,5,7,9,11,13,15,17,19,21,23,25,27,29,31,33,35,37,39,-1,41,43,45,47,49,51,53,55,57,59,61,63,65,67,69,71,73,75,-1,-1,77,79,81,83,-1,-1,85,87,89,91,93,95,97,-1,99,101,103,105,107,109,-1,-1,-1,-1,-1,-1,-1,-1,-1,-1,-1,-1,-1,-1,-1,-1,-1,-1,-1,-1,-1,-1,-1,-1,-1,-1,-1,-1,-1,-1,-1,-1,-1,-1,-1,-1,-1,-1,-1,-1,-1,-1,-1,-1,-1,-1,-1,-1,-1,-1],"loss_changes":[4.25452E4,4.9023645E4,3.0264848E4,2.6079205E4,3.3415273E3,2.7061562E3,5.223113E3,1.9478988E4,1.8905617E4,1.4389719E3,3.3535156E3,1.0209492E3,8.9778516E2,6.882251E2,8.2371436E2,6.7354785E3,5.4823623E3,1.2078332E4,5.102943E3,4.7729492E-2,0E0,4.0198975E2,4.3057812E2,1.8296425E3,4.371172E2,4.2950073E2,2.2346387E2,2.0302142E2,3.771878E2,4.134839E2,1.8222217E2,5.9032207E3,9.562529E2,8.637679E2,1.6243916E3,2.0061094E3,4.992676E3,6.8968896E2,1.8569629E3,0E0,0E0,2.1274805E2,1.0194458E2,2.5310352E2,4.3253906E1,0E0,0E0,3.9765625E1,2.8648242E2,9.538916E1,1.348581E2,1.5364795E2,7.602002E1,3.7634033E1,0E0,2.1854614E2,2.0972615E2,5.338297E2,1.015535E2,3.892621E1,2.5594238E1,0E0,0E0,0E0,0E0,0E0,0E0,0E0,0E0,0E0,0E0,0E0,0E0,0E0,0E0,0E0,0E0,0E0,0E0,0E0,0E0,0E0,0E0,0E0,0E0,0E0,0E0,0E0,0E0,0E0,0E0,0E0,0E0,0E0,0E0,0E0,0E0,0E0,0E0,0E0,0E0,0E0,0E0,0E0,0E0,0E0,0E0,0E0,0E0,0E0,0E0],"parents":[2147483647,0,0,1,1,2,2,3,3,4,4,5,5,6,6,7,7,8,8,9,9,10,10,11,11,12,12,13,13,14,14,15,15,16,16,17,17,18,18,19,19,21,21,22,22,23,23,24,24,25,25,26,26,27,27,28,28,29,29,30,30,31,31,32,32,33,33,34,34,35,35,36,36,37,37,38,38,41,41,42,42,43,43,44,44,47,47,48,48,49,49,50,50,51,51,52,52,53,53,55,55,56,56,57,57,58,58,59,59,60,60],"right_children":[2,4,6,8,10,12,14,16,18,20,22,24,26,28,30,32,34,36,38,40,-1,42,44,46,48,50,52,54,56,58,60,62,64,66,68,70,72,74,76,-1,-1,78,80,82,84,-1,-1,86,88,90,92,94,96,98,-1,100,102,104,106,108,110,-1,-1,-1,-1,-1,-1,-1,-1,-1,-1,-1,-1,-1,-1,-1,-1,-1,-1,-1,-1,-1,-1,-1,-1,-1,-1,-1,-1,-1,-1,-1,-1,-1,-1,-1,-1,-1,-1,-1,-1,-1,-1,-1,-1,-1,-1,-1,-1,-1,-1],"split_conditions":[1.2E1,1.2E1,-1E0,0E0,2E0,-4E0,1E0,5E0,5E0,1.4E1,4E0,2E0,1.4E1,1.7E4,2E0,-3E0,9E0,3E0,9E0,3.46E4,1.4745003E-1,3E0,7E0,1.4E1,-7E0,7.45E3,1.5E1,1.5E1,0E0,2.855E4,1.5E1,7.85E3,8.9E3,1.195E4,-2E0,1.725E4,7.9E3,5.3E3,3E0,-1.449144E-1,-5.3447247E-2,1.775E4,1.035E4,1.4E1,1.3E1,1.4371209E-1,-1.4922504E-1,1.4E1,1.4E1,-2E0,1.89E4,3.265E4,-2E0,0E0,-1.5499549E-1,1.4E1,3.11E4,1.5E1,3.495E4,2.255E4,1.98E4,-1.11349605E-1,9.434926E-2,2.3063837E-2,4.8014026E-2,-2.2283887E-2,4.2566277E-2,-7.52403E-2,-2.5667373E-2,3.2729183E-3,-3.0214531E-2,1.1574929E-1,-8.139975E-2,7.3861065E-3,-3.0472824E-2,3.1212276E-2,7.988029E-2,4.3914057E-3,5.6248784E-2,7.0764445E-2,9.907834E-2,1.0754322E-1,1.3150993E-1,1.3016263E-1,1.4396165E-1,-1.3514292E-1,-1.4620028E-1,-1.06236935E-1,-1.3162082E-1,-9.164214E-2,-6.2087256E-2,-1.653855E-2,-5.092431E-2,-7.54106E-2,-1.13942325E-1,-1.2439313E-1,-1.0008583E-1,-7.374988E-2,-4.4003885E-2,-1.3250165E-2,-5.2508928E-2,2.5406128E-2,-9.562654E-3,5.003912E-2,1.4697395E-1,4.2122077E-2,4.840265E-3,5.709788E-2,8.779567E-2,1.0003495E-1,1.1978487E-1],"split_indices":[1,0,2,2,1,2,2,0,1,0,2,0,1,5,2,2,1,2,0,6,0,2,2,1,2,3,1,1,2,6,0,6,4,6,2,5,5,3,2,0,0,5,3,0,0,0,0,1,1,2,6,6,2,2,0,0,6,0,5,5,5,0,0,0,0,0,0,0,0,0,0,0,0,0,0,0,0,0,0,0,0,0,0,0,0,0,0,0,0,0,0,0,0,0,0,0,0,0,0,0,0,0,0,0,0,0,0,0,0,0,0],"split_type":[0,0,0,0,0,0,0,0,0,0,0,0,0,0,0,0,0,0,0,0,0,0,0,0,0,0,0,0,0,0,0,0,0,0,0,0,0,0,0,0,0,0,0,0,0,0,0,0,0,0,0,0,0,0,0,0,0,0,0,0,0,0,0,0,0,0,0,0,0,0,0,0,0,0,0,0,0,0,0,0,0,0,0,0,0,0,0,0,0,0,0,0,0,0,0,0,0,0,0,0,0,0,0,0,0,0,0,0,0,0,0],"sum_hessian":[4.548046E5,3.7321228E5,8.1592305E4,3.2714988E5,4.606239E4,5.4662316E4,2.692999E4,1.4155127E5,1.8559862E5,9.3507086E2,4.512732E4,3.314944E4,2.1512877E4,1.5543E4,1.1386989E4,1.02804766E5,3.8746492E4,1.3431525E5,5.128338E4,7.1567645E2,2.1939436E2,1.0739648E4,3.438767E4,8.6090344E2,3.2288537E4,1.0794803E4,1.0718074E4,1.9689235E3,1.3574077E4,6.1052466E3,5.2817427E3,4.118994E4,6.1614824E4,1.2085583E4,2.6660908E4,7.4410414E4,5.990483E4,1.9335607E4,3.1947771E4,7.14108E2,1.5684832E0,5.5818057E3,5.157843E3,1.7739854E4,1.6647818E4,3.8394028E2,4.769632E2,1.4395149E4,1.7893387E4,4.950443E3,5.84436E3,5.194544E3,5.5235303E3,1.7155483E3,2.5337506E2,6.7138394E3,6.8602373E3,3.1332288E3,2.9720178E3,1.7156497E3,3.5660928E3,1.4451122E3,3.9744832E4,3.2398129E4,2.9216695E4,2.6224634E3,9.46312E3,1.4536949E4,1.2123959E4,2.9917824E4,4.449259E4,1.3124822E3,5.8592348E4,9.009847E3,1.0325762E4,1.8135848E4,1.3811924E4,9.544447E2,4.627361E3,2.3625466E3,2.7952961E3,9.149622E3,8.590231E3,2.8712458E3,1.3776571E4,5.5788594E3,8.816291E3,9.272952E3,8.620435E3,3.303128E3,1.6473147E3,1.5553566E3,4.2890034E3,3.7579993E3,1.4365447E3,3.394035E3,2.1294956E3,8.7136035E2,8.44188E2,4.6797754E3,2.0340641E3,3.482252E3,3.3779854E3,2.3878525E3,7.453763E2,1.2928177E3,1.6792002E3,7.242231E2,9.9142664E2,9.337103E2,2.6323826E3],"tree_param":{"num_deleted":"0","num_feature":"7","num_nodes":"111","size_leaf_vector":"1"}},{"base_weights":[2.3022092E-4,1.0918339E-1,-7.244315E-1,-2.0418737E-2,9.6613675E-1,-1.093473E0,1.1300294E-1,-1.15900844E-1,5.7914877E-1,3.7044263E-1,1.1267245E0,-1.2636306E0,-8.2247555E-1,-1.8071029E-1,6.6587925E-1,-5.8166403E-2,-8.819268E-1,7.8332233E-1,-2.8351E-1,1.579915E-1,5.925726E-1,-7.239091E-1,1.1683869E0,-1.3592093E0,-1.1709644E0,-6.935626E-1,-1.0717231E0,-4.4986287E-1,-1.2344671E-3,8.6092806E-1,2.945221E-1,-6.077355E-3,-5.786544E-1,-1.1416104E0,1.0788021E0,1.1844712E0,5.984502E-1,-7.908417E-1,-9.5432855E-2,3.9660928E-1,-1.0355476E-1,4.5165175E-1,7.805687E-1,-1.3755022E0,1.4075789E-1,9.357611E-1,1.2777898E0,1.5268405E-1,-1.3672045E0,-1.095112E0,-1.3343294E0,-5.4505867E-1,-8.92327E-1,-1.163384E0,-9.2655265E-1,-2.9098302E-1,-1.5027641E-1,-1.3984898E-1,1.14700414E-1,4.571123E-1,1.1591427E0,-3.3392748E-1,6.994254E-1,-1.4825197E-2,2.2066763E-2,-8.063687E-2,-7.973074E-3,-1.0320548E-1,-1.3390598E-1,1.1215793E-1,9.095844E-2,1.342373E-1,1.09088175E-1,6.8656124E-2,2.301841E-2,-8.843726E-2,-6.1401833E-2,-5.2035474E-3,-7.64882E-2,4.8468094E-2,1.969146E-3,-1.5381262E-2,4.395455E-2,3.3784278E-2,6.210945E-2,9.960368E-2,6.93635E-2,-1.3767233E-1,-5.0760407E-2,7.8971796E-2,1.0939284E-1,1.18631124E-1,1.3551001E-1,1.3882497E-1,-1.3856529E-1,-1.4129229E-1,-1.324817E-1,-9.612752E-2,-1.1887524E-1,-1.3657768E-1,-1.2969077E-1,-6.6331945E-2,-3.2611176E-2,-9.95189E-2,-7.473067E-2,-1.0072967E-1,-1.223668E-1,-7.7325895E-2,-1.0370113E-1,1.9452444E-3,-4.937042E-2,-6.6629434E-3,-5.8100443E-2,-1.806869E-3,3.3149492E-2,-2.2312151E-2,5.9825707E-2,9.907833E-2,1.4797702E-1,-4.8039686E-2,-1.3964673E-2,1.0622257E-1,2.7268795E-2],"categories":[],"categories_nodes":[],"categories_segments":[],"categories_sizes":[],"default_left":[0,0,0,0,0,0,0,0,0,0,0,0,0,0,0,0,0,0,0,0,0,0,0,0,0,0,0,0,0,0,0,0,0,0,0,0,0,0,0,0,0,0,0,0,0,0,0,0,0,0,0,0,0,0,0,0,0,0,0,0,0,0,0,0,0,0,0,0,0,0,0,0,0,0,0,0,0,0,0,0,0,0,0,0,0,0,0,0,0,0,0,0,0,0,0,0,0,0,0,0,0,0,0,0,0,0,0,0,0,0,0,0,0,0,0,0,0,0,0,0,0,0,0],"id":5,"left_children":[1,3,5,7,9,11,13,15,17,19,21,23,25,27,29,31,33,35,37,39,41,43,45,47,49,51,53,55,57,59,61,63,65,67,69,71,73,75,77,79,81,83,85,87,-1,89,91,93,95,97,99,101,103,105,107,109,-1,111,113,115,117,119,121,-1,-1,-1,-1,-1,-1,-1,-1,-1,-1,-1,-1,-1,-1,-1,-1,-1,-1,-1,-1,-1,-1,-1,-1,-1,-1,-1,-1,-1,-1,-1,-1,-1,-1,-1,-1,-1,-1,-1,-1,-1,-1,-1,-1,-1,-1,-1,-1,-1,-1,-1,-1,-1,-1,-1,-1,-1,-1,-1,-1],"loss_changes":[3.5395734E4,4.3282777E4,1.8108357E4,1.9379568E4,4.8970547E3,1.8743867E3,2.9107036E3,1.2914652E4,8.1910674E3,5.129933E2,3.109957E3,2.1967578E2,5.033955E2,5.654796E2,4.5017847E2,7.362194E3,1.0422022E4,2.7880645E3,8.4921747E2,3.469527E2,1.4044873E2,1.2358573E3,1.00247656E3,1.487832E2,1.5580469E2,3.048462E2,7.0069336E1,7.82971E2,1.1289407E2,4.9039478E2,5.4553876E2,7.957752E3,2.8065771E3,3.895703E2,1.6309814E1,1.7383203E2,8.35167E2,3.9267334E1,1.8864563E2,9.648822E1,7.2473114E1,5.8415283E1,4.1935913E1,2.2705078E-2,0E0,2.9060938E2,1.880664E2,1.26529755E2,2.1822266E1,1.07549805E2,2.9594727E0,1.5315283E2,6.521924E1,2.9569336E1,3.4321167E1,2.5616177E2,0E0,1.0331081E2,1.1011705E2,1.6655618E2,1.2507959E2,2.3846626E1,2.0153558E2,0E0,0E0,0E0,0E0,0E0,0E0,0E0,0E0,0E0,0E0,0E0,0E0,0E0,0E0,0E0,0E0,0E0,0E0,0E0,0E0,0E0,0E0,0E0,0E0,0E0,0E0,0E0,0E0,0E0,0E0,0E0,0E0,0E0,0E0,0E0,0E0,0E0,0E0,0E0,0E0,0E0,0E0,0E0,0E0,0E0,0E0,0E0,0E0,0E0,0E0,0E0,0E0,0E0,0E0,0E0,0E0,0E0,0E0,0E0,0E0],"parents":[2147483647,0,0,1,1,2,2,3,3,4,4,5,5,6,6,7,7,8,8,9,9,10,10,11,11,12,12,13,13,14,14,15,15,16,16,17,17,18,18,19,19,20,20,21,21,22,22,23,23,24,24,25,25,26,26,27,27,28,28,29,29,30,30,31,31,32,32,33,33,34,34,35,35,36,36,37,37,38,38,39,39,40,40,41,41,42,42,43,43,45,45,46,46,47,47,48,48,49,49,50,50,51,51,52,52,53,53,54,54,55,55,57,57,58,58,59,59,60,60,61,61,62,62],"right_children":[2,4,6,8,10,12,14,16,18,20,22,24,26,28,30,32,34,36,38,40,42,44,46,48,50,52,54,56,58,60,62,64,66,68,70,72,74,76,78,80,82,84,86,88,-1,90,92,94,96,98,100,102,104,106,108,110,-1,112,114,116,118,120,122,-1,-1,-1,-1,-1,-1,-1,-1,-1,-1,-1,-1,-1,-1,-1,-1,-1,-1,-1,-1,-1,-1,-1,-1,-1,-1,-1,-1,-1,-1,-1,-1,-1,-1,-1,-1,-1,-1,-1,-1,-1,-1,-1,-1,-1,-1,-1,-1,-1,-1,-1,-1,-1,-1,-1,-1,-1,-1,-1,-1],"split_conditions":[1.3E1,1.2E1,-1E0,3.4E4,3E0,-4E0,1E0,6E0,6E0,2E0,2E0,-7E0,1.5E1,2.445E4,1.6E1,1.1E1,4E0,-5E0,-1E0,5.4E3,1.27E4,1.4E1,5E0,1E0,1.5E1,8.4E3,-2E0,1.5E1,0E0,1.5E1,1.7E1,5E0,-2E0,8E0,1.845E4,-7E0,-1E0,-2E0,5E0,2.975E4,3.21E4,2.435E4,1.845E4,3.46E4,1.4075789E-1,1.4E1,1.4E1,1.4E1,-9E0,1.25E3,8.5E3,-2E0,2.255E4,2.13E4,2.585E4,1.25E3,-1.5027641E-1,5.83E4,7.45E3,1.755E4,1.4E1,4.62E4,1.9E1,-1.4825197E-2,2.2066763E-2,-8.063687E-2,-7.973074E-3,-1.0320548E-1,-1.3390598E-1,1.1215793E-1,9.095844E-2,1.342373E-1,1.09088175E-1,6.8656124E-2,2.301841E-2,-8.843726E-2,-6.1401833E-2,-5.2035474E-3,-7.64882E-2,4.8468094E-2,1.969146E-3,-1.5381262E-2,4.395455E-2,3.3784278E-2,6.210945E-2,9.960368E-2,6.93635E-2,-1.3767233E-1,-5.0760407E-2,7.8971796E-2,1.0939284E-1,1.18631124E-1,1.3551001E-1,1.3882497E-1,-1.3856529E-1,-1.4129229E-1,-1.324817E-1,-9.612752E-2,-1.1887524E-1,-1.3657768E-1,-1.2969077E-1,-6.6331945E-2,-3.2611176E-2,-9.95189E-2,-7.473067E-2,-1.0072967E-1,-1.223668E-1,-7.7325895E-2,-1.0370113E-1,1.9452444E-3,-4.937042E-2,-6.6629434E-3,-5.8100443E-2,-1.806869E-3,3.3149492E-2,-2.2312151E-2,5.9825707E-2,9.907833E-2,1.4797702E-1,-4.8039686E-2,-1.3964673E-2,1.0622257E-1,2.7268795E-2],"split_indices":[1,0,2,6,2,2,2,2,0,2,1,2,1,5,0,1,1,2,2,4,3,0,2,0,1,4,2,1,2,0,0,1,2,2,6,2,2,2,2,6,5,5,6,6,0,0,0,1,2,4,3,2,5,6,6,4,0,6,3,5,1,6,0,0,0,0,0,0,0,0,0,0,0,0,0,0,0,0,0,0,0,0,0,0,0,0,0,0,0,0,0,0,0,0,0,0,0,0,0,0,0,0,0,0,0,0,0,0,0,0,0,0,0,0,0,0,0,0,0,0,0,0,0],"split_type":[0,0,0,0,0,0,0,0,0,0,0,0,0,0,0,0,0,0,0,0,0,0,0,0,0,0,0,0,0,0,0,0,0,0,0,0,0,0,0,0,0,0,0,0,0,0,0,0,0,0,0,0,0,0,0,0,0,0,0,0,0,0,0,0,0,0,0,0,0,0,0,0,0,0,0,0,0,0,0,0,0,0,0,0,0,0,0,0,0,0,0,0,0,0,0,0,0,0,0,0,0,0,0,0,0,0,0,0,0,0,0,0,0,0,0,0,0,0,0,0,0,0,0],"sum_hessian":[4.4830522E5,3.8971262E5,5.8592594E4,3.3851756E5,5.119504E4,4.0669855E4,1.7922738E4,2.920146E5,4.6502992E4,1.0871379E4,4.032366E4,2.498086E4,1.5688996E4,1.1705116E4,6.217621E3,2.715493E5,2.0465266E4,3.7603188E4,8.899809E3,5.557627E3,5.313752E3,8.8743976E2,3.943622E4,1.2290453E4,1.2690405E4,1.0343194E4,5.3458027E3,4.682082E3,7.023034E3,4.0756426E3,2.1419785E3,2.4684658E5,2.4702734E4,1.8072162E4,2.3931023E3,1.1860976E4,2.574221E4,2.4061353E3,6.493673E3,2.9059294E3,2.6516973E3,3.0390776E3,2.2746746E3,6.799382E2,2.0750157E2,1.2617308E4,2.6818912E4,6.455746E1,1.2225896E4,8.671725E3,4.0186812E3,5.9222285E3,4.420966E3,3.2725154E3,2.073287E3,4.069311E3,6.127712E2,3.198557E3,3.8244773E3,1.732363E3,2.3432795E3,8.3936975E2,1.3026088E3,1.5171681E5,9.512977E4,1.6960953E4,7.7417803E3,1.1627067E4,6.445095E3,1.9057196E3,4.8738266E2,4.408961E3,7.4520146E3,2.0771559E4,4.9706514E3,1.5710995E3,8.350358E2,6.0993564E3,3.9431622E2,2.355298E3,5.506314E2,2.4277527E3,2.2394452E2,1.8197839E3,1.2192938E3,6.509116E2,1.6237628E3,6.7839746E2,1.5407348E0,6.563198E3,6.0541094E3,1.2291334E4,1.4527579E4,3.585606E1,2.8701403E1,5.8663066E3,6.3595894E3,3.5743289E3,5.0973955E3,2.1643577E3,1.8543234E3,3.84395E3,2.0782783E3,2.5829983E3,1.8379674E3,9.167013E2,2.3558142E3,8.716369E2,1.2016503E3,1.6079275E3,2.4613835E3,2.7442402E3,4.5431662E2,2.3724563E3,1.452021E3,2.9758752E2,1.4347756E3,1.5391644E3,8.041152E2,4.7773212E2,3.6163766E2,7.0324255E2,5.993663E2],"tree_param":{"num_deleted":"0","num_feature":"7","num_nodes":"123","size_leaf_vector":"1"}},{"base_weights":[2.3824869E-4,9.954408E-2,-6.732348E-1,-1.85083E-2,9.0475726E-1,-1.025164E0,1.0298928E-1,2.3428008E-1,-2.2342241E-1,3.3628744E-1,1.0638927E0,-1.1970242E0,-7.584161E-1,-1.6363017E-1,6.130369E-1,5.760158E-1,-5.958008E-2,-6.7967004E-1,-3.3876073E-2,1.4269114E-1,5.407615E-1,-6.924742E-1,1.1029291E0,-1.296254E0,-1.1020309E0,-6.349956E-1,-1.0018052E0,-4.2868713E-1,-1.2245574E-2,7.976412E-1,2.6789442E-1,8.91541E-1,4.0383717E-1,1.2899928E-1,-2.3200615E-1,-4.9664918E-1,-1.0603861E0,1.4559485E-1,-4.3993232E-1,-7.62134E-2,3.830099E-1,4.0371063E-1,7.199532E-1,-1.3146274E0,1.3520867E-1,8.703769E-1,1.2145824E0,1.4616813E-1,-1.30385E0,-1.0258973E0,-1.2682875E0,-5.009825E-1,-8.45503E-1,-1.0925974E0,-8.596756E-1,-2.7873233E-1,-1.4346173E-1,-1.4297912E-1,9.865856E-2,4.147776E-1,1.0901845E0,-3.003387E-1,6.39869E-1,-1.2037887E-1,9.776039E-2,5.0688475E-2,3.0280624E-2,-1.4842554E-3,2.772463E-2,-3.2816082E-2,-3.2282062E-3,-5.947065E-2,-2.4569185E-2,-9.549977E-2,-1.2534626E-1,1.3358498E-3,6.587894E-2,-7.288716E-2,-8.022658E-3,-1.396016E-2,3.7403587E-2,2.2551842E-2,5.3281885E-2,7.915769E-2,3.3976328E-2,7.768331E-2,4.1658882E-2,-1.315838E-1,-4.8234817E-2,7.8757636E-2,1.147453E-1,1.10981725E-1,1.2877981E-1,1.332184E-1,-1.3286918E-1,-1.3507394E-1,-1.2605737E-1,-8.958279E-2,-1.1176727E-1,-1.2962621E-1,-1.2162707E-1,-6.177899E-2,-2.8966427E-2,-9.249854E-2,-6.934627E-2,-8.464649E-2,-1.12991415E-1,-5.368566E-2,-9.098377E-2,4.3755453E-2,-3.6537327E-2,-8.316916E-3,-5.29643E-2,2.9334007E-2,-1.5273087E-3,5.1474287E-3,6.412302E-2,9.245484E-2,1.412489E-1,-4.319202E-2,-1.2566919E-2,9.817948E-2,2.4634099E-2],"categories":[],"categories_nodes":[],"categories_segments":[],"categories_sizes":[],"default_left":[0,0,0,0,0,0,0,0,0,0,0,0,0,0,0,0,0,0,0,0,0,0,0,0,0,0,0,0,0,0,0,0,0,0,0,0,0,0,0,0,0,0,0,0,0,0,0,0,0,0,0,0,0,0,0,0,0,0,0,0,0,0,0,0,0,0,0,0,0,0,0,0,0,0,0,0,0,0,0,0,0,0,0,0,0,0,0,0,0,0,0,0,0,0,0,0,0,0,0,0,0,0,0,0,0,0,0,0,0,0,0,0,0,0,0,0,0,0,0,0,0,0,0],"id":6,"left_children":[1,3,5,7,9,11,13,15,17,19,21,23,25,27,29,31,33,35,37,39,41,43,45,47,49,51,53,55,57,59,61,63,65,67,69,71,73,75,77,79,81,83,85,87,-1,89,91,93,95,97,99,101,103,105,107,109,-1,111,113,115,117,119,121,-1,-1,-1,-1,-1,-1,-1,-1,-1,-1,-1,-1,-1,-1,-1,-1,-1,-1,-1,-1,-1,-1,-1,-1,-1,-1,-1,-1,-1,-1,-1,-1,-1,-1,-1,-1,-1,-1,-1,-1,-1,-1,-1,-1,-1,-1,-1,-1,-1,-1,-1,-1,-1,-1,-1,-1,-1,-1,-1,-1],"loss_changes":[2.9600809E4,3.666565E4,1.5537217E4,1.7425662E4,4.4613047E3,1.7931055E3,2.4130042E3,1.5124499E4,1.6067543E4,4.2698108E2,2.6426367E3,2.2289453E2,4.6005762E2,4.6758304E2,3.878916E2,3.7825195E3,2.6330872E3,3.7992402E3,9.565936E3,2.9162366E2,1.2855188E2,1.0682533E3,9.7770703E2,1.276582E2,1.5268262E2,2.8673096E2,6.562793E1,6.385924E2,1.0756719E2,4.4399316E2,4.4917603E2,4.4340527E3,4.6887305E2,8.2477014E2,8.1234863E2,9.061748E2,3.590332E2,6.177593E3,4.181592E3,8.286301E1,6.2223114E1,7.352045E1,3.888672E1,1.3305664E-2,0E0,2.7970312E2,1.9389844E2,1.09946976E2,2.178125E1,9.866699E1,3.9770508E0,1.5340015E2,4.718872E1,2.7921143E1,3.2148438E1,2.2902344E2,0E0,7.8702286E1,8.903596E1,1.4150168E2,1.1874463E2,1.9276268E1,1.725445E2,0E0,0E0,0E0,0E0,0E0,0E0,0E0,0E0,0E0,0E0,0E0,0E0,0E0,0E0,0E0,0E0,0E0,0E0,0E0,0E0,0E0,0E0,0E0,0E0,0E0,0E0,0E0,0E0,0E0,0E0,0E0,0E0,0E0,0E0,0E0,0E0,0E0,0E0,0E0,0E0,0E0,0E0,0E0,0E0,0E0,0E0,0E0,0E0,0E0,0E0,0E0,0E0,0E0,0E0,0E0,0E0,0E0,0E0,0E0,0E0],"parents":[2147483647,0,0,1,1,2,2,3,3,4,4,5,5,6,6,7,7,8,8,9,9,10,10,11,11,12,12,13,13,14,14,15,15,16,16,17,17,18,18,19,19,20,20,21,21,22,22,23,23,24,24,25,25,26,26,27,27,28,28,29,29,30,30,31,31,32,32,33,33,34,34,35,35,36,36,37,37,38,38,39,39,40,40,41,41,42,42,43,43,45,45,46,46,47,47,48,48,49,49,50,50,51,51,52,52,53,53,54,54,55,55,57,57,58,58,59,59,60,60,61,61,62,62],"right_children":[2,4,6,8,10,12,14,16,18,20,22,24,26,28,30,32,34,36,38,40,42,44,46,48,50,52,54,56,58,60,62,64,66,68,70,72,74,76,78,80,82,84,86,88,-1,90,92,94,96,98,100,102,104,106,108,110,-1,112,114,116,118,120,122,-1,-1,-1,-1,-1,-1,-1,-1,-1,-1,-1,-1,-1,-1,-1,-1,-1,-1,-1,-1,-1,-1,-1,-1,-1,-1,-1,-1,-1,-1,-1,-1,-1,-1,-1,-1,-1,-1,-1,-1,-1,-1,-1,-1,-1,-1,-1,-1,-1,-1,-1,-1,-1,-1,-1,-1,-1,-1,-1,-1],"split_conditions":[1.3E1,1.2E1,-1E0,4E0,3E0,-4E0,1E0,-1E0,4E0,2E0,2E0,-7E0,1.5E1,2.33E4,1.6E1,-4E0,1.745E4,6E0,1E1,1.14E4,2.545E4,1.4E1,5E0,1E0,1.5E1,2.855E4,-2E0,1.5E1,0E0,1.5E1,1.7E1,7.85E3,1.8E3,1.55E4,2E0,6.75E3,8E0,1E1,-2E0,3.135E4,2.515E4,1.825E4,3.13E4,3.46E4,1.3520867E-1,1.5E1,7E0,1.4E1,-9E0,1.25E3,1E1,-2E0,9.05E3,1.825E4,1.885E4,1.75E4,-1.4346173E-1,5.83E4,3.17E4,6.7E3,1.4E1,4.62E4,1.9E1,-1.2037887E-1,9.776039E-2,5.0688475E-2,3.0280624E-2,-1.4842554E-3,2.772463E-2,-3.2816082E-2,-3.2282062E-3,-5.947065E-2,-2.4569185E-2,-9.549977E-2,-1.2534626E-1,1.3358498E-3,6.587894E-2,-7.288716E-2,-8.022658E-3,-1.396016E-2,3.7403587E-2,2.2551842E-2,5.3281885E-2,7.915769E-2,3.3976328E-2,7.768331E-2,4.1658882E-2,-1.315838E-1,-4.8234817E-2,7.8757636E-2,1.147453E-1,1.10981725E-1,1.2877981E-1,1.332184E-1,-1.3286918E-1,-1.3507394E-1,-1.2605737E-1,-8.958279E-2,-1.1176727E-1,-1.2962621E-1,-1.2162707E-1,-6.177899E-2,-2.8966427E-2,-9.249854E-2,-6.934627E-2,-8.464649E-2,-1.12991415E-1,-5.368566E-2,-9.098377E-2,4.3755453E-2,-3.6537327E-2,-8.316916E-3,-5.29643E-2,2.9334007E-2,-1.5273087E-3,5.1474287E-3,6.412302E-2,9.245484E-2,1.412489E-1,-4.319202E-2,-1.2566919E-2,9.817948E-2,2.4634099E-2],"split_indices":[1,0,2,0,2,2,2,2,1,2,1,2,1,5,0,2,5,2,1,3,5,0,2,0,1,6,2,1,2,0,0,6,3,6,1,4,2,0,2,5,5,6,6,6,0,0,2,1,2,4,0,2,3,6,6,6,0,6,6,3,1,6,0,0,0,0,0,0,0,0,0,0,0,0,0,0,0,0,0,0,0,0,0,0,0,0,0,0,0,0,0,0,0,0,0,0,0,0,0,0,0,0,0,0,0,0,0,0,0,0,0,0,0,0,0,0,0,0,0,0,0,0,0],"split_type":[0,0,0,0,0,0,0,0,0,0,0,0,0,0,0,0,0,0,0,0,0,0,0,0,0,0,0,0,0,0,0,0,0,0,0,0,0,0,0,0,0,0,0,0,0,0,0,0,0,0,0,0,0,0,0,0,0,0,0,0,0,0,0,0,0,0,0,0,0,0,0,0,0,0,0,0,0,0,0,0,0,0,0,0,0,0,0,0,0,0,0,0,0,0,0,0,0,0,0,0,0,0,0,0,0,0,0,0,0,0,0,0,0,0,0,0,0,0,0,0,0,0,0],"sum_hessian":[4.425951E5,3.8572022E5,5.687487E4,3.3640138E5,4.931886E4,3.913245E4,1.7742424E4,1.5060734E5,1.8579403E5,1.0787274E4,3.8531586E4,2.379702E4,1.5335427E4,1.1652133E4,6.090292E3,6.963107E4,8.097628E4,5.4531457E4,1.3126256E5,5.541897E3,5.245378E3,8.374044E2,3.7694184E4,1.1632785E4,1.2164235E4,1.0177906E4,5.1575205E3,4.2351104E3,7.417022E3,3.9671138E3,2.1231782E3,2.4581021E4,4.5050047E4,3.867661E4,4.229967E4,3.6829016E4,1.7702438E4,9.10295E4,4.0233066E4,2.9005193E3,2.6413777E3,2.9740186E3,2.2713591E3,6.423089E2,1.9509549E2,1.2230087E4,2.5464096E4,6.084339E1,1.1571942E4,8.348423E3,3.8158125E3,6.220925E3,3.9569817E3,3.1430564E3,2.0144642E3,3.6867942E3,5.483163E2,3.4040483E3,4.0129736E3,1.7193483E3,2.2477654E3,8.4006964E2,1.2831086E3,9.6928674E2,2.3611734E4,2.2300451E4,2.2749594E4,1.9630416E4,1.9046193E4,2.8552691E4,1.3746981E4,2.6480744E4,1.0348272E4,1.1455528E4,6.24691E3,7.2380125E4,1.8649375E4,2.2310658E4,1.792241E4,2.5431697E3,3.5734946E2,1.2888927E3,1.352485E3,4.193166E2,2.554702E3,1.9114144E3,3.5994482E2,6.4079584E2,1.5130727E0,9.419143E3,2.8109446E3,1.0481763E4,1.4982333E4,3.377766E1,2.7065731E1,5.5396157E3,6.032326E3,3.4581296E3,4.890293E3,2.465795E3,1.3500176E3,4.0051382E3,2.2157864E3,2.5952E3,1.3617817E3,4.1691006E2,2.7261465E3,2.7249875E2,1.7419655E3,3.9739108E2,3.289403E3,2.949092E3,4.549564E2,1.4809004E3,2.5320735E3,6.60661E2,1.0586873E3,1.4872957E3,7.604698E2,4.7829163E2,3.61778E2,6.8576825E2,5.973404E2],"tree_param":{"num_deleted":"0","num_feature":"7","num_nodes":"123","size_leaf_vector":"1"}},{"base_weights":[2.3447804E-4,9.098473E-2,-6.2680024E-1,-1.6834946E-2,8.490864E-1,-9.637089E-1,9.392565E-2,2.1290347E-1,-2.03228E-1,3.0535713E-1,1.0075533E0,-1.1383289E0,-7.002282E-1,-1.4817752E-1,5.6511813E-1,6.232487E-1,6.592737E-3,-6.237984E-1,-3.0704737E-2,1.2889913E-1,4.936591E-1,-6.6565466E-1,1.044198E0,-1.2421657E0,-1.040341E0,-5.818465E-1,-9.387003E-1,-6.0535365E-1,-7.427822E-2,7.4013335E-1,2.4393533E-1,-1.1301531E0,6.5657455E-1,1.2815054E-1,-2.5666082E-1,-3.833029E-1,-8.913364E-1,1.3157402E-1,-4.0065756E-1,3.313906E-1,-9.053068E-2,3.6721015E-1,6.687575E-1,-1.2625495E0,1.305461E-1,8.1072855E-1,1.1588916E0,1.4061639E-1,-1.2494159E0,-9.634199E-1,-1.2109953E0,-7.608707E-1,-4.3740144E-1,-1.0292386E0,-7.988142E-1,-4.6584156E-1,-1.3559014E-1,-2.2543839E-1,6.964793E-2,3.764721E-1,1.0283805E0,-2.7032548E-1,5.8614755E-1,-1.14513755E-1,1.1563068E-1,1.04231715E-1,4.898769E-2,-5.7456875E-3,2.4504308E-2,-3.168691E-2,-3.7980122E-3,-4.9562495E-2,-1.8678542E-2,-7.400512E-2,-1.0919056E-1,1.2023193E-3,6.0300924E-2,-6.695773E-2,-7.222697E-3,5.0345905E-2,1.6958177E-2,-4.1012045E-2,-2.2955898E-3,3.2571528E-2,7.699289E-2,5.2778423E-2,7.84276E-2,-1.2637691E-1,-4.5856018E-2,7.2970286E-2,1.0878473E-1,1.0571337E-1,1.2463341E-1,1.2847058E-1,-1.2803744E-1,-1.21217094E-1,-1.3125403E-1,-8.360248E-2,-1.054225E-1,-1.2408539E-1,-1.1559077E-1,-8.767338E-2,-6.2253326E-2,-1.8018272E-2,-5.236143E-2,-9.064712E-2,-1.1049173E-1,-6.542021E-2,-9.042807E-2,-6.460371E-2,-2.4504233E-2,-4.2179137E-2,-9.314626E-3,4.038005E-2,1.1582369E-3,-2.2662386E-2,5.0387986E-2,8.641387E-2,1.3562624E-1,-3.8878527E-2,-1.1310517E-2,9.098451E-2,2.2253314E-2],"categories":[],"categories_nodes":[],"categories_segments":[],"categories_sizes":[],"default_left":[0,0,0,0,0,0,0,0,0,0,0,0,0,0,0,0,0,0,0,0,0,0,0,0,0,0,0,0,0,0,0,0,0,0,0,0,0,0,0,0,0,0,0,0,0,0,0,0,0,0,0,0,0,0,0,0,0,0,0,0,0,0,0,0,0,0,0,0,0,0,0,0,0,0,0,0,0,0,0,0,0,0,0,0,0,0,0,0,0,0,0,0,0,0,0,0,0,0,0,0,0,0,0,0,0,0,0,0,0,0,0,0,0,0,0,0,0,0,0,0,0,0,0],"id":7,"left_children":[1,3,5,7,9,11,13,15,17,19,21,23,25,27,29,31,33,35,37,39,41,43,45,47,49,51,53,55,57,59,61,63,65,67,69,71,73,75,77,79,81,83,85,87,-1,89,91,93,95,97,99,101,103,105,107,109,-1,111,113,115,117,119,121,-1,-1,-1,-1,-1,-1,-1,-1,-1,-1,-1,-1,-1,-1,-1,-1,-1,-1,-1,-1,-1,-1,-1,-1,-1,-1,-1,-1,-1,-1,-1,-1,-1,-1,-1,-1,-1,-1,-1,-1,-1,-1,-1,-1,-1,-1,-1,-1,-1,-1,-1,-1,-1,-1,-1,-1,-1,-1,-1,-1],"loss_changes":[2.480711E4,3.1128604E4,1.3383674E4,1.427739E4,4.0854727E3,1.7273008E3,2.0031163E3,1.2643166E4,1.3355932E4,3.5555798E2,2.252004E3,2.285293E2,4.2216455E2,3.9185162E2,3.3483374E2,2.9203613E3,3.1802207E3,3.4447812E3,7.8364307E3,2.455848E2,1.1438318E2,9.2820557E2,9.611953E2,1.1006836E2,1.5146289E2,2.5848706E2,6.206787E1,1.6836743E2,2.1728668E2,4.039458E2,3.7036417E2,3.3266235E1,3.152455E3,1.4750696E3,4.133225E2,6.223496E2,7.682793E2,5.1136465E3,3.5150483E3,7.994336E1,5.7287003E1,5.0022827E1,3.4920654E1,1.373291E-2,0E0,2.6505615E2,2.1305078E2,9.6052864E1,2.4044922E1,9.188965E1,4.501465E0,7.1069336E1,1.2279663E2,2.6973877E1,2.923413E1,5.405179E1,0E0,1.264949E2,9.927061E1,1.3128564E2,1.14671875E2,1.562278E1,1.4850159E2,0E0,0E0,0E0,0E0,0E0,0E0,0E0,0E0,0E0,0E0,0E0,0E0,0E0,0E0,0E0,0E0,0E0,0E0,0E0,0E0,0E0,0E0,0E0,0E0,0E0,0E0,0E0,0E0,0E0,0E0,0E0,0E0,0E0,0E0,0E0,0E0,0E0,0E0,0E0,0E0,0E0,0E0,0E0,0E0,0E0,0E0,0E0,0E0,0E0,0E0,0E0,0E0,0E0,0E0,0E0,0E0,0E0,0E0,0E0,0E0],"parents":[2147483647,0,0,1,1,2,2,3,3,4,4,5,5,6,6,7,7,8,8,9,9,10,10,11,11,12,12,13,13,14,14,15,15,16,16,17,17,18,18,19,19,20,20,21,21,22,22,23,23,24,24,25,25,26,26,27,27,28,28,29,29,30,30,31,31,32,32,33,33,34,34,35,35,36,36,37,37,38,38,39,39,40,40,41,41,42,42,43,43,45,45,46,46,47,47,48,48,49,49,50,50,51,51,52,52,53,53,54,54,55,55,57,57,58,58,59,59,60,60,61,61,62,62],"right_children":[2,4,6,8,10,12,14,16,18,20,22,24,26,28,30,32,34,36,38,40,42,44,46,48,50,52,54,56,58,60,62,64,66,68,70,72,74,76,78,80,82,84,86,88,-1,90,92,94,96,98,100,102,104,106,108,110,-1,112,114,116,118,120,122,-1,-1,-1,-1,-1,-1,-1,-1,-1,-1,-1,-1,-1,-1,-1,-1,-1,-1,-1,-1,-1,-1,-1,-1,-1,-1,-1,-1,-1,-1,-1,-1,-1,-1,-1,-1,-1,-1,-1,-1,-1,-1,-1,-1,-1,-1,-1,-1,-1,-1,-1,-1,-1,-1,-1,-1,-1,-1,-1,-1],"split_conditions":[1.3E1,1.2E1,-1E0,4E0,3E0,-4E0,1E0,-2E0,4E0,2E0,2E0,-7E0,1.5E1,1.795E4,1.6E1,7.85E3,1E0,5E0,1E1,5.4E3,1.28E4,1.4E1,5E0,1E0,1.5E1,7.45E3,-2E0,1.5E1,0E0,1.5E1,1.7E1,1.97E4,-5E0,1.77E4,1.7E3,2.3E3,7E0,1E1,-2E0,2.27E4,1.385E4,3.495E4,2.515E4,3.46E4,1.305461E-1,1.5E1,1.4E1,1.4E1,1.5E1,1.25E3,1E1,2.235E4,1.895E4,2.345E4,2.585E4,5.4E3,-1.3559014E-1,2.61E4,1.985E4,1.755E4,1.4E1,4.62E4,1.9E1,-1.14513755E-1,1.1563068E-1,1.04231715E-1,4.898769E-2,-5.7456875E-3,2.4504308E-2,-3.168691E-2,-3.7980122E-3,-4.9562495E-2,-1.8678542E-2,-7.400512E-2,-1.0919056E-1,1.2023193E-3,6.0300924E-2,-6.695773E-2,-7.222697E-3,5.0345905E-2,1.6958177E-2,-4.1012045E-2,-2.2955898E-3,3.2571528E-2,7.699289E-2,5.2778423E-2,7.84276E-2,-1.2637691E-1,-4.5856018E-2,7.2970286E-2,1.0878473E-1,1.0571337E-1,1.2463341E-1,1.2847058E-1,-1.2803744E-1,-1.21217094E-1,-1.3125403E-1,-8.360248E-2,-1.054225E-1,-1.2408539E-1,-1.1559077E-1,-8.767338E-2,-6.2253326E-2,-1.8018272E-2,-5.236143E-2,-9.064712E-2,-1.1049173E-1,-6.542021E-2,-9.042807E-2,-6.460371E-2,-2.4504233E-2,-4.2179137E-2,-9.314626E-3,4.038005E-2,1.1582369E-3,-2.2662386E-2,5.0387986E-2,8.641387E-2,1.3562624E-1,-3.8878527E-2,-1.1310517E-2,9.098451E-2,2.2253314E-2],"split_indices":[1,0,2,0,2,2,2,2,1,2,1,2,1,5,0,6,2,2,1,4,3,0,2,0,1,3,2,1,2,0,0,3,2,6,4,4,2,0,2,6,5,5,5,6,0,0,0,1,1,4,0,5,6,6,6,3,0,5,6,5,1,6,0,0,0,0,0,0,0,0,0,0,0,0,0,0,0,0,0,0,0,0,0,0,0,0,0,0,0,0,0,0,0,0,0,0,0,0,0,0,0,0,0,0,0,0,0,0,0,0,0,0,0,0,0,0,0,0,0,0,0,0,0],"split_type":[0,0,0,0,0,0,0,0,0,0,0,0,0,0,0,0,0,0,0,0,0,0,0,0,0,0,0,0,0,0,0,0,0,0,0,0,0,0,0,0,0,0,0,0,0,0,0,0,0,0,0,0,0,0,0,0,0,0,0,0,0,0,0,0,0,0,0,0,0,0,0,0,0,0,0,0,0,0,0,0,0,0,0,0,0,0,0,0,0,0,0,0,0,0,0,0,0,0,0,0,0,0,0,0,0,0,0,0,0,0,0,0,0,0,0,0,0,0,0,0,0,0,0],"sum_hessian":[4.35948E5,3.808314E5,5.5116586E4,3.3341328E5,4.741814E4,3.755901E4,1.7557574E4,1.4934197E5,1.8407131E5,1.0701665E4,3.6716477E4,2.2586584E4,1.4972429E4,1.1598725E4,5.958849E3,4.9963734E4,9.9378234E4,5.35432E4,1.3052811E5,5.5254473E3,5.176218E3,7.8652155E2,3.5929953E4,1.0960343E4,1.1626241E4,1.0007815E4,4.964614E3,1.612965E3,9.98576E3,3.8562441E3,2.1026052E3,9.3130383E2,4.903243E4,6.798606E4,3.1392172E4,2.8197926E4,2.5345273E4,9.07302E4,3.9797902E4,2.8733696E3,2.6520774E3,3.0074536E3,2.1687642E3,6.0398254E2,1.82539E2,1.183888E4,2.4091074E4,5.7070747E1,1.0903271E4,8.0185776E3,3.6076638E3,4.4670786E3,5.5407363E3,3.0100613E3,1.9545522E3,1.3615079E3,2.5145699E2,4.8702036E3,5.1155557E3,1.7060927E3,2.1501516E3,8.4020044E2,1.2624047E3,9.257361E2,5.5677233E0,1.4793842E4,3.4238586E4,2.6271484E4,4.171458E4,2.4614688E4,6.777485E3,1.7941635E4,1.0256291E4,1.4450357E4,1.0894915E4,7.237717E4,1.8353035E4,2.188081E4,1.7917092E4,1.3915142E3,1.4818555E3,4.6200256E2,2.190075E3,2.7281611E3,2.7929233E2,9.792735E2,1.1894907E3,6.024968E2,1.4857128E0,9.163291E3,2.675589E3,1.114019E4,1.2950884E4,3.1668907E1,2.5401838E1,6.870012E3,4.0332595E3,3.3412173E3,4.6773604E3,2.3256096E3,1.2820542E3,2.428107E3,2.0389719E3,1.3916859E3,4.149051E3,1.1528558E3,1.8572054E3,8.273377E2,1.1272145E3,7.4862506E2,6.128829E2,1.9595607E3,2.910643E3,7.5644617E2,4.3591094E3,2.974252E2,1.4086675E3,1.4349797E3,7.1517175E2,4.7832626E2,3.6187418E2,6.6706586E2,5.9533887E2],"tree_param":{"num_deleted":"0","num_feature":"7","num_nodes":"123","size_leaf_vector":"1"}},{"base_weights":[2.2974568E-4,8.319241E-2,-5.8412397E-1,-1.5319195E-2,7.979392E-1,-9.075281E-1,8.569747E-2,-8.755182E-2,4.8275247E-1,2.77299E-1,9.56214E-1,-1.0856878E0,-6.468082E-1,-1.3406773E-1,5.2138025E-1,-2.0999981E-2,-5.4574376E-1,6.517016E-1,-2.3042673E-1,4.297717E-2,3.9809257E-1,-6.4242613E-1,9.906506E-1,-1.1949291E0,-9.842313E-1,-5.3318375E-1,-8.809461E-1,-3.4479177E-1,3.0187657E-3,6.875025E-1,2.2226112E-1,2.4449054E-2,-5.007291E-1,-7.073016E-1,2.068206E-1,9.9114835E-1,5.0148296E-1,-6.418423E-1,-8.3101295E-2,-1.5049009E-1,2.5760657E-1,2.568873E-1,5.4811895E-1,-1.2172979E0,1.265841E-1,8.150488E-1,1.1530232E0,1.3582076E-1,-1.201874E0,-9.0622556E-1,-1.1603667E0,-4.3766734E-1,-7.928971E-1,-9.7161573E-1,-7.428564E-1,-2.1339715E-1,-1.3474059E-1,5.3295285E-2,-2.1343976E-1,3.4185836E-1,9.721203E-1,-2.4344152E-1,5.373436E-1,-8.1713395E-3,1.9338638E-2,-8.720111E-2,-3.0656312E-2,-5.5663016E-2,-1.0019547E-1,-1.8035326E-2,3.320007E-2,1.1631286E-1,8.8960074E-2,6.04566E-2,3.077872E-2,-7.5975336E-2,-5.149393E-2,9.463857E-3,-2.2136232E-2,-3.4997072E-2,-1.2973136E-4,1.58209E-2,4.2356905E-2,1.5508867E-2,4.8928384E-2,7.600071E-2,4.6041247E-2,-1.2185422E-1,-4.3611646E-2,6.775528E-2,9.699569E-2,9.860488E-2,1.1944889E-1,1.2439954E-1,-1.2388565E-1,-1.1196323E-1,-1.2343053E-1,-9.957608E-2,-7.756962E-2,-1.1923108E-1,-1.1019226E-1,-7.617189E-2,-3.6421012E-2,-6.933922E-2,-8.946237E-2,-6.908113E-2,-1.00463405E-1,-4.38944E-2,-7.9112016E-2,4.950575E-3,-3.8717043E-2,4.124234E-2,2.9296817E-3,-9.345943E-2,-1.6333627E-2,6.1468095E-2,8.703733E-3,8.0842935E-2,1.3086353E-1,-3.5025377E-2,-1.0180744E-2,8.4464476E-2,2.0100905E-2],"categories":[],"categories_nodes":[],"categories_segments":[],"categories_sizes":[],"default_left":[0,0,0,0,0,0,0,0,0,0,0,0,0,0,0,0,0,0,0,0,0,0,0,0,0,0,0,0,0,0,0,0,0,0,0,0,0,0,0,0,0,0,0,0,0,0,0,0,0,0,0,0,0,0,0,0,0,0,0,0,0,0,0,0,0,0,0,0,0,0,0,0,0,0,0,0,0,0,0,0,0,0,0,0,0,0,0,0,0,0,0,0,0,0,0,0,0,0,0,0,0,0,0,0,0,0,0,0,0,0,0,0,0,0,0,0,0,0,0,0,0,0,0],"id":8,"left_children":[1,3,5,7,9,11,13,15,17,19,21,23,25,27,29,31,33,35,37,39,41,43,45,47,49,51,53,55,57,59,61,63,65,67,69,71,73,75,77,79,81,83,85,87,-1,89,91,93,95,97,99,101,103,105,107,109,-1,111,113,115,117,119,121,-1,-1,-1,-1,-1,-1,-1,-1,-1,-1,-1,-1,-1,-1,-1,-1,-1,-1,-1,-1,-1,-1,-1,-1,-1,-1,-1,-1,-1,-1,-1,-1,-1,-1,-1,-1,-1,-1,-1,-1,-1,-1,-1,-1,-1,-1,-1,-1,-1,-1,-1,-1,-1,-1,-1,-1,-1,-1,-1,-1],"loss_changes":[2.0811184E4,2.6468057E4,1.1561033E4,1.1885955E4,3.7519805E3,1.6710977E3,1.664015E3,8.798337E3,5.042003E3,3.004881E2,1.9229688E3,2.357793E2,3.882915E2,3.3371973E2,2.893933E2,5.493098E3,4.4493037E3,1.7245527E3,4.8574756E2,1.500422E2,1.4826465E2,8.0996606E2,9.7371484E2,9.526367E1,1.5132617E2,2.4377759E2,5.9038086E1,5.9955316E2,7.619199E1,3.6817603E2,3.056485E2,4.127481E3,1.5715122E3,1.3369336E3,3.1354947E2,1.8019727E2,4.681123E2,3.122882E1,1.450781E2,5.6561382E1,2.8190125E1,8.534381E1,6.275586E1,1.9470215E-2,0E0,3.492002E2,1.2177539E2,8.429407E1,2.5920898E1,8.911182E1,5.034668E0,1.7104248E2,2.61521E1,2.5989502E1,2.7463623E1,1.8398976E2,0E0,4.8953754E1,4.7529045E1,1.1765515E2,1.1207239E2,1.2685905E1,1.2821844E2,0E0,0E0,0E0,0E0,0E0,0E0,0E0,0E0,0E0,0E0,0E0,0E0,0E0,0E0,0E0,0E0,0E0,0E0,0E0,0E0,0E0,0E0,0E0,0E0,0E0,0E0,0E0,0E0,0E0,0E0,0E0,0E0,0E0,0E0,0E0,0E0,0E0,0E0,0E0,0E0,0E0,0E0,0E0,0E0,0E0,0E0,0E0,0E0,0E0,0E0,0E0,0E0,0E0,0E0,0E0,0E0,0E0,0E0,0E0,0E0],"parents":[2147483647,0,0,1,1,2,2,3,3,4,4,5,5,6,6,7,7,8,8,9,9,10,10,11,11,12,12,13,13,14,14,15,15,16,16,17,17,18,18,19,19,20,20,21,21,22,22,23,23,24,24,25,25,26,26,27,27,28,28,29,29,30,30,31,31,32,32,33,33,34,34,35,35,36,36,37,37,38,38,39,39,40,40,41,41,42,42,43,43,45,45,46,46,47,47,48,48,49,49,50,50,51,51,52,52,53,53,54,54,55,55,57,57,58,58,59,59,60,60,61,61,62,62],"right_children":[2,4,6,8,10,12,14,16,18,20,22,24,26,28,30,32,34,36,38,40,42,44,46,48,50,52,54,56,58,60,62,64,66,68,70,72,74,76,78,80,82,84,86,88,-1,90,92,94,96,98,100,102,104,106,108,110,-1,112,114,116,118,120,122,-1,-1,-1,-1,-1,-1,-1,-1,-1,-1,-1,-1,-1,-1,-1,-1,-1,-1,-1,-1,-1,-1,-1,-1,-1,-1,-1,-1,-1,-1,-1,-1,-1,-1,-1,-1,-1,-1,-1,-1,-1,-1,-1,-1,-1,-1,-1,-1,-1,-1,-1,-1,-1,-1,-1,-1,-1,-1,-1,-1],"split_conditions":[1.3E1,1.2E1,-1E0,3.46E4,3E0,-4E0,1E0,3.21E4,6E0,5.65E3,2E0,-7E0,1.5E1,2.445E4,1.6E1,1.1E1,6E0,-5E0,-1E0,2E0,2E0,1.4E1,6E0,1E0,1.5E1,3.265E4,-2E0,1.5E1,5.83E4,1.5E1,1.7E1,5E0,1.565E4,6E0,7E0,-7E0,-2E0,1.8E3,8E0,2.07E4,2.435E4,3.015E4,1.935E4,3.46E4,1.265841E-1,1.4E1,1.3E1,1.4E1,1.4E1,1.065E4,1E1,1.775E4,1.4E1,1.705E4,1.885E4,1.25E3,-1.3474059E-1,1.675E4,5.205E4,4.6E3,1.4E1,4.62E4,1.9E1,-8.1713395E-3,1.9338638E-2,-8.720111E-2,-3.0656312E-2,-5.5663016E-2,-1.0019547E-1,-1.8035326E-2,3.320007E-2,1.1631286E-1,8.8960074E-2,6.04566E-2,3.077872E-2,-7.5975336E-2,-5.149393E-2,9.463857E-3,-2.2136232E-2,-3.4997072E-2,-1.2973136E-4,1.58209E-2,4.2356905E-2,1.5508867E-2,4.8928384E-2,7.600071E-2,4.6041247E-2,-1.2185422E-1,-4.3611646E-2,6.775528E-2,9.699569E-2,9.860488E-2,1.1944889E-1,1.2439954E-1,-1.2388565E-1,-1.1196323E-1,-1.2343053E-1,-9.957608E-2,-7.756962E-2,-1.1923108E-1,-1.1019226E-1,-7.617189E-2,-3.6421012E-2,-6.933922E-2,-8.946237E-2,-6.908113E-2,-1.00463405E-1,-4.38944E-2,-7.9112016E-2,4.950575E-3,-3.8717043E-2,4.124234E-2,2.9296817E-3,-9.345943E-2,-1.6333627E-2,6.1468095E-2,8.703733E-3,8.0842935E-2,1.3086353E-1,-3.5025377E-2,-1.0180744E-2,8.4464476E-2,2.0100905E-2],"split_indices":[1,0,2,6,2,2,2,5,0,3,1,2,1,5,0,1,1,2,2,2,2,0,2,0,1,6,2,1,6,0,0,1,5,2,1,2,2,3,0,5,5,5,6,6,0,0,0,1,1,3,0,5,1,6,6,4,0,6,5,4,1,6,0,0,0,0,0,0,0,0,0,0,0,0,0,0,0,0,0,0,0,0,0,0,0,0,0,0,0,0,0,0,0,0,0,0,0,0,0,0,0,0,0,0,0,0,0,0,0,0,0,0,0,0,0,0,0,0,0,0,0,0,0],"split_type":[0,0,0,0,0,0,0,0,0,0,0,0,0,0,0,0,0,0,0,0,0,0,0,0,0,0,0,0,0,0,0,0,0,0,0,0,0,0,0,0,0,0,0,0,0,0,0,0,0,0,0,0,0,0,0,0,0,0,0,0,0,0,0,0,0,0,0,0,0,0,0,0,0,0,0,0,0,0,0,0,0,0,0,0,0,0,0,0,0,0,0,0,0,0,0,0,0,0,0,0,0,0,0,0,0,0,0,0,0,0,0,0,0,0,0,0,0,0,0,0,0,0,0],"sum_hessian":[4.2927566E5,3.7590762E5,5.336801E4,3.3037406E5,4.5533582E4,3.5990617E4,1.7377395E4,2.885308E5,4.184323E4,1.0615845E4,3.4917734E4,2.1378637E4,1.4611982E4,1.1551387E4,5.826008E3,2.5193816E5,3.6592676E4,3.38293E4,8.0139316E3,3.6114727E3,7.004372E3,7.359359E2,3.41818E4,1.0289171E4,1.1089466E4,9.840014E3,4.7719683E3,4.5522812E3,6.9991055E3,3.744899E3,2.0811086E3,2.3013623E5,2.1801918E4,3.01255E4,6.467176E3,1.0376373E4,2.3452928E4,2.1121797E3,5.901752E3,1.8995312E3,1.7119415E3,3.6096602E3,3.3947117E3,5.658375E2,1.7009834E2,1.642481E4,1.7756988E4,5.332184E1,1.0235849E4,7.6899375E3,3.3995283E3,7.196132E3,2.643882E3,2.8769375E3,1.895031E3,4.0258928E3,5.263886E2,5.6804653E3,1.3186399E3,1.6921396E3,2.0527593E3,8.3991425E2,1.2411945E3,1.4132577E5,8.881046E4,7.4852373E3,1.4316682E4,1.9934725E4,1.0190774E4,1.579975E3,4.8872007E3,3.8483638E3,6.5280093E3,1.5305415E4,8.147512E3,1.0922948E3,1.0198849E3,2.582353E3,3.319399E3,8.122087E2,1.0873226E3,1.0719105E3,6.4003094E2,2.511287E3,1.0983729E3,9.915595E2,2.4031523E3,5.643787E2,1.458824E0,8.704285E3,7.720526E3,3.537382E3,1.4219606E4,2.9575262E1,2.3746576E1,2.9048972E3,7.3309517E3,4.5572866E3,3.132651E3,2.185555E3,1.2139734E3,1.3280703E3,5.868062E3,1.3404872E3,1.3033949E3,3.0499872E2,2.5719387E3,2.6108694E2,1.6339441E3,1.6023701E3,2.4235227E3,3.548019E2,5.3256636E3,8.451643E1,1.2341235E3,8.165225E2,8.756172E2,1.3832888E3,6.694705E2,4.7797794E2,3.6193634E2,6.4780176E2,5.933927E2],"tree_param":{"num_deleted":"0","num_feature":"7","num_nodes":"123","size_leaf_vector":"1"}},{"base_weights":[2.276146E-4,-7.205462E-2,5.740363E-1,2.2896145E-2,-7.015861E-1,-4.8396643E-2,9.3514806E-1,-1.7966081E-1,1.9210576E-1,-9.1069806E-1,-3.090093E-1,-4.7527242E-1,1.688805E-1,7.0625615E-1,1.109962E0,7.701728E-2,-4.936312E-1,5.313603E-1,5.868004E-2,-7.5345844E-1,-1.0628393E0,-1.9087991E-1,-6.2650234E-1,-6.7177284E-1,-2.9608396E-1,3.4800768E-1,2.649785E-2,6.1420506E-1,9.057003E-1,-9.295472E-1,1.1188008E0,-4.6286866E-2,2.3996328E-1,-3.3833998E-1,-7.51628E-1,9.299384E-1,3.8553584E-1,-9.580756E-2,4.428577E-1,1.2023356E-1,-7.903593E-1,-1.144331E0,-8.857716E-1,-5.4308146E-2,-4.2158476E-1,-7.571837E-1,-3.9349192E-1,-5.211227E-1,-1.2839597E0,-7.003679E-1,-1.3808331E-1,2.4514565E-1,1.2321525E-1,-4.7441218E-2,1.1276518E-1,4.634266E-1,7.5649995E-1,7.726015E-1,9.894181E-1,-1.1848303E-1,1.1037936E-1,1.0143425E0,1.1849355E0,3.7656946E-3,-1.6088072E-2,3.0022318E-2,1.147004E-2,-2.2729933E-2,-4.4070024E-2,1.0905095E-1,-8.009495E-2,1.04153566E-1,7.644574E-2,4.839735E-2,2.2035986E-2,3.6673486E-5,-4.616362E-2,2.4308203E-2,7.693633E-2,-9.98301E-2,-6.318898E-2,-1.21403575E-1,-1.0858365E-1,-7.7073395E-2,-1.01575546E-1,4.59745E-3,-2.8724506E-2,-4.4647418E-2,1.843058E-2,-3.8278397E-2,-8.036662E-2,-8.146374E-3,-4.9181733E-2,-8.927842E-2,-4.1133758E-2,-1.3178885E-1,-1.1233834E-1,-5.511653E-2,-8.380915E-2,-4.413031E-2,2.263085E-3,4.375435E-2,-8.0541195E-4,-2.7158532E-2,2.4171134E-3,2.5798503E-2,-3.6265486E-5,2.6612122E-2,5.457123E-2,9.346705E-2,6.877073E-2,3.4351446E-2,8.193329E-2,9.222743E-2,1.09733656E-1,9.447281E-2,1.1638003E-1,1.1416321E-1,1.2269992E-1],"categories":[],"categories_nodes":[],"categories_segments":[],"categories_sizes":[],"default_left":[0,0,0,0,0,0,0,0,0,0,0,0,0,0,0,0,0,0,0,0,0,0,0,0,0,0,0,0,0,0,0,0,0,0,0,0,0,0,0,0,0,0,0,0,0,0,0,0,0,0,0,0,0,0,0,0,0,0,0,0,0,0,0,0,0,0,0,0,0,0,0,0,0,0,0,0,0,0,0,0,0,0,0,0,0,0,0,0,0,0,0,0,0,0,0,0,0,0,0,0,0,0,0,0,0,0,0,0,0,0,0,0,0,0,0,0,0,0,0],"id":9,"left_children":[1,3,5,7,9,11,13,15,17,19,21,23,25,27,29,31,33,35,37,39,41,43,45,47,49,51,53,55,57,59,61,63,65,67,69,71,73,75,77,-1,79,81,83,85,87,89,91,93,95,97,99,101,-1,103,105,107,109,111,113,-1,-1,115,117,-1,-1,-1,-1,-1,-1,-1,-1,-1,-1,-1,-1,-1,-1,-1,-1,-1,-1,-1,-1,-1,-1,-1,-1,-1,-1,-1,-1,-1,-1,-1,-1,-1,-1,-1,-1,-1,-1,-1,-1,-1,-1,-1,-1,-1,-1,-1,-1,-1,-1,-1,-1,-1,-1,-1,-1],"loss_changes":[1.757203E4,2.2491215E4,1.065362E4,1.1206274E4,4.0480059E3,1.6142455E3,1.1994531E3,1.199286E4,8.0636064E3,7.6890234E2,6.4272363E2,2.0650586E2,2.94156E2,2.3795703E2,3.0758594E2,1.645102E3,2.681545E3,2.9223174E3,7.5885E3,1.1430947E3,2.349082E2,3.9362195E2,1.4121936E2,2.5749158E2,1.961536E2,4.6422083E2,4.1000587E1,1.9042944E2,4.4926514E1,3.9680466E1,1.1577344E2,4.4836346E2,2.6619324E2,4.7486182E2,2.28596E3,2.4793164E2,5.9852295E2,3.2083489E3,2.3916836E3,0E0,5.112256E2,4.4320312E1,7.6338135E1,1.8336197E2,7.013904E1,5.149243E1,5.1257965E1,9.136139E1,1.5275269E0,1.727295E1,1.0771892E2,2.2295676E2,0E0,5.5569237E1,4.8735672E1,6.9990845E1,5.5410156E1,3.1558044E1,1.7201904E1,0E0,0E0,6.727051E1,1.7472656E1,0E0,0E0,0E0,0E0,0E0,0E0,0E0,0E0,0E0,0E0,0E0,0E0,0E0,0E0,0E0,0E0,0E0,0E0,0E0,0E0,0E0,0E0,0E0,0E0,0E0,0E0,0E0,0E0,0E0,0E0,0E0,0E0,0E0,0E0,0E0,0E0,0E0,0E0,0E0,0E0,0E0,0E0,0E0,0E0,0E0,0E0,0E0,0E0,0E0,0E0,0E0,0E0,0E0,0E0,0E0,0E0],"parents":[2147483647,0,0,1,1,2,2,3,3,4,4,5,5,6,6,7,7,8,8,9,9,10,10,11,11,12,12,13,13,14,14,15,15,16,16,17,17,18,18,19,19,20,20,21,21,22,22,23,23,24,24,25,25,26,26,27,27,28,28,29,29,30,30,31,31,32,32,33,33,34,34,35,35,36,36,37,37,38,38,40,40,41,41,42,42,43,43,44,44,45,45,46,46,47,47,48,48,49,49,50,50,51,51,53,53,54,54,55,55,56,56,57,57,58,58,61,61,62,62],"right_children":[2,4,6,8,10,12,14,16,18,20,22,24,26,28,30,32,34,36,38,40,42,44,46,48,50,52,54,56,58,60,62,64,66,68,70,72,74,76,78,-1,80,82,84,86,88,90,92,94,96,98,100,102,-1,104,106,108,110,112,114,-1,-1,116,118,-1,-1,-1,-1,-1,-1,-1,-1,-1,-1,-1,-1,-1,-1,-1,-1,-1,-1,-1,-1,-1,-1,-1,-1,-1,-1,-1,-1,-1,-1,-1,-1,-1,-1,-1,-1,-1,-1,-1,-1,-1,-1,-1,-1,-1,-1,-1,-1,-1,-1,-1,-1,-1,-1,-1,-1],"split_conditions":[1.3E1,1.2E1,2E0,4E0,-3E0,0E0,5E0,2E0,4E0,1.4E1,1.4E1,2.61E4,2.81E4,1.5E1,1E0,1.25E3,5E0,-5E0,1E1,2E0,-5E0,1.05E4,-2E0,1.4E1,-1E0,1.5E1,1E0,1.105E4,3E0,1.4E1,7E0,1.815E4,2E0,1.375E4,7.9E3,-6E0,8.5E3,1E1,4E0,1.2023356E-1,-6E0,-8E0,1.5E1,2.785E4,3.45E4,1.705E4,2.01E4,1.61E4,4E4,3.85E4,4E4,1.25E3,1.2321525E-1,2.6E4,3.495E4,1.815E4,1.86E4,1.505E4,2.81E4,-1.1848303E-1,1.1037936E-1,1.5E1,9E0,3.7656946E-3,-1.6088072E-2,3.0022318E-2,1.147004E-2,-2.2729933E-2,-4.4070024E-2,1.0905095E-1,-8.009495E-2,1.04153566E-1,7.644574E-2,4.839735E-2,2.2035986E-2,3.6673486E-5,-4.616362E-2,2.4308203E-2,7.693633E-2,-9.98301E-2,-6.318898E-2,-1.21403575E-1,-1.0858365E-1,-7.7073395E-2,-1.01575546E-1,4.59745E-3,-2.8724506E-2,-4.4647418E-2,1.843058E-2,-3.8278397E-2,-8.036662E-2,-8.146374E-3,-4.9181733E-2,-8.927842E-2,-4.1133758E-2,-1.3178885E-1,-1.1233834E-1,-5.511653E-2,-8.380915E-2,-4.413031E-2,2.263085E-3,4.375435E-2,-8.0541195E-4,-2.7158532E-2,2.4171134E-3,2.5798503E-2,-3.6265486E-5,2.6612122E-2,5.457123E-2,9.346705E-2,6.877073E-2,3.4351446E-2,8.193329E-2,9.222743E-2,1.09733656E-1,9.447281E-2,1.1638003E-1,1.1416321E-1,1.2269992E-1],"split_indices":[0,1,2,1,2,2,2,2,0,1,1,5,6,0,1,4,2,2,0,0,2,4,2,0,2,0,2,3,2,0,2,5,0,3,5,2,3,1,2,0,2,2,1,6,5,6,6,5,6,6,6,4,0,5,5,5,6,5,5,0,0,0,2,0,0,0,0,0,0,0,0,0,0,0,0,0,0,0,0,0,0,0,0,0,0,0,0,0,0,0,0,0,0,0,0,0,0,0,0,0,0,0,0,0,0,0,0,0,0,0,0,0,0,0,0,0,0,0,0],"split_type":[0,0,0,0,0,0,0,0,0,0,0,0,0,0,0,0,0,0,0,0,0,0,0,0,0,0,0,0,0,0,0,0,0,0,0,0,0,0,0,0,0,0,0,0,0,0,0,0,0,0,0,0,0,0,0,0,0,0,0,0,0,0,0,0,0,0,0,0,0,0,0,0,0,0,0,0,0,0,0,0,0,0,0,0,0,0,0,0,0,0,0,0,0,0,0,0,0,0,0,0,0,0,0,0,0,0,0,0,0,0,0,0,0,0,0,0,0,0,0],"sum_hessian":[4.2366366E5,3.7626653E5,4.7397125E4,3.269538E5,4.9312715E4,1.7402332E4,2.9994793E4,1.4881305E5,1.7814077E5,3.2173627E4,1.7139086E4,5.8695244E3,1.1532809E4,1.2990621E4,1.7004172E4,8.187724E4,6.69358E4,5.02838E4,1.2785696E5,1.5824637E4,1.6348989E4,1.2492582E4,4.6465054E3,2.7982153E3,3.071309E3,5.1067373E3,6.4260713E3,8.891112E3,4.099509E3,7.292469E1,1.6931248E4,4.660849E4,3.5268758E4,4.17864E4,2.51494E4,1.3467654E4,3.6816145E4,9.11885E4,3.666846E4,2.9245694E2,1.553218E4,1.119244E4,5.1565493E3,7.8479927E3,4.6445894E3,2.9754866E3,1.6710186E3,2.2470906E3,5.5112463E2,8.62066E2,2.2092432E3,4.575677E3,5.310603E2,3.4605286E3,2.9655425E3,4.3189385E3,4.5721743E3,1.5868622E3,2.5126465E3,6.51611E1,7.7635865E0,6.570165E3,1.0361083E4,2.6902316E4,1.9706172E4,2.3812123E4,1.1456634E4,2.004488E4,2.1741518E4,6.5524207E2,2.4494158E4,8.0401997E3,5.427455E3,2.3067182E4,1.3748963E4,7.220675E4,1.898175E4,2.2750242E4,1.3918218E4,6.715236E3,8.816943E3,5.097847E3,6.0945938E3,2.7392239E3,2.4173252E3,5.486695E3,2.3612976E3,4.461575E3,1.8301424E2,3.296349E2,2.6458516E3,4.008332E2,1.2701854E3,5.107818E2,1.7363088E3,4.4903854E2,1.020861E2,4.1618948E2,4.4587653E2,7.647124E2,1.4445306E3,2.5996008E3,1.976076E3,8.3723157E2,2.623297E3,1.2980203E3,1.6675222E3,1.2723416E3,3.0465967E3,1.270094E3,3.30208E3,1.566702E2,1.430192E3,1.5548252E3,9.5782117E2,4.487363E3,2.0828022E3,5.1191694E3,5.2419136E3],"tree_param":{"num_deleted":"0","num_feature":"7","num_nodes":"119","size_leaf_vector":"1"}},{"base_weights":[2.3369314E-4,-6.5840654E-2,5.371567E-1,2.0841934E-2,-6.5579444E-1,-4.4111628E-2,8.885629E-1,-1.343311E-1,2.0704825E-1,-9.2311406E-1,-3.6202046E-1,-4.3638802E-1,1.531661E-1,6.577011E-1,1.0709615E0,8.455582E-2,-4.2246628E-1,5.0618476E-1,5.449585E-2,-7.731198E-1,-1.0652248E0,-5.570535E-1,-1.457439E-1,-8.8083524E-1,-3.6500785E-1,6.450595E-1,1.09394535E-1,5.6764585E-1,8.5730964E-1,-9.0075415E-1,1.079468E0,-4.709073E-2,2.3163715E-1,9.1686964E-1,-4.5604733E-1,-7.8344876E-1,5.396846E-1,-1.8225221E-1,3.1446958E-1,1.1660876E-1,-8.177789E-1,-1.1355624E0,-9.337686E-1,-3.9601973E-1,-7.4585056E-1,-2.8417575E-1,6.405647E-2,-7.7016026E-1,-1.2348179E-1,-6.215663E-1,-2.4351254E-1,5.616015E-1,1.20012976E-1,-5.2660257E-3,2.2863396E-1,4.2482635E-1,7.044565E-1,7.237114E-1,9.427244E-1,-1.1499905E-1,1.07232176E-1,9.6963495E-1,1.1500217E0,3.9196163E-3,-1.3079243E-2,2.8795114E-2,1.0565725E-2,9.505244E-2,8.591801E-3,-3.1947624E-2,-7.114892E-2,-7.965445E-2,6.688793E-2,3.3637725E-2,7.508128E-2,-1.0766293E-3,-4.5425218E-2,5.8577447E-3,5.1142365E-2,-1.01893626E-1,-6.9368504E-2,-1.1799502E-1,-1.0766683E-1,-8.3195984E-2,-1.0491749E-1,-5.683359E-2,-2.2394054E-2,-5.3722586E-2,-8.1911735E-2,-1.2422477E-2,-4.0656984E-2,2.1707335E-2,-6.398853E-3,-8.803155E-2,-5.82817E-2,-4.487171E-2,-7.54916E-2,-4.0228423E-2,-3.976464E-3,-7.296388E-2,5.7578105E-2,-6.8575763E-3,1.3868968E-2,3.8216043E-2,7.941718E-3,2.7796293E-2,5.236972E-2,6.318923E-2,8.694041E-2,3.143578E-2,7.6943E-2,8.224889E-2,1.00457944E-1,8.982479E-2,1.12538174E-1,1.1047061E-1,1.1942873E-1],"categories":[],"categories_nodes":[],"categories_segments":[],"categories_sizes":[],"default_left":[0,0,0,0,0,0,0,0,0,0,0,0,0,0,0,0,0,0,0,0,0,0,0,0,0,0,0,0,0,0,0,0,0,0,0,0,0,0,0,0,0,0,0,0,0,0,0,0,0,0,0,0,0,0,0,0,0,0,0,0,0,0,0,0,0,0,0,0,0,0,0,0,0,0,0,0,0,0,0,0,0,0,0,0,0,0,0,0,0,0,0,0,0,0,0,0,0,0,0,0,0,0,0,0,0,0,0,0,0,0,0,0,0,0,0,0,0],"id":10,"left_children":[1,3,5,7,9,11,13,15,17,19,21,23,25,27,29,31,33,35,37,39,41,43,45,47,49,51,53,55,57,59,61,63,65,67,69,71,73,75,77,-1,79,81,83,85,87,89,91,93,-1,95,97,99,-1,101,103,105,107,109,111,-1,-1,113,115,-1,-1,-1,-1,-1,-1,-1,-1,-1,-1,-1,-1,-1,-1,-1,-1,-1,-1,-1,-1,-1,-1,-1,-1,-1,-1,-1,-1,-1,-1,-1,-1,-1,-1,-1,-1,-1,-1,-1,-1,-1,-1,-1,-1,-1,-1,-1,-1,-1,-1,-1,-1,-1,-1],"loss_changes":[1.4805448E4,1.9003057E4,9.340759E3,9.361582E3,3.7381387E3,1.3334891E3,1.1993867E3,1.11458545E4,6.7205386E3,5.304492E2,9.566604E2,1.8260168E2,2.4679303E2,2.2567383E2,2.6797852E2,1.9446357E3,3.431833E3,2.1492686E3,6.003056E3,1.0513887E3,1.1725195E2,3.6229565E2,3.1241986E2,3.0280396E1,1.5475964E2,4.2718475E1,1.4396567E2,1.6916162E2,4.393042E1,3.5130917E1,1.2171875E2,3.8276984E2,3.364944E2,5.2114624E1,2.5962812E3,2.4491882E1,2.080706E3,2.3810603E3,2.342854E3,0E0,2.9526758E2,2.0507812E1,5.159619E1,1.9078778E2,8.345703E1,1.26822205E2,8.380983E1,1.2074646E1,0E0,3.6459473E1,1.0913989E2,1.5363129E1,0E0,4.8941124E1,1.1822153E2,6.1505066E1,5.245166E1,2.837384E1,1.6885498E1,0E0,0E0,6.7992676E1,1.8030273E1,0E0,0E0,0E0,0E0,0E0,0E0,0E0,0E0,0E0,0E0,0E0,0E0,0E0,0E0,0E0,0E0,0E0,0E0,0E0,0E0,0E0,0E0,0E0,0E0,0E0,0E0,0E0,0E0,0E0,0E0,0E0,0E0,0E0,0E0,0E0,0E0,0E0,0E0,0E0,0E0,0E0,0E0,0E0,0E0,0E0,0E0,0E0,0E0,0E0,0E0,0E0,0E0,0E0,0E0],"parents":[2147483647,0,0,1,1,2,2,3,3,4,4,5,5,6,6,7,7,8,8,9,9,10,10,11,11,12,12,13,13,14,14,15,15,16,16,17,17,18,18,19,19,20,20,21,21,22,22,23,23,24,24,25,25,26,26,27,27,28,28,29,29,30,30,31,31,32,32,33,33,34,34,35,35,36,36,37,37,38,38,40,40,41,41,42,42,43,43,44,44,45,45,46,46,47,47,49,49,50,50,51,51,53,53,54,54,55,55,56,56,57,57,58,58,61,61,62,62],"right_children":[2,4,6,8,10,12,14,16,18,20,22,24,26,28,30,32,34,36,38,40,42,44,46,48,50,52,54,56,58,60,62,64,66,68,70,72,74,76,78,-1,80,82,84,86,88,90,92,94,-1,96,98,100,-1,102,104,106,108,110,112,-1,-1,114,116,-1,-1,-1,-1,-1,-1,-1,-1,-1,-1,-1,-1,-1,-1,-1,-1,-1,-1,-1,-1,-1,-1,-1,-1,-1,-1,-1,-1,-1,-1,-1,-1,-1,-1,-1,-1,-1,-1,-1,-1,-1,-1,-1,-1,-1,-1,-1,-1,-1,-1,-1,-1,-1,-1],"split_conditions":[1.3E1,1.2E1,2E0,5E0,-4E0,0E0,5E0,2E0,5E0,1.4E1,-2E0,1.765E4,1.75E4,1.5E1,1E0,1.25E3,8.6E3,7.85E3,9E0,2E0,-6E0,1.4E1,1.295E4,1.4E1,-1E0,1.5E1,1E0,1.105E4,3E0,1.4E1,7E0,1.795E4,0E0,4.6E3,5E0,2.115E4,7E0,9E0,2E0,1.1660876E-1,1.64E4,-8E0,1.5E1,9.05E3,2.05E4,2.55E4,2.215E4,5.65E3,-1.2348179E-1,2.72E4,1.5E1,4.7E3,1.20012976E-1,1.165E4,3.065E4,2.035E4,4E0,1.505E4,2.135E4,-1.1499905E-1,1.07232176E-1,1.5E1,9E0,3.9196163E-3,-1.3079243E-2,2.8795114E-2,1.0565725E-2,9.505244E-2,8.591801E-3,-3.1947624E-2,-7.114892E-2,-7.965445E-2,6.688793E-2,3.3637725E-2,7.508128E-2,-1.0766293E-3,-4.5425218E-2,5.8577447E-3,5.1142365E-2,-1.01893626E-1,-6.9368504E-2,-1.1799502E-1,-1.0766683E-1,-8.3195984E-2,-1.0491749E-1,-5.683359E-2,-2.2394054E-2,-5.3722586E-2,-8.1911735E-2,-1.2422477E-2,-4.0656984E-2,2.1707335E-2,-6.398853E-3,-8.803155E-2,-5.82817E-2,-4.487171E-2,-7.54916E-2,-4.0228423E-2,-3.976464E-3,-7.296388E-2,5.7578105E-2,-6.8575763E-3,1.3868968E-2,3.8216043E-2,7.941718E-3,2.7796293E-2,5.236972E-2,6.318923E-2,8.694041E-2,3.143578E-2,7.6943E-2,8.224889E-2,1.00457944E-1,8.982479E-2,1.12538174E-1,1.1047061E-1,1.1942873E-1],"split_indices":[0,1,2,1,2,2,2,2,0,1,2,5,6,0,1,4,5,6,0,0,2,1,3,0,2,0,2,3,2,0,2,5,2,4,2,3,1,1,2,0,5,2,1,3,6,6,6,3,0,6,0,3,0,3,6,5,2,5,5,0,0,0,2,0,0,0,0,0,0,0,0,0,0,0,0,0,0,0,0,0,0,0,0,0,0,0,0,0,0,0,0,0,0,0,0,0,0,0,0,0,0,0,0,0,0,0,0,0,0,0,0,0,0,0,0,0,0],"split_type":[0,0,0,0,0,0,0,0,0,0,0,0,0,0,0,0,0,0,0,0,0,0,0,0,0,0,0,0,0,0,0,0,0,0,0,0,0,0,0,0,0,0,0,0,0,0,0,0,0,0,0,0,0,0,0,0,0,0,0,0,0,0,0,0,0,0,0,0,0,0,0,0,0,0,0,0,0,0,0,0,0,0,0,0,0,0,0,0,0,0,0,0,0,0,0,0,0,0,0,0,0,0,0,0,0,0,0,0,0,0,0,0,0,0,0,0,0],"sum_hessian":[4.1732516E5,3.715969E5,4.5728254E4,3.239932E5,4.7603723E4,1.7229484E4,2.849877E4,1.7672312E5,1.4727005E5,2.4922947E4,2.2680775E4,5.764957E3,1.1464526E4,1.2580382E4,1.5918389E4,1.0043024E5,7.629288E4,4.9737875E4,9.753217E4,1.2128284E4,1.2794663E4,1.1925274E4,1.0755502E4,7.961853E2,4.968772E3,9.356948E2,1.0528831E4,8.671843E3,3.9085383E3,6.793122E1,1.5850458E4,5.2996184E4,4.7434062E4,1.8654515E3,7.442743E4,1.2587253E3,4.847915E4,5.1046445E4,4.648573E4,2.7245624E2,1.1855828E4,8.329954E3,4.464709E3,6.437517E3,5.4877573E3,6.4796816E3,4.27582E3,6.089643E2,1.8722098E2,1.5954935E3,3.3732786E3,8.1514484E2,1.20549965E2,5.36796E3,5.1608716E3,4.2447573E3,4.427086E3,1.5280187E3,2.3805198E3,6.0682987E1,7.2482347E0,6.2052646E3,9.645193E3,2.609537E4,2.6900816E4,3.2779906E4,1.4654155E4,1.7927007E3,7.275091E1,4.8499562E4,2.5927871E4,1.2479243E3,1.0801066E1,2.4698324E4,2.3780826E4,3.130858E4,1.9737865E4,2.0218363E4,2.626737E4,4.5206304E3,7.3351978E3,4.739109E3,3.590845E3,2.3764604E3,2.0882488E3,3.2153933E3,3.2221238E3,1.4284954E3,4.059262E3,2.809758E3,3.6699236E3,1.9476434E3,2.3281765E3,3.8115274E2,2.278116E2,6.967386E2,8.987549E2,1.8953456E3,1.477933E3,8.306098E0,8.0683875E2,3.728667E3,1.6392927E3,2.5429326E3,2.617939E3,1.7094058E3,2.5353513E3,3.0778855E3,1.3492004E3,1.5430309E2,1.3737156E3,8.135047E2,1.567015E3,4.25962E3,1.9456444E3,4.7788955E3,4.866298E3],"tree_param":{"num_deleted":"0","num_feature":"7","num_nodes":"117","size_leaf_vector":"1"}},{"base_weights":[2.2988487E-4,-6.0179617E-2,5.023482E-1,1.8969193E-2,-6.129249E-1,-4.0183995E-2,8.446863E-1,6.894856E-2,-4.5969093E-1,-8.7993664E-1,-3.3099934E-1,-4.0009674E-1,1.3863595E-1,6.1234283E-1,1.0349051E0,4.1479813E-3,3.604782E-1,-5.9741485E-1,4.3335712E-1,-7.2817624E-1,-1.0269252E0,-5.1442534E-1,-1.3171916E-1,-8.35388E-1,-3.3411664E-1,5.511138E-1,9.4490275E-2,5.2447945E-1,8.1166154E-1,-8.746065E-1,1.0431021E0,-3.6976334E-2,4.8185357E-1,7.317131E-1,2.0603105E-1,-4.8496473E-1,-9.6046644E-1,2.7806866E-1,5.781652E-1,1.1335602E-1,-7.6976687E-1,-1.1018813E0,-8.8931555E-1,-3.6202174E-1,-6.96864E-1,-1.655472E-2,-3.4775445E-1,-5.7207173E-1,-9.908749E-1,-5.772208E-1,-2.213958E-1,4.624127E-1,1.18025295E-1,-5.4422067E-3,1.9955519E-1,4.206249E-1,7.012621E-1,9.883583E-1,7.4245244E-1,-1.1185848E-1,1.0434426E-1,9.2757046E-1,1.1185004E0,3.3808344E-3,-2.1565855E-2,-1.0726675E-1,5.2841466E-2,9.3444236E-2,6.0106367E-2,3.178684E-2,-1.5183086E-2,-2.600425E-2,-5.508862E-2,-8.696905E-2,-1.1060929E-1,6.4840466E-2,2.4497E-2,4.249633E-2,6.861521E-2,-8.892382E-2,-5.6013025E-2,-1.04572035E-1,-1.15651324E-1,-7.855592E-2,-1.0090071E-1,-1.836962E-2,-5.1293965E-2,-5.9926E-2,-8.503028E-2,5.0036325E-3,-2.8545005E-2,-3.720931E-2,2.1479594E-2,-7.078818E-2,-2.0555897E-2,-8.641539E-2,-1.2060615E-1,-4.1365907E-2,-7.057283E-2,-3.6638584E-2,-3.5968546E-3,-3.2018047E-2,5.068011E-2,-1.3692394E-2,6.17602E-3,3.38432E-2,7.1547413E-3,3.685667E-2,6.9699675E-2,6.260455E-2,8.724984E-2,8.42526E-2,1.03274204E-1,5.511936E-2,8.129648E-2,8.5426755E-2,1.0903498E-1,1.04349725E-1,1.1499902E-1],"categories":[],"categories_nodes":[],"categories_segments":[],"categories_sizes":[],"default_left":[0,0,0,0,0,0,0,0,0,0,0,0,0,0,0,0,0,0,0,0,0,0,0,0,0,0,0,0,0,0,0,0,0,0,0,0,0,0,0,0,0,0,0,0,0,0,0,0,0,0,0,0,0,0,0,0,0,0,0,0,0,0,0,0,0,0,0,0,0,0,0,0,0,0,0,0,0,0,0,0,0,0,0,0,0,0,0,0,0,0,0,0,0,0,0,0,0,0,0,0,0,0,0,0,0,0,0,0,0,0,0,0,0,0,0,0,0,0,0],"id":11,"left_children":[1,3,5,7,9,11,13,15,17,19,21,23,25,27,29,31,33,35,37,39,41,43,45,47,49,51,53,55,57,59,61,63,65,67,69,71,73,75,77,-1,79,81,83,85,87,89,91,93,95,97,99,101,-1,103,105,107,109,111,113,-1,-1,115,117,-1,-1,-1,-1,-1,-1,-1,-1,-1,-1,-1,-1,-1,-1,-1,-1,-1,-1,-1,-1,-1,-1,-1,-1,-1,-1,-1,-1,-1,-1,-1,-1,-1,-1,-1,-1,-1,-1,-1,-1,-1,-1,-1,-1,-1,-1,-1,-1,-1,-1,-1,-1,-1,-1,-1,-1],"loss_changes":[1.2469708E4,1.605376E4,8.199526E3,7.6790737E3,3.4596758E3,1.099363E3,1.1956562E3,5.4905957E3,3.732815E3,5.258164E2,8.172129E2,1.6256097E2,2.0774864E2,2.1300586E2,2.3384668E2,4.671438E3,3.0303398E3,1.0729541E3,9.103259E1,9.0042773E2,1.2267969E2,3.2344824E2,2.666427E2,2.9960754E1,1.3483655E2,6.1011932E1,1.08248055E2,1.5505225E2,4.4841797E1,3.11889E1,1.2804492E2,2.769165E3,1.3647886E3,4.107334E2,1.4939718E3,2.9754443E2,8.122217E1,2.3851395E1,3.441028E1,0E0,2.8412598E2,2.2589844E1,5.177246E1,1.7067334E2,7.8832275E1,1.2521159E2,5.1104126E1,1.3751495E1,1.1704102E1,3.248944E1,9.049742E1,3.3803284E1,0E0,4.670567E1,8.932243E1,7.646503E1,3.9764526E1,5.899475E0,3.572107E1,0E0,0E0,6.896387E1,1.996582E1,0E0,0E0,0E0,0E0,0E0,0E0,0E0,0E0,0E0,0E0,0E0,0E0,0E0,0E0,0E0,0E0,0E0,0E0,0E0,0E0,0E0,0E0,0E0,0E0,0E0,0E0,0E0,0E0,0E0,0E0,0E0,0E0,0E0,0E0,0E0,0E0,0E0,0E0,0E0,0E0,0E0,0E0,0E0,0E0,0E0,0E0,0E0,0E0,0E0,0E0,0E0,0E0,0E0,0E0,0E0,0E0],"parents":[2147483647,0,0,1,1,2,2,3,3,4,4,5,5,6,6,7,7,8,8,9,9,10,10,11,11,12,12,13,13,14,14,15,15,16,16,17,17,18,18,19,19,20,20,21,21,22,22,23,23,24,24,25,25,26,26,27,27,28,28,29,29,30,30,31,31,32,32,33,33,34,34,35,35,36,36,37,37,38,38,40,40,41,41,42,42,43,43,44,44,45,45,46,46,47,47,48,48,49,49,50,50,51,51,53,53,54,54,55,55,56,56,57,57,58,58,61,61,62,62],"right_children":[2,4,6,8,10,12,14,16,18,20,22,24,26,28,30,32,34,36,38,40,42,44,46,48,50,52,54,56,58,60,62,64,66,68,70,72,74,76,78,-1,80,82,84,86,88,90,92,94,96,98,100,102,-1,104,106,108,110,112,114,-1,-1,116,118,-1,-1,-1,-1,-1,-1,-1,-1,-1,-1,-1,-1,-1,-1,-1,-1,-1,-1,-1,-1,-1,-1,-1,-1,-1,-1,-1,-1,-1,-1,-1,-1,-1,-1,-1,-1,-1,-1,-1,-1,-1,-1,-1,-1,-1,-1,-1,-1,-1,-1,-1,-1,-1,-1,-1,-1],"split_conditions":[1.3E1,1.2E1,2E0,3.37E4,-4E0,0E0,5E0,3.13E4,7E0,1.4E1,-2E0,1.755E4,1.82E4,1.5E1,1E0,1.1E1,-4E0,7E0,1.1E1,2E0,-6E0,1.4E1,1.105E4,1.5E1,-1E0,1.5E1,1E0,1.455E4,1.2E1,1.4E1,7E0,2E0,3E0,-6E0,7E0,2E0,9E0,-4E0,1.425E4,1.1335602E-1,6.25E3,1.5E1,1.5E1,2.3E3,9.6E3,3.11E4,3.45E4,1.55E4,1.4E1,2.72E4,1.5E1,4.7E3,1.18025295E-1,2.5E4,3.065E4,3.185E4,4E0,1.91E4,1.98E4,-1.1185848E-1,1.0434426E-1,1.5E1,1.4E1,3.3808344E-3,-2.1565855E-2,-1.0726675E-1,5.2841466E-2,9.3444236E-2,6.0106367E-2,3.178684E-2,-1.5183086E-2,-2.600425E-2,-5.508862E-2,-8.696905E-2,-1.1060929E-1,6.4840466E-2,2.4497E-2,4.249633E-2,6.861521E-2,-8.892382E-2,-5.6013025E-2,-1.04572035E-1,-1.15651324E-1,-7.855592E-2,-1.0090071E-1,-1.836962E-2,-5.1293965E-2,-5.9926E-2,-8.503028E-2,5.0036325E-3,-2.8545005E-2,-3.720931E-2,2.1479594E-2,-7.078818E-2,-2.0555897E-2,-8.641539E-2,-1.2060615E-1,-4.1365907E-2,-7.057283E-2,-3.6638584E-2,-3.5968546E-3,-3.2018047E-2,5.068011E-2,-1.3692394E-2,6.17602E-3,3.38432E-2,7.1547413E-3,3.685667E-2,6.9699675E-2,6.260455E-2,8.724984E-2,8.42526E-2,1.03274204E-1,5.511936E-2,8.129648E-2,8.5426755E-2,1.0903498E-1,1.04349725E-1,1.1499902E-1],"split_indices":[0,1,2,5,2,2,2,6,1,1,2,5,6,0,1,0,2,2,0,0,2,1,4,1,2,0,2,3,1,0,2,2,1,2,0,2,2,2,3,0,3,1,1,4,4,6,5,5,0,6,0,3,0,5,6,5,2,5,5,0,0,0,0,0,0,0,0,0,0,0,0,0,0,0,0,0,0,0,0,0,0,0,0,0,0,0,0,0,0,0,0,0,0,0,0,0,0,0,0,0,0,0,0,0,0,0,0,0,0,0,0,0,0,0,0,0,0,0,0],"split_type":[0,0,0,0,0,0,0,0,0,0,0,0,0,0,0,0,0,0,0,0,0,0,0,0,0,0,0,0,0,0,0,0,0,0,0,0,0,0,0,0,0,0,0,0,0,0,0,0,0,0,0,0,0,0,0,0,0,0,0,0,0,0,0,0,0,0,0,0,0,0,0,0,0,0,0,0,0,0,0,0,0,0,0,0,0,0,0,0,0,0,0,0,0,0,0,0,0,0,0,0,0,0,0,0,0,0,0,0,0,0,0,0,0,0,0,0,0,0,0],"sum_hessian":[4.110956E5,3.669491E5,4.4146504E4,3.209872E5,4.5961895E4,1.7079717E4,2.706679E4,2.9064075E5,3.0346443E4,2.3604217E4,2.235768E4,5.6688086E3,1.1410907E4,1.2186165E4,1.4880625E4,2.3778698E5,5.2853766E4,2.6292068E4,4.0543755E3,1.1616524E4,1.1987691E4,1.1641117E4,1.0716562E4,7.44625E2,4.9241836E3,1.1020791E3,1.0308828E4,8.460327E3,3.7258376E3,6.3154144E1,1.4817471E4,2.1893998E5,1.8846998E4,1.5527515E4,3.732625E4,2.0076111E4,6.2159575E3,1.9578008E3,2.0965747E3,2.5326538E2,1.1363259E4,7.755987E3,4.231705E3,6.3442847E3,5.296833E3,6.990912E3,3.7256497E3,2.7819037E2,4.6643463E2,1.5586134E3,3.3655703E3,9.674195E2,1.3465965E2,5.2839487E3,5.0248794E3,5.3315693E3,3.128758E3,1.0448826E3,2.680955E3,5.6397167E1,6.756978E0,5.8566704E3,8.9608E3,1.5681772E5,6.2122277E4,5.474489E2,1.8299549E4,6.082745E3,9.444769E3,2.84388E4,8.88745E3,4.551491E3,1.5524619E4,3.8333926E3,2.3825647E3,1.5909705E2,1.7987037E3,8.6885645E2,1.2277183E3,7.236155E3,4.1271045E3,3.8344016E3,3.921585E3,2.2707952E3,1.96091E3,2.9090955E3,3.4351895E3,3.2404514E3,2.0563813E3,5.603931E3,1.3869812E3,3.5714692E3,1.5418033E2,2.0229811E2,7.589226E1,2.9671707E2,1.6971758E2,6.876304E2,8.709831E2,1.8881804E3,1.4773898E3,5.159293E1,9.1582654E2,1.7868782E3,3.4970708E3,2.4093306E3,2.6155488E3,4.488446E3,8.4312366E2,2.1771055E3,9.5165234E2,2.4846857E2,7.9641394E2,7.245345E2,1.9564207E3,4.0424963E3,1.814174E3,2.6597957E3,6.3010044E3],"tree_param":{"num_deleted":"0","num_feature":"7","num_nodes":"119","size_leaf_vector":"1"}},{"base_weights":[2.2232589E-4,-5.486048E-2,4.6954104E-1,1.7209789E-2,-5.7254726E-1,-3.6599874E-2,8.029276E-1,-1.1287371E-1,1.7394885E-1,-8.389372E-1,-3.024866E-1,-3.6671555E-1,1.2547779E-1,5.6968886E-1,1.0011448E0,7.0158444E-2,-3.600394E-1,4.4061792E-1,4.123783E-2,-6.855989E-1,-9.9095184E-1,-1.8252103E-1,-5.744149E-1,-1.2109524E-1,-4.7727066E-1,2.6890022E-1,1.4520869E-2,4.8421746E-1,7.682207E-1,-8.5055876E-1,1.0090499E0,-4.6319477E-2,2.0095366E-1,3.6431292E-1,-4.0798804E-1,-2.3727803E-1,4.9587438E-1,-1.6660908E-1,2.72233E-1,1.10399954E-1,-7.242986E-1,-1.1004344E0,-8.847369E-1,-3.0166435E-1,5.5327164E-3,-4.619292E-1,-7.906727E-1,5.033031E-2,-5.087394E-1,-7.8860426E-1,-1.9172063E-1,1.7658797E-1,1.1765108E-1,-4.5894432E-1,2.6620464E-2,3.7924126E-1,6.502454E-1,6.299152E-1,8.5926294E-1,-1.0899208E-1,1.01667285E-1,8.8757616E-1,1.0897003E0,8.361179E-3,-9.31934E-3,2.3363633E-2,2.1978433E-3,2.2733656E-3,8.769171E-2,-2.821121E-2,-6.484284E-2,-7.5254284E-2,1.5820779E-3,7.989151E-2,3.8432606E-2,-1.098764E-3,-4.1531127E-2,4.3978408E-2,-1.0987952E-3,-9.34098E-2,-5.9914965E-2,-1.05213486E-1,-1.1458341E-1,-7.8465775E-2,-1.00073926E-1,-4.4258967E-2,-1.9993734E-2,-8.715527E-3,1.6007349E-2,-2.1348704E-2,-5.4648887E-2,-9.963354E-2,-7.266682E-2,2.4896938E-2,-2.833522E-2,-6.037469E-2,-1.4219634E-2,-5.2829593E-2,-1.3397636E-1,-6.972685E-2,-1.29087E-4,-3.1110972E-2,2.5450185E-2,-5.7539113E-2,1.2124504E-1,-1.6144122E-3,1.2703399E-2,6.917157E-2,3.270814E-2,4.9263474E-2,7.378187E-2,5.048147E-2,7.9395086E-2,7.875644E-2,9.772136E-2,8.123057E-2,1.0579711E-1,1.00974895E-1,1.1235817E-1],"categories":[],"categories_nodes":[],"categories_segments":[],"categories_sizes":[],"default_left":[0,0,0,0,0,0,0,0,0,0,0,0,0,0,0,0,0,0,0,0,0,0,0,0,0,0,0,0,0,0,0,0,0,0,0,0,0,0,0,0,0,0,0,0,0,0,0,0,0,0,0,0,0,0,0,0,0,0,0,0,0,0,0,0,0,0,0,0,0,0,0,0,0,0,0,0,0,0,0,0,0,0,0,0,0,0,0,0,0,0,0,0,0,0,0,0,0,0,0,0,0,0,0,0,0,0,0,0,0,0,0,0,0,0,0,0,0,0,0],"id":12,"left_children":[1,3,5,7,9,11,13,15,17,19,21,23,25,27,29,31,33,35,37,39,41,43,45,47,49,51,53,55,57,59,61,63,65,67,69,71,73,75,77,-1,79,81,83,85,87,89,91,93,95,97,99,101,-1,103,105,107,109,111,113,-1,-1,115,117,-1,-1,-1,-1,-1,-1,-1,-1,-1,-1,-1,-1,-1,-1,-1,-1,-1,-1,-1,-1,-1,-1,-1,-1,-1,-1,-1,-1,-1,-1,-1,-1,-1,-1,-1,-1,-1,-1,-1,-1,-1,-1,-1,-1,-1,-1,-1,-1,-1,-1,-1,-1,-1,-1,-1,-1],"loss_changes":[1.0495588E4,1.3556588E4,7.196087E3,6.503137E3,3.1941475E3,9.062001E2,1.1880801E3,7.885052E3,5.1192964E3,5.2035547E2,7.192445E2,1.5139008E2,1.8077303E2,2.001001E2,2.0428809E2,1.5256299E3,2.5757197E3,1.8006377E3,4.637395E3,7.7170996E2,1.2953027E2,3.4285495E2,1.6382861E2,1.15153305E2,3.417417E2,4.1493552E2,3.6709793E1,1.437406E2,4.4206787E1,2.7754974E1,1.3461035E2,3.2261765E2,2.759192E2,8.0621295E2,2.104875E3,4.7255603E2,1.5021006E3,1.9677565E3,2.17088E3,0E0,2.8553125E2,1.090332E1,6.54043E1,1.342027E2,8.503914E1,9.321411E1,2.9658936E1,7.975348E1,1.84169E1,2.6320703E2,1.93241E2,1.7102222E2,0E0,3.1775978E1,2.6828403E1,8.230408E1,4.3786743E1,2.8625305E1,1.7330933E1,0E0,0E0,7.003223E1,2.1382812E1,0E0,0E0,0E0,0E0,0E0,0E0,0E0,0E0,0E0,0E0,0E0,0E0,0E0,0E0,0E0,0E0,0E0,0E0,0E0,0E0,0E0,0E0,0E0,0E0,0E0,0E0,0E0,0E0,0E0,0E0,0E0,0E0,0E0,0E0,0E0,0E0,0E0,0E0,0E0,0E0,0E0,0E0,0E0,0E0,0E0,0E0,0E0,0E0,0E0,0E0,0E0,0E0,0E0,0E0,0E0,0E0],"parents":[2147483647,0,0,1,1,2,2,3,3,4,4,5,5,6,6,7,7,8,8,9,9,10,10,11,11,12,12,13,13,14,14,15,15,16,16,17,17,18,18,19,19,20,20,21,21,22,22,23,23,24,24,25,25,26,26,27,27,28,28,29,29,30,30,31,31,32,32,33,33,34,34,35,35,36,36,37,37,38,38,40,40,41,41,42,42,43,43,44,44,45,45,46,46,47,47,48,48,49,49,50,50,51,51,53,53,54,54,55,55,56,56,57,57,58,58,61,61,62,62],"right_children":[2,4,6,8,10,12,14,16,18,20,22,24,26,28,30,32,34,36,38,40,42,44,46,48,50,52,54,56,58,60,62,64,66,68,70,72,74,76,78,-1,80,82,84,86,88,90,92,94,96,98,100,102,-1,104,106,108,110,112,114,-1,-1,116,118,-1,-1,-1,-1,-1,-1,-1,-1,-1,-1,-1,-1,-1,-1,-1,-1,-1,-1,-1,-1,-1,-1,-1,-1,-1,-1,-1,-1,-1,-1,-1,-1,-1,-1,-1,-1,-1,-1,-1,-1,-1,-1,-1,-1,-1,-1,-1,-1,-1,-1,-1,-1,-1,-1,-1,-1],"split_conditions":[1.3E1,1.2E1,2E0,5E0,-4E0,0E0,5E0,2E0,5E0,1.4E1,1.4E1,1.5E1,2.81E4,1.5E1,1E0,1.25E3,1.265E4,1.645E4,9E0,2E0,-7E0,1.295E4,1.5E1,1.17E4,4E4,1.5E1,1.3E4,2.69E4,3E0,1.4E1,7E0,0E0,1E0,1.1E1,5E0,1.41E4,-5E0,9E0,5.5E3,1.10399954E-1,1.64E4,1.5E1,1.5E1,-2E0,-1E0,2.03E4,1.765E4,2.62E4,1.035E4,-1E0,-1E0,1.67E4,1.1765108E-1,1.5E1,1.7E1,1.82E4,3E0,1.22E4,2.81E4,-1.0899208E-1,1.01667285E-1,1.5E1,1.4E1,8.361179E-3,-9.31934E-3,2.3363633E-2,2.1978433E-3,2.2733656E-3,8.769171E-2,-2.821121E-2,-6.484284E-2,-7.5254284E-2,1.5820779E-3,7.989151E-2,3.8432606E-2,-1.098764E-3,-4.1531127E-2,4.3978408E-2,-1.0987952E-3,-9.34098E-2,-5.9914965E-2,-1.05213486E-1,-1.1458341E-1,-7.8465775E-2,-1.00073926E-1,-4.4258967E-2,-1.9993734E-2,-8.715527E-3,1.6007349E-2,-2.1348704E-2,-5.4648887E-2,-9.963354E-2,-7.266682E-2,2.4896938E-2,-2.833522E-2,-6.037469E-2,-1.4219634E-2,-5.2829593E-2,-1.3397636E-1,-6.972685E-2,-1.29087E-4,-3.1110972E-2,2.5450185E-2,-5.7539113E-2,1.2124504E-1,-1.6144122E-3,1.2703399E-2,6.917157E-2,3.270814E-2,4.9263474E-2,7.378187E-2,5.048147E-2,7.9395086E-2,7.875644E-2,9.772136E-2,8.123057E-2,1.0579711E-1,1.00974895E-1,1.1235817E-1],"split_indices":[0,1,2,1,2,2,2,2,0,1,1,1,6,0,1,4,5,6,0,0,2,3,1,4,6,0,5,5,2,0,2,2,2,0,2,5,2,1,4,0,5,1,1,2,2,6,5,6,3,2,2,5,0,0,0,6,2,3,5,0,0,0,0,0,0,0,0,0,0,0,0,0,0,0,0,0,0,0,0,0,0,0,0,0,0,0,0,0,0,0,0,0,0,0,0,0,0,0,0,0,0,0,0,0,0,0,0,0,0,0,0,0,0,0,0,0,0,0,0],"split_type":[0,0,0,0,0,0,0,0,0,0,0,0,0,0,0,0,0,0,0,0,0,0,0,0,0,0,0,0,0,0,0,0,0,0,0,0,0,0,0,0,0,0,0,0,0,0,0,0,0,0,0,0,0,0,0,0,0,0,0,0,0,0,0,0,0,0,0,0,0,0,0,0,0,0,0,0,0,0,0,0,0,0,0,0,0,0,0,0,0,0,0,0,0,0,0,0,0,0,0,0,0,0,0,0,0,0,0,0,0,0,0,0,0,0,0,0,0,0,0],"sum_hessian":[4.0599506E5,3.6335038E5,4.2644676E4,3.189486E5,4.4401773E4,1.6935072E4,2.5709604E4,1.7429503E5,1.4465356E5,2.2351736E4,2.2050037E4,5.576249E3,1.1358824E4,1.1813149E4,1.3896453E4,1.0013981E5,7.415523E4,4.806653E4,9.658703E4,1.1130161E4,1.1221575E4,1.5301296E4,6.748742E3,1.731491E3,3.8447578E3,4.9539487E3,6.4048755E3,8.260359E3,3.55279E3,5.8620144E1,1.3837833E4,5.2969336E4,4.717048E4,4.6035474E3,6.955168E4,3.6224453E3,4.4444086E4,5.084108E4,4.5745957E4,2.3501035E2,1.0895151E4,5.5211777E3,5.7003975E3,9.366471E3,5.9348247E3,4.441597E3,2.3071448E3,1.2011735E3,5.303175E2,1.8384952E3,2.0062627E3,4.4976875E3,4.5626117E2,1.5868028E2,6.2461953E3,5.0626377E3,3.1977214E3,1.413464E3,2.139326E3,5.232841E1,6.291733E0,5.526281E3,8.311553E3,1.404282E4,3.8926516E4,3.9886504E4,7.283975E3,2.763262E3,1.840285E3,4.565331E4,2.3898367E4,1.1925826E3,2.4298625E3,1.195636E4,3.2487727E4,3.1273332E4,1.9567744E4,2.874193E4,1.7004027E4,4.068412E3,6.826739E3,2.6868643E3,2.8343137E3,3.0643984E3,2.6359993E3,3.9252966E3,5.441175E3,3.7100854E3,2.2247395E3,1.1287566E3,3.3128408E3,5.441354E2,1.7630094E3,7.5310736E2,4.4806613E2,4.2064087E2,1.0967666E2,1.2500599E3,5.884353E2,5.482149E2,1.4580477E3,6.1915125E2,3.8785361E3,1.4895805E2,9.722231E0,4.381164E3,1.8650312E3,7.2244183E2,4.3401963E3,1.1445082E3,2.0532131E3,8.042139E2,6.0925006E2,1.3353092E3,8.040167E2,3.8370596E3,1.6892208E3,2.4830269E3,5.828526E3],"tree_param":{"num_deleted":"0","num_feature":"7","num_nodes":"119","size_leaf_vector":"1"}},{"base_weights":[2.1385682E-4,-5.0105788E-2,4.387129E-1,3.0789254E-3,-6.5375143E-1,5.5106655E-2,8.4465194E-1,4.1891433E-2,-3.803292E-1,-9.3815094E-1,-4.2993814E-1,-3.3695325E-1,1.9176722E-1,6.681262E-1,1.0149046E0,3.4730171E-3,3.5955498E-1,-5.224695E-1,3.2042223E-1,-1.0653199E0,-8.4956163E-1,-5.5234593E-1,-1.6200456E-1,-8.0303687E-1,-2.819922E-1,1.0785005E-2,2.9624426E-1,5.8454514E-1,8.722948E-1,-8.281702E-1,1.024868E0,-2.7971225E-2,3.5037437E-1,4.8115855E-1,-2.1604408E-1,-4.1813794E-1,-8.8000757E-1,1.652222E-1,4.552697E-1,-1.0710984E0,6.69035E-1,-7.7211326E-1,-1.0362436E0,-4.621887E-1,-7.86925E-1,-7.56254E-2,-4.592326E-1,-7.026358E-1,-1.1607408E-1,-3.8927108E-2,-3.896254E-1,-7.5806245E-2,1.2625816E-1,6.562782E-1,2.4498975E-1,4.2487943E-1,6.953212E-1,9.565475E-1,7.3660797E-1,-1.0634398E-1,9.9162176E-2,9.359346E-1,1.095108E0,6.2679374E-3,-1.557287E-2,7.591473E-2,2.0372748E-2,8.6266555E-2,3.937046E-2,-4.171716E-2,-8.072015E-3,-2.8205737E-2,-4.915968E-2,-7.843391E-2,-1.03634395E-1,7.8953974E-2,1.5367267E-2,3.3477273E-2,5.6501906E-2,-1.0336169E-1,-1.1326859E-1,1.0807818E-1,-8.960541E-2,-6.391194E-2,-8.597142E-2,-1.0537119E-1,-9.202712E-2,-5.806165E-2,-3.0377408E-2,-5.5347163E-2,-8.2741104E-2,-4.6186518E-2,-1.3815983E-3,-3.664823E-2,-6.0599424E-2,-8.133033E-2,-4.7710124E-2,1.6916113E-2,-3.2737732E-2,-7.028949E-2,-1.5219807E-2,-2.4420556E-2,-2.9407847E-3,1.8554023E-2,-7.6071853E-3,5.5693585E-2,9.361623E-2,-4.7347615E-3,2.8123429E-2,2.5371293E-2,5.4629445E-2,8.6361E-2,6.2248427E-2,8.6724274E-2,9.97631E-2,6.596221E-2,9.2261754E-2,8.063952E-2,1.00661114E-1,1.0323948E-1,1.1196959E-1],"categories":[],"categories_nodes":[],"categories_segments":[],"categories_sizes":[],"default_left":[0,0,0,0,0,0,0,0,0,0,0,0,0,0,0,0,0,0,0,0,0,0,0,0,0,0,0,0,0,0,0,0,0,0,0,0,0,0,0,0,0,0,0,0,0,0,0,0,0,0,0,0,0,0,0,0,0,0,0,0,0,0,0,0,0,0,0,0,0,0,0,0,0,0,0,0,0,0,0,0,0,0,0,0,0,0,0,0,0,0,0,0,0,0,0,0,0,0,0,0,0,0,0,0,0,0,0,0,0,0,0,0,0,0,0,0,0,0,0,0,0],"id":13,"left_children":[1,3,5,7,9,11,13,15,17,19,21,23,25,27,29,31,33,35,37,39,41,43,45,47,49,51,53,55,57,59,61,63,65,67,69,71,73,75,77,79,81,83,85,87,89,91,93,95,-1,97,99,101,103,105,107,109,111,113,115,-1,-1,117,119,-1,-1,-1,-1,-1,-1,-1,-1,-1,-1,-1,-1,-1,-1,-1,-1,-1,-1,-1,-1,-1,-1,-1,-1,-1,-1,-1,-1,-1,-1,-1,-1,-1,-1,-1,-1,-1,-1,-1,-1,-1,-1,-1,-1,-1,-1,-1,-1,-1,-1,-1,-1,-1,-1,-1,-1,-1,-1],"loss_changes":[8.833359E3,1.1529476E4,6.417308E3,4.9113975E3,1.8505225E3,1.1353652E3,6.010762E2,3.6576367E3,3.0221074E3,1.4335547E2,5.3366675E2,1.4008075E2,2.971059E2,1.6728711E2,1.8797559E2,2.9164968E3,2.2634438E3,9.4052637E2,1.070119E2,5.3371094E1,1.0839404E2,2.3588159E2,1.3103134E2,1.9914276E1,1.2820474E2,5.7522995E1,1.8367279E2,1.2315918E2,3.1923828E1,2.474982E1,6.229297E1,2.8391636E3,1.3318992E3,8.9035986E2,1.53488E2,1.9506543E2,8.439111E1,1.7043236E1,3.601117E1,1.091748E1,1.26081E1,6.168457E1,3.510254E0,1.5125317E2,2.8840698E1,9.44514E1,1.5422607E1,1.092453E1,0E0,9.040747E1,2.5253772E2,2.5680876E1,2.95839E1,3.3980164E1,9.243042E1,5.9332275E1,4.9955322E1,5.5827637E0,1.5110291E1,0E0,0E0,4.0201904E1,7.567871E0,0E0,0E0,0E0,0E0,0E0,0E0,0E0,0E0,0E0,0E0,0E0,0E0,0E0,0E0,0E0,0E0,0E0,0E0,0E0,0E0,0E0,0E0,0E0,0E0,0E0,0E0,0E0,0E0,0E0,0E0,0E0,0E0,0E0,0E0,0E0,0E0,0E0,0E0,0E0,0E0,0E0,0E0,0E0,0E0,0E0,0E0,0E0,0E0,0E0,0E0,0E0,0E0,0E0,0E0,0E0,0E0,0E0,0E0],"parents":[2147483647,0,0,1,1,2,2,3,3,4,4,5,5,6,6,7,7,8,8,9,9,10,10,11,11,12,12,13,13,14,14,15,15,16,16,17,17,18,18,19,19,20,20,21,21,22,22,23,23,24,24,25,25,26,26,27,27,28,28,29,29,30,30,31,31,32,32,33,33,34,34,35,35,36,36,37,37,38,38,39,39,40,40,41,41,42,42,43,43,44,44,45,45,46,46,47,47,49,49,50,50,51,51,52,52,53,53,54,54,55,55,56,56,57,57,58,58,61,61,62,62],"right_children":[2,4,6,8,10,12,14,16,18,20,22,24,26,28,30,32,34,36,38,40,42,44,46,48,50,52,54,56,58,60,62,64,66,68,70,72,74,76,78,80,82,84,86,88,90,92,94,96,-1,98,100,102,104,106,108,110,112,114,116,-1,-1,118,120,-1,-1,-1,-1,-1,-1,-1,-1,-1,-1,-1,-1,-1,-1,-1,-1,-1,-1,-1,-1,-1,-1,-1,-1,-1,-1,-1,-1,-1,-1,-1,-1,-1,-1,-1,-1,-1,-1,-1,-1,-1,-1,-1,-1,-1,-1,-1,-1,-1,-1,-1,-1,-1,-1,-1,-1,-1,-1],"split_conditions":[1.3E1,1.3E1,3E0,3.37E4,-5E0,0E0,6E0,3.68E4,7E0,-8E0,-2E0,1.61E4,1E0,1.5E1,1E0,1.1E1,7E0,7E0,0E0,6.11E4,1.5E1,1.5E1,3.37E4,1.4E1,1.5E1,7.45E3,1.82E4,8.15E3,1.2E1,1.4E1,8E0,5E0,1.73E4,-6E0,0E0,3E0,9E0,-6E0,1.61E4,1.5E1,1E0,3.35E3,1.915E4,1.165E4,1.83E4,1.64E4,4.545E4,5.9E3,-1.1607408E-1,2.645E4,4E4,2.195E4,4.7E3,1.5E1,1.535E4,2.055E4,1.9E4,2.07E4,3.135E4,-1.0634398E-1,9.9162176E-2,1.4E1,1.4E1,6.2679374E-3,-1.557287E-2,7.591473E-2,2.0372748E-2,8.6266555E-2,3.937046E-2,-4.171716E-2,-8.072015E-3,-2.8205737E-2,-4.915968E-2,-7.843391E-2,-1.03634395E-1,7.8953974E-2,1.5367267E-2,3.3477273E-2,5.6501906E-2,-1.0336169E-1,-1.1326859E-1,1.0807818E-1,-8.960541E-2,-6.391194E-2,-8.597142E-2,-1.0537119E-1,-9.202712E-2,-5.806165E-2,-3.0377408E-2,-5.5347163E-2,-8.2741104E-2,-4.6186518E-2,-1.3815983E-3,-3.664823E-2,-6.0599424E-2,-8.133033E-2,-4.7710124E-2,1.6916113E-2,-3.2737732E-2,-7.028949E-2,-1.5219807E-2,-2.4420556E-2,-2.9407847E-3,1.8554023E-2,-7.6071853E-3,5.5693585E-2,9.361623E-2,-4.7347615E-3,2.8123429E-2,2.5371293E-2,5.4629445E-2,8.6361E-2,6.2248427E-2,8.6724274E-2,9.97631E-2,6.596221E-2,9.2261754E-2,8.063952E-2,1.00661114E-1,1.0323948E-1,1.1196959E-1],"split_indices":[0,1,2,5,2,2,2,6,1,2,2,5,2,0,1,0,0,2,2,6,1,1,6,0,1,3,6,3,1,0,2,0,6,2,2,2,2,2,3,1,0,4,3,3,6,5,6,3,0,6,6,5,4,0,5,5,6,5,5,0,0,0,0,0,0,0,0,0,0,0,0,0,0,0,0,0,0,0,0,0,0,0,0,0,0,0,0,0,0,0,0,0,0,0,0,0,0,0,0,0,0,0,0,0,0,0,0,0,0,0,0,0,0,0,0,0,0,0,0,0,0],"split_type":[0,0,0,0,0,0,0,0,0,0,0,0,0,0,0,0,0,0,0,0,0,0,0,0,0,0,0,0,0,0,0,0,0,0,0,0,0,0,0,0,0,0,0,0,0,0,0,0,0,0,0,0,0,0,0,0,0,0,0,0,0,0,0,0,0,0,0,0,0,0,0,0,0,0,0,0,0,0,0,0,0,0,0,0,0,0,0,0,0,0,0,0,0,0,0,0,0,0,0,0,0,0,0,0,0,0,0,0,0,0,0,0,0,0,0,0,0,0,0,0,0],"sum_hessian":[4.0032947E5,3.591198E5,4.1209652E4,3.3004216E5,2.9077648E4,2.118823E4,2.0021422E4,2.9970394E5,3.033822E4,1.2804187E4,1.6273463E4,5.476231E3,1.5712E4,9.832041E3,1.018938E4,2.6736916E5,3.2334771E4,2.5222371E4,5.115848E3,5.2528105E3,7.551376E3,1.1169512E4,5.103951E3,5.7621045E2,4.9000205E3,5.7509375E3,9.961062E3,6.978922E3,2.8531194E3,5.434452E1,1.0135036E4,2.45149E5,2.2220166E4,2.6695193E4,5.639578E3,1.9526578E4,5.6957935E3,2.3794697E3,2.7363787E3,5.2357485E3,1.7062222E1,5.3407896E3,2.2105864E3,8.0706416E3,3.0988699E3,3.9556355E3,1.1483158E3,4.522393E2,1.2397116E2,1.5042888E3,3.3957314E3,3.2866677E3,2.4642698E3,1.2398701E3,8.721191E3,2.8606274E3,4.1182944E3,1.7564368E3,1.0966825E3,4.8491043E1,5.8534784E0,4.478703E3,5.6563325E3,1.4339984E5,1.0174916E5,5.8656636E3,1.6354502E4,4.976589E3,2.1718604E4,2.2674536E3,3.3721245E3,6.847186E3,1.2679393E4,3.5372344E3,2.158559E3,4.199585E1,2.3374739E3,1.3062545E3,1.4301243E3,3.2659219E3,1.9698267E3,1.3753395E1,3.3088262E0,2.1241885E3,3.2166008E3,1.9141776E3,2.964089E2,4.616653E3,3.4539888E3,4.6015604E2,2.6387139E3,5.4479614E2,3.4108394E3,7.0577655E2,4.4253918E2,3.0162762E2,1.5061168E2,8.7411505E2,6.301738E2,1.4631898E3,1.9325416E3,7.0903143E2,2.5776365E3,1.9059232E3,5.583467E2,9.1727985E2,3.2259027E2,9.619655E2,7.759226E3,1.1883809E3,1.6722466E3,1.2407354E3,2.8775588E3,5.603946E2,1.1960421E3,7.788693E2,3.1781323E2,1.5853687E3,2.8933342E3,1.6051874E3,4.0511453E3],"tree_param":{"num_deleted":"0","num_feature":"7","num_nodes":"121","size_leaf_vector":"1"}},{"base_weights":[2.0991564E-4,-4.55853E-2,4.091904E-1,1.5286594E-2,-5.048064E-1,5.0030954E-2,8.078445E-1,-9.973415E-2,1.5434507E-1,-7.693283E-1,-2.556558E-1,-3.0881786E-1,1.7402588E-1,6.2780344E-1,9.873613E-1,7.998765E-2,-2.9757872E-1,3.8617265E-1,4.157565E-2,-6.205107E-1,-9.259134E-1,-1.5324317E-1,-4.977919E-1,-7.582564E-1,-2.574837E-1,9.717137E-3,2.6978713E-1,5.449676E-1,8.3538747E-1,-8.0708015E-1,9.970402E-1,2.3021127E-1,-1.1227302E-2,-1.658886E-1,-5.501766E-1,-2.2166228E-1,4.3676066E-1,-2.9811457E-2,5.8846676E-1,1.0591959E0,-6.546709E-1,-1.0498564E0,-8.1064224E-1,-4.696885E-2,-3.3360723E-1,