{
  "model_type": "XGBoost",
  "n_estimators": 100,
  "max_depth": 6,
  "learning_rate": 0.1,
  "objective": "reg:squarederror",
  "state_features": [
    "own_funds",
    "own_score",
    "opponent_score",
    "own_survivors",
    "opponent_survivors",
    "consecutive_losses",
    "is_ct_side",
    "round_number",
    "half_length",
    "last_round_reason",
    "last_bomb_planted",
    "own_starting_equipment",
    "score_diff"
  ],
  "normalization": {
    "own_funds": 999999.0,
    "own_score": 16.0,
    "opponent_score": 16.0,
    "own_survivors": 5.0,
    "opponent_survivors": 5.0,
    "consecutive_losses": 5.0,
    "round_number": 30.0,
    "half_length": 15.0,
    "last_round_reason": 4.0,
    "own_starting_equipment": 999999.0,
    "score_diff": 30.0,
    "opponent_funds": 999999.0,
    "opponent_starting_equipment": 999999.0
  },
  "win_rate": 0.0,
  "total_matches": 0,
  "booster": {
    "learner": {
      "attributes": {},
      "feature_names": [],
      "feature_types": [],
      "gradient_booster": {
        "model": {
          "cats": {
            "enc": [],
            "feature_segments": [],
            "sorted_idx": []
          },
          "gbtree_model_param": {
            "num_parallel_tree": "1",
            "num_trees": "100"
          },
          "iteration_indptr": [
            0,
            1,
            2,
            3,
            4,
            5,
            6,
            7,
            8,
            9,
            10,
            11,
            12,
            13,
            14,
            15,
            16,
            17,
            18,
            19,
            20,
            21,
            22,
            23,
            24,
            25,
            26,
            27,
            28,
            29,
            30,
            31,
            32,
            33,
            34,
            35,
            36,
            37,
            38,
            39,
            40,
            41,
            42,
            43,
            44,
            45,
            46,
            47,
            48,
            49,
            50,
            51,
            52,
            53,
            54,
            55,
            56,
            57,
            58,
            59,
            60,
            61,
            62,
            63,
            64,
            65,
            66,
            67,
            68,
            69,
            70,
            71,
            72,
            73,
            74,
            75,
            76,
            77,
            78,
            79,
            80,
            81,
            82,
            83,
            84,
            85,
            86,
            87,
            88,
            89,
            90,
            91,
            92,
            93,
            94,
            95,
            96,
            97,
            98,
            99,
            100
          ],
          "tree_info": [
            0,
            0,
            0,
            0,
            0,
            0,
            0,
            0,
            0,
            0,
            0,
            0,
            0,
            0,
            0,
            0,
            0,
            0,
            0,
            0,
            0,
            0,
            0,
            0,
            0,
            0,
            0,
            0,
            0,
            0,
            0,
            0,
            0,
            0,
            0,
            0,
            0,
            0,
            0,
            0,
            0,
            0,
            0,
            0,
            0,
            0,
            0,
            0,
            0,
            0,
            0,
            0,
            0,
            0,
            0,
            0,
            0,
            0,
            0,
            0,
            0,
            0,
            0,
            0,
            0,
            0,
            0,
            0,
            0,
            0,
            0,
            0,
            0,
            0,
            0,
            0,
            0,
            0,
            0,
            0,
            0,
            0,
            0,
            0,
            0,
            0,
            0,
            0,
            0,
            0,
            0,
            0,
            0,
            0,
            0,
            0,
            0,
            0,
            0,
            0
          ],
          "trees": [
            {
              "base_weights": [
                2.844404e-08,
                0.12688723,
                -0.17346601,
                0.01883092,
                0.06016201,
                -0.07994689,
                -0.22402605,
                0.036584236,
                0.10433652,
                -0.09002225,
                0.013141704,
                -0.23244908,
                0.013141704,
                0.048637178,
                -0.032484926,
                0.1284959,
                0.080960974,
                -0.121127255,
                -0.024711339,
                -0.26348972,
                -0.110419095,
                0.06292373,
                0.0015826026,
                -0.01580429,
                -0.0071698525,
                0.013426266,
                0.0020997226,
                0.00017489791,
                0.08483412,
                -0.061622646,
                -0.14722456,
                0.0027051838,
                -0.055474717,
                -0.2383229,
                -0.043275137,
                -0.14117356,
                0.013141704,
                0.00894118,
                0.0037097284,
                -0.0033905439,
                0.0036872819,
                0.0003502381,
                -0.0031950106,
                0.0034448698,
                0.009169928,
                -0.0033860037,
                -0.008058202,
                -0.01579213,
                -0.007285333,
                -0.002102223,
                0.0014230743,
                -0.002220116,
                -0.006180986,
                -0.025094459,
                0.013141704,
                0.004130469,
                -0.016374363
              ],
              "categories": [],
              "categories_nodes": [],
              "categories_segments": [],
              "categories_sizes": [],
              "default_left": [
                0,
                0,
                0,
                0,
                0,
                0,
                0,
                0,
                0,
                0,
                0,
                0,
                0,
                0,
                0,
                0,
                0,
                0,
                0,
                0,
                0,
                0,
                0,
                0,
                0,
                0,
                0,
                0,
                0,
                0,
                0,
                0,
                0,
                0,
                0,
                0,
                0,
                0,
                0,
                0,
                0,
                0,
                0,
                0,
                0,
                0,
                0,
                0,
                0,
                0,
                0,
                0,
                0,
                0,
                0,
                0,
                0
              ],
              "id": 0,
              "left_children": [
                1,
                3,
                5,
                -1,
                7,
                9,
                11,
                13,
                15,
                17,
                -1,
                19,
                -1,
                21,
                23,
                25,
                27,
                29,
                31,
                33,
                35,
                37,
                39,
                41,
                -1,
                -1,
                -1,
                -1,
                43,
                45,
                47,
                49,
                51,
                53,
                -1,
                55,
                -1,
                -1,
                -1,
                -1,
                -1,
                -1,
                -1,
                -1,
                -1,
                -1,
                -1,
                -1,
                -1,
                -1,
                -1,
                -1,
                -1,
                -1,
                -1,
                -1,
                -1
              ],
              "loss_changes": [
                8.231972,
                0.873924,
                0.7291665,
                0.0,
                0.1055443,
                0.13321581,
                0.33592606,
                0.05985403,
                0.009927422,
                0.10873908,
                0.0,
                0.34969473,
                0.0,
                0.040235266,
                0.006062042,
                0.007099569,
                0.0062944293,
                0.048385322,
                0.016175143,
                0.23338842,
                0.1821785,
                0.028151348,
                0.0200359,
                0.0029173985,
                0.0,
                0.0,
                0.0,
                0.0,
                0.0037591606,
                0.0041141957,
                0.008383095,
                0.0033073507,
                0.00052488036,
                0.36431742,
                0.0,
                0.089134306,
                0.0,
                0.0,
                0.0,
                0.0,
                0.0,
                0.0,
                0.0,
                0.0,
                0.0,
                0.0,
                0.0,
                0.0,
                0.0,
                0.0,
                0.0,
                0.0,
                0.0,
                0.0,
                0.0,
                0.0,
                0.0
              ],
              "parents": [
                2147483647,
                0,
                0,
                1,
                1,
                2,
                2,
                4,
                4,
                5,
                5,
                6,
                6,
                7,
                7,
                8,
                8,
                9,
                9,
                11,
                11,
                13,
                13,
                14,
                14,
                15,
                15,
                16,
                16,
                17,
                17,
                18,
                18,
                19,
                19,
                20,
                20,
                21,
                21,
                22,
                22,
                23,
                23,
                28,
                28,
                29,
                29,
                30,
                30,
                31,
                31,
                32,
                32,
                33,
                33,
                35,
                35
              ],
              "right_children": [
                2,
                4,
                6,
                -1,
                8,
                10,
                12,
                14,
                16,
                18,
                -1,
                20,
                -1,
                22,
                24,
                26,
                28,
                30,
                32,
                34,
                36,
                38,
                40,
                42,
                -1,
                -1,
                -1,
                -1,
                44,
                46,
                48,
                50,
                52,
                54,
                -1,
                56,
                -1,
                -1,
                -1,
                -1,
                -1,
                -1,
                -1,
                -1,
                -1,
                -1,
                -1,
                -1,
                -1,
                -1,
                -1,
                -1,
                -1,
                -1,
                -1,
                -1,
                -1
              ],
              "split_conditions": [
                0.022237523,
                0.017750017,
                0.027812527,
                0.01883092,
                0.541,
                1.0,
                1.2,
                0.02126252,
                0.01928752,
                0.4742222,
                0.013141704,
                0.668,
                0.013141704,
                0.56666666,
                0.375,
                0.2,
                0.125,
                0.023250023,
                0.024575025,
                0.04937505,
                0.047362547,
                0.53333336,
                0.15955555,
                0.28262964,
                -0.0071698525,
                0.013426266,
                0.0020997226,
                0.00017489791,
                0.43333334,
                0.5,
                0.41066667,
                0.672,
                0.36666667,
                0.048825048,
                -0.043275137,
                0.4375,
                0.013141704,
                0.00894118,
                0.0037097284,
                -0.0033905439,
                0.0036872819,
                0.0003502381,
                -0.0031950106,
                0.0034448698,
                0.009169928,
                -0.0033860037,
                -0.008058202,
                -0.01579213,
                -0.007285333,
                -0.002102223,
                0.0014230743,
                -0.002220116,
                -0.006180986,
                -0.025094459,
                0.013141704,
                0.004130469,
                -0.016374363
              ],
              "split_indices": [
                0,
                0,
                0,
                0,
                11,
                7,
                7,
                0,
                0,
                11,
                0,
                11,
                0,
                12,
                1,
                4,
                2,
                0,
                0,
                0,
                0,
                7,
                11,
                11,
                0,
                0,
                0,
                0,
                12,
                12,
                11,
                11,
                12,
                0,
                0,
                1,
                0,
                0,
                0,
                0,
                0,
                0,
                0,
                0,
                0,
                0,
                0,
                0,
                0,
                0,
                0,
                0,
                0,
                0,
                0,
                0,
                0
              ],
              "split_type": [
                0,
                0,
                0,
                0,
                0,
                0,
                0,
                0,
                0,
                0,
                0,
                0,
                0,
                0,
                0,
                0,
                0,
                0,
                0,
                0,
                0,
                0,
                0,
                0,
                0,
                0,
                0,
                0,
                0,
                0,
                0,
                0,
                0,
                0,
                0,
                0,
                0,
                0,
                0,
                0,
                0,
                0,
                0,
                0,
                0,
                0,
                0,
                0,
                0,
                0,
                0,
                0,
                0,
                0,
                0,
                0,
                0
              ],
              "sum_hessian": [
                372.0,
                215.0,
                157.0,
                111.0,
                104.0,
                56.0,
                101.0,
                69.0,
                35.0,
                54.0,
                2.0,
                99.0,
                2.0,
                59.0,
                10.0,
                15.0,
                20.0,
                36.0,
                18.0,
                78.0,
                21.0,
                45.0,
                14.0,
                8.0,
                2.0,
                14.0,
                1.0,
                1.0,
                19.0,
                12.0,
                24.0,
                10.0,
                8.0,
                70.0,
                8.0,
                19.0,
                2.0,
                21.0,
                24.0,
                7.0,
                7.0,
                4.0,
                4.0,
                3.0,
                16.0,
                6.0,
                6.0,
                20.0,
                4.0,
                3.0,
                7.0,
                2.0,
                6.0,
                68.0,
                2.0,
                2.0,
                17.0
              ],
              "tree_param": {
                "num_deleted": "0",
                "num_feature": "13",
                "num_nodes": "57",
                "size_leaf_vector": "1"
              }
            },
            {
              "base_weights": [
                -5.7794292e-05,
                0.11443037,
                -0.1565729,
                0.016964642,
                0.05444342,
                -0.102535315,
                -0.22843683,
                0.032967713,
                0.09468942,
                -0.11262289,
                0.014754693,
                -0.2411267,
                0.012265591,
                0.043989256,
                -0.030146865,
                0.116616696,
                0.07347391,
                -0.14346898,
                -0.027918134,
                -0.27390662,
                -0.13245948,
                0.056906376,
                0.0014441371,
                -0.014539957,
                -0.0066918633,
                0.01217315,
                0.001994735,
                0.0850244,
                0.038226563,
                -0.08037473,
                -0.18089351,
                -0.0026120953,
                -0.06561598,
                -0.2850804,
                -0.0075485907,
                -0.017465193,
                0.012265591,
                0.008087705,
                0.0033535939,
                -0.0030938708,
                0.0033646466,
                0.00032221913,
                -0.0029394114,
                0.003186506,
                0.009565881,
                0.004404381,
                0.00016615391,
                -0.005652383,
                -0.009987765,
                -0.019122975,
                0.011111001,
                -0.0015652573,
                0.009649754,
                -0.0023332164,
                -0.008040446,
                -0.025256967,
                -0.039428458,
                -0.012243289,
                0.011111001
              ],
              "categories": [],
              "categories_nodes": [],
              "categories_segments": [],
              "categories_sizes": [],
              "default_left": [
                0,
                0,
                0,
                0,
                0,
                0,
                0,
                0,
                0,
                0,
                0,
                0,
                0,
                0,
                0,
                0,
                0,
                0,
                0,
                0,
                0,
                0,
                0,
                0,
                0,
                0,
                0,
                0,
                0,
                0,
                0,
                0,
                0,
                0,
                0,
                0,
                0,
                0,
                0,
                0,
                0,
                0,
                0,
                0,
                0,
                0,
                0,
                0,
                0,
                0,
                0,
                0,
                0,
                0,
                0,
                0,
                0,
                0,
                0
              ],
              "id": 1,
              "left_children": [
                1,
                3,
                5,
                -1,
                7,
                9,
                11,
                13,
                15,
                17,
                -1,
                19,
                -1,
                21,
                23,
                25,
                27,
                29,
                31,
                33,
                35,
                37,
                39,
                41,
                -1,
                -1,
                -1,
                43,
                45,
                47,
                49,
                51,
                53,
                55,
                57,
                -1,
                -1,
                -1,
                -1,
                -1,
                -1,
                -1,
                -1,
                -1,
                -1,
                -1,
                -1,
                -1,
                -1,
                -1,
                -1,
                -1,
                -1,
                -1,
                -1,
                -1,
                -1,
                -1,
                -1
              ],
              "loss_changes": [
                6.7017503,
                0.7062082,
                0.590147,
                0.0,
                0.08763099,
                0.24870759,
                0.32808185,
                0.05001954,
                0.00817886,
                0.2285347,
                0.0,
                0.19525528,
                0.0,
                0.032891445,
                0.005339835,
                0.005482897,
                0.0052994266,
                0.13894355,
                0.023678187,
                0.1436832,
                0.20440915,
                0.023057133,
                0.016683022,
                0.0024692887,
                0.0,
                0.0,
                0.0,
                0.0054315925,
                0.0014157752,
                0.0064487457,
                0.14197624,
                0.022189427,
                0.0043771192,
                0.067280054,
                0.054499548,
                0.0,
                0.0,
                0.0,
                0.0,
                0.0,
                0.0,
                0.0,
                0.0,
                0.0,
                0.0,
                0.0,
                0.0,
                0.0,
                0.0,
                0.0,
                0.0,
                0.0,
                0.0,
                0.0,
                0.0,
                0.0,
                0.0,
                0.0,
                0.0
              ],
              "parents": [
                2147483647,
                0,
                0,
                1,
                1,
                2,
                2,
                4,
                4,
                5,
                5,
                6,
                6,
                7,
                7,
                8,
                8,
                9,
                9,
                11,
                11,
                13,
                13,
                14,
                14,
                15,
                15,
                16,
                16,
                17,
                17,
                18,
                18,
                19,
                19,
                20,
                20,
                21,
                21,
                22,
                22,
                23,
                23,
                27,
                27,
                28,
                28,
                29,
                29,
                30,
                30,
                31,
                31,
                32,
                32,
                33,
                33,
                34,
                34
              ],
              "right_children": [
                2,
                4,
                6,
                -1,
                8,
                10,
                12,
                14,
                16,
                18,
                -1,
                20,
                -1,
                22,
                24,
                26,
                28,
                30,
                32,
                34,
                36,
                38,
                40,
                42,
                -1,
                -1,
                -1,
                44,
                46,
                48,
                50,
                52,
                54,
                56,
                58,
                -1,
                -1,
                -1,
                -1,
                -1,
                -1,
                -1,
                -1,
                -1,
                -1,
                -1,
                -1,
                -1,
                -1,
                -1,
                -1,
                -1,
                -1,
                -1,
                -1,
                -1,
                -1,
                -1,
                -1
              ],
              "split_conditions": [
                0.022237523,
                0.017750017,
                0.032800034,
                0.016964642,
                0.541,
                1.0,
                1.2,
                0.02126252,
                0.01928752,
                0.58522224,
                0.014754693,
                0.6407037,
                0.012265591,
                0.56666666,
                0.375,
                0.2,
                0.53333336,
                0.026037525,
                0.53333336,
                0.6,
                0.047362547,
                0.53333336,
                0.15955555,
                0.28262964,
                -0.0066918633,
                0.01217315,
                0.001994735,
                0.43333334,
                0.021050021,
                0.023250023,
                0.032462534,
                0.5625,
                0.026887527,
                0.04937505,
                0.033112533,
                -0.017465193,
                0.012265591,
                0.008087705,
                0.0033535939,
                -0.0030938708,
                0.0033646466,
                0.00032221913,
                -0.0029394114,
                0.003186506,
                0.009565881,
                0.004404381,
                0.00016615391,
                -0.005652383,
                -0.009987765,
                -0.019122975,
                0.011111001,
                -0.0015652573,
                0.009649754,
                -0.0023332164,
                -0.008040446,
                -0.025256967,
                -0.039428458,
                -0.012243289,
                0.011111001
              ],
              "split_indices": [
                0,
                0,
                0,
                0,
                11,
                7,
                7,
                0,
                0,
                11,
                0,
                11,
                0,
                12,
                1,
                4,
                12,
                0,
                7,
                5,
                0,
                7,
                11,
                11,
                0,
                0,
                0,
                12,
                0,
                0,
                0,
                2,
                0,
                0,
                0,
                0,
                0,
                0,
                0,
                0,
                0,
                0,
                0,
                0,
                0,
                0,
                0,
                0,
                0,
                0,
                0,
                0,
                0,
                0,
                0,
                0,
                0,
                0,
                0
              ],
              "split_type": [
                0,
                0,
                0,
                0,
                0,
                0,
                0,
                0,
                0,
                0,
                0,
                0,
                0,
                0,
                0,
                0,
                0,
                0,
                0,
                0,
                0,
                0,
                0,
                0,
                0,
                0,
                0,
                0,
                0,
                0,
                0,
                0,
                0,
                0,
                0,
                0,
                0,
                0,
                0,
                0,
                0,
                0,
                0,
                0,
                0,
                0,
                0,
                0,
                0,
                0,
                0,
                0,
                0,
                0,
                0,
                0,
                0,
                0,
                0
              ],
              "sum_hessian": [
                372.0,
                215.0,
                157.0,
                111.0,
                104.0,
                91.0,
                66.0,
                69.0,
                35.0,
                88.0,
                3.0,
                64.0,
                2.0,
                59.0,
                10.0,
                15.0,
                20.0,
                64.0,
                24.0,
                48.0,
                16.0,
                45.0,
                14.0,
                8.0,
                2.0,
                14.0,
                1.0,
                14.0,
                6.0,
                25.0,
                39.0,
                15.0,
                9.0,
                46.0,
                2.0,
                14.0,
                2.0,
                21.0,
                24.0,
                7.0,
                7.0,
                4.0,
                4.0,
                3.0,
                11.0,
                5.0,
                1.0,
                13.0,
                12.0,
                38.0,
                1.0,
                14.0,
                1.0,
                3.0,
                6.0,
                38.0,
                8.0,
                1.0,
                1.0
              ],
              "tree_param": {
                "num_deleted": "0",
                "num_feature": "13",
                "num_nodes": "59",
                "size_leaf_vector": "1"
              }
            },
            {
              "base_weights": [
                -0.00010315806,
                0.1032228,
                -0.14135824,
                0.15283328,
                0.049321875,
                -0.06485213,
                -0.1827258,
                0.015951736,
                0.1216785,
                0.029705277,
                0.086095214,
                -0.073364176,
                0.011281944,
                -0.18981469,
                0.011447887,
                0.004824104,
                0.012616186,
                0.03922429,
                -0.03133122,
                0.1058405,
                0.06695141,
                -0.09664533,
                -0.01563893,
                -0.21527545,
                -0.08975941,
                0.050487544,
                0.0013177991,
                -0.0506503,
                -0.0018820763,
                0.011036987,
                0.0018949986,
                0.08233253,
                0.041798927,
                -0.0512752,
                -0.117358275,
                0.009909416,
                -0.045619495,
                -0.23286977,
                -0.07058771,
                -0.11590718,
                0.011447887,
                0.00702175,
                0.0030316487,
                0.0027301623,
                -0.0032278232,
                -0.0056660427,
                -0.0010299832,
                0.0018582732,
                -0.0011643962,
                0.008894868,
                0.00047774316,
                0.00015784502,
                0.0046092486,
                -0.0033600915,
                -0.0076368735,
                -0.0128148915,
                -0.0060031344,
                0.0023043088,
                -0.0015551866,
                -0.0053239483,
                0.00038602055,
                -0.021077018,
                -0.035923705,
                -0.014479113,
                0.0150817325,
                0.0035856206,
                -0.013476178
              ],
              "categories": [],
              "categories_nodes": [],
              "categories_segments": [],
              "categories_sizes": [],
              "default_left": [
                0,
                0,
                0,
                0,
                0,
                0,
                0,
                0,
                0,
                0,
                0,
                0,
                0,
                0,
                0,
                0,
                0,
                0,
                0,
                0,
                0,
                0,
                0,
                0,
                0,
                0,
                0,
                0,
                0,
                0,
                0,
                0,
                0,
                0,
                0,
                0,
                0,
                0,
                0,
                0,
                0,
                0,
                0,
                0,
                0,
                0,
                0,
                0,
                0,
                0,
                0,
                0,
                0,
                0,
                0,
                0,
                0,
                0,
                0,
                0,
                0,
                0,
                0,
                0,
                0,
                0,
                0
              ],
              "id": 2,
              "left_children": [
                1,
                3,
                5,
                7,
                9,
                11,
                13,
                -1,
                15,
                17,
                19,
                21,
                -1,
                23,
                -1,
                -1,
                -1,
                25,
                27,
                29,
                31,
                33,
                35,
                37,
                39,
                41,
                43,
                45,
                47,
                -1,
                -1,
                49,
                51,
                53,
                55,
                57,
                59,
                61,
                63,
                65,
                -1,
                -1,
                -1,
                -1,
                -1,
                -1,
                -1,
                -1,
                -1,
                -1,
                -1,
                -1,
                -1,
                -1,
                -1,
                -1,
                -1,
                -1,
                -1,
                -1,
                -1,
                -1,
                -1,
                -1,
                -1,
                -1,
                -1
              ],
              "loss_changes": [
                5.458645,
                0.5700574,
                0.48819947,
                0.0039129257,
                0.0731861,
                0.09448078,
                0.23662853,
                0.0,
                0.0018157065,
                0.04189944,
                0.006521851,
                0.07240361,
                0.0,
                0.23542523,
                0.0,
                0.0,
                0.0,
                0.025977455,
                0.005593976,
                0.0042054355,
                0.0046829283,
                0.030632645,
                0.013473278,
                0.18467093,
                0.13075717,
                0.016576037,
                0.013975548,
                0.0008714758,
                0.001215252,
                0.0,
                0.0,
                0.0057324544,
                0.0016541351,
                0.003643088,
                0.008390486,
                0.003702364,
                0.0032217912,
                0.11977029,
                0.18612711,
                0.062060863,
                0.0,
                0.0,
                0.0,
                0.0,
                0.0,
                0.0,
                0.0,
                0.0,
                0.0,
                0.0,
                0.0,
                0.0,
                0.0,
                0.0,
                0.0,
                0.0,
                0.0,
                0.0,
                0.0,
                0.0,
                0.0,
                0.0,
                0.0,
                0.0,
                0.0,
                0.0,
                0.0
              ],
              "parents": [
                2147483647,
                0,
                0,
                1,
                1,
                2,
                2,
                3,
                3,
                4,
                4,
                5,
                5,
                6,
                6,
                8,
                8,
                9,
                9,
                10,
                10,
                11,
                11,
                13,
                13,
                17,
                17,
                18,
                18,
                19,
                19,
                20,
                20,
                21,
                21,
                22,
                22,
                23,
                23,
                24,
                24,
                25,
                25,
                26,
                26,
                27,
                27,
                28,
                28,
                31,
                31,
                32,
                32,
                33,
                33,
                34,
                34,
                35,
                35,
                36,
                36,
                37,
                37,
                38,
                38,
                39,
                39
              ],
              "right_children": [
                2,
                4,
                6,
                8,
                10,
                12,
                14,
                -1,
                16,
                18,
                20,
                22,
                -1,
                24,
                -1,
                -1,
                -1,
                26,
                28,
                30,
                32,
                34,
                36,
                38,
                40,
                42,
                44,
                46,
                48,
                -1,
                -1,
                50,
                52,
                54,
                56,
                58,
                60,
                62,
                64,
                66,
                -1,
                -1,
                -1,
                -1,
                -1,
                -1,
                -1,
                -1,
                -1,
                -1,
                -1,
                -1,
                -1,
                -1,
                -1,
                -1,
                -1,
                -1,
                -1,
                -1,
                -1,
                -1,
                -1,
                -1,
                -1,
                -1,
                -1
              ],
              "split_conditions": [
                0.022237523,
                0.017750017,
                0.027812527,
                0.015975015,
                0.541,
                1.0,
                1.2,
                0.015951736,
                0.1875,
                0.021287521,
                0.01928752,
                0.64237034,
                0.011281944,
                0.668,
                0.011447887,
                0.004824104,
                0.012616186,
                0.56666666,
                0.021650022,
                0.2,
                0.8,
                0.023250023,
                0.024575025,
                0.6,
                0.047362547,
                0.53333336,
                1.0,
                1.0,
                0.021725021,
                0.011036987,
                0.0018949986,
                0.53333336,
                0.125,
                0.53333336,
                0.41066667,
                0.56666666,
                0.76666665,
                0.04937505,
                0.56666666,
                0.4375,
                0.011447887,
                0.00702175,
                0.0030316487,
                0.0027301623,
                -0.0032278232,
                -0.0056660427,
                -0.0010299832,
                0.0018582732,
                -0.0011643962,
                0.008894868,
                0.00047774316,
                0.00015784502,
                0.0046092486,
                -0.0033600915,
                -0.0076368735,
                -0.0128148915,
                -0.0060031344,
                0.0023043088,
                -0.0015551866,
                -0.0053239483,
                0.00038602055,
                -0.021077018,
                -0.035923705,
                -0.014479113,
                0.0150817325,
                0.0035856206,
                -0.013476178
              ],
              "split_indices": [
                0,
                0,
                0,
                0,
                11,
                7,
                7,
                0,
                2,
                0,
                0,
                11,
                0,
                11,
                0,
                0,
                0,
                12,
                0,
                4,
                3,
                0,
                0,
                5,
                0,
                7,
                10,
                6,
                0,
                0,
                0,
                12,
                2,
                12,
                11,
                12,
                7,
                0,
                12,
                1,
                0,
                0,
                0,
                0,
                0,
                0,
                0,
                0,
                0,
                0,
                0,
                0,
                0,
                0,
                0,
                0,
                0,
                0,
                0,
                0,
                0,
                0,
                0,
                0,
                0,
                0,
                0
              ],
              "split_type": [
                0,
                0,
                0,
                0,
                0,
                0,
                0,
                0,
                0,
                0,
                0,
                0,
                0,
                0,
                0,
                0,
                0,
                0,
                0,
                0,
                0,
                0,
                0,
                0,
                0,
                0,
                0,
                0,
                0,
                0,
                0,
                0,
                0,
                0,
                0,
                0,
                0,
                0,
                0,
                0,
                0,
                0,
                0,
                0,
                0,
                0,
                0,
                0,
                0,
                0,
                0,
                0,
                0,
                0,
                0,
                0,
                0,
                0,
                0,
                0,
                0,
                0,
                0,
                0,
                0,
                0,
                0
              ],
              "sum_hessian": [
                372.0,
                215.0,
                157.0,
                111.0,
                104.0,
                56.0,
                101.0,
                88.0,
                23.0,
                69.0,
                35.0,
                54.0,
                2.0,
                99.0,
                2.0,
                2.0,
                21.0,
                60.0,
                9.0,
                15.0,
                20.0,
                38.0,
                16.0,
                78.0,
                21.0,
                46.0,
                14.0,
                5.0,
                4.0,
                14.0,
                1.0,
                11.0,
                9.0,
                13.0,
                25.0,
                9.0,
                7.0,
                69.0,
                9.0,
                19.0,
                2.0,
                22.0,
                24.0,
                8.0,
                6.0,
                4.0,
                1.0,
                1.0,
                3.0,
                10.0,
                1.0,
                1.0,
                8.0,
                9.0,
                4.0,
                20.0,
                5.0,
                6.0,
                3.0,
                6.0,
                1.0,
                61.0,
                8.0,
                7.0,
                2.0,
                2.0,
                17.0
              ],
              "tree_param": {
                "num_deleted": "0",
                "num_feature": "13",
                "num_nodes": "67",
                "size_leaf_vector": "1"
              }
            },
            {
              "base_weights": [
                -9.846559e-05,
                0.09319689,
                -0.12764086,
                0.1378481,
                0.044681355,
                -0.08238648,
                -0.18787612,
                0.014374482,
                0.11023736,
                0.02678551,
                0.07823768,
                -0.091206685,
                0.013445969,
                -0.19858833,
                0.010684693,
                0.07581678,
                0.01227091,
                0.036074027,
                -0.026314171,
                0.09606469,
                0.060929604,
                -0.11654705,
                -0.021673469,
                -0.23979408,
                -0.1355738,
                0.08420291,
                0.00043638647,
                0.053217057,
                0.011609405,
                -0.012601753,
                -0.005868004,
                0.010006867,
                0.001800248,
                0.07488034,
                0.03809576,
                -0.121996,
                0.011609301,
                -0.0010258071,
                -0.05254238,
                -0.29248282,
                -0.12857886,
                -0.16102518,
                0.013019609,
                0.009540926,
                0.003372258,
                -0.0023934364,
                0.005861819,
                -0.0023630224,
                0.004350268,
                -0.0018590369,
                0.0017653585,
                0.008086245,
                0.0004538566,
                0.00014995337,
                0.0041995393,
                -0.00657342,
                -0.015637577,
                -0.0013078173,
                0.008987985,
                -0.0018846974,
                -0.0064290846,
                -0.0318122,
                -0.018110758,
                -0.0012249117,
                -0.021429503,
                -0.0054632337,
                -0.017252719
              ],
              "categories": [],
              "categories_nodes": [],
              "categories_segments": [],
              "categories_sizes": [],
              "default_left": [
                0,
                0,
                0,
                0,
                0,
                0,
                0,
                0,
                0,
                0,
                0,
                0,
                0,
                0,
                0,
                0,
                0,
                0,
                0,
                0,
                0,
                0,
                0,
                0,
                0,
                0,
                0,
                0,
                0,
                0,
                0,
                0,
                0,
                0,
                0,
                0,
                0,
                0,
                0,
                0,
                0,
                0,
                0,
                0,
                0,
                0,
                0,
                0,
                0,
                0,
                0,
                0,
                0,
                0,
                0,
                0,
                0,
                0,
                0,
                0,
                0,
                0,
                0,
                0,
                0,
                0,
                0
              ],
              "id": 3,
              "left_children": [
                1,
                3,
                5,
                7,
                9,
                11,
                13,
                -1,
                15,
                17,
                19,
                21,
                -1,
                23,
                -1,
                25,
                -1,
                27,
                29,
                31,
                33,
                35,
                37,
                39,
                41,
                43,
                -1,
                45,
                47,
                49,
                -1,
                -1,
                -1,
                51,
                53,
                55,
                -1,
                57,
                59,
                61,
                63,
                65,
                -1,
                -1,
                -1,
                -1,
                -1,
                -1,
                -1,
                -1,
                -1,
                -1,
                -1,
                -1,
                -1,
                -1,
                -1,
                -1,
                -1,
                -1,
                -1,
                -1,
                -1,
                -1,
                -1,
                -1,
                -1
              ],
              "loss_changes": [
                4.450265,
                0.46175647,
                0.41521525,
                0.0023891926,
                0.060958847,
                0.18822527,
                0.2327466,
                0.0,
                0.0009993911,
                0.03547447,
                0.005254671,
                0.15429175,
                0.0,
                0.13626671,
                0.0,
                0.0050254725,
                0.0,
                0.02454605,
                0.004142486,
                0.003199473,
                0.0038369,
                0.09655982,
                0.015880374,
                0.18506503,
                0.21036273,
                0.0013081506,
                0.0,
                0.015987657,
                0.030249562,
                0.0019588748,
                0.0,
                0.0,
                0.0,
                0.0046825036,
                0.0013641426,
                0.11351389,
                0.0,
                0.018705515,
                0.0027470049,
                0.013774633,
                0.13697386,
                0.022391438,
                0.0,
                0.0,
                0.0,
                0.0,
                0.0,
                0.0,
                0.0,
                0.0,
                0.0,
                0.0,
                0.0,
                0.0,
                0.0,
                0.0,
                0.0,
                0.0,
                0.0,
                0.0,
                0.0,
                0.0,
                0.0,
                0.0,
                0.0,
                0.0,
                0.0
              ],
              "parents": [
                2147483647,
                0,
                0,
                1,
                1,
                2,
                2,
                3,
                3,
                4,
                4,
                5,
                5,
                6,
                6,
                8,
                8,
                9,
                9,
                10,
                10,
                11,
                11,
                13,
                13,
                15,
                15,
                17,
                17,
                18,
                18,
                19,
                19,
                20,
                20,
                21,
                21,
                22,
                22,
                23,
                23,
                24,
                24,
                25,
                25,
                27,
                27,
                28,
                28,
                29,
                29,
                33,
                33,
                34,
                34,
                35,
                35,
                37,
                37,
                38,
                38,
                39,
                39,
                40,
                40,
                41,
                41
              ],
              "right_children": [
                2,
                4,
                6,
                8,
                10,
                12,
                14,
                -1,
                16,
                18,
                20,
                22,
                -1,
                24,
                -1,
                26,
                -1,
                28,
                30,
                32,
                34,
                36,
                38,
                40,
                42,
                44,
                -1,
                46,
                48,
                50,
                -1,
                -1,
                -1,
                52,
                54,
                56,
                -1,
                58,
                60,
                62,
                64,
                66,
                -1,
                -1,
                -1,
                -1,
                -1,
                -1,
                -1,
                -1,
                -1,
                -1,
                -1,
                -1,
                -1,
                -1,
                -1,
                -1,
                -1,
                -1,
                -1,
                -1,
                -1,
                -1,
                -1,
                -1,
                -1
              ],
              "split_conditions": [
                0.022237523,
                0.017750017,
                0.032800034,
                0.015975015,
                0.541,
                1.0,
                1.2,
                0.014374482,
                0.4375,
                0.02126252,
                0.01928752,
                0.58522224,
                0.013445969,
                0.4631852,
                0.010684693,
                0.375,
                0.01227091,
                0.4,
                0.375,
                0.2,
                0.8,
                0.032462534,
                0.53333336,
                0.6,
                1.1,
                1.0,
                0.00043638647,
                0.125,
                0.32396296,
                0.5625,
                -0.005868004,
                0.010006867,
                0.001800248,
                0.53333336,
                0.125,
                0.026037525,
                0.011609301,
                0.5625,
                0.026887527,
                0.29125926,
                0.6875,
                0.6,
                0.013019609,
                0.009540926,
                0.003372258,
                -0.0023934364,
                0.005861819,
                -0.0023630224,
                0.004350268,
                -0.0018590369,
                0.0017653585,
                0.008086245,
                0.0004538566,
                0.00014995337,
                0.0041995393,
                -0.00657342,
                -0.015637577,
                -0.0013078173,
                0.008987985,
                -0.0018846974,
                -0.0064290846,
                -0.0318122,
                -0.018110758,
                -0.0012249117,
                -0.021429503,
                -0.0054632337,
                -0.017252719
              ],
              "split_indices": [
                0,
                0,
                0,
                0,
                11,
                7,
                7,
                0,
                2,
                0,
                0,
                11,
                0,
                11,
                0,
                1,
                0,
                3,
                1,
                4,
                3,
                0,
                7,
                4,
                7,
                9,
                0,
                2,
                11,
                2,
                0,
                0,
                0,
                12,
                2,
                0,
                0,
                2,
                0,
                11,
                1,
                3,
                0,
                0,
                0,
                0,
                0,
                0,
                0,
                0,
                0,
                0,
                0,
                0,
                0,
                0,
                0,
                0,
                0,
                0,
                0,
                0,
                0,
                0,
                0,
                0,
                0
              ],
              "split_type": [
                0,
                0,
                0,
                0,
                0,
                0,
                0,
                0,
                0,
                0,
                0,
                0,
                0,
                0,
                0,
                0,
                0,
                0,
                0,
                0,
                0,
                0,
                0,
                0,
                0,
                0,
                0,
                0,
                0,
                0,
                0,
                0,
                0,
                0,
                0,
                0,
                0,
                0,
                0,
                0,
                0,
                0,
                0,
                0,
                0,
                0,
                0,
                0,
                0,
                0,
                0,
                0,
                0,
                0,
                0,
                0,
                0,
                0,
                0,
                0,
                0,
                0,
                0,
                0,
                0,
                0,
                0
              ],
              "sum_hessian": [
                372.0,
                215.0,
                157.0,
                111.0,
                104.0,
                91.0,
                66.0,
                88.0,
                23.0,
                69.0,
                35.0,
                88.0,
                3.0,
                64.0,
                2.0,
                8.0,
                15.0,
                59.0,
                10.0,
                15.0,
                20.0,
                64.0,
                24.0,
                37.0,
                27.0,
                7.0,
                1.0,
                34.0,
                25.0,
                8.0,
                2.0,
                14.0,
                1.0,
                11.0,
                9.0,
                63.0,
                1.0,
                15.0,
                9.0,
                24.0,
                13.0,
                25.0,
                2.0,
                5.0,
                2.0,
                2.0,
                32.0,
                12.0,
                13.0,
                7.0,
                1.0,
                10.0,
                1.0,
                1.0,
                8.0,
                25.0,
                38.0,
                14.0,
                1.0,
                3.0,
                6.0,
                18.0,
                6.0,
                6.0,
                7.0,
                3.0,
                22.0
              ],
              "tree_param": {
                "num_deleted": "0",
                "num_feature": "13",
                "num_nodes": "67",
                "size_leaf_vector": "1"
              }
            },
            {
              "base_weights": [
                -0.00010254044,
                0.08417435,
                -0.11531587,
                0.12442037,
                0.040443607,
                -0.07412379,
                -0.170157,
                0.012907614,
                0.09809891,
                0.026067648,
                0.07551459,
                -0.08221224,
                0.0124375215,
                -0.17999524,
                0.009972381,
                0.0031474412,
                0.010345547,
                0.033860937,
                -0.018318301,
                0.009333859,
                0.056393966,
                -0.10505544,
                -0.019531453,
                -0.20553114,
                -0.095803805,
                0.043309737,
                -0.00052237906,
                -0.03333042,
                0.009364748,
                0.0006644786,
                0.06258421,
                -0.11014344,
                0.011028836,
                0.005095042,
                -0.042655528,
                -0.23508154,
                -0.12287813,
                -0.12944327,
                0.010432813,
                0.0020194491,
                0.005640333,
                0.0021417916,
                -0.0028656705,
                -0.0017056545,
                -0.0054768026,
                -0.0011123539,
                0.0026731452,
                0.008647184,
                0.0037051134,
                -0.005941359,
                -0.014113915,
                -0.00087113486,
                0.008538586,
                -0.00037322045,
                -0.0049393205,
                -0.02879841,
                -0.016212681,
                -0.016717061,
                0.004071884,
                -0.013825464,
                -0.004811291
              ],
              "categories": [],
              "categories_nodes": [],
              "categories_segments": [],
              "categories_sizes": [],
              "default_left": [
                0,
                0,
                0,
                0,
                0,
                0,
                0,
                0,
                0,
                0,
                0,
                0,
                0,
                0,
                0,
                0,
                0,
                0,
                0,
                0,
                0,
                0,
                0,
                0,
                0,
                0,
                0,
                0,
                0,
                0,
                0,
                0,
                0,
                0,
                0,
                0,
                0,
                0,
                0,
                0,
                0,
                0,
                0,
                0,
                0,
                0,
                0,
                0,
                0,
                0,
                0,
                0,
                0,
                0,
                0,
                0,
                0,
                0,
                0,
                0,
                0
              ],
              "id": 4,
              "left_children": [
                1,
                3,
                5,
                7,
                9,
                11,
                13,
                -1,
                15,
                17,
                19,
                21,
                -1,
                23,
                -1,
                -1,
                -1,
                25,
                27,
                -1,
                29,
                31,
                33,
                35,
                37,
                39,
                41,
                43,
                45,
                -1,
                47,
                49,
                -1,
                51,
                53,
                55,
                57,
                59,
                -1,
                -1,
                -1,
                -1,
                -1,
                -1,
                -1,
                -1,
                -1,
                -1,
                -1,
                -1,
                -1,
                -1,
                -1,
                -1,
                -1,
                -1,
                -1,
                -1,
                -1,
                -1,
                -1
              ],
              "loss_changes": [
                3.63147,
                0.37512553,
                0.34431267,
                0.0010629892,
                0.050970316,
                0.15793574,
                0.19584477,
                0.0,
                0.004238233,
                0.02690962,
                0.0049604326,
                0.12538093,
                0.0,
                0.12005329,
                0.0,
                0.0,
                0.0,
                0.021139883,
                0.005299105,
                0.0,
                0.0048194528,
                0.083366096,
                0.014453953,
                0.090792656,
                0.12795424,
                0.014296718,
                0.0098728975,
                0.0018568309,
                0.0020764184,
                0.0,
                0.005944986,
                0.09224856,
                0.0,
                0.015154667,
                0.003224941,
                0.08839226,
                0.11549872,
                0.0040976405,
                0.0,
                0.0,
                0.0,
                0.0,
                0.0,
                0.0,
                0.0,
                0.0,
                0.0,
                0.0,
                0.0,
                0.0,
                0.0,
                0.0,
                0.0,
                0.0,
                0.0,
                0.0,
                0.0,
                0.0,
                0.0,
                0.0,
                0.0
              ],
              "parents": [
                2147483647,
                0,
                0,
                1,
                1,
                2,
                2,
                3,
                3,
                4,
                4,
                5,
                5,
                6,
                6,
                8,
                8,
                9,
                9,
                10,
                10,
                11,
                11,
                13,
                13,
                17,
                17,
                18,
                18,
                20,
                20,
                21,
                21,
                22,
                22,
                23,
                23,
                24,
                24,
                25,
                25,
                26,
                26,
                27,
                27,
                28,
                28,
                30,
                30,
                31,
                31,
                33,
                33,
                34,
                34,
                35,
                35,
                36,
                36,
                37,
                37
              ],
              "right_children": [
                2,
                4,
                6,
                8,
                10,
                12,
                14,
                -1,
                16,
                18,
                20,
                22,
                -1,
                24,
                -1,
                -1,
                -1,
                26,
                28,
                -1,
                30,
                32,
                34,
                36,
                38,
                40,
                42,
                44,
                46,
                -1,
                48,
                50,
                -1,
                52,
                54,
                56,
                58,
                60,
                -1,
                -1,
                -1,
                -1,
                -1,
                -1,
                -1,
                -1,
                -1,
                -1,
                -1,
                -1,
                -1,
                -1,
                -1,
                -1,
                -1,
                -1,
                -1,
                -1,
                -1,
                -1,
                -1
              ],
              "split_conditions": [
                0.022237523,
                0.017750017,
                0.032800034,
                0.016275017,
                0.62866664,
                1.0,
                1.2,
                0.012907614,
                0.016662518,
                0.02126252,
                0.01928752,
                0.58522224,
                0.0124375215,
                0.6407037,
                0.009972381,
                0.0031474412,
                0.010345547,
                0.56666666,
                1.0,
                0.009333859,
                0.43333334,
                0.032462534,
                0.56666666,
                0.6,
                0.047362547,
                1.0,
                1.0,
                0.375,
                0.5625,
                0.0006644786,
                0.8,
                0.026037525,
                0.011028836,
                1.0,
                0.023075024,
                0.29125926,
                0.045812547,
                1.0,
                0.010432813,
                0.0020194491,
                0.005640333,
                0.0021417916,
                -0.0028656705,
                -0.0017056545,
                -0.0054768026,
                -0.0011123539,
                0.0026731452,
                0.008647184,
                0.0037051134,
                -0.005941359,
                -0.014113915,
                -0.00087113486,
                0.008538586,
                -0.00037322045,
                -0.0049393205,
                -0.02879841,
                -0.016212681,
                -0.016717061,
                0.004071884,
                -0.013825464,
                -0.004811291
              ],
              "split_indices": [
                0,
                0,
                0,
                0,
                11,
                7,
                7,
                0,
                0,
                0,
                0,
                11,
                0,
                11,
                0,
                0,
                0,
                12,
                6,
                0,
                12,
                0,
                12,
                4,
                0,
                6,
                10,
                1,
                2,
                0,
                3,
                0,
                0,
                9,
                0,
                11,
                0,
                1,
                0,
                0,
                0,
                0,
                0,
                0,
                0,
                0,
                0,
                0,
                0,
                0,
                0,
                0,
                0,
                0,
                0,
                0,
                0,
                0,
                0,
                0,
                0
              ],
              "split_type": [
                0,
                0,
                0,
                0,
                0,
                0,
                0,
                0,
                0,
                0,
                0,
                0,
                0,
                0,
                0,
                0,
                0,
                0,
                0,
                0,
                0,
                0,
                0,
                0,
                0,
                0,
                0,
                0,
                0,
                0,
                0,
                0,
                0,
                0,
                0,
                0,
                0,
                0,
                0,
                0,
                0,
                0,
                0,
                0,
                0,
                0,
                0,
                0,
                0,
                0,
                0,
                0,
                0,
                0,
                0,
                0,
                0,
                0,
                0,
                0,
                0
              ],
              "sum_hessian": [
                372.0,
                215.0,
                157.0,
                111.0,
                104.0,
                91.0,
                66.0,
                91.0,
                20.0,
                75.0,
                29.0,
                88.0,
                3.0,
                64.0,
                2.0,
                2.0,
                18.0,
                64.0,
                11.0,
                13.0,
                16.0,
                64.0,
                24.0,
                48.0,
                16.0,
                50.0,
                14.0,
                7.0,
                4.0,
                2.0,
                14.0,
                63.0,
                1.0,
                12.0,
                12.0,
                34.0,
                14.0,
                14.0,
                2.0,
                19.0,
                31.0,
                8.0,
                6.0,
                5.0,
                2.0,
                2.0,
                2.0,
                6.0,
                8.0,
                25.0,
                38.0,
                11.0,
                1.0,
                2.0,
                10.0,
                18.0,
                16.0,
                11.0,
                3.0,
                12.0,
                2.0
              ],
              "tree_param": {
                "num_deleted": "0",
                "num_feature": "13",
                "num_nodes": "61",
                "size_leaf_vector": "1"
              }
            },
            {
              "base_weights": [
                -9.2440416e-05,
                0.0759887,
                -0.10410152,
                0.11221405,
                0.03662463,
                -0.06664875,
                -0.15397544,
                0.011676925,
                0.09064626,
                0.023478175,
                0.06870816,
                -0.07406599,
                0.011504707,
                -0.16300894,
                0.009307555,
                0.0615526,
                0.101346046,
                0.030581549,
                -0.016954944,
                0.046979103,
                0.08058425,
                -0.09410645,
                -0.015868664,
                -0.18615468,
                -0.086706005,
                0.07427042,
                0.011360149,
                0.002967465,
                0.010414584,
                0.03912895,
                -0.00051838957,
                -0.030895181,
                0.008740425,
                0.055424955,
                0.00035127005,
                0.008518588,
                0.029180804,
                -0.098778054,
                0.010477394,
                -0.02914138,
                0.028806379,
                -0.19479898,
                0.011324148,
                -0.11774138,
                0.009737291,
                0.008635291,
                0.0029376128,
                -0.000102707745,
                0.00180673,
                0.0058144866,
                0.0023879649,
                -0.0023227073,
                0.0022255094,
                -0.0015635173,
                -0.005111681,
                -0.0010381978,
                0.0024949352,
                0.003198123,
                0.008845617,
                -0.00022325815,
                0.00027594864,
                0.0035389126,
                0.0008382082,
                -0.0053795367,
                -0.012738714,
                0.00047798082,
                -0.004932706,
                0.00021210313,
                0.008111656,
                -0.01698537,
                -0.028125081,
                -0.008999842,
                0.010698465,
                -0.012239938,
                -0.0026264787
              ],
              "categories": [],
              "categories_nodes": [],
              "categories_segments": [],
              "categories_sizes": [],
              "default_left": [
                0,
                0,
                0,
                0,
                0,
                0,
                0,
                0,
                0,
                0,
                0,
                0,
                0,
                0,
                0,
                0,
                0,
                0,
                0,
                0,
                0,
                0,
                0,
                0,
                0,
                0,
                0,
                0,
                0,
                0,
                0,
                0,
                0,
                0,
                0,
                0,
                0,
                0,
                0,
                0,
                0,
                0,
                0,
                0,
                0,
                0,
                0,
                0,
                0,
                0,
                0,
                0,
                0,
                0,
                0,
                0,
                0,
                0,
                0,
                0,
                0,
                0,
                0,
                0,
                0,
                0,
                0,
                0,
                0,
                0,
                0,
                0,
                0,
                0,
                0
              ],
              "id": 5,
              "left_children": [
                1,
                3,
                5,
                7,
                9,
                11,
                13,
                -1,
                15,
                17,
                19,
                21,
                -1,
                23,
                -1,
                25,
                27,
                29,
                31,
                33,
                35,
                37,
                39,
                41,
                43,
                45,
                47,
                -1,
                -1,
                49,
                51,
                53,
                55,
                57,
                59,
                -1,
                61,
                63,
                -1,
                65,
                67,
                69,
                71,
                73,
                -1,
                -1,
                -1,
                -1,
                -1,
                -1,
                -1,
                -1,
                -1,
                -1,
                -1,
                -1,
                -1,
                -1,
                -1,
                -1,
                -1,
                -1,
                -1,
                -1,
                -1,
                -1,
                -1,
                -1,
                -1,
                -1,
                -1,
                -1,
                -1,
                -1,
                -1
              ],
              "loss_changes": [
                2.959508,
                0.3039012,
                0.28486848,
                0.00041878223,
                0.04267426,
                0.1325078,
                0.16469848,
                0.0,
                0.0012330115,
                0.02234659,
                0.0039559007,
                0.10230744,
                0.0,
                0.098654985,
                0.0,
                0.0049013235,
                0.00012013316,
                0.017298821,
                0.0045684315,
                0.0051000807,
                0.0017719194,
                0.07166928,
                0.0150704775,
                0.085852146,
                0.108585134,
                0.0012603328,
                0.00026780553,
                0.0,
                0.0,
                0.013400473,
                0.008274258,
                0.0016694372,
                0.0018087914,
                0.005689185,
                2.4828198e-05,
                0.0,
                9.074109e-05,
                0.07679659,
                0.0,
                0.013245493,
                0.008203441,
                0.05358696,
                0.03870615,
                0.0031766742,
                0.0,
                0.0,
                0.0,
                0.0,
                0.0,
                0.0,
                0.0,
                0.0,
                0.0,
                0.0,
                0.0,
                0.0,
                0.0,
                0.0,
                0.0,
                0.0,
                0.0,
                0.0,
                0.0,
                0.0,
                0.0,
                0.0,
                0.0,
                0.0,
                0.0,
                0.0,
                0.0,
                0.0,
                0.0,
                0.0,
                0.0
              ],
              "parents": [
                2147483647,
                0,
                0,
                1,
                1,
                2,
                2,
                3,
                3,
                4,
                4,
                5,
                5,
                6,
                6,
                8,
                8,
                9,
                9,
                10,
                10,
                11,
                11,
                13,
                13,
                15,
                15,
                16,
                16,
                17,
                17,
                18,
                18,
                19,
                19,
                20,
                20,
                21,
                21,
                22,
                22,
                23,
                23,
                24,
                24,
                25,
                25,
                26,
                26,
                29,
                29,
                30,
                30,
                31,
                31,
                32,
                32,
                33,
                33,
                34,
                34,
                36,
                36,
                37,
                37,
                39,
                39,
                40,
                40,
                41,
                41,
                42,
                42,
                43,
                43
              ],
              "right_children": [
                2,
                4,
                6,
                8,
                10,
                12,
                14,
                -1,
                16,
                18,
                20,
                22,
                -1,
                24,
                -1,
                26,
                28,
                30,
                32,
                34,
                36,
                38,
                40,
                42,
                44,
                46,
                48,
                -1,
                -1,
                50,
                52,
                54,
                56,
                58,
                60,
                -1,
                62,
                64,
                -1,
                66,
                68,
                70,
                72,
                74,
                -1,
                -1,
                -1,
                -1,
                -1,
                -1,
                -1,
                -1,
                -1,
                -1,
                -1,
                -1,
                -1,
                -1,
                -1,
                -1,
                -1,
                -1,
                -1,
                -1,
                -1,
                -1,
                -1,
                -1,
                -1,
                -1,
                -1,
                -1,
                -1,
                -1,
                -1
              ],
              "split_conditions": [
                0.022237523,
                0.017750017,
                0.032800034,
                0.015975015,
                0.62866664,
                1.0,
                1.2,
                0.011676925,
                0.4375,
                0.02126252,
                1.0,
                0.64237034,
                0.011504707,
                0.6407037,
                0.009307555,
                0.3125,
                0.2,
                0.56666666,
                1.0,
                0.625,
                1.0,
                0.032462534,
                0.2,
                0.6,
                0.047362547,
                1.0,
                0.017175017,
                0.002967465,
                0.010414584,
                0.53333336,
                0.15955555,
                0.375,
                0.5625,
                0.4375,
                0.01931252,
                0.008518588,
                0.02005002,
                0.026037525,
                0.010477394,
                0.025500026,
                0.027212527,
                0.04937505,
                0.033112533,
                1.4225185,
                0.009737291,
                0.008635291,
                0.0029376128,
                -0.000102707745,
                0.00180673,
                0.0058144866,
                0.0023879649,
                -0.0023227073,
                0.0022255094,
                -0.0015635173,
                -0.005111681,
                -0.0010381978,
                0.0024949352,
                0.003198123,
                0.008845617,
                -0.00022325815,
                0.00027594864,
                0.0035389126,
                0.0008382082,
                -0.0053795367,
                -0.012738714,
                0.00047798082,
                -0.004932706,
                0.00021210313,
                0.008111656,
                -0.01698537,
                -0.028125081,
                -0.008999842,
                0.010698465,
                -0.012239938,
                -0.0026264787
              ],
              "split_indices": [
                0,
                0,
                0,
                0,
                11,
                7,
                7,
                0,
                2,
                0,
                6,
                11,
                0,
                11,
                0,
                1,
                4,
                12,
                6,
                1,
                3,
                0,
                5,
                5,
                0,
                9,
                0,
                0,
                0,
                7,
                11,
                1,
                2,
                1,
                0,
                0,
                0,
                0,
                0,
                0,
                0,
                0,
                0,
                11,
                0,
                0,
                0,
                0,
                0,
                0,
                0,
                0,
                0,
                0,
                0,
                0,
                0,
                0,
                0,
                0,
                0,
                0,
                0,
                0,
                0,
                0,
                0,
                0,
                0,
                0,
                0,
                0,
                0,
                0,
                0
              ],
              "split_type": [
                0,
                0,
                0,
                0,
                0,
                0,
                0,
                0,
                0,
                0,
                0,
                0,
                0,
                0,
                0,
                0,
                0,
                0,
                0,
                0,
                0,
                0,
                0,
                0,
                0,
                0,
                0,
                0,
                0,
                0,
                0,
                0,
                0,
                0,
                0,
                0,
                0,
                0,
                0,
                0,
                0,
                0,
                0,
                0,
                0,
                0,
                0,
                0,
                0,
                0,
                0,
                0,
                0,
                0,
                0,
                0,
                0,
                0,
                0,
                0,
                0,
                0,
                0,
                0,
                0,
                0,
                0,
                0,
                0,
                0,
                0,
                0,
                0,
                0,
                0
              ],
              "sum_hessian": [
                372.0,
                215.0,
                157.0,
                111.0,
                104.0,
                91.0,
                66.0,
                88.0,
                23.0,
                75.0,
                29.0,
                88.0,
                3.0,
                64.0,
                2.0,
                8.0,
                15.0,
                64.0,
                11.0,
                12.0,
                17.0,
                65.0,
                23.0,
                48.0,
                16.0,
                6.0,
                2.0,
                1.0,
                14.0,
                50.0,
                14.0,
                7.0,
                4.0,
                10.0,
                2.0,
                15.0,
                2.0,
                64.0,
                1.0,
                18.0,
                5.0,
                46.0,
                2.0,
                14.0,
                2.0,
                4.0,
                2.0,
                1.0,
                1.0,
                21.0,
                29.0,
                7.0,
                7.0,
                5.0,
                2.0,
                2.0,
                2.0,
                7.0,
                3.0,
                1.0,
                1.0,
                1.0,
                1.0,
                26.0,
                38.0,
                7.0,
                11.0,
                4.0,
                1.0,
                38.0,
                8.0,
                1.0,
                1.0,
                13.0,
                1.0
              ],
              "tree_param": {
                "num_deleted": "0",
                "num_feature": "13",
                "num_nodes": "75",
                "size_leaf_vector": "1"
              }
            },
            {
              "base_weights": [
                9.8755145e-06,
                0.06869639,
                -0.09389074,
                0.010133494,
                0.033227686,
                -0.059899822,
                -0.13916348,
                0.019376045,
                0.05923844,
                -0.06670178,
                0.010641853,
                -0.14745484,
                0.008687052,
                0.026062215,
                -0.023347199,
                0.07253803,
                0.046284538,
                -0.085941985,
                -0.016775804,
                -0.13127175,
                -0.026279017,
                0.039601088,
                0.0063136886,
                -0.038838137,
                -8.863211e-05,
                0.0025321029,
                0.0077474676,
                0.058149565,
                0.027418053,
                -0.09046599,
                0.009953523,
                0.01091128,
                -0.03207551,
                -0.1497727,
                0.016055945,
                -0.0023220598,
                0.004397944,
                -0.0023311002,
                0.0033371353,
                -0.0007474363,
                -0.004361602,
                0.0014186859,
                -0.00072042196,
                0.0040963623,
                0.009605287,
                -0.00020270646,
                0.0030914962,
                -0.0048528113,
                -0.011677965,
                0.0022639888,
                -0.0012341604,
                -0.006031424,
                -0.0011189455,
                -0.012649472,
                -0.021703875
              ],
              "categories": [],
              "categories_nodes": [],
              "categories_segments": [],
              "categories_sizes": [],
              "default_left": [
                0,
                0,
                0,
                0,
                0,
                0,
                0,
                0,
                0,
                0,
                0,
                0,
                0,
                0,
                0,
                0,
                0,
                0,
                0,
                0,
                0,
                0,
                0,
                0,
                0,
                0,
                0,
                0,
                0,
                0,
                0,
                0,
                0,
                0,
                0,
                0,
                0,
                0,
                0,
                0,
                0,
                0,
                0,
                0,
                0,
                0,
                0,
                0,
                0,
                0,
                0,
                0,
                0,
                0,
                0
              ],
              "id": 6,
              "left_children": [
                1,
                3,
                5,
                -1,
                7,
                9,
                11,
                13,
                15,
                17,
                -1,
                19,
                -1,
                21,
                23,
                25,
                27,
                29,
                31,
                33,
                -1,
                35,
                37,
                39,
                41,
                -1,
                -1,
                43,
                45,
                47,
                -1,
                49,
                51,
                53,
                -1,
                -1,
                -1,
                -1,
                -1,
                -1,
                -1,
                -1,
                -1,
                -1,
                -1,
                -1,
                -1,
                -1,
                -1,
                -1,
                -1,
                -1,
                -1,
                -1,
                -1
              ],
              "loss_changes": [
                2.4121904,
                0.24668467,
                0.23480415,
                0.0,
                0.036682814,
                0.11117688,
                0.13837624,
                0.02060432,
                0.0028447509,
                0.08405045,
                0.0,
                0.08682442,
                0.0,
                0.016059712,
                0.0035995278,
                0.0017677546,
                0.0031065308,
                0.06270698,
                0.011363696,
                0.34259748,
                0.0,
                0.010923229,
                0.021618864,
                0.00057311263,
                0.0006100978,
                0.0,
                0.0,
                0.0038821772,
                0.0010923357,
                0.06385589,
                0.0,
                0.003006652,
                0.009351643,
                0.060231447,
