{
  "network.0.weight": [
    [
      0.4879281520843506,
      0.7289764285087585,
      0.41968047618865967,
      -0.21862255036830902,
      0.015634194016456604,
      0.01811847649514675,
      -0.03355611115694046,
      0.5361544489860535,
      -0.3894590139389038,
      0.013116375543177128,
      -0.0002657566510606557,
      -3.1964707374572754,
      -0.2812778651714325
    ],
    [
      0.39529433846473694,
      0.2945297360420227,
      -2.4864556789398193,
      -0.6440181136131287,
      0.08433707058429718,
      0.14302915334701538,
      -0.9641628265380859,
      -0.33813726902008057,
      0.07974778860807419,
      -0.06666770577430725,
      0.2628587782382965,
      0.6392697095870972,
      0.33524954319000244
    ],
    [
      2.1388375759124756,
      -1.556826114654541,
      -0.47249510884284973,
      -0.03530329838395119,
      0.2750184237957001,
      -0.16733528673648834,
      0.542307436466217,
      -0.4864863455295563,
      0.28453919291496277,
      -0.20944151282310486,
      -0.256531298160553,
      0.24259504675865173,
      0.4420151710510254
    ],
    [
      -0.1562122106552124,
      0.8995446562767029,
      -0.042399439960718155,
      0.18536166846752167,
      0.1596933901309967,
      0.16401851177215576,
      0.022501923143863678,
      0.42892977595329285,
      -0.7090397477149963,
      0.005193349905312061,
      -0.8103541731834412,
      0.11094418168067932,
      0.7189231514930725
    ],
    [
      5.044567108154297,
      0.5747618675231934,
      0.5076596736907959,
      0.4673924446105957,
      0.015155373141169548,
      -0.4195849895477295,
      0.09187765419483185,
      0.5482080578804016,
      -0.653866171836853,
      0.027068190276622772,
      0.10443462431430817,
      -0.32755932211875916,
      -0.2135762870311737
    ],
    [
      -0.16879349946975708,
      0.043204884976148605,
      0.0004817322769667953,
      0.22672046720981598,
      -0.21769540011882782,
      -0.24875129759311676,
      -0.03744511678814888,
      -0.14360091090202332,
      -0.1955880969762802,
      0.003362678922712803,
      0.03618527203798294,
      -0.09947523474693298,
      0.18274563550949097
    ],
    [
      -3.428614616394043,
      -0.6141510605812073,
      0.10514701902866364,
      0.3005664646625519,
      0.05130200833082199,
      -0.38292789459228516,
      -0.35825496912002563,
      -0.17448103427886963,
      0.5109091401100159,
      0.04042038694024086,
      0.07937436550855637,
      -0.7100411057472229,
      -0.11998659372329712
    ],
    [
      -1.921608567237854,
      -2.812934160232544,
      -2.7099111080169678,
      -0.6770005822181702,
      -0.2996663451194763,
      -0.1540960669517517,
      -0.5118222832679749,
      -2.423475503921509,
      0.4849621057510376,
      -0.5347238779067993,
      0.44069212675094604,
      -2.536680221557617,
      0.08078055828809738
    ],
    [
      -3.747246742248535,
      0.11549579352140427,
      -0.10956129431724548,
      -0.6527307629585266,
      0.815984845161438,
      0.2632550895214081,
      -0.3269282579421997,
      -0.2722194492816925,
      -0.08508989214897156,
      0.24700185656547546,
      0.06545210629701614,
      0.4973852038383484,
      -0.40714430809020996
    ],
    [
      -0.6076104044914246,
      -0.6104905009269714,
      0.5231521129608154,
      0.03277653083205223,
      -1.2075371742248535,
      -0.7410025000572205,
      0.055932991206645966,
      -0.16092868149280548,
      0.05162174627184868,
      0.011352840811014175,
      0.46142521500587463,
      -0.07601451128721237,
      -0.9086853265762329
    ],
    [
      4.094631671905518,
      0.14628317952156067,
      -0.08066757023334503,
      0.1678091138601303,
      0.40699300169944763,
      -0.05227559432387352,
      0.02126855030655861,
      -0.05490509420633316,
      0.12592265009880066,
      -0.14548663794994354,
      0.10046155005693436,
      -0.7698467373847961,
      -0.166472390294075
    ],
    [
      -4.633867263793945,
      0.060434870421886444,
      -0.3684336543083191,
      0.8565000891685486,
      0.3912551701068878,
      -0.11015505343675613,
      0.32340341806411743,
      -0.07480839639902115,
      0.18277978897094727,
      -0.11506558954715729,
      -0.2363237887620926,
      -0.9535054564476013,
      -0.10628294944763184
    ],
    [
      -0.2510840892791748,
      0.01904180645942688,
      -0.1892138123512268,
      -0.09550976753234863,
      0.039729803800582886,
      -0.06649032235145569,
      -0.26538825035095215,
      -0.03876146674156189,
      -0.017754703760147095,
      0.05987563729286194,
      -0.17260941863059998,
      -0.2386457622051239,
      -0.13085822761058807
    ],
    [
      1.7836582660675049,
      -0.2933821678161621,
      0.07391738891601562,
      -0.9184855222702026,
      -0.8260055184364319,
      0.19373077154159546,
      0.4083370864391327,
      -0.30534663796424866,
      0.21120242774486542,
      0.5474615693092346,
      -0.6017019152641296,
      -0.41029706597328186,
      0.08165909349918365
    ],
    [
      -0.3463779091835022,
      -0.20010103285312653,
      0.033747341483831406,
      -1.511936068534851,
      -2.3762826919555664,
      0.49634501338005066,
      0.41731810569763184,
      0.35931268334388733,
      0.1834867298603058,
      0.1438535749912262,
      -0.4060184061527252,
      -0.6267907023429871,
      -0.0752217099070549
    ],
    [
      -0.16466879844665527,
      0.07085224986076355,
      0.25546765327453613,
      -0.03646083176136017,
      -0.17538340389728546,
      0.20042771100997925,
      -0.20044481754302979,
      -0.12037477642297745,
      -0.17441540956497192,
      -0.24735362827777863,
      -0.06309854984283447,
      0.08394184708595276,
      0.21632073819637299
    ],
    [
      -0.24361899495124817,
      -0.04004386067390442,
      0.015799492597579956,
      -0.12842054665088654,
      -0.04221753776073456,
      -0.2692420184612274,
      -0.12963609397411346,
      -0.16860073804855347,
      -0.2591220438480377,
      0.1440567970275879,
      0.047598838806152344,
      0.2165328860282898,
      -0.08890184760093689
    ],
    [
      1.78805673122406,
      -0.3557657301425934,
      -0.28018832206726074,
      -0.23468153178691864,
      -0.14261949062347412,
      0.965910792350769,
      -0.011899905279278755,
      -0.14617221057415009,
      0.026614082977175713,
      0.23317557573318481,
      0.06610959768295288,
      0.15922518074512482,
      0.19467954337596893
    ],
    [
      0.5699681639671326,
      -0.014552725479006767,
      -2.8287692070007324,
      0.36939358711242676,
      -0.011715453118085861,
      -0.4241292178630829,
      -0.04261733591556549,
      -0.5258145332336426,
      0.004174096509814262,
      0.22222864627838135,
      0.128591850399971,
      0.029937386512756348,
      0.4097058176994324
    ],
    [
      -3.9363133907318115,
      0.7185238003730774,
      -3.4738948345184326,
      0.5018492937088013,
      0.28500550985336304,
      -1.8523725271224976,
      0.3315803110599518,
      -1.8001933097839355,
      -0.05518053099513054,
      -0.0625162199139595,
      -0.20775222778320312,
      -1.5376214981079102,
      0.3254374861717224
    ],
    [
      -2.0483994483947754,
      0.26255038380622864,
      -0.15571965277194977,
      0.039213016629219055,
      -0.09583745896816254,
      -0.0738983303308487,
      0.032280001789331436,
      -0.02497301623225212,
      -0.12269383668899536,
      -0.07504305243492126,
      0.07309959828853607,
      -0.00011101013660663739,
      -0.19115236401557922
    ],
    [
      0.54485684633255,
      -0.15417972207069397,
      0.6539650559425354,
      0.25187575817108154,
      0.49664828181266785,
      0.12867069244384766,
      -1.6980102062225342,
      0.2600442171096802,
      -0.02013256587088108,
      0.22225190699100494,
      -0.08789143711328506,
      0.2307180017232895,
      -0.40741124749183655
    ],
    [
      0.3163989782333374,
      0.635755717754364,
      0.02632981725037098,
      -0.5123238563537598,
      -0.31590595841407776,
      -1.3555786609649658,
      -0.5048230886459351,
      0.38675352931022644,
      -0.3210652470588684,
      0.28255414962768555,
      0.10570639371871948,
      0.6255074143409729,
      -0.004385707899928093
    ],
    [
      0.4914458692073822,
      0.8267765045166016,
      -0.8136146068572998,
      -0.8510093092918396,
      -0.2737479507923126,
      -0.02540961094200611,
      -0.8163014054298401,
      0.45924386382102966,
      -0.2605368494987488,
      -0.048840008676052094,
      -0.2791351079940796,
      0.27457016706466675,
      0.28336066007614136
    ],
    [
      -1.5823785066604614,
      -0.11699537932872772,
      -0.05978018417954445,
      0.592178225517273,
      -0.5801421999931335,
      -0.5413188338279724,
      -0.84271639585495,
      -0.181062251329422,
      0.4261474907398224,
      0.6810617446899414,
      -0.1899527907371521,
      -1.2424417734146118,
      -0.1876126527786255
    ],
    [
      -1.5435541868209839,
      -3.5905535221099854,
      0.09726354479789734,
      -0.19374029338359833,
      -0.024339333176612854,
      0.037795182317495346,
      0.2977900505065918,
      -0.5925757884979248,
      0.13499227166175842,
      -0.09540905803442001,
      -0.011423761025071144,
      0.20219025015830994,
      -0.48034220933914185
    ],
    [
      1.103754997253418,
      -0.7106402516365051,
      0.6027170419692993,
      -0.6084223389625549,
      0.3466099202632904,
      -0.2500571012496948,
      0.08972503244876862,
      0.08365146815776825,
      0.10889153927564621,
      0.18600955605506897,
      -0.27347415685653687,
      -0.16971373558044434,
      -0.7666895389556885
    ],
    [
      -5.424100399017334,
      0.03431176021695137,
      -0.08322161436080933,
      -0.5731818675994873,
      -0.07757755368947983,
      -0.4041717052459717,
      0.026301968842744827,
      -0.27358874678611755,
      0.14639301598072052,
      0.08358404040336609,
      0.08286821842193604,
      0.30496102571487427,
      0.3921603262424469
    ],
    [
      0.24764826893806458,
      0.17105135321617126,
      -0.16922862827777863,
      -0.10018368065357208,
      -0.2461780160665512,
      -0.22420473396778107,
      -0.01955130696296692,
      0.20394474267959595,
      -0.2684057950973511,
      -0.23468062281608582,
      -0.11927993595600128,
      -0.2723410129547119,
      -0.14602558314800262
    ],
    [
      1.7749048471450806,
      -0.1313147246837616,
      0.5192146301269531,
      -0.046287402510643005,
      0.1246487945318222,
      -0.26015976071357727,
      0.33229270577430725,
      0.3318626582622528,
      -0.16792728006839752,
      0.07970542460680008,
      -0.019967585802078247,
      -0.5981387495994568,
      -0.9249828457832336
    ],
    [
      -0.0014418940991163254,
      -0.9482735991477966,
      -0.5694466829299927,
      -0.22890526056289673,
      0.07387235760688782,
      0.08515354245901108,
      -0.4982510209083557,
      -0.7844551801681519,
      0.09527642279863358,
      0.5245959162712097,
      0.09481276571750641,
      0.4997152090072632,
      0.31369316577911377
    ],
    [
      1.3046950101852417,
      -0.048439476639032364,
      -0.09302772581577301,
      -0.6967366933822632,
      0.31260937452316284,
      0.7010573744773865,
      -0.24546721577644348,
      -0.4505006670951843,
      0.041599638760089874,
      -0.3770688474178314,
      -0.025045782327651978,
      0.5933331251144409,
      0.022145960479974747
    ],
    [
      -0.578261137008667,
      0.2007775455713272,
      0.026670007035136223,
      0.04352289438247681,
      -1.2179582118988037,
      -0.39542004466056824,
      -0.1060112863779068,
      -0.1422584503889084,
      -0.3792155086994171,
      -0.5801170468330383,
      -0.21312743425369263,
      0.74219810962677,
      0.0936746820807457
    ],
    [
      -6.890933990478516,
      -0.303631067276001,
      0.17213818430900574,
      -0.18835969269275665,
      -0.11101903766393661,
      0.014503532089293003,
      0.20433980226516724,
      0.3755015432834625,
      0.1209409311413765,
      -0.17067694664001465,
      0.07513148337602615,
      0.25092557072639465,
      -0.8157120943069458
    ],
    [
      2.0961265563964844,
      -1.1677370071411133,
      0.7549448013305664,
      0.007376743946224451,
      0.2782024145126343,
      -0.1627437174320221,
      -0.19740942120552063,
      0.13095806539058685,
      0.15199778974056244,
      -0.15571947395801544,
      0.0008032037876546383,
      0.22660508751869202,
      -1.6454799175262451
    ],
    [
      -1.7560021877288818,
      -0.24889707565307617,
      -1.3929544687271118,
      -0.12972410023212433,
      0.13851884007453918,
      0.19729425013065338,
      0.3230728209018707,
      -0.8221811652183533,
      -0.2581179141998291,
      -0.8646034598350525,
      0.09481337666511536,
      -0.4245982766151428,
      0.11897668987512589
    ],
    [
      2.02773380279541,
      0.23486870527267456,
      -0.8915189504623413,
      0.15630517899990082,
      0.035147909075021744,
      -0.312703400850296,
      -0.013374232687056065,
      -0.45298364758491516,
      0.16519695520401,
      0.03936774656176567,
      -0.02316622994840145,
      -0.3104952871799469,
      0.416040301322937
    ],
    [
      8.04549789428711,
      -0.04207170754671097,
      -0.02188786491751671,
      0.1176270917057991,
      0.006917098071426153,
      0.08276335895061493,
      -0.06004728749394417,
      0.0678325667977333,
      -0.10159405320882797,
      0.14121763408184052,
      0.004603218287229538,
      -0.07938726246356964,
      -0.048862867057323456
    ],
    [
      -9.776459693908691,
      0.1244131475687027,
      0.0013349781511351466,
      0.13519293069839478,
      -0.008691282942891121,
      -0.07508406788110733,
      -0.04573575034737587,
      -0.02840941958129406,
      0.004321745131164789,
      -0.020467398688197136,
      -0.004801928531378508,
      -1.377766489982605,
      -0.06333958357572556
    ],
    [
      -0.7414554357528687,
      -0.39199909567832947,
      0.43104320764541626,
      0.05704805999994278,
      0.3243037760257721,
      0.36059170961380005,
      -1.3717082738876343,
      0.22524602711200714,
      -0.34477660059928894,
      0.21749494969844818,
      0.061953239142894745,
      0.7124683260917664,
      -1.023959994316101
    ],
    [
      1.1127537488937378,
      -0.13956891000270844,
      0.25102290511131287,
      0.3593456447124481,
      -0.8090338110923767,
      0.08245672285556793,
      0.5324098467826843,
      -0.022057633846998215,
      0.15600888431072235,
      -0.8496523499488831,
      0.058933187276124954,
      -0.49610981345176697,
      0.2316763997077942
    ],
    [
      0.5088411569595337,
      0.951947808265686,
      -0.7237223386764526,
      0.031118623912334442,
      0.05678817257285118,
      -0.07010333240032196,
      -0.10975567996501923,
      0.5368129014968872,
      -0.42984795570373535,
      0.05915624648332596,
      0.06646314263343811,
      0.13554798066616058,
      0.5744720697402954
    ],
    [
      1.6695630550384521,
      -0.4323773980140686,
      0.08816489577293396,
      -0.13281801342964172,
      -0.013765312731266022,
      0.16118907928466797,
      -0.12745310366153717,
      -0.3564423620700836,
      -0.10707232356071472,
      -0.26867443323135376,
      -0.04829374700784683,
      -0.07868266105651855,
      0.009065359830856323
    ],
    [
      -2.3447813987731934,
      0.17223188281059265,
      -0.25326451659202576,
      -0.5844520330429077,
      -0.2632783353328705,
      -2.4939937591552734,
      0.3807317614555359,
      0.28499677777290344,
      -0.04060601070523262,
      -0.3757707178592682,
      0.17821520566940308,
      0.37780773639678955,
      0.6530073881149292
    ],
    [
      -2.7909820079803467,
      0.8461720943450928,
      -0.4955890476703644,
      -0.04897346347570419,
      0.0517437718808651,
      0.29375356435775757,
      -0.13771085441112518,
      0.13290975987911224,
      0.13276314735412598,
      -0.2961059808731079,
      -0.05595012381672859,
      -0.3953920900821686,
      0.7940405011177063
    ],
    [
      3.4680397510528564,
      -0.2418442964553833,
      -0.029392896220088005,
      -0.36447563767433167,
      -0.9104266166687012,
      -0.7816672325134277,
      0.44281303882598877,
      0.06294171512126923,
      0.11774848401546478,
      0.01517417747527361,
      0.1624719500541687,
      -0.5848135948181152,
      -0.33997443318367004
    ],
    [
      2.9233596324920654,
      0.21872153878211975,
      -0.010199718177318573,
      0.7934246063232422,
      0.385455846786499,
      0.3115890324115753,
      0.05906293913722038,
      0.14980831742286682,
      -0.5306000709533691,
      -0.02893747389316559,
      0.25114506483078003,
      -0.07349803298711777,
      -0.8281873464584351
    ],
    [
      -0.26359739899635315,
      0.11487774550914764,
      -0.30340760946273804,
      0.019210755825042725,
      0.017983080819249153,
      0.26981955766677856,
      0.04170849174261093,
      -0.06611838936805725,
      -0.056041281670331955,
      -0.4539400041103363,
      -0.1286315619945526,
      0.3491763472557068,
      -0.1182921901345253
    ],
    [
      -0.49216267466545105,
      -1.0181946754455566,
      -0.2093263417482376,
      0.004022602457553148,
      0.04715361446142197,
      0.36008453369140625,
      -0.8292725682258606,
      -0.34920546412467957,
      0.3287602663040161,
      -0.23638565838336945,
      0.07740214467048645,
      0.581942617893219,
      0.0001642192219151184
    ],
    [
      3.2740767002105713,
      -0.032862499356269836,
      0.023039257153868675,
      -2.117520332336426,
      -0.010674778372049332,
      0.26717299222946167,
      -0.11544957756996155,
      -0.15100497007369995,
      -0.02908184751868248,
      -0.18330667912960052,
      0.4314170479774475,
      -0.537742018699646,
      -0.08532792329788208
    ],
    [
      0.8106412887573242,
      0.16788820922374725,
      -0.3346177339553833,
      0.013658598996698856,
      -0.08778829127550125,
      0.05746929347515106,
      -0.1547222137451172,
      0.0427643321454525,
      0.11616473644971848,
      0.15621060132980347,
      0.017516665160655975,
      -0.053158972412347794,
      -0.14541035890579224
    ],
    [
      -2.2420883178710938,
      0.4732663929462433,
      -0.26486435532569885,
      0.37883564829826355,
      0.12331760674715042,
      0.7828887104988098,
      -0.14064286649227142,
      0.03935888782143593,
      -0.1569795459508896,
      0.27221253514289856,
      -0.1475866287946701,
      -0.2821175456047058,
      -0.26020389795303345
    ],
    [
      0.39470362663269043,
      -0.006488848011940718,
      0.6569976210594177,
      0.21850356459617615,
      -0.02220304310321808,
      -1.4866567850112915,
      -0.06410422921180725,
      0.43589431047439575,
      -0.17603479325771332,
      0.0393325537443161,
      0.10185317695140839,
      0.3041720688343048,
      -1.3149542808532715
    ],
    [
      1.6666260957717896,
      -0.1581530123949051,
      -0.1299760341644287,
      -0.3019779324531555,
      0.03253163397312164,
      0.30356499552726746,
      -0.19210369884967804,
      0.2399134486913681,
      -0.12948259711265564,
      0.14564472436904907,
      -0.04556339606642723,
      -0.20610767602920532,
      -0.17221607267856598
    ],
    [
      -0.8794213533401489,
      -0.2222563922405243,
      0.2089989185333252,
      -0.1400803178548813,
      0.20066875219345093,
      -0.09465408325195312,
      -0.05232894420623779,
      0.09533354640007019,
      -0.18252937495708466,
      -0.32747960090637207,
      -0.07366080582141876,
      0.181806281208992,
      0.06728377938270569
    ],
    [
      -0.713184118270874,
      -0.27105244994163513,
      -0.049404893070459366,
      -0.5733465552330017,
      0.22367435693740845,
      -4.401318550109863,
      -0.08391726016998291,
      -0.1917876899242401,
      0.09035295248031616,
      0.49866506457328796,
      0.07064007967710495,
      -0.08616771548986435,
      0.5757651925086975
    ],
    [
      -1.1657929420471191,
      0.008389086462557316,
      -0.16992279887199402,
      0.14167675375938416,
      0.7676820158958435,
      -1.1056455373764038,
      -0.771965503692627,
      -0.08383825421333313,
      -0.015069028362631798,
      0.374344140291214,
      0.07414863258600235,
      0.4656156897544861,
      -0.046100057661533356
    ],
    [
      0.3742086589336395,
      0.355853796005249,
      -0.02603953145444393,
      -0.7155982851982117,
      0.23038245737552643,
      -0.15674641728401184,
      -0.00736188655719161,
      0.07870364189147949,
      -0.68653404712677,
      0.9963703155517578,
      0.38708797097206116,
      0.17340487241744995,
      -0.042762741446495056
    ],
    [
      -1.587553858757019,
      -0.5674374103546143,
      0.8179095387458801,
      -0.04995507746934891,
      0.04422891139984131,
      -1.5625114440917969,
      -0.0027133014518767595,
      0.3696397840976715,
      0.06675538420677185,
      -0.09409422427415848,
      -0.06064211204648018,
      0.20480117201805115,
      -1.163603663444519
    ],
    [
      -0.6050230264663696,
      -1.5598790645599365,
      0.3194020390510559,
      0.3902493417263031,
      -0.936944305896759,
      -1.005944013595581,
      0.15531480312347412,
      -0.20738035440444946,
      -0.1950521022081375,
      0.0838049128651619,
      -0.2968437671661377,
      -1.2779432535171509,
      -1.325431227684021
    ],
    [
      1.7408549785614014,
      0.7930053472518921,
      -0.390066534280777,
      0.5106857419013977,
      0.11382351070642471,
      -1.4332236051559448,
      0.23232072591781616,
      0.08868889510631561,
      -0.43222126364707947,
      -0.09110338240861893,
      -0.007168046198785305,
      -0.20954784750938416,
      0.41763919591903687
    ],
    [
      -1.5553418397903442,
      0.16229040920734406,
      0.14062140882015228,
      0.5344491004943848,
      -0.22577667236328125,
      0.5617544651031494,
      -0.20379969477653503,
      0.42790165543556213,
      0.05244216322898865,
      0.11252573877573013,
      -0.012483983300626278,
      -1.3346333503723145,
      -1.2129520177841187
    ],
    [
      -1.1745365858078003,
      0.6196277141571045,
      0.29597195982933044,
      0.10875136405229568,
      0.2943306267261505,
      -0.20688502490520477,
      -0.3474261462688446,
      0.4887320101261139,
      -0.5824697017669678,
      -0.3688794672489166,
      -0.0019172275206074119,
      0.5083208084106445,
      -0.029847310855984688
    ],
    [
      -1.2455002069473267,
      0.0026059355586767197,
      -1.3741893768310547,
      -0.43440574407577515,
      0.1159907653927803,
      -0.2785315215587616,
      0.4669989049434662,
      -0.48089462518692017,
      0.31140244007110596,
      -0.41100648045539856,
      -0.36114010214805603,
      0.47112616896629333,
      0.4377981722354889
    ],
    [
      -0.21480534970760345,
      0.1949545443058014,
      -0.03594134747982025,
      -0.17632539570331573,
      0.004089838825166225,
      -0.2398863434791565,
      -0.2638561725616455,
      -0.05733051896095276,
      -0.1192094087600708,
      -0.2190602421760559,
      -0.2509450316429138,
      0.1436898410320282,
      -0.12465955317020416
    ],
    [
      -0.4619760513305664,
      -1.3740891218185425,
      0.07055499404668808,
      -0.02131068892776966,
      -0.27278414368629456,
      -1.3483277559280396,
      0.3961668908596039,
      -0.24394679069519043,
      0.34817108511924744,
      0.022526416927576065,
      -0.8149641156196594,
      0.3703649044036865,
      -0.7916364073753357
    ],
    [
      -5.134925365447998,
      -0.2967517375946045,
      -0.3312649428844452,
      0.05661949887871742,
      0.32247209548950195,
      0.3103550970554352,
      -0.6275588870048523,
      -0.15714918076992035,
      -0.12752199172973633,
      0.384115606546402,
      0.02892128750681877,
      -0.5781170725822449,
      0.4407614469528198
    ],
    [
      1.155969500541687,
      0.12265657633543015,
      0.03513575345277786,
      -0.23203301429748535,
      0.14575864374637604,
      -0.15317705273628235,
      -0.03797035664319992,
      -0.09527143836021423,
      -0.1500578373670578,
      0.14212507009506226,
      0.04104043170809746,
      -0.009192452766001225,
      -0.30546247959136963
    ],
    [
      -0.33826756477355957,
      -0.03483462333679199,
      0.35270336270332336,
      0.9255574345588684,
      -0.049827419221401215,
      -0.42884528636932373,
      0.14045529067516327,
      0.12955424189567566,
      -0.14707478880882263,
      -0.7618722915649414,
      -0.1558590531349182,
      0.2973129451274872,
      -0.15519846975803375
    ],
    [
      -4.056210517883301,
      0.36016982793807983,
      -0.39066827297210693,
      0.4651210606098175,
      0.4135604202747345,
      -0.45317181944847107,
      0.17211729288101196,
      -0.25522691011428833,
      -0.2637920081615448,
      -0.29658254981040955,
      0.1362328827381134,
      0.312386691570282,
      0.3421734571456909
    ],
    [
      5.127455711364746,
      -0.45161059498786926,
      0.26169878244400024,
      0.37398841977119446,
      -0.08797585964202881,
      -0.20981483161449432,
      0.0743822306394577,
      0.26812511682510376,
      0.18407367169857025,
      -0.14684222638607025,
      -0.008445583283901215,
      -0.3118692934513092,
      -0.38379672169685364
    ],
    [
      -2.021202802658081,
      0.05458661913871765,
      -0.053520314395427704,
      -0.27146339416503906,
      0.027558540925383568,
      -0.16077736020088196,
      -0.23476536571979523,
      0.1581730842590332,
      -0.32891446352005005,
      -0.08004429191350937,
      0.07593494653701782,
      0.035691261291503906,
      0.0718391016125679
    ],
    [
      -0.5323576927185059,
      -0.11794056743383408,
      0.29473215341567993,
      -0.03974033519625664,
      -0.389278769493103,
      -0.7596368193626404,
      0.06456325948238373,
      0.18874786794185638,
      -0.2928633689880371,
      0.007379517424851656,
      -0.21877630054950714,
      0.12925183773040771,
      -0.7090110182762146
    ],
    [
      0.10131148248910904,
      -0.02678730897605419,
      -0.12131527811288834,
      0.03180121257901192,
      -0.23817887902259827,
      0.08944402635097504,
      -0.05347407981753349,
      -0.15425831079483032,
      0.21210984885692596,
      -0.2325737178325653,
      -0.17596378922462463,
      -0.16672229766845703,
      0.13673602044582367
    ],
    [
      2.7922041416168213,
      0.6083961129188538,
      -0.7749958634376526,
      -0.02516007237136364,
      -0.05855857953429222,
      0.7060096859931946,
      0.029800282791256905,
      -0.15414541959762573,
      0.08810809254646301,
      -0.34199854731559753,
      -0.1083686351776123,
      -0.3061326742172241,
      0.49378299713134766
    ],
    [
      2.608591079711914,
      0.27263182401657104,
      -0.23954029381275177,
      0.0064575388096272945,
      -0.047288697212934494,
      0.00610767025500536,
      -0.1169486716389656,
      -0.18089349567890167,
      0.1675136238336563,
      -0.12245869636535645,
      -0.05724099650979042,
      -0.7595103979110718,
      -0.2117900848388672
    ],
    [
      -2.079148054122925,
      -1.2575962543487549,
      -0.604021430015564,
      0.06995613127946854,
      -0.007419941946864128,
      -0.2363523542881012,
      0.0928603783249855,
      -0.931961715221405,
      0.16227313876152039,
      -0.03273952752351761,
      -0.03309907019138336,
      -0.8647751808166504,
      -0.43576779961586
    ],
    [
      -4.6819257736206055,
      0.1198168694972992,
      0.06291422247886658,
      0.21058963239192963,
      0.06451483070850372,
      -0.07577049732208252,
      0.018669409677386284,
      -0.270233154296875,
      0.1038496270775795,
      0.36919105052948,
      0.005405161529779434,
      0.14623908698558807,
      0.3745407462120056
    ],
    [
      0.1745440661907196,
      0.16079911589622498,
      0.07641059905290604,
      0.1795153170824051,
      0.003035452216863632,
      -2.004345178604126,
      -0.05309280753135681,
      0.2637419104576111,
      0.013486618176102638,
      0.06050160154700279,
      -0.2124297022819519,
      -0.15926872193813324,
      0.48301661014556885
    ],
    [
      0.5419193506240845,
      0.5957685112953186,
      -0.3859431743621826,
      0.17129892110824585,
      -0.7300583720207214,
      0.9065706729888916,
      0.12128987163305283,
      -0.004710780922323465,
      -0.09956835210323334,
      -0.3899763822555542,
      -0.24392950534820557,
      0.4080584943294525,
      0.3330771327018738
    ],
    [
      0.6000286936759949,
      -1.8683346509933472,
      0.2083488255739212,
      0.3758074641227722,
      0.1302608847618103,
      0.1656540483236313,
      -0.6006750464439392,
      -0.37203171849250793,
      0.17018020153045654,
      0.2771579623222351,
      -0.011612367816269398,
      -0.17401638627052307,
      -0.2637374699115753
    ],
    [
      1.6294556856155396,
      0.4837186336517334,
      -0.23866626620292664,
      -0.08866634964942932,
      0.3945918083190918,
      0.9337114095687866,
      -0.33391517400741577,
      0.23493973910808563,
      -0.49486780166625977,
      -0.17145629227161407,
      -0.4570617973804474,
      0.7680456638336182,
      0.488048791885376
    ],
    [
      0.1292826533317566,
      -0.17880137264728546,
      0.1764202117919922,
      -0.08688327670097351,
      -0.2628243565559387,
      0.05062633752822876,
      0.1325402557849884,
      -0.047992438077926636,
      -0.0603819340467453,
      -0.1416987031698227,
      0.019152551889419556,
      -0.04525206983089447,
      -0.08637166023254395
    ],
    [
      0.8063091039657593,
      -0.22772589325904846,
      -0.039169084280729294,
      0.3859224021434784,
      0.8239647150039673,
      0.19029422104358673,
      -0.2908814549446106,
      0.007298227399587631,
      -0.12846951186656952,
      -0.33179426193237305,
      0.17033033072948456,
      0.4968191683292389,
      -0.4762389361858368
    ],
    [
      -2.5628936290740967,
      0.14318951964378357,
      0.358369380235672,
      0.3501948118209839,
      -0.13321799039840698,
      0.7961961030960083,
      0.02731028012931347,
      -0.02548593282699585,
      -0.13720203936100006,
      -0.20130211114883423,
      -0.028295064345002174,
      -1.5260692834854126,
      0.0004954542964696884
    ],
    [
      2.601602792739868,
      0.703335702419281,
      -0.46536946296691895,
      0.07509157061576843,
      -0.12193375825881958,
      -1.353418231010437,
      -0.19958733022212982,
      0.3863992393016815,
      -0.18922610580921173,
      -0.45259547233581543,
      -0.14113865792751312,
      -0.05893048644065857,
      0.19683995842933655
    ],
    [
      0.04269018396735191,
      -0.289106160402298,
      0.19067561626434326,
      -0.10105076432228088,
      0.158307746052742,
      -0.3592594563961029,
      0.010511914268136024,
      0.018988387659192085,
      -0.04453844949603081,
      -0.11804290115833282,
      -0.31614628434181213,
      0.20020128786563873,
      -0.4244256317615509
    ],
    [
      -0.04100107401609421,
      -0.16142353415489197,
      -0.2997257113456726,
      -0.013783744536340237,
      -0.2096242904663086,
      0.12353504449129105,
      0.2518538534641266,
      -0.011796601116657257,
      -0.28385335206985474,
      -0.014605574309825897,
      -0.14710620045661926,
      -0.0018055313266813755,
      -0.01317034661769867
    ],
    [
      -0.926835298538208,
      -0.18861056864261627,
      0.5721507668495178,
      -0.45687636733055115,
      0.16499914228916168,
      -0.6894097924232483,
      0.10962235927581787,
      0.3125345706939697,
      -0.4213891625404358,
      -0.44821077585220337,
      -0.032555967569351196,
      0.5728633999824524,
      -0.5741853713989258
    ],
    [
      -1.8130415678024292,
      0.5649594068527222,
      -1.031692385673523,
      -0.19937047362327576,
      -0.16682438552379608,
      -0.10184220969676971,
      0.1471366137266159,
      -0.4114922285079956,
      0.048176709562540054,
      0.08537518978118896,
      0.04359424114227295,
      0.5447025895118713,
      0.7569838762283325
    ],
    [
      -2.044217109680176,
      -1.5236822366714478,
      0.43322116136550903,
      -0.11832151561975479,
      -0.009158322587609291,
      0.06353474408388138,
      0.05628679320216179,
      -0.14763295650482178,
      -0.24172642827033997,
      0.5556597709655762,
      0.08249911665916443,
      0.3176591992378235,
      -0.7987592220306396
    ],
    [
      0.4195164144039154,
      0.6496083736419678,
      0.04231397807598114,
      0.1758531928062439,
      0.3436465859413147,
      0.005154321901500225,
      -0.20030681788921356,
      0.6046572923660278,
      -0.3212086856365204,
      0.40110766887664795,
      -0.7484346032142639,
      -0.540497899055481,
      -0.46381500363349915
    ],
    [
      0.26047930121421814,
      -0.1370561271905899,
      0.050292521715164185,
      -0.1642027348279953,
      0.02276018261909485,
      0.17254096269607544,
      -0.2000015676021576,
      -0.08350913226604462,
      -0.23636259138584137,
      0.1644774079322815,
      -0.04089665412902832,
      -0.18942409753799438,
      -0.11788046360015869
    ],
    [
      -0.2188730090856552,
      0.9477525353431702,
      -0.23708300292491913,
      -0.09783457219600677,
      0.2628350555896759,
      0.47085022926330566,
      -0.12462279945611954,
      0.41559886932373047,
      -0.6063282489776611,
      -0.19074951112270355,
      0.38183605670928955,
      0.4644854962825775,
      -0.1381993591785431
    ],
    [
      6.579651355743408,
      -0.01691678911447525,
      -0.08947025239467621,
      -0.5913293361663818,
      0.022260770201683044,
      -0.06285515427589417,
      0.0744800865650177,
      0.23126180469989777,
      -0.025545187294483185,
      -0.33065345883369446,
      -0.040166135877370834,
      0.5833548903465271,
      -0.20427392423152924
    ],
    [
      4.994517803192139,
      -0.16862468421459198,
      -0.13681139051914215,
      0.1403600126504898,
      0.3599299490451813,
      -0.27903205156326294,
      0.16204708814620972,
      -0.052084360271692276,
      -0.04823506623506546,
      0.2538403868675232,
      -0.04425656795501709,
      -0.07025153189897537,
      0.2522980272769928
    ],
    [
      0.6898825764656067,
      -0.6278595924377441,
      0.41859376430511475,
      -0.008319484069943428,
      -0.5950632691383362,
      -1.3383677005767822,
      -0.48996880650520325,
      0.007385140284895897,
      0.34281182289123535,
      -0.6571109294891357,
      0.1734524369239807,
      0.4984147548675537,
      -0.35208120942115784
    ],
    [
      -3.9361732006073,
      0.15105310082435608,
      0.18183092772960663,
      0.2326051890850067,
      -0.317807137966156,
      0.1541113257408142,
      -0.4208894670009613,
      -0.0009127751691266894,
      0.039821408689022064,
      -0.02297677844762802,
      0.3990967869758606,
      0.14945589005947113,
      -0.2752445638179779
    ],
    [
      -2.461717128753662,
      -0.008852077648043633,
      0.1024925485253334,
      -0.8738631010055542,
      0.6448715329170227,
      -0.20825213193893433,
      -0.3344162106513977,
      0.05307857692241669,
      -0.019812626764178276,
      -0.709483802318573,
      -0.17762872576713562,
      0.44838738441467285,
      0.33062177896499634
    ],
    [
      0.8927549123764038,
      -0.6871753334999084,
      0.3279878497123718,
      0.3665510416030884,
      -0.1004244014620781,
      -1.0404903888702393,
      0.32739654183387756,
      0.11214391142129898,
      0.21458196640014648,
      0.16018231213092804,
      -0.2232840359210968,
      -0.5668743848800659,
      -0.5812550783157349
    ],
    [
      2.2965128421783447,
      -0.20134763419628143,
      0.037577468901872635,
      -0.8492729067802429,
      0.827140212059021,
      -1.1330163478851318,
      0.16317015886306763,
      -0.2588516175746918,
      0.14526069164276123,
      -0.322134792804718,
      0.07305224984884262,
      -0.2390609085559845,
      -0.14524723589420319
    ],
    [
      1.2766778469085693,
      -0.19175028800964355,
      -1.0971548557281494,
      -0.1602347195148468,
      0.3185122311115265,
      0.45716068148612976,
      0.09074286371469498,
      -1.0187932252883911,
      0.04444147273898125,
      -0.32118919491767883,
      0.06060723960399628,
      -1.3779276609420776,
      0.25491517782211304
    ],
    [
      -1.754103183746338,
      -0.8309025764465332,
      -0.3991653025150299,
      0.1416628062725067,
      -0.13555467128753662,
      -0.18879716098308563,
      0.24171876907348633,
      -0.9510781168937683,
      -0.20297059416770935,
      0.18345625698566437,
      -0.27715781331062317,
      -1.605211615562439,
      -0.11036626249551773
    ],
    [
      -0.7775053977966309,
      -0.11278506368398666,
      -0.40276989340782166,
      -0.23878708481788635,
      0.09168782830238342,
      0.4809272587299347,
      -0.20375221967697144,
      -0.47101718187332153,
      0.34367120265960693,
      0.20968516170978546,
      -0.17605164647102356,
      0.31793537735939026,
      0.21628370881080627
    ],
    [
      1.9066920280456543,
      0.5388688445091248,
      0.4666881263256073,
      -0.48460572957992554,
      0.06465720385313034,
      0.008915486745536327,
      0.07885032147169113,
      0.41076159477233887,
      -0.2604335844516754,
      -0.076821468770504,
      -0.28936490416526794,
      0.05103486776351929,
      -0.6722912192344666
    ],
    [
      -1.584800362586975,
      -0.8809528946876526,
      0.653106153011322,
      0.13303440809249878,
      0.011000688187777996,
      0.1926480382680893,
      -0.12067267298698425,
      0.005370626226067543,
      0.16217470169067383,
      -0.2510623633861542,
      -0.4156465530395508,
      0.505855143070221,
      -1.5704374313354492
    ],
    [
      -1.3561877012252808,
      0.18358953297138214,
      0.15258413553237915,
      0.22253459692001343,
      0.01456986553966999,
      -3.7326338291168213,
      -0.21722592413425446,
      -0.18592162430286407,
      -0.0602412223815918,
      0.20936603844165802,
      -0.018027357757091522,
      -0.0605209618806839,
      0.3021356463432312
    ],
    [
      -1.7180670499801636,
      -0.14183618128299713,
      -0.0882076695561409,
      0.03600253537297249,
      -0.27501872181892395,
      -0.8382983803749084,
      0.06439483910799026,
      -0.00863757822662592,
      0.2658049762248993,
      -0.4178275167942047,
      -0.06544723361730576,
      -1.368682861328125,
      0.21945947408676147
    ],
    [
      -0.2589101493358612,
      -0.027623223140835762,
      -0.19448043406009674,
      -0.021773483604192734,
      0.1379397064447403,
      0.09734600782394409,
      -0.1727205216884613,
      -0.13272498548030853,
      -0.03966309875249863,
      -0.15494561195373535,
      0.13227203488349915,
      -0.06405659765005112,
      -0.3056744337081909
    ],
    [
      -2.489095687866211,
      0.11046456545591354,
      -0.5059529542922974,
      0.6332105398178101,
      0.40705543756484985,
      -0.26384076476097107,
      -0.08824819326400757,
      0.13170668482780457,
      -0.5929527282714844,
      0.2220374494791031,
      0.17382094264030457,
      0.8410061597824097,
      -0.18867890536785126
    ],
    [
      -2.1625237464904785,
      -0.18976132571697235,
      -0.7859621644020081,
      0.37352225184440613,
      0.28281712532043457,
      -1.3952713012695312,
      0.48323655128479004,
      -0.44384849071502686,
      0.10536937415599823,
      0.19341044127941132,
      0.027690697461366653,
      -0.07885096967220306,
      0.14457333087921143
    ],
    [
      -0.8333972692489624,
      -0.1420205980539322,
      -0.5111829042434692,
      0.28602463006973267,
      0.2125132828950882,
      -0.1905296891927719,
      0.287532240152359,
      0.20996995270252228,
      -0.4087366461753845,
      -0.21578192710876465,
      -0.008538967929780483,
      0.18168798089027405,
      0.10503775626420975
    ],
    [
      1.8010594844818115,
      0.07909318804740906,
      0.44920629262924194,
      -0.27422860264778137,
      -0.33577558398246765,
      0.5563543438911438,
      -0.7599964141845703,
      -0.014133193530142307,
      0.13297969102859497,
      -0.029140256345272064,
      -0.04214360937476158,
      -0.7019397616386414,
      -0.37805381417274475
    ],
    [
      2.0650792121887207,
      -1.314446210861206,
      -0.19143053889274597,
      0.1338060051202774,
      -0.413326233625412,
      -0.8507283329963684,
      0.47179973125457764,
      -0.6973035335540771,
      0.19992101192474365,
      -0.1364072859287262,
      0.14834827184677124,
      0.1275773048400879,
      -0.06140221282839775
    ],
    [
      -0.4139498770236969,
      -0.616172194480896,
      0.9018464088439941,
      -0.11973704397678375,
      0.11591785401105881,
      0.3240690231323242,
      0.010837153531610966,
      0.5103824734687805,
      -0.09897047281265259,
      0.321455180644989,
      -0.11204717308282852,
      0.05296063423156738,
      -1.1215168237686157
    ],
    [
      -1.4702988862991333,
      -0.040290117263793945,
      -0.5233632922172546,
      -0.2118130475282669,
      -0.214390367269516,
      -0.18527325987815857,
      0.4921400249004364,
      -0.06291665881872177,
      0.0977587178349495,
      0.40197914838790894,
      0.07185808569192886,
      -1.9267172813415527,
      0.04119056090712547
    ],
    [
      -0.025300199165940285,
      -0.06799032539129257,
      -0.08591154962778091,
      -0.0734250545501709,
      0.12936067581176758,
      -0.12917768955230713,
      0.2048221379518509,
      -0.2775304615497589,
      -0.09621284157037735,
      -0.25783759355545044,
      0.06973706185817719,
      0.18059879541397095,
      -0.027071185410022736
    ],
    [
      -2.3633203506469727,
      -0.47198230028152466,
      0.5779633522033691,
      -0.05119963735342026,
      0.0059978836216032505,
      -1.8006237745285034,
      -0.9767799377441406,
      0.026301184669137,
      0.2767537832260132,
      -0.08666153252124786,
      -0.09018975496292114,
      0.0713961198925972,
      -0.4303852319717407
    ],
    [
      -1.3509670495986938,
      -0.34203100204467773,
      -0.0650334432721138,
      -0.03488713875412941,
      0.4253841042518616,
      0.07544552534818649,
      -0.04087640345096588,
      -0.1105620414018631,
      -0.016827519983053207,
      0.5397137999534607,
      0.008046618662774563,
      -0.019725224003195763,
      -0.6387845873832703
    ],
    [
      -1.3772425651550293,
      0.4573090374469757,
      0.45019829273223877,
      -0.158352792263031,
      0.058855123817920685,
      -0.2388075590133667,
      -0.3248484432697296,
      0.19845366477966309,
      -0.3817250728607178,
      -0.7228706479072571,
      -0.24690447747707367,
      0.7574537396430969,
      -0.26048755645751953
    ],
    [
      1.58263099193573,
      0.8108914494514465,
      -0.2722577750682831,
      0.1259016990661621,
      0.3182116150856018,
      0.4930596947669983,
      -0.020584866404533386,
      0.17256605625152588,
      -0.36689338088035583,
      -0.3885912299156189,
      -0.4097641706466675,
      0.38094329833984375,
      0.40636247396469116
    ],
    [
      0.2794628143310547,
      -6.029216766357422,
      -0.7668758034706116,
      -0.06092288717627525,
      0.7580914497375488,
      -0.25397926568984985,
      -0.3592873215675354,
      -1.086958885192871,
      0.1841495782136917,
      -0.012526958249509335,
      0.2559826970100403,
      -2.0693469047546387,
      -0.1758786290884018
    ],
    [
      -1.9501489400863647,
      0.08824772387742996,
      -2.691664457321167,
      0.18683531880378723,
      -0.2909609377384186,
      -0.5532395839691162,
      0.521403968334198,
      -0.47944122552871704,
      0.07323253154754639,
      0.07121283560991287,
      -0.0970487892627716,
      -0.4501415193080902,
      0.36511069536209106
    ],
    [
      0.42308709025382996,
      -0.1562490165233612,
      -2.1374073028564453,
      0.4842716157436371,
      -0.15927836298942566,
      -0.36041259765625,
      -1.0082415342330933,
      -0.7525284290313721,
      0.2082938551902771,
      -0.22927448153495789,
      -1.2764036655426025,
      -0.5866175293922424,
      0.28356871008872986
    ],
    [
      0.489074170589447,
      -0.1713971495628357,
      -0.4673677980899811,
      -0.1499059498310089,
      -0.49958696961402893,
      0.49943679571151733,
      0.30887025594711304,
      -0.23972727358341217,
      -0.1737225502729416,
      -0.8135741353034973,
      0.2359234094619751,
      0.7051293253898621,
      0.4140740633010864
    ],
    [
      -2.448587417602539,
      -0.011999212205410004,
      -0.2979423403739929,
      0.5426850914955139,
      -0.16042208671569824,
      0.8724337220191956,
      -0.8390408158302307,
      -0.18198658525943756,
      0.023190626874566078,
      -0.5102665424346924,
      -0.16580502688884735,
      0.5867862701416016,
      0.38150858879089355
    ],
    [
      -0.08084331452846527,
      -0.15169067680835724,
      -0.19787240028381348,
      0.06890398263931274,
      -0.24411889910697937,
      0.03772246837615967,
      0.08624294400215149,
      0.10641184449195862,
      -0.23323088884353638,
      -0.12352092564105988,
      -0.15402337908744812,
      -0.031492263078689575,
      0.16157063841819763
    ],
    [
      3.647587299346924,
      0.5693823099136353,
      -0.512491762638092,
      0.03473052754998207,
      -0.17475803196430206,
      -0.6008898615837097,
      -0.7016661167144775,
      -0.009111536666750908,
      -0.10340236127376556,
      -0.07698149234056473,
      0.055190928280353546,
      -1.724553108215332,
      0.5466963648796082
    ]
  ],
  "network.0.bias": [
    -0.21287128329277039,
    -0.2383769303560257,
    -0.1939050853252411,
    -0.7416952848434448,
    -0.670005738735199,
    -0.1676824390888214,
    0.4405096471309662,
    0.24495288729667664,
    -0.10714524984359741,
    0.09504427015781403,
    0.0895603820681572,
    0.09312146157026291,
    -0.003988683223724365,
    -0.17254379391670227,
    -0.21074752509593964,
    -0.23543591797351837,
    -0.22038814425468445,
    0.06563685834407806,
    0.11894144862890244,
    0.10147277265787125,
    0.013278302736580372,
    0.04349888488650322,
    -0.4273938834667206,
    -0.05397368595004082,
    -0.05094094201922417,
    0.353665292263031,
    0.007595977280288935,
    0.24592894315719604,
    0.1296461820602417,
    0.08394737541675568,
    0.19979873299598694,
    -0.036928799003362656,
    -0.059833548963069916,
    0.07558495551347733,
    0.08242690563201904,
    -0.05629550293087959,
    0.1795358657836914,
    -0.11576613038778305,
    0.30220118165016174,
    -0.005261457059532404,
    -0.11750934273004532,
    -0.5298418402671814,
    0.18833637237548828,
    -0.06738755106925964,
    0.07001197338104248,
    0.11546947807073593,
    -0.10067234188318253,
    -0.49606791138648987,
    0.14470891654491425,
    -0.05226992070674896,
    -0.3134874403476715,
    -0.05357594043016434,
    -0.46300798654556274,
    -0.3807532489299774,
    -0.10080818086862564,
    0.0027831015177071095,
    -0.2662400007247925,
    -0.4489533007144928,
    0.07245512306690216,
    -0.23235131800174713,
    -0.2666085660457611,
    -0.22884762287139893,
    -0.2940767705440521,
    0.03082997351884842,
    -0.02234606444835663,
    0.02484176494181156,
    0.1819656789302826,
    -0.17313100397586823,
    -0.5252132415771484,
    0.18757249414920807,
    0.0023678455036133528,
    0.06669246405363083,
    -0.2308657318353653,
    -0.1943613588809967,
    -0.3845306634902954,
    -0.13188138604164124,
    0.03533414006233215,
    0.0838278979063034,
    -0.10217011719942093,
    -0.2367471307516098,
    0.3049488365650177,
    -0.3144260346889496,
    -0.1857418715953827,
    -0.2530164122581482,
    -0.0913744866847992,
    0.07307064533233643,
    -0.2680457532405853,
    0.01271956879645586,
    0.03607267141342163,
    -0.06998363137245178,
    0.23967529833316803,
    -0.31291207671165466,
    -0.17468130588531494,
    -0.5769033432006836,
    0.16337545216083527,
    -0.11271855980157852,
    0.16000770032405853,
    0.10471726953983307,
    0.3752531409263611,
    0.09751420468091965,
    -0.09028859436511993,
    0.15798696875572205,
    -0.17569777369499207,
    0.32750967144966125,
    -0.2842097580432892,
    -0.08970031887292862,
    0.3808823227882385,
    0.547085165977478,
    -0.054777953773736954,
    -0.4208226799964905,
    -0.060129012912511826,
    -0.4336395561695099,
    0.061941150575876236,
    0.23696011304855347,
    -0.29298433661460876,
    -0.019138729199767113,
    -0.2711085379123688,
    0.42021676898002625,
    -0.03106488287448883,
    -0.08153294771909714,
    -0.6084761023521423,
    0.1291205734014511,
    0.13862501084804535,
    0.5358366966247559,
    0.0016656838124617934,
    -0.22416310012340546,
    -0.08408544957637787,
    -0.06714548915624619
  ],
  "network.2.weight": [
    1.1301709413528442,
    1.1635572910308838,
    0.5235352516174316,
    1.3873276710510254,
    1.6134850978851318,
    1.0095927715301514,
    1.1122909784317017,
    1.3113285303115845,
    1.3750026226043701,
    0.6797923445701599,
    0.3948062062263489,
    0.993687629699707,
    1.0479987859725952,
    0.6889662742614746,
    1.1986525058746338,
    1.2831650972366333,
    1.0409588813781738,
    0.355338454246521,
    0.977150022983551,
    1.3790721893310547,
    0.581311047077179,
    0.5983067154884338,
    1.058606743812561,
    1.0984153747558594,
    0.8219272494316101,
    1.6421016454696655,
    0.5147684216499329,
    0.8175811171531677,
    1.0056296586990356,
    0.7887806296348572,
    1.1413614749908447,
    0.8788790702819824,
    1.0830049514770508,
    0.7410871982574463,
    1.580803632736206,
    1.2290453910827637,
    0.6779064536094666,
    3.276308536529541,
    2.3426246643066406,
    1.3095335960388184,
    0.8753833174705505,
    1.279300332069397,
    1.3043664693832397,
    0.5766448378562927,
    0.7727131247520447,
    0.9208796620368958,
    0.630389392375946,
    1.0774091482162476,
    0.9348242282867432,
    0.7948055267333984,
    0.7673460841178894,
    0.29534515738487244,
    1.4205529689788818,
    0.8885512351989746,
    2.07371187210083,
    0.5962207913398743,
    0.6410991549491882,
    1.1984230279922485,
    1.041201114654541,
    1.3602246046066284,
    0.9722117185592651,
    1.2263243198394775,
    0.5308258533477783,
    1.2313543558120728,
    1.1036615371704102,
    0.9047496318817139,
    1.3228232860565186,
    0.39241155982017517,
    0.9064520597457886,
    0.5652481913566589,
    0.31128159165382385,
    0.9424700736999512,
    1.0781530141830444,
    1.0254840850830078,
    1.1649616956710815,
    1.2019318342208862,
    1.072348952293396,
    1.5328593254089355,
    0.25351524353027344,
    0.9679189324378967,
    1.2970198392868042,
    1.107950210571289,
    1.064094066619873,
    0.6798961162567139,
    0.6063340902328491,
    0.8491951823234558,
    1.8731868267059326,
    1.1200342178344727,
    0.9509909749031067,
    0.9518508315086365,
    0.8920003175735474,
    0.7132328748703003,
    1.0850025415420532,
    1.2883415222167969,
    1.514691710472107,
    0.4268898665904999,
    1.0045843124389648,
    0.42031529545783997,
    0.815618097782135,
    0.348293662071228,
    0.8134323954582214,
    1.121745228767395,
    1.1280903816223145,
    0.23732636868953705,
    0.9897509217262268,
    1.5037500858306885,
    0.4878455400466919,
    0.869011640548706,
    1.186429738998413,
    1.1840662956237793,
    1.0318317413330078,
    1.1741130352020264,
    0.910409688949585,
    0.8197675347328186,
    0.8362083435058594,
    0.7076933979988098,
    1.0325465202331543,
    1.390925407409668,
    0.24791347980499268,
    0.7847164273262024,
    1.3804360628128052,
    1.396396517753601,
    1.3149100542068481,
    1.0370664596557617,
    0.7127173542976379,
    1.0717177391052246,
    0.9591739773750305,
    1.4425549507141113
  ],
  "network.2.bias": [
    0.5274222493171692,
    -0.3432169556617737,
    0.13879819214344025,
    0.5261175632476807,
    0.34960445761680603,
    0.3436794877052307,
    0.6608963012695312,
    0.45915094017982483,
    -0.16700440645217896,
    0.2625463902950287,
    -0.12833809852600098,
    0.14742830395698547,
    0.35276007652282715,
    0.21054616570472717,
    0.4218533933162689,
    -0.05466369912028313,
    0.3545587360858917,
    0.18597529828548431,
    -0.025211205706000328,
    0.46604031324386597,
    0.22750958800315857,
    0.34930121898651123,
    0.19442014396190643,
    0.007876375690102577,
    0.2868049144744873,
    -1.0058808326721191,
    -0.10816577076911926,
    -0.08169066905975342,
    0.33052363991737366,
    0.09888968616724014,
    0.3320271670818329,
    -0.978778600692749,
    0.24341267347335815,
    -0.4527764916419983,
    0.779272198677063,
    0.41905301809310913,
    0.22822688519954681,
    0.7607784271240234,
    1.0583206415176392,
    0.47704315185546875,
    0.006177898496389389,
    0.6742842197418213,
    -0.0624360628426075,
    0.24926628172397614,
    0.6097767353057861,
    0.2709691524505615,
    -0.2817615270614624,
    0.19768767058849335,
    0.27891799807548523,
    -0.07654758542776108,
    0.23452594876289368,
    0.04780076816678047,
    -0.30569177865982056,
    0.3063364624977112,
    -1.3363217115402222,
    -0.738003134727478,
    0.23291736841201782,
    0.5215020775794983,
    0.4234671890735626,
    0.31301093101501465,
    0.057941023260354996,
    0.098163902759552,
    0.19751110672950745,
    0.2591135799884796,
    0.346338152885437,
    -0.16530238091945648,
    0.5572734475135803,
    0.1470108926296234,
    0.3586025834083557,
    0.23421835899353027,
    0.04246309772133827,
    -0.03455391898751259,
    0.34492725133895874,
    0.30158472061157227,
    0.10835117846727371,
    0.23958411812782288,
    -0.43177786469459534,
    -0.5060790181159973,
    0.08929998427629471,
    0.252246230840683,
    -0.5330233573913574,
    0.5489257574081421,
    0.2905942499637604,
    -0.04853043332695961,
    0.227317214012146,
    0.21111813187599182,
    -1.2048090696334839,
    0.37521594762802124,
    -0.16716457903385162,
    1.0626437664031982,
    -0.3816802203655243,
    -0.1501234769821167,
    0.3557974696159363,
    0.5064204931259155,
    -0.08632715046405792,
    -0.40565264225006104,
    0.15725941956043243,
    -0.0792611837387085,
    0.3101838529109955,
    0.12714898586273193,
    0.2988547384738922,
    0.42418718338012695,
    0.3242855370044708,
    -0.11194021254777908,
    -0.18484842777252197,
    0.5094766020774841,
    -0.3633157014846802,
    0.3365826904773712,
    0.11605358123779297,
    0.3239099979400635,
    -0.028025129809975624,
    0.06514599174261093,
    0.13085642457008362,
    0.3468439280986786,
    -0.018895290791988373,
    -0.09033209830522537,
    0.21827958524227142,
    0.6379828453063965,
    -0.08401891589164734,
    0.29545480012893677,
    0.5935570001602173,
    0.5144895911216736,
    0.5053005814552307,
    0.4350842237472534,
    0.1384003758430481,
    0.040126632899045944,
    0.2681121826171875,
    0.6542667746543884
  ],
  "network.3.weight": [
    [
      -0.8416798710823059,
      0.2532086670398712,
      0.2976771593093872,
      0.35663464665412903,
      -0.008465220220386982,
      0.3301834166049957,
      0.08426298946142197,
      0.2923290431499481,
      0.28567591309547424,
      0.5482876300811768,
      0.14382506906986237,
      -0.4766964018344879,
      0.2029549777507782,
      0.13992799818515778,
      0.6985277533531189,
      0.27955344319343567,
      0.29307928681373596,
      -0.6503215432167053,
      0.10039083659648895,
      0.29733583331108093,
      0.14874012768268585,
      0.48906511068344116,
      0.5957514643669128,
      0.2538277804851532,
      0.2082320749759674,
      0.43078896403312683,
      0.1928352564573288,
      0.1687958538532257,
      0.1874915063381195,
      0.3903578221797943,
      0.22188784182071686,
      -0.0955093502998352,
      0.5607805848121643,
      -0.5853687524795532,
      -0.2609027624130249,
      0.17746330797672272,
      -1.31338632106781,
      0.6996980905532837,
      0.09994760900735855,
      0.21717128157615662,
      0.06962625682353973,
      -1.1930410861968994,
      0.1226426437497139,
      -0.22657084465026855,
      -0.21418672800064087,
      0.6117403507232666,
      0.4570353627204895,
      0.15615174174308777,
      0.4210982024669647,
      0.042783208191394806,
      0.15611857175827026,
      -0.3203526735305786,
      -0.10136906057596207,
      0.28897252678871155,
      0.16456136107444763,
      0.8736258745193481,
      0.07280230522155762,
      -0.20687058568000793,
      0.31015270948410034,
      0.1561707854270935,
      0.07641617953777313,
      -0.7714809775352478,
      0.2556097209453583,
      -0.8435526490211487,
      0.27925586700439453,
      0.07287950068712234,
      0.023718684911727905,
      0.1837504506111145,
      -0.13770121335983276,
      -0.24728675186634064,
      0.5544617772102356,
      0.022338025271892548,
      0.18038880825042725,
      0.21093280613422394,
      0.45069751143455505,
      0.2027229368686676,
      0.060748014599084854,
      -0.2517735958099365,
      -0.9544219374656677,
      0.11152490973472595,
      0.1995471566915512,
      0.3004884123802185,
      0.17258888483047485,
      0.42285028100013733,
      -0.4861457645893097,
      -0.4878213107585907,
      0.17736630141735077,
      0.2814334034919739,
      -0.09386186301708221,
      -1.073798418045044,
      0.044201187789440155,
      0.22333630919456482,
      0.20768868923187256,
      0.42300912737846375,
      0.5661292672157288,
      0.4302601218223572,
      0.3233122229576111,
      -0.16155211627483368,
      -0.2380124032497406,
      0.352061927318573,
      -1.0374456644058228,
      0.6225395798683167,
      0.2608766257762909,
      0.04745236411690712,
      -0.478442907333374,
      0.08001954108476639,
      0.06687260419130325,
      -0.08970575034618378,
      0.18688543140888214,
      -0.40204915404319763,
      -0.5401511192321777,
      0.1792270690202713,
      0.15959003567695618,
      0.14209452271461487,
      -0.710349440574646,
      0.20890745520591736,
      0.17147712409496307,
      0.8140400052070618,
      -0.20111943781375885,
      -0.23297901451587677,
      -0.05454297363758087,
      -0.23513579368591309,
      0.19396770000457764,
      0.26762324571609497,
      0.6290290355682373,
      -0.11172208189964294,
      0.29810795187950134,
      -0.18047979474067688
    ],
    [
      0.03854292258620262,
      0.011364984326064587,
      0.049502234905958176,
      0.11835385859012604,
      -0.03082069382071495,
      0.16647915542125702,
      0.047448981553316116,
      0.19078859686851501,
      0.008546758443117142,
      0.024887828156352043,
      0.0070981415919959545,
      -0.006697765085846186,
      0.20704829692840576,
      0.09456128627061844,
      0.14192627370357513,
      0.21424762904644012,
      0.09321823716163635,
      -0.06493831425905228,
      0.06279449909925461,
      0.1294037103652954,
      0.019599033519625664,
      0.08683109283447266,
      0.06971104443073273,
      0.12018966674804688,
      0.11438749730587006,
      0.09959366172552109,
      -0.001423696056008339,
      -0.019640231505036354,
      0.17854607105255127,
      -0.015998607501387596,
      0.041100189089775085,
      0.08434373885393143,
      0.06626138091087341,
      0.07961852103471756,
      0.036967817693948746,
      0.22573405504226685,
      -0.04937096685171127,
      0.06693954765796661,
      0.09873519092798233,
      0.04863419383764267,
      0.03220568597316742,
      0.022736378014087677,
      0.1534242033958435,
      0.1065068244934082,
      -0.03821025416254997,
      -0.042285602539777756,
      -0.01965494453907013,
      0.11523302644491196,
      0.051582615822553635,
      0.05699321627616882,
      0.184625506401062,
      0.03716849535703659,
      0.10682596266269684,
      0.17175696790218353,
      0.1529710292816162,
      0.12467159330844879,
      0.03959008306264877,
      0.16819290816783905,
      0.06503947079181671,
      0.19551579654216766,
      0.05523498356342316,
      0.001143638975918293,
      -0.06581046432256699,
      0.16722728312015533,
      0.22873975336551666,
      0.14611485600471497,
      0.10842274874448776,
      -0.056223418563604355,
      0.10349627584218979,
      0.03852865844964981,
      -0.019677216187119484,
      0.038439568132162094,
      0.20552055537700653,
      0.15461693704128265,
      0.04841504991054535,
      0.1806177794933319,
      0.08043058216571808,
      -0.12094660848379135,
      -0.021826112642884254,
      0.01963251456618309,
      -0.046897854655981064,
      0.10913589596748352,
      0.1128840446472168,
      -0.000287098519038409,
      0.039475053548812866,
      0.1378280371427536,
      0.16025815904140472,
      0.05844728648662567,
      -0.00038920092629268765,
      -0.04256105795502663,
      0.03467079624533653,
      0.009444755502045155,
      0.18886925280094147,
      0.07692460715770721,
      -0.050050489604473114,
      -0.0070863268338143826,
      -0.023993274196982384,
      -0.04634306952357292,
      0.04887571930885315,
      0.08143644034862518,
      0.11407725512981415,
      0.07755667716264725,
      0.06543941795825958,
      0.002226034877821803,
      -0.06835059076547623,
      0.08794615417718887,
      -0.01635158248245716,
      -0.0801846906542778,
      0.17461785674095154,
      0.11714792996644974,
      0.10236689448356628,
      0.10206618905067444,
      -0.022028334438800812,
      -0.011251913383603096,
      -0.049156107008457184,
      0.06397457420825958,
      0.24390318989753723,
      -0.006055301986634731,
      -0.04609329253435135,
      -0.0629558116197586,
      0.003661189926788211,
      0.09088151901960373,
      0.0130858039483428,
      0.10531938076019287,
      -0.05063265934586525,
      0.09748072177171707,
      0.07175038009881973,
      0.06173071637749672
    ],
    [
      -0.18680913746356964,
      -0.07544512301683426,
      -0.6666045784950256,
      0.2824932634830475,
      0.4012898802757263,
      0.0736786350607872,
      0.006125657353550196,
      -0.056421685963869095,
      -0.5282796621322632,
      0.3324851393699646,
      -0.11166375875473022,
      0.017578912898898125,
      0.08113202452659607,
      0.005634813569486141,
      -0.5386174321174622,
      -0.09860189259052277,
      0.03945321962237358,
      0.3776770830154419,
      -0.38106662034988403,
      0.17973828315734863,
      0.06602063030004501,
      0.2016182541847229,
      0.6191273331642151,
      0.5459684729576111,
      0.044548150151968,
      0.7205566763877869,
      0.9126531481742859,
      0.5308754444122314,
      -0.004390879068523645,
      -0.1387285441160202,
      0.4695546329021454,
      -0.0740651860833168,
      0.46145886182785034,
      -0.060623444616794586,
      0.4391029477119446,
      0.10368072986602783,
      0.2785937786102295,
      0.05746396258473396,
      -0.5830776691436768,
      -0.6241505742073059,
      -1.44569730758667,
      0.5751661062240601,
      0.20496998727321625,
      -1.067724347114563,
      -0.36007052659988403,
      -0.6960027813911438,
      -0.054174989461898804,
      -0.011509191244840622,
      0.7146331071853638,
      0.009660773910582066,
      -0.011965777724981308,
      -0.7287144064903259,
      -0.04370922967791557,
      0.0030684310477226973,
      0.26543283462524414,
      0.7443532943725586,
      0.7405577301979065,
      -0.3570787310600281,
      -0.16530217230319977,
      0.02029104344546795,
      0.8334076404571533,
      0.5470190048217773,
      0.21796062588691711,
      1.0383965969085693,
      -0.021107584238052368,
      0.401297926902771,
      0.3029176592826843,
      0.05572998896241188,
      -0.1881038397550583,
      -0.1059979498386383,
      -0.05752749368548393,
      0.1188468486070633,
      0.04265708848834038,
      0.08518028259277344,
      -0.49095335602760315,
      -0.06105385348200798,
      0.23112742602825165,
      -0.43002083897590637,
      0.5790072083473206,
      -0.07344890385866165,
      0.7256556153297424,
      -0.7441146373748779,
      -0.0729028582572937,
      -1.0073760747909546,
      -0.44934019446372986,
      0.10364492237567902,
      0.24277973175048828,
      0.05715759098529816,
      -0.048975151032209396,
      -0.7209169268608093,
      -0.02074580080807209,
      0.18323691189289093,
      0.00728137232363224,
      0.08907536417245865,
      0.1079893559217453,
      0.22675122320652008,
      0.3104090094566345,
      0.12571312487125397,
      0.18218201398849487,
      -0.1425250768661499,
      0.3568570017814636,
      -0.7185969352722168,
      -0.07518705725669861,
      0.04027212783694267,
      0.01040463987737894,
      0.30455008149147034,
      0.5248833894729614,
      0.5456106066703796,
      -0.00042320528882555664,
      0.6579066514968872,
      -0.0843784287571907,
      -0.06137542799115181,
      -0.19375580549240112,
      -0.28639504313468933,
      0.07133840024471283,
      -0.08948647975921631,
      -0.007270274683833122,
      0.48570454120635986,
      0.06435458362102509,
      0.07376404851675034,
      0.6841925978660583,
      0.6264693140983582,
      -0.3407306671142578,
      0.008223790675401688,
      -0.37827566266059875,
      0.42846158146858215,
      -0.05391708388924599,
      0.2369040548801422
    ],
    [
      -0.03199547901749611,
      0.13476547598838806,
      0.1008852869272232,
      0.14272911846637726,
      0.04402944818139076,
      0.12715721130371094,
      -0.10659807175397873,
      0.05844765529036522,
      0.09697484225034714,
      -0.02131021022796631,
      -0.06770218163728714,
      0.1253461390733719,
      0.11846380680799484,
      0.05571279674768448,
      0.17851857841014862,
      0.17774586379528046,
      0.0773325189948082,
      -0.047300785779953,
      0.037978917360305786,
      0.15004177391529083,
      0.03410044685006142,
      -0.013493663631379604,
      -0.038910940289497375,
      0.02137768268585205,
      0.123165562748909,
      0.11331968754529953,
      0.18528351187705994,
      -0.009860157035291195,
      0.05634821206331253,
      0.08939795196056366,
      0.04416249319911003,
      0.0070967464707791805,
      -0.12994424998760223,
      -0.03047015517950058,
      0.1345207840204239,
      0.051760680973529816,
      0.05033315718173981,
      -0.0936184823513031,
      0.055461667478084564,
      0.07121466100215912,
      0.05195923522114754,
      -0.10337906330823898,
      0.15867894887924194,
      0.012053685262799263,
      -0.11951887607574463,
      0.10575176030397415,
      0.03817947208881378,
      0.18134184181690216,
      0.14648956060409546,
      -0.02591964788734913,
      0.05523168295621872,
      -0.22819890081882477,
      -0.06287553161382675,
      0.12357264012098312,
      0.17083771526813507,
      -0.010364226996898651,
      -0.047469835728406906,
      0.03917307034134865,
      -0.06466929614543915,
      0.1821853369474411,
      -0.02407149039208889,
      0.04632627218961716,
      0.009397894144058228,
      0.01997724547982216,
      0.14652997255325317,
      0.11828357726335526,
      0.015121296979486942,
      0.015666499733924866,
      0.081012062728405,
      0.02167876996099949,
      -0.1215168759226799,
      0.026791609823703766,
      0.1455368995666504,
      0.07847768068313599,
      0.033360857516527176,
      0.15054258704185486,
      0.08491749316453934,
      -0.16423006355762482,
      -0.10965640842914581,
      -0.07818881422281265,
      0.0042570531368255615,
      -0.04409501329064369,
      0.037968724966049194,
      0.017418624833226204,
      0.1361658275127411,
      0.0326077900826931,
      0.21275009214878082,
      0.1573023945093155,
      0.12831337749958038,
      -0.027704857289791107,
      0.0412515327334404,
      0.08464450389146805,
      0.07830589264631271,
      0.142687126994133,
      0.05996411666274071,
      -0.0358729213476181,
      0.1277373880147934,
      0.03289911895990372,
      0.1931818127632141,
      -0.14321668446063995,
      0.13173121213912964,
      -0.008887814357876778,
      0.043327197432518005,
      -0.04376286268234253,
      0.1310698390007019,
      0.043209318071603775,
      -0.07859639078378677,
      0.04267580807209015,
      0.20735231041908264,
      0.06730917096138,
      -0.05697992444038391,
      0.15130232274532318,
      -0.07517027854919434,
      -0.035228878259658813,
      -0.14001987874507904,
      0.05375320836901665,
      0.18876913189888,
      0.13134904205799103,
      -0.15315182507038116,
      -0.012457186356186867,
      -0.00713782012462616,
      0.04358026385307312,
      0.05274500325322151,
      0.17196567356586456,
      -0.07444820553064346,
      0.003116504056379199,
      0.17602276802062988,
      0.20302975177764893
    ],
    [
      0.843293309211731,
      0.13477908074855804,
      -0.13292621076107025,
      0.6681381464004517,
      -0.6719085574150085,
      -0.0034152697771787643,
      -0.07855387777090073,
      -0.1332053244113922,
      0.33598363399505615,
      -0.7651553153991699,
      -0.4703602194786072,
      0.6293519735336304,
      -0.09256249666213989,
      0.20592330396175385,
      0.4081566333770752,
      0.14466232061386108,
      -0.10090272128582001,
      -0.3460484743118286,
      -0.3128437399864197,
      -0.5567096471786499,
      -0.3185875713825226,
      0.30468225479125977,
      0.5000385046005249,
      0.10038868337869644,
      -0.03987204656004906,
      0.605738639831543,
      0.24029161036014557,
      0.9713375568389893,
      0.009676050394773483,
      0.11799336969852448,
      0.6283105611801147,
      -0.349822461605072,
      -0.5343674421310425,
      0.47492721676826477,
      -1.2041587829589844,
      -0.18673372268676758,
      -0.5370967388153076,
      -0.7439671754837036,
      1.0240285396575928,
      0.5750899910926819,
      0.02510812133550644,
      -1.0029034614562988,
      -0.0498172901570797,
      -0.1723662167787552,
      -0.7869201898574829,
      0.3759903907775879,
      -0.07750429213047028,
      -0.06045369803905487,
      0.857236385345459,
      -0.014728428795933723,
      0.12156837433576584,
      -0.05706803873181343,
      -0.17518620193004608,
      0.05663219466805458,
      0.2139607071876526,
      0.26283493638038635,
      -0.7003981471061707,
      -0.5046340823173523,
      -0.473040908575058,
      0.06273575127124786,
      -0.5266673564910889,
      0.1591830551624298,
      0.09888465702533722,
      -0.334586501121521,
      -0.01251224149018526,
      -0.6428305506706238,
      -0.035691726952791214,
      -0.08532363176345825,
      -0.08652050048112869,
      0.180132657289505,
      -0.2855885326862335,
      -0.030233506113290787,
      -0.10898838937282562,
      0.07848237454891205,
      -0.453145295381546,
      0.19833269715309143,
      0.1616935282945633,
      0.0603601410984993,
      -0.7236824631690979,
      -0.2631142735481262,
      0.7438297867774963,
      0.2843831181526184,
      0.07880739122629166,
      0.360539048910141,
      -0.3040372431278229,
      0.18794365227222443,
      0.06114543601870537,
      -0.15944311022758484,
      -0.3098021149635315,
      -0.5855086445808411,
      0.30560654401779175,
      -0.21672311425209045,
      -0.08881180733442307,
      -0.19163547456264496,
      -0.8294928669929504,
      -0.3320804536342621,
      -0.11178585886955261,
      0.3953092098236084,
      0.005242553539574146,
      -0.09025908261537552,
      -0.5368462800979614,
      0.030259542167186737,
      -0.025997281074523926,
      -0.1274857074022293,
      -0.013494965620338917,
      0.9911403656005859,
      -0.18060420453548431,
      0.14279040694236755,
      0.09843872487545013,
      0.31143760681152344,
      -0.18166488409042358,
      0.19445668160915375,
      -0.04122164845466614,
      0.19672967493534088,
      -0.5740931630134583,
      0.2012249082326889,
      0.11421804130077362,
      0.04242759570479393,
      0.4707312285900116,
      -0.14221163094043732,
      0.22582535445690155,
      -0.10389318317174911,
      0.2243741899728775,
      -0.10534311085939407,
      -0.4701046645641327,
      -0.08569260686635971,
      0.11460501700639725,
      -0.02780909836292267
    ],
    [
      -0.006331724114716053,
      0.36498597264289856,
      0.08494369685649872,
      0.663284420967102,
      0.3914388418197632,
      0.13175885379314423,
      0.2532193064689636,
      0.042249858379364014,
      0.19889438152313232,
      0.4818847179412842,
      -0.13226374983787537,
      -0.42165684700012207,
      0.051812756806612015,
      0.006532981060445309,
      0.4188271164894104,
      0.30800968408584595,
      0.033425163477659225,
      0.007069784682244062,
      0.13514141738414764,
      0.12495128065347672,
      -0.31786778569221497,
      -0.279935747385025,
      0.66523677110672,
      0.64527827501297,
      0.29609251022338867,
      0.18588164448738098,
      -0.4846753478050232,
      0.11618586629629135,
      0.10029792040586472,
      -0.1367996335029602,
      -0.14816921949386597,
      0.22513549029827118,
      0.20801472663879395,
      -0.3548382818698883,
      -0.26733502745628357,
      -0.09418318420648575,
      -1.7817476987838745,
      -0.5817877650260925,
      0.18826685845851898,
      0.9204731583595276,
      0.48606809973716736,
      0.38736727833747864,
      0.25311005115509033,
      -0.06815224140882492,
      0.02719780243933201,
      -0.30503636598587036,
      0.45816484093666077,
      0.23703107237815857,
      0.05660625547170639,
      0.9427518844604492,
      0.25623416900634766,
      0.1865103840827942,
      0.10351820290088654,
      0.07651841640472412,
      0.29596221446990967,
      -0.12429060786962509,
      -0.21345612406730652,
      0.3112119436264038,
      -2.54546856880188,
      0.20384371280670166,
      0.575434684753418,
      0.5826586484909058,
      0.26136985421180725,
      -0.09146511554718018,
      0.16117355227470398,
      0.18339818716049194,
      0.7471102476119995,
      -0.20267072319984436,
      -0.18339158594608307,
      0.07772378623485565,
      -0.45758792757987976,
      0.16605541110038757,
      0.08192787319421768,
      0.18621692061424255,
      -0.019897809252142906,
      0.15571610629558563,
      0.2904258370399475,
      -0.1673525720834732,
      0.3308296203613281,
      -0.24630123376846313,
      0.16688314080238342,
      -0.3225928246974945,
      0.1623510867357254,
      0.15471655130386353,
      -0.3009485900402069,
      0.5505425930023193,
      0.24121251702308655,
      0.05463029071688652,
      0.28790268301963806,
      0.07374528795480728,
      0.12069902569055557,
      0.4088071584701538,
      0.05528666451573372,
      0.38320299983024597,
      -0.550857663154602,
      -0.44705894589424133,
      0.048510294407606125,
      -0.5445372462272644,
      0.18169932067394257,
      -0.056516628712415695,
      -0.5777605772018433,
      -0.31059059500694275,
      0.22769439220428467,
      -1.2967112064361572,
      0.4326826333999634,
      0.2890097200870514,
      0.22079876065254211,
      0.3930351138114929,
      0.2433437556028366,
      0.34851205348968506,
      -0.3549037277698517,
      0.3047756254673004,
      -0.387072890996933,
      -0.16758783161640167,
      -1.3750208616256714,
      0.1090349331498146,
      0.2550083100795746,
      -0.0010892279678955674,
      -0.2075839787721634,
      -0.0767119824886322,
      0.08706577867269516,
      0.18114008009433746,
      -0.8707423806190491,
      -0.27803903818130493,
      -0.3046911060810089,
      -0.3884966969490051,
      0.30136770009994507,
      0.029066521674394608
    ],
    [
      0.45495569705963135,
      0.20538602769374847,
      0.42624008655548096,
      0.7427631616592407,
      0.7439332008361816,
      -0.17986075580120087,
      0.13259297609329224,
      -0.05516153946518898,
      0.11355103552341461,
      0.19996081292629242,
      0.11014235764741898,
      -1.0061324834823608,
      -0.2804528772830963,
      0.5542680621147156,
      -0.35259324312210083,
      0.2143278270959854,
      -0.2458033710718155,
      -0.17346826195716858,
      0.23386125266551971,
      0.027557166293263435,
      -0.3617980480194092,
      0.1391010582447052,
      0.7187627553939819,
      0.04973412677645683,
      -0.3933112621307373,
      0.5114970207214355,
      0.6155523657798767,
      -0.44080066680908203,
      -0.1408144235610962,
      0.3517071306705475,
      -0.04005257040262222,
      0.017086870968341827,
      0.06275426596403122,
      -0.03047216683626175,
      -1.8333849906921387,
      -0.34363222122192383,
      -1.3786884546279907,
      0.42482879757881165,
      -1.0288238525390625,
      0.9608752131462097,
      -0.13529235124588013,
      -0.265853613615036,
      0.12914131581783295,
      -0.07138915359973907,
      -0.7022796273231506,
      0.5019496083259583,
      0.3859313726425171,
      0.16346192359924316,
      -0.16389739513397217,
      0.285047709941864,
      -0.04157814383506775,
      0.5850903391838074,
      0.8139036297798157,
      -0.2982538044452667,
      0.18277189135551453,
      -0.017854927107691765,
      0.15968692302703857,
      -0.5677946209907532,
      0.5935479998588562,
      -0.0072367386892437935,
      -0.13449154794216156,
      0.4509793221950531,
      0.47006872296333313,
      1.363287329673767,
      -0.20290431380271912,
      0.46098771691322327,
      0.5716016292572021,
      -0.24305525422096252,
      0.7264338135719299,
      -0.5980975031852722,
      0.4171106517314911,
      0.053748831152915955,
      -0.2611182630062103,
      -0.004223611205816269,
      -0.10146460682153702,
      -0.031703684478998184,
      0.15708698332309723,
      -0.3272431492805481,
      0.44326910376548767,
      0.1073145791888237,
      -0.0481228232383728,
      -0.3161998987197876,
      0.03187444061040878,
      -0.14915499091148376,
      0.19298821687698364,
      0.7290902137756348,
      0.25504159927368164,
      -0.34641772508621216,
      -0.038749583065509796,
      -0.558167576789856,
      0.074796661734581,
      0.37917032837867737,
      -0.2753235101699829,
      0.8517420291900635,
      -0.14590060710906982,
      0.40465855598449707,
      0.016680585220456123,
      -0.09609124809503555,
      -0.701963484287262,
      0.5998517870903015,
      0.4529953598976135,
      -0.38199204206466675,
      -0.04247763007879257,
      -0.7125433087348938,
      0.6053442358970642,
      0.1783754527568817,
      0.46731582283973694,
      0.7025142908096313,
      0.17260479927062988,
      -0.9252484440803528,
      0.029097357764840126,
      0.24539317190647125,
      0.13956062495708466,
      0.4865705966949463,
      0.3691789507865906,
      0.389803022146225,
      0.12486544996500015,
      -0.9101650714874268,
      -0.2996278405189514,
      0.05767175182700157,
      -0.22024479508399963,
      -0.3041834533214569,
      -0.826124370098114,
      -0.40588197112083435,
      -0.043169055134058,
      -0.24678753316402435,
      0.08275315165519714,
      -1.1120542287826538
    ],
    [
      0.3032636046409607,
      -0.41695499420166016,
      0.27198565006256104,
      0.3857814371585846,
      0.2893383502960205,
      0.1864778697490692,
      -0.3692117929458618,
      0.29376599192619324,
      -0.233074352145195,
      0.14329221844673157,
      0.13512055575847626,
      0.1718844473361969,
      0.19182567298412323,
      -0.08120005577802658,
      -0.05411502346396446,
      0.21713855862617493,
      0.30450135469436646,
      -0.4434245824813843,
      -0.5605521202087402,
      0.446841299533844,
      0.08620104193687439,
      0.06693712621927261,
      0.4142359495162964,
      0.07829336822032928,
      -0.20328961312770844,
      0.47515982389450073,
      -0.47047433257102966,
      0.46879327297210693,
      0.15488556027412415,
      -0.24236910045146942,
      -0.3157382607460022,
      0.07876063138246536,
      0.5476530194282532,
      -1.1553845405578613,
      -0.17767049372196198,
      0.3470708429813385,
      -0.21882925927639008,
      -0.4821942150592804,
      0.1520274430513382,
      0.5290905833244324,
      -0.15900278091430664,
      0.10643179714679718,
      0.25467079877853394,
      0.12783190608024597,
      0.6485729813575745,
      0.7941427826881409,
      -0.2195097953081131,
      0.23938916623592377,
      -0.24712280929088593,
      -0.25915396213531494,
      0.1837834119796753,
      0.09873652458190918,
      -1.215752124786377,
      0.2749163806438446,
      0.3785019814968109,
      0.29957935214042664,
      0.6106870174407959,
      -0.4392450451850891,
      -1.479878544807434,
      0.1334032565355301,
      0.3462630808353424,
      0.058579638600349426,
      0.6193028092384338,
      -0.32859233021736145,
      0.24437548220157623,
      -0.1175169125199318,
      0.038933150470256805,
      0.06163662672042847,
      0.10207479447126389,
      -0.016961855813860893,
      -0.38411518931388855,
      0.13322888314723969,
      0.2855323553085327,
      0.24119581282138824,
      -0.43073365092277527,
      0.4294811189174652,
      -0.18468716740608215,
      0.12963692843914032,
      0.28176620602607727,
      0.417024165391922,
      -0.14674030244350433,
      -0.432704359292984,
      0.24860255420207977,
      -0.5784038305282593,
      0.14570024609565735,
      -0.7099919319152832,
      0.17756250500679016,
      0.37571007013320923,
      -0.2470763772726059,
      -0.09239977598190308,
      -0.5785362124443054,
      0.039090387523174286,
      0.29808273911476135,
      0.7206439971923828,
      -0.13055312633514404,
      0.4143717288970947,
      0.30206021666526794,
      -0.06333941966295242,
      -0.46215343475341797,
      0.06806997954845428,
      -0.15049497783184052,
      -0.3499127924442291,
      0.24128182232379913,
      -0.033065441995859146,
      0.3288328945636749,
      0.2314654141664505,
      0.322745680809021,
      0.3418671488761902,
      0.18261967599391937,
      0.04309232905507088,
      -0.20264893770217896,
      0.13706710934638977,
      -0.8010521531105042,
      0.19030039012432098,
      -1.0730382204055786,
      -0.5282264947891235,
      0.23304392397403717,
      0.6780168414115906,
      0.06240847334265709,
      -0.7228897213935852,
      0.30011725425720215,
      -1.5251719951629639,
      1.0195276737213135,
      -0.04482334479689598,
      -0.06208549439907074,
      -0.27543190121650696,
      0.20500482618808746,
      0.2608696222305298
    ],
    [
      -0.4074742794036865,
      0.04710277542471886,
      -0.6512491703033447,
      -0.6719099283218384,
      -0.5542114973068237,
      -0.05404263734817505,
      0.2581299841403961,
      0.017672458663582802,
      -0.3462514877319336,
      -0.7043542861938477,
      0.44908609986305237,
      -0.28739455342292786,
      -0.1427532285451889,
      -0.9829533696174622,
      -0.8414342999458313,
      -0.001083696843124926,
      -0.17142173647880554,
      0.04514046758413315,
      0.5676203370094299,
      0.0672840103507042,
      -0.2586027681827545,
      0.1263137310743332,
      -0.11626000702381134,
      -0.029197189956903458,
      0.13498978316783905,
      0.9296253323554993,
      0.3963939845561981,
      -0.1195482388138771,
      0.0033106105402112007,
      0.20279015600681305,
      0.0809963196516037,
      0.2551901340484619,
      0.6472102999687195,
      0.6718471646308899,
      0.008999554440379143,
      -0.38611486554145813,
      0.5192466378211975,
      0.8020925521850586,
      -0.3041078448295593,
      -0.2911304533481598,
      0.28926795721054077,
      0.30174729228019714,
      0.10776392370462418,
      -0.4537367522716522,
      0.1830224245786667,
      0.5366774201393127,
      0.07612206786870956,
      0.06097974255681038,
      -0.22205400466918945,
      -0.29469501972198486,
      -0.04545256495475769,
      0.22482383251190186,
      0.12920555472373962,
      -0.1009191945195198,
      0.35212063789367676,
      0.08232437074184418,
      0.5740187764167786,
      -1.0143991708755493,
      0.49258261919021606,
      0.061456166207790375,
      0.6875193119049072,
      -0.5667382478713989,
      -0.7042868137359619,
      0.06835882365703583,
      -0.17969590425491333,
      0.650324285030365,
      -0.4695216119289398,
      -0.019818510860204697,
      0.6455763578414917,
      -0.3155953586101532,
      0.020473206415772438,
      0.05716092512011528,
      -0.1764518916606903,
      0.007222553249448538,
      -0.43736788630485535,
      -0.088029645383358,
      0.45425137877464294,
      -0.5269929766654968,
      -0.021518446505069733,
      -0.3763378858566284,
      0.6090856194496155,
      0.22589339315891266,
      -0.029430989176034927,
      0.09582990407943726,
      -0.1092669665813446,
      0.17227661609649658,
      0.43417781591415405,
      -0.31334006786346436,
      0.6000847816467285,
      0.27210524678230286,
      -0.07968617230653763,
      0.29211729764938354,
      -0.16338805854320526,
      -0.6533296704292297,
      -0.07829201221466064,
      -0.101168692111969,
      -0.3323338031768799,
      -0.32200419902801514,
      -0.6183072924613953,
      0.2777819335460663,
      0.05062071233987808,
      -2.2113637924194336,
      -0.05583149567246437,
      0.11923975497484207,
      -0.30180463194847107,
      0.2871291935443878,
      0.23292282223701477,
      0.24869441986083984,
      0.011100109666585922,
      0.2664533257484436,
      0.3340884745121002,
      0.034639135003089905,
      -0.41746577620506287,
      -0.2751480042934418,
      0.21390827000141144,
      -0.6518481373786926,
      -0.03220564126968384,
      0.092840775847435,
      -0.2594667375087738,
      1.4032667875289917,
      0.12364549189805984,
      -0.1797179877758026,
      -1.1891626119613647,
      -0.7179951667785645,
      0.3604186475276947,
      0.17044876515865326,
      0.012452489696443081,
      -0.8149563670158386
    ],
    [
      0.12550970911979675,
      -0.26662421226501465,
      0.15645410120487213,
      0.09955506026744843,
      0.17002315819263458,
      0.25337472558021545,
      0.3283005654811859,
      0.24819882214069366,
      0.03523898497223854,
      0.3399794101715088,
      -0.10500748455524445,
      -0.22363556921482086,
      0.21607069671154022,
      0.15542690455913544,
      -0.01441156305372715,
      0.3573271632194519,
      0.17440062761306763,
      -0.2977689206600189,
      0.06177252531051636,
      0.17576046288013458,
      0.05164612829685211,
      0.15884973108768463,
      0.4776274263858795,
      -0.2430579960346222,
      0.15674547851085663,
      0.1388593316078186,
      -0.2366025745868683,
      0.49776706099510193,
      0.22595146298408508,
      -0.06207621842622757,
      0.15525351464748383,
      -0.412664532661438,
      0.644258439540863,
      0.000311519019305706,
      0.4578564763069153,
      0.21135039627552032,
      0.521411120891571,
      0.3154863715171814,
      -0.6092708110809326,
      0.14081718027591705,
      -1.5014442205429077,
      -0.4848828613758087,
      0.3010164797306061,
      -0.03377845138311386,
      -0.11421001702547073,
      0.1814938634634018,
      -0.07579277455806732,
      0.32583457231521606,
      -0.07547873258590698,
      0.43316537141799927,
      0.1795956790447235,
      -0.49496132135391235,
      -0.6676945686340332,
      0.23323702812194824,
      0.23259037733078003,
      -0.23506313562393188,
      0.05772918090224266,
      0.17499114573001862,
      -0.8376097083091736,
      0.3089258074760437,
      0.2340850532054901,
      0.43303534388542175,
      0.050083793699741364,
      0.23062165081501007,
      0.27463769912719727,
      -0.18259017169475555,
      0.10198907554149628,
      0.06412877142429352,
      0.20698244869709015,
      0.06749554723501205,
      0.04597916454076767,
      0.36180824041366577,
      0.25119638442993164,
      0.18576352298259735,
      -0.09648819267749786,
      0.21062391996383667,
      0.34238308668136597,
      0.035598307847976685,
      0.2482612431049347,
      0.5173420906066895,
      -0.18259893357753754,
      -0.15351298451423645,
      0.20118950307369232,
      0.5917255282402039,
      -0.59639573097229,
      -0.6947827935218811,
      0.24844595789909363,
      0.2528417706489563,
      -0.10723160952329636,
      0.15245932340621948,
      0.4786263704299927,
      -0.22759129106998444,
      0.26209744811058044,
      -0.06217005103826523,
      0.20530249178409576,
      0.2981335520744324,
      -0.1613743007183075,
      -0.13740776479244232,
      -0.26346614956855774,
      -0.47980257868766785,
      -0.1443469524383545,
      0.2706206738948822,
      0.28256693482398987,
      -0.22562508285045624,
      0.21919769048690796,
      0.6961541175842285,
      -1.0020866394042969,
      -0.23103214800357819,
      0.32700687646865845,
      -0.3711305856704712,
      -0.5712965130805969,
      0.23173069953918457,
      0.41299355030059814,
      0.2088051587343216,
      0.001119157881475985,
      -0.06400848180055618,
      0.3061532974243164,
      -0.1671888381242752,
      0.25183528661727905,
      -0.05840771645307541,
      0.09363344311714172,
      0.8565459251403809,
      -0.4470633864402771,
      0.2398546189069748,
      -0.7355318665504456,
      0.3435591161251068,
      0.17194047570228577,
      -0.017806949093937874
    ],
    [
      0.3125257194042206,
      0.7943901419639587,
      0.007073062472045422,
      0.320985347032547,
      0.07618240267038345,
      0.08659671247005463,
      -1.2051670551300049,
      -0.045622892677783966,
      -0.24213644862174988,
      -0.20457452535629272,
      -0.26632630825042725,
      0.527145504951477,
      0.03233465552330017,
      0.4414823055267334,
      0.17421630024909973,
      0.2917257249355316,
      0.0037499279715120792,
      0.05670759454369545,
      0.06567849218845367,
      0.07668514549732208,
      -0.13728667795658112,
      -0.27046918869018555,
      0.12617217004299164,
      0.09847715497016907,
      -0.2174529731273651,
      -0.36948391795158386,
      -0.052090298384428024,
      -0.12203312665224075,
      0.05298581346869469,
      -0.41576674580574036,
      -1.2127010822296143,
      0.24533718824386597,
      0.47041288018226624,
      -0.08954062312841415,
      -0.41863730549812317,
      0.12084798514842987,
      -0.09621503949165344,
      0.574985921382904,
      -0.19582858681678772,
      -0.05870959162712097,
      -0.028137823566794395,
      0.3924030661582947,
      0.17467868328094482,
      -0.1651863008737564,
      0.017155636101961136,
      -0.08243518322706223,
      -0.662449836730957,
      0.15417088568210602,
      0.06981629133224487,
      -0.6658117771148682,
      0.15734028816223145,
      -0.5245985984802246,
      0.5381278991699219,
      0.042261090129613876,
      0.34718766808509827,
      0.310576856136322,
      -0.08477797359228134,
      0.4919784367084503,
      0.5647855997085571,
      0.1935393363237381,
      0.5037968158721924,
      0.38289040327072144,
      -0.33134469389915466,
      0.7282589673995972,
      0.12345563620328903,
      0.15815557539463043,
      -0.8269124627113342,
      -0.09361760318279266,
      0.5065124034881592,
      -0.03316274285316467,
      -0.5674926042556763,
      0.0744774267077446,
      0.11776053160429001,
      0.09594930708408356,
      0.27364593744277954,
      0.03224287927150726,
      0.06853917986154556,
      -0.6718384623527527,
      -0.05889618769288063,
      -0.18978914618492126,
      0.3113103210926056,
      0.4835139811038971,
      0.09481554478406906,
      0.6852385997772217,
      0.7585211992263794,
      0.3191949427127838,
      0.13804005086421967,
      0.03127647936344147,
      0.24106210470199585,
      -0.2814346253871918,
      0.05993850901722908,
      0.27870309352874756,
      0.10626396536827087,
      0.41174808144569397,
      0.18590304255485535,
      0.32056793570518494,
      -0.10407286137342453,
      -0.12636929750442505,
      -0.4750259518623352,
      -0.5227792263031006,
      0.11699146777391434,
      -0.26364070177078247,
      0.18418405950069427,
      -0.4142395257949829,
      0.06618809700012207,
      -0.14492933452129364,
      -0.14560329914093018,
      -0.07656335830688477,
      0.24794961512088776,
      -3.689903974533081,
      -0.016588861122727394,
      0.2724491059780121,
      -0.4665292501449585,
      -0.3251590430736542,
      -0.8818568587303162,
      0.2057081162929535,
      0.16940954327583313,
      -0.7727289795875549,
      -0.4799475371837616,
      0.1729712188243866,
      -0.751202404499054,
      0.011390700936317444,
      -0.5020965933799744,
      0.1378495842218399,
      1.3151453733444214,
      0.6821870803833008,
      0.19915364682674408,
      0.34129995107650757
    ],
    [
      -0.23476405441761017,
      0.2673647999763489,
      -0.002487165154889226,
      -0.03358950465917587,
      -1.072729229927063,
      0.19901637732982635,
      -0.26265040040016174,
      0.34611251950263977,
      -0.4944462478160858,
      0.49535125494003296,
      0.4165877103805542,
      0.1439940631389618,
      0.23478005826473236,
      0.31370416283607483,
      0.29331058263778687,
      0.33747467398643494,
      0.2259870022535324,
      0.2686038613319397,
      0.09234373271465302,
      0.435122013092041,
      0.10715603083372116,
      0.15347369015216827,
      -0.7059865593910217,
      -0.17621394991874695,
      0.27744412422180176,
      -0.9785870909690857,
      0.2739148437976837,
      0.11490118503570557,
      0.2287832647562027,
      0.34160640835762024,
      -0.08015966415405273,
      0.891607940196991,
      -0.3339901864528656,
      -0.08411884307861328,
      0.023254025727510452,
      0.4673031270503998,
      0.17672313749790192,
      0.25125616788864136,
      -0.12753550708293915,
      0.09602090716362,
      0.06901031732559204,
      0.16775669157505035,
      0.20539645850658417,
      -0.07964039593935013,
      0.14533621072769165,
      -0.04386276379227638,
      -0.4393887221813202,
      0.22007399797439575,
      -0.39444854855537415,
      0.46147212386131287,
      0.20003122091293335,
      -0.17080773413181305,
      0.0889592319726944,
      0.13876624405384064,
      0.4003751277923584,
      0.05913136154413223,
      -0.18437814712524414,
      -0.18276596069335938,
      -0.3662872314453125,
      0.34609049558639526,
      -0.5308435559272766,
      0.08316723257303238,
      0.7628958225250244,
      0.5328041315078735,
      0.23991230130195618,
      0.36154505610466003,
      -0.6421806216239929,
      0.05860164016485214,
      0.15943974256515503,
      0.38237446546554565,
      0.2715662121772766,
      0.3151211738586426,
      0.29444149136543274,
      0.3116832971572876,
      -0.06042816862463951,
      0.18939372897148132,
      -0.054247140884399414,
      0.21889623999595642,
      -0.39316484332084656,
      0.15337644517421722,
      -0.9505703449249268,
      -0.20814937353134155,
      0.33239978551864624,
      0.14743684232234955,
      -0.018101675435900688,
      -0.5856295228004456,
      0.1994154453277588,
      0.3475339710712433,
      -0.0002604594046715647,
      -0.004175816662609577,
      -0.3325783908367157,
      -0.20775239169597626,
      0.22168074548244476,
      -0.3198587894439697,
      0.14402902126312256,
      0.3821124732494354,
      -0.11948533356189728,
      -0.16002169251441956,
      0.019368236884474754,
      -0.32757964730262756,
      0.7015190720558167,
      -0.10413702577352524,
      0.3172681927680969,
      0.30313900113105774,
      -0.3182481825351715,
      -0.10474765300750732,
      -1.0050654411315918,
      0.3434102237224579,
      0.36462342739105225,
      -0.4321736991405487,
      -0.3184555172920227,
      0.29380109906196594,
      -0.11370003968477249,
      -0.36255836486816406,
      -0.506804347038269,
      0.2846238911151886,
      0.2977670431137085,
      -0.2207678258419037,
      0.5576446652412415,
      -0.4764181077480316,
      0.1860193908214569,
      0.44583356380462646,
      0.4274832606315613,
      0.08974091708660126,
      0.725006639957428,
      0.6272839307785034,
      0.2621052861213684,
      -0.6153190732002258
    ],
    [
      -0.8064115643501282,
      0.2507072389125824,
      0.2256121188402176,
      0.837855339050293,
      -0.5559080243110657,
      -0.014534872025251389,
      -0.46612459421157837,
      0.0122293122112751,
      0.9010370373725891,
      0.6186705231666565,
      -0.664771556854248,
      -0.0168735571205616,
      -0.16012512147426605,
      0.212245374917984,
      0.4075338840484619,
      0.2130928337574005,
      -0.18800407648086548,
      0.04689178243279457,
      -0.08063808083534241,
      0.07545540481805801,
      -0.3152143359184265,
      -0.15891048312187195,
      0.24583947658538818,
      0.3074037432670593,
      0.5917736887931824,
      0.6288303136825562,
      0.7160731554031372,
      -0.02942284196615219,
      -0.1081208810210228,
      -0.2295648455619812,
      -0.12876932322978973,
      0.5089133977890015,
      0.3175011873245239,
      0.015090319328010082,
      0.42125043272972107,
      -0.31039223074913025,
      0.6213440895080566,
      -0.12176032364368439,
      0.2641650140285492,
      0.20333659648895264,
      0.4437486231327057,
      0.8212135434150696,
      0.08790785074234009,
      0.5271267294883728,
      -0.1738879680633545,
      -0.29795995354652405,
      -0.3171548545360565,
      0.11126186698675156,
      0.500515341758728,
      0.06795386224985123,
      0.06254556030035019,
      0.22158093750476837,
      0.26596397161483765,
      -0.10012262314558029,
      0.2871885299682617,
      0.4547417461872101,
      -0.48629486560821533,
      -0.5589773654937744,
      0.3572201132774353,
      0.0680471658706665,
      0.4956323206424713,
      0.11771019548177719,
      -0.14909322559833527,
      0.7469415664672852,
      -0.07776565849781036,
      0.02383599989116192,
      -0.3164500892162323,
      -0.14210431277751923,
      0.562308132648468,
      -0.05213785544037819,
      -0.29898372292518616,
      0.16721631586551666,
      -0.1713622659444809,
      -0.009104182943701744,
