{"learner":{"attributes":{"scikit_learn":"{\"_estimator_type\": \"regressor\"}"},"feature_names":[],"feature_types":[],"gradient_booster":{"model":{"cats":{"enc":[],"feature_segments":[],"sorted_idx":[]},"gbtree_model_param":{"num_parallel_tree":"1","num_trees":"100"},"iteration_indptr":[0,1,2,3,4,5,6,7,8,9,10,11,12,13,14,15,16,17,18,19,20,21,22,23,24,25,26,27,28,29,30,31,32,33,34,35,36,37,38,39,40,41,42,43,44,45,46,47,48,49,50,51,52,53,54,55,56,57,58,59,60,61,62,63,64,65,66,67,68,69,70,71,72,73,74,75,76,77,78,79,80,81,82,83,84,85,86,87,88,89,90,91,92,93,94,95,96,97,98,99,100],"tree_info":[0,0,0,0,0,0,0,0,0,0,0,0,0,0,0,0,0,0,0,0,0,0,0,0,0,0,0,0,0,0,0,0,0,0,0,0,0,0,0,0,0,0,0,0,0,0,0,0,0,0,0,0,0,0,0,0,0,0,0,0,0,0,0,0,0,0,0,0,0,0,0,0,0,0,0,0,0,0,0,0,0,0,0,0,0,0,0,0,0,0,0,0,0,0,0,0,0,0,0,0],"trees":[{"base_weights":[2.844404E-8,1.2688723E-1,-1.7346601E-1,1.883092E-2,6.016201E-2,-7.994689E-2,-2.2402605E-1,3.6584236E-2,1.0433652E-1,-9.002225E-2,1.3141704E-2,-2.3244908E-1,1.3141704E-2,4.8637178E-2,-3.2484926E-2,1.284959E-1,8.0960974E-2,-1.21127255E-1,-2.4711339E-2,-2.6348972E-1,-1.10419095E-1,6.292373E-2,1.5826026E-3,-1.580429E-2,-7.1698525E-3,1.3426266E-2,2.0997226E-3,1.7489791E-4,8.483412E-2,-6.1622646E-2,-1.4722456E-1,2.7051838E-3,-5.5474717E-2,-2.383229E-1,-4.3275137E-2,-1.4117356E-1,1.3141704E-2,8.94118E-3,3.7097284E-3,-3.3905439E-3,3.6872819E-3,3.502381E-4,-3.1950106E-3,3.4448698E-3,9.169928E-3,-3.3860037E-3,-8.058202E-3,-1.579213E-2,-7.285333E-3,-2.102223E-3,1.4230743E-3,-2.220116E-3,-6.180986E-3,-2.5094459E-2,1.3141704E-2,4.130469E-3,-1.6374363E-2],"categories":[],"categories_nodes":[],"categories_segments":[],"categories_sizes":[],"default_left":[0,0,0,0,0,0,0,0,0,0,0,0,0,0,0,0,0,0,0,0,0,0,0,0,0,0,0,0,0,0,0,0,0,0,0,0,0,0,0,0,0,0,0,0,0,0,0,0,0,0,0,0,0,0,0,0,0],"id":0,"left_children":[1,3,5,-1,7,9,11,13,15,17,-1,19,-1,21,23,25,27,29,31,33,35,37,39,41,-1,-1,-1,-1,43,45,47,49,51,53,-1,55,-1,-1,-1,-1,-1,-1,-1,-1,-1,-1,-1,-1,-1,-1,-1,-1,-1,-1,-1,-1,-1],"loss_changes":[8.231972E0,8.73924E-1,7.291665E-1,0E0,1.055443E-1,1.3321581E-1,3.3592606E-1,5.985403E-2,9.927422E-3,1.0873908E-1,0E0,3.4969473E-1,0E0,4.0235266E-2,6.062042E-3,7.099569E-3,6.2944293E-3,4.8385322E-2,1.6175143E-2,2.3338842E-1,1.821785E-1,2.8151348E-2,2.00359E-2,2.9173985E-3,0E0,0E0,0E0,0E0,3.7591606E-3,4.1141957E-3,8.383095E-3,3.3073507E-3,5.2488036E-4,3.6431742E-1,0E0,8.9134306E-2,0E0,0E0,0E0,0E0,0E0,0E0,0E0,0E0,0E0,0E0,0E0,0E0,0E0,0E0,0E0,0E0,0E0,0E0,0E0,0E0,0E0],"parents":[2147483647,0,0,1,1,2,2,4,4,5,5,6,6,7,7,8,8,9,9,11,11,13,13,14,14,15,15,16,16,17,17,18,18,19,19,20,20,21,21,22,22,23,23,28,28,29,29,30,30,31,31,32,32,33,33,35,35],"right_children":[2,4,6,-1,8,10,12,14,16,18,-1,20,-1,22,24,26,28,30,32,34,36,38,40,42,-1,-1,-1,-1,44,46,48,50,52,54,-1,56,-1,-1,-1,-1,-1,-1,-1,-1,-1,-1,-1,-1,-1,-1,-1,-1,-1,-1,-1,-1,-1],"split_conditions":[2.2237523E-2,1.7750017E-2,2.7812527E-2,1.883092E-2,5.41E-1,1E0,1.2E0,2.126252E-2,1.928752E-2,4.742222E-1,1.3141704E-2,6.68E-1,1.3141704E-2,5.6666666E-1,3.75E-1,2E-1,1.25E-1,2.3250023E-2,2.4575025E-2,4.937505E-2,4.7362547E-2,5.3333336E-1,1.5955555E-1,2.8262964E-1,-7.1698525E-3,1.3426266E-2,2.0997226E-3,1.7489791E-4,4.3333334E-1,5E-1,4.1066667E-1,6.72E-1,3.6666667E-1,4.8825048E-2,-4.3275137E-2,4.375E-1,1.3141704E-2,8.94118E-3,3.7097284E-3,-3.3905439E-3,3.6872819E-3,3.502381E-4,-3.1950106E-3,3.4448698E-3,9.169928E-3,-3.3860037E-3,-8.058202E-3,-1.579213E-2,-7.285333E-3,-2.102223E-3,1.4230743E-3,-2.220116E-3,-6.180986E-3,-2.5094459E-2,1.3141704E-2,4.130469E-3,-1.6374363E-2],"split_indices":[0,0,0,0,11,7,7,0,0,11,0,11,0,12,1,4,2,0,0,0,0,7,11,11,0,0,0,0,12,12,11,11,12,0,0,1,0,0,0,0,0,0,0,0,0,0,0,0,0,0,0,0,0,0,0,0,0],"split_type":[0,0,0,0,0,0,0,0,0,0,0,0,0,0,0,0,0,0,0,0,0,0,0,0,0,0,0,0,0,0,0,0,0,0,0,0,0,0,0,0,0,0,0,0,0,0,0,0,0,0,0,0,0,0,0,0,0],"sum_hessian":[3.72E2,2.15E2,1.57E2,1.11E2,1.04E2,5.6E1,1.01E2,6.9E1,3.5E1,5.4E1,2E0,9.9E1,2E0,5.9E1,1E1,1.5E1,2E1,3.6E1,1.8E1,7.8E1,2.1E1,4.5E1,1.4E1,8E0,2E0,1.4E1,1E0,1E0,1.9E1,1.2E1,2.4E1,1E1,8E0,7E1,8E0,1.9E1,2E0,2.1E1,2.4E1,7E0,7E0,4E0,4E0,3E0,1.6E1,6E0,6E0,2E1,4E0,3E0,7E0,2E0,6E0,6.8E1,2E0,2E0,1.7E1],"tree_param":{"num_deleted":"0","num_feature":"13","num_nodes":"57","size_leaf_vector":"1"}},{"base_weights":[-5.7794292E-5,1.1443037E-1,-1.565729E-1,1.6964642E-2,5.444342E-2,-1.02535315E-1,-2.2843683E-1,3.2967713E-2,9.468942E-2,-1.1262289E-1,1.4754693E-2,-2.411267E-1,1.2265591E-2,4.3989256E-2,-3.0146865E-2,1.16616696E-1,7.347391E-2,-1.4346898E-1,-2.7918134E-2,-2.7390662E-1,-1.3245948E-1,5.6906376E-2,1.4441371E-3,-1.4539957E-2,-6.6918633E-3,1.217315E-2,1.994735E-3,8.50244E-2,3.8226563E-2,-8.037473E-2,-1.8089351E-1,-2.6120953E-3,-6.561598E-2,-2.850804E-1,-7.5485907E-3,-1.7465193E-2,1.2265591E-2,8.087705E-3,3.3535939E-3,-3.0938708E-3,3.3646466E-3,3.2221913E-4,-2.9394114E-3,3.186506E-3,9.565881E-3,4.404381E-3,1.6615391E-4,-5.652383E-3,-9.987765E-3,-1.9122975E-2,1.1111001E-2,-1.5652573E-3,9.649754E-3,-2.3332164E-3,-8.040446E-3,-2.5256967E-2,-3.9428458E-2,-1.2243289E-2,1.1111001E-2],"categories":[],"categories_nodes":[],"categories_segments":[],"categories_sizes":[],"default_left":[0,0,0,0,0,0,0,0,0,0,0,0,0,0,0,0,0,0,0,0,0,0,0,0,0,0,0,0,0,0,0,0,0,0,0,0,0,0,0,0,0,0,0,0,0,0,0,0,0,0,0,0,0,0,0,0,0,0,0],"id":1,"left_children":[1,3,5,-1,7,9,11,13,15,17,-1,19,-1,21,23,25,27,29,31,33,35,37,39,41,-1,-1,-1,43,45,47,49,51,53,55,57,-1,-1,-1,-1,-1,-1,-1,-1,-1,-1,-1,-1,-1,-1,-1,-1,-1,-1,-1,-1,-1,-1,-1,-1],"loss_changes":[6.7017503E0,7.062082E-1,5.90147E-1,0E0,8.763099E-2,2.4870759E-1,3.2808185E-1,5.001954E-2,8.17886E-3,2.285347E-1,0E0,1.9525528E-1,0E0,3.2891445E-2,5.339835E-3,5.482897E-3,5.2994266E-3,1.3894355E-1,2.3678187E-2,1.436832E-1,2.0440915E-1,2.3057133E-2,1.6683022E-2,2.4692887E-3,0E0,0E0,0E0,5.4315925E-3,1.4157752E-3,6.4487457E-3,1.4197624E-1,2.2189427E-2,4.3771192E-3,6.7280054E-2,5.4499548E-2,0E0,0E0,0E0,0E0,0E0,0E0,0E0,0E0,0E0,0E0,0E0,0E0,0E0,0E0,0E0,0E0,0E0,0E0,0E0,0E0,0E0,0E0,0E0,0E0],"parents":[2147483647,0,0,1,1,2,2,4,4,5,5,6,6,7,7,8,8,9,9,11,11,13,13,14,14,15,15,16,16,17,17,18,18,19,19,20,20,21,21,22,22,23,23,27,27,28,28,29,29,30,30,31,31,32,32,33,33,34,34],"right_children":[2,4,6,-1,8,10,12,14,16,18,-1,20,-1,22,24,26,28,30,32,34,36,38,40,42,-1,-1,-1,44,46,48,50,52,54,56,58,-1,-1,-1,-1,-1,-1,-1,-1,-1,-1,-1,-1,-1,-1,-1,-1,-1,-1,-1,-1,-1,-1,-1,-1],"split_conditions":[2.2237523E-2,1.7750017E-2,3.2800034E-2,1.6964642E-2,5.41E-1,1E0,1.2E0,2.126252E-2,1.928752E-2,5.8522224E-1,1.4754693E-2,6.407037E-1,1.2265591E-2,5.6666666E-1,3.75E-1,2E-1,5.3333336E-1,2.6037525E-2,5.3333336E-1,6E-1,4.7362547E-2,5.3333336E-1,1.5955555E-1,2.8262964E-1,-6.6918633E-3,1.217315E-2,1.994735E-3,4.3333334E-1,2.1050021E-2,2.3250023E-2,3.2462534E-2,5.625E-1,2.6887527E-2,4.937505E-2,3.3112533E-2,-1.7465193E-2,1.2265591E-2,8.087705E-3,3.3535939E-3,-3.0938708E-3,3.3646466E-3,3.2221913E-4,-2.9394114E-3,3.186506E-3,9.565881E-3,4.404381E-3,1.6615391E-4,-5.652383E-3,-9.987765E-3,-1.9122975E-2,1.1111001E-2,-1.5652573E-3,9.649754E-3,-2.3332164E-3,-8.040446E-3,-2.5256967E-2,-3.9428458E-2,-1.2243289E-2,1.1111001E-2],"split_indices":[0,0,0,0,11,7,7,0,0,11,0,11,0,12,1,4,12,0,7,5,0,7,11,11,0,0,0,12,0,0,0,2,0,0,0,0,0,0,0,0,0,0,0,0,0,0,0,0,0,0,0,0,0,0,0,0,0,0,0],"split_type":[0,0,0,0,0,0,0,0,0,0,0,0,0,0,0,0,0,0,0,0,0,0,0,0,0,0,0,0,0,0,0,0,0,0,0,0,0,0,0,0,0,0,0,0,0,0,0,0,0,0,0,0,0,0,0,0,0,0,0],"sum_hessian":[3.72E2,2.15E2,1.57E2,1.11E2,1.04E2,9.1E1,6.6E1,6.9E1,3.5E1,8.8E1,3E0,6.4E1,2E0,5.9E1,1E1,1.5E1,2E1,6.4E1,2.4E1,4.8E1,1.6E1,4.5E1,1.4E1,8E0,2E0,1.4E1,1E0,1.4E1,6E0,2.5E1,3.9E1,1.5E1,9E0,4.6E1,2E0,1.4E1,2E0,2.1E1,2.4E1,7E0,7E0,4E0,4E0,3E0,1.1E1,5E0,1E0,1.3E1,1.2E1,3.8E1,1E0,1.4E1,1E0,3E0,6E0,3.8E1,8E0,1E0,1E0],"tree_param":{"num_deleted":"0","num_feature":"13","num_nodes":"59","size_leaf_vector":"1"}},{"base_weights":[-1.0315806E-4,1.032228E-1,-1.4135824E-1,1.5283328E-1,4.9321875E-2,-6.485213E-2,-1.827258E-1,1.5951736E-2,1.216785E-1,2.9705277E-2,8.6095214E-2,-7.3364176E-2,1.1281944E-2,-1.8981469E-1,1.1447887E-2,4.824104E-3,1.2616186E-2,3.922429E-2,-3.133122E-2,1.058405E-1,6.695141E-2,-9.664533E-2,-1.563893E-2,-2.1527545E-1,-8.975941E-2,5.0487544E-2,1.3177991E-3,-5.06503E-2,-1.8820763E-3,1.1036987E-2,1.8949986E-3,8.233253E-2,4.1798927E-2,-5.12752E-2,-1.17358275E-1,9.909416E-3,-4.5619495E-2,-2.3286977E-1,-7.058771E-2,-1.1590718E-1,1.1447887E-2,7.02175E-3,3.0316487E-3,2.7301623E-3,-3.2278232E-3,-5.6660427E-3,-1.0299832E-3,1.8582732E-3,-1.1643962E-3,8.894868E-3,4.7774316E-4,1.5784502E-4,4.6092486E-3,-3.3600915E-3,-7.6368735E-3,-1.28148915E-2,-6.0031344E-3,2.3043088E-3,-1.5551866E-3,-5.3239483E-3,3.8602055E-4,-2.1077018E-2,-3.5923705E-2,-1.4479113E-2,1.50817325E-2,3.5856206E-3,-1.3476178E-2],"categories":[],"categories_nodes":[],"categories_segments":[],"categories_sizes":[],"default_left":[0,0,0,0,0,0,0,0,0,0,0,0,0,0,0,0,0,0,0,0,0,0,0,0,0,0,0,0,0,0,0,0,0,0,0,0,0,0,0,0,0,0,0,0,0,0,0,0,0,0,0,0,0,0,0,0,0,0,0,0,0,0,0,0,0,0,0],"id":2,"left_children":[1,3,5,7,9,11,13,-1,15,17,19,21,-1,23,-1,-1,-1,25,27,29,31,33,35,37,39,41,43,45,47,-1,-1,49,51,53,55,57,59,61,63,65,-1,-1,-1,-1,-1,-1,-1,-1,-1,-1,-1,-1,-1,-1,-1,-1,-1,-1,-1,-1,-1,-1,-1,-1,-1,-1,-1],"loss_changes":[5.458645E0,5.700574E-1,4.8819947E-1,3.9129257E-3,7.31861E-2,9.448078E-2,2.3662853E-1,0E0,1.8157065E-3,4.189944E-2,6.521851E-3,7.240361E-2,0E0,2.3542523E-1,0E0,0E0,0E0,2.5977455E-2,5.593976E-3,4.2054355E-3,4.6829283E-3,3.0632645E-2,1.3473278E-2,1.8467093E-1,1.3075717E-1,1.6576037E-2,1.3975548E-2,8.714758E-4,1.215252E-3,0E0,0E0,5.7324544E-3,1.6541351E-3,3.643088E-3,8.390486E-3,3.702364E-3,3.2217912E-3,1.1977029E-1,1.8612711E-1,6.2060863E-2,0E0,0E0,0E0,0E0,0E0,0E0,0E0,0E0,0E0,0E0,0E0,0E0,0E0,0E0,0E0,0E0,0E0,0E0,0E0,0E0,0E0,0E0,0E0,0E0,0E0,0E0,0E0],"parents":[2147483647,0,0,1,1,2,2,3,3,4,4,5,5,6,6,8,8,9,9,10,10,11,11,13,13,17,17,18,18,19,19,20,20,21,21,22,22,23,23,24,24,25,25,26,26,27,27,28,28,31,31,32,32,33,33,34,34,35,35,36,36,37,37,38,38,39,39],"right_children":[2,4,6,8,10,12,14,-1,16,18,20,22,-1,24,-1,-1,-1,26,28,30,32,34,36,38,40,42,44,46,48,-1,-1,50,52,54,56,58,60,62,64,66,-1,-1,-1,-1,-1,-1,-1,-1,-1,-1,-1,-1,-1,-1,-1,-1,-1,-1,-1,-1,-1,-1,-1,-1,-1,-1,-1],"split_conditions":[2.2237523E-2,1.7750017E-2,2.7812527E-2,1.5975015E-2,5.41E-1,1E0,1.2E0,1.5951736E-2,1.875E-1,2.1287521E-2,1.928752E-2,6.4237034E-1,1.1281944E-2,6.68E-1,1.1447887E-2,4.824104E-3,1.2616186E-2,5.6666666E-1,2.1650022E-2,2E-1,8E-1,2.3250023E-2,2.4575025E-2,6E-1,4.7362547E-2,5.3333336E-1,1E0,1E0,2.1725021E-2,1.1036987E-2,1.8949986E-3,5.3333336E-1,1.25E-1,5.3333336E-1,4.1066667E-1,5.6666666E-1,7.6666665E-1,4.937505E-2,5.6666666E-1,4.375E-1,1.1447887E-2,7.02175E-3,3.0316487E-3,2.7301623E-3,-3.2278232E-3,-5.6660427E-3,-1.0299832E-3,1.8582732E-3,-1.1643962E-3,8.894868E-3,4.7774316E-4,1.5784502E-4,4.6092486E-3,-3.3600915E-3,-7.6368735E-3,-1.28148915E-2,-6.0031344E-3,2.3043088E-3,-1.5551866E-3,-5.3239483E-3,3.8602055E-4,-2.1077018E-2,-3.5923705E-2,-1.4479113E-2,1.50817325E-2,3.5856206E-3,-1.3476178E-2],"split_indices":[0,0,0,0,11,7,7,0,2,0,0,11,0,11,0,0,0,12,0,4,3,0,0,5,0,7,10,6,0,0,0,12,2,12,11,12,7,0,12,1,0,0,0,0,0,0,0,0,0,0,0,0,0,0,0,0,0,0,0,0,0,0,0,0,0,0,0],"split_type":[0,0,0,0,0,0,0,0,0,0,0,0,0,0,0,0,0,0,0,0,0,0,0,0,0,0,0,0,0,0,0,0,0,0,0,0,0,0,0,0,0,0,0,0,0,0,0,0,0,0,0,0,0,0,0,0,0,0,0,0,0,0,0,0,0,0,0],"sum_hessian":[3.72E2,2.15E2,1.57E2,1.11E2,1.04E2,5.6E1,1.01E2,8.8E1,2.3E1,6.9E1,3.5E1,5.4E1,2E0,9.9E1,2E0,2E0,2.1E1,6E1,9E0,1.5E1,2E1,3.8E1,1.6E1,7.8E1,2.1E1,4.6E1,1.4E1,5E0,4E0,1.4E1,1E0,1.1E1,9E0,1.3E1,2.5E1,9E0,7E0,6.9E1,9E0,1.9E1,2E0,2.2E1,2.4E1,8E0,6E0,4E0,1E0,1E0,3E0,1E1,1E0,1E0,8E0,9E0,4E0,2E1,5E0,6E0,3E0,6E0,1E0,6.1E1,8E0,7E0,2E0,2E0,1.7E1],"tree_param":{"num_deleted":"0","num_feature":"13","num_nodes":"67","size_leaf_vector":"1"}},{"base_weights":[-9.846559E-5,9.319689E-2,-1.2764086E-1,1.378481E-1,4.4681355E-2,-8.238648E-2,-1.8787612E-1,1.4374482E-2,1.1023736E-1,2.678551E-2,7.823768E-2,-9.1206685E-2,1.3445969E-2,-1.9858833E-1,1.0684693E-2,7.581678E-2,1.227091E-2,3.6074027E-2,-2.6314171E-2,9.606469E-2,6.0929604E-2,-1.1654705E-1,-2.1673469E-2,-2.3979408E-1,-1.355738E-1,8.420291E-2,4.3638647E-4,5.3217057E-2,1.1609405E-2,-1.2601753E-2,-5.868004E-3,1.0006867E-2,1.800248E-3,7.488034E-2,3.809576E-2,-1.21996E-1,1.1609301E-2,-1.0258071E-3,-5.254238E-2,-2.9248282E-1,-1.2857886E-1,-1.6102518E-1,1.3019609E-2,9.540926E-3,3.372258E-3,-2.3934364E-3,5.861819E-3,-2.3630224E-3,4.350268E-3,-1.8590369E-3,1.7653585E-3,8.086245E-3,4.538566E-4,1.4995337E-4,4.1995393E-3,-6.57342E-3,-1.5637577E-2,-1.3078173E-3,8.987985E-3,-1.8846974E-3,-6.4290846E-3,-3.18122E-2,-1.8110758E-2,-1.2249117E-3,-2.1429503E-2,-5.4632337E-3,-1.7252719E-2],"categories":[],"categories_nodes":[],"categories_segments":[],"categories_sizes":[],"default_left":[0,0,0,0,0,0,0,0,0,0,0,0,0,0,0,0,0,0,0,0,0,0,0,0,0,0,0,0,0,0,0,0,0,0,0,0,0,0,0,0,0,0,0,0,0,0,0,0,0,0,0,0,0,0,0,0,0,0,0,0,0,0,0,0,0,0,0],"id":3,"left_children":[1,3,5,7,9,11,13,-1,15,17,19,21,-1,23,-1,25,-1,27,29,31,33,35,37,39,41,43,-1,45,47,49,-1,-1,-1,51,53,55,-1,57,59,61,63,65,-1,-1,-1,-1,-1,-1,-1,-1,-1,-1,-1,-1,-1,-1,-1,-1,-1,-1,-1,-1,-1,-1,-1,-1,-1],"loss_changes":[4.450265E0,4.6175647E-1,4.1521525E-1,2.3891926E-3,6.0958847E-2,1.8822527E-1,2.327466E-1,0E0,9.993911E-4,3.547447E-2,5.254671E-3,1.5429175E-1,0E0,1.3626671E-1,0E0,5.0254725E-3,0E0,2.454605E-2,4.142486E-3,3.199473E-3,3.8369E-3,9.655982E-2,1.5880374E-2,1.8506503E-1,2.1036273E-1,1.3081506E-3,0E0,1.5987657E-2,3.0249562E-2,1.9588748E-3,0E0,0E0,0E0,4.6825036E-3,1.3641426E-3,1.1351389E-1,0E0,1.8705515E-2,2.7470049E-3,1.3774633E-2,1.3697386E-1,2.2391438E-2,0E0,0E0,0E0,0E0,0E0,0E0,0E0,0E0,0E0,0E0,0E0,0E0,0E0,0E0,0E0,0E0,0E0,0E0,0E0,0E0,0E0,0E0,0E0,0E0,0E0],"parents":[2147483647,0,0,1,1,2,2,3,3,4,4,5,5,6,6,8,8,9,9,10,10,11,11,13,13,15,15,17,17,18,18,19,19,20,20,21,21,22,22,23,23,24,24,25,25,27,27,28,28,29,29,33,33,34,34,35,35,37,37,38,38,39,39,40,40,41,41],"right_children":[2,4,6,8,10,12,14,-1,16,18,20,22,-1,24,-1,26,-1,28,30,32,34,36,38,40,42,44,-1,46,48,50,-1,-1,-1,52,54,56,-1,58,60,62,64,66,-1,-1,-1,-1,-1,-1,-1,-1,-1,-1,-1,-1,-1,-1,-1,-1,-1,-1,-1,-1,-1,-1,-1,-1,-1],"split_conditions":[2.2237523E-2,1.7750017E-2,3.2800034E-2,1.5975015E-2,5.41E-1,1E0,1.2E0,1.4374482E-2,4.375E-1,2.126252E-2,1.928752E-2,5.8522224E-1,1.3445969E-2,4.631852E-1,1.0684693E-2,3.75E-1,1.227091E-2,4E-1,3.75E-1,2E-1,8E-1,3.2462534E-2,5.3333336E-1,6E-1,1.1E0,1E0,4.3638647E-4,1.25E-1,3.2396296E-1,5.625E-1,-5.868004E-3,1.0006867E-2,1.800248E-3,5.3333336E-1,1.25E-1,2.6037525E-2,1.1609301E-2,5.625E-1,2.6887527E-2,2.9125926E-1,6.875E-1,6E-1,1.3019609E-2,9.540926E-3,3.372258E-3,-2.3934364E-3,5.861819E-3,-2.3630224E-3,4.350268E-3,-1.8590369E-3,1.7653585E-3,8.086245E-3,4.538566E-4,1.4995337E-4,4.1995393E-3,-6.57342E-3,-1.5637577E-2,-1.3078173E-3,8.987985E-3,-1.8846974E-3,-6.4290846E-3,-3.18122E-2,-1.8110758E-2,-1.2249117E-3,-2.1429503E-2,-5.4632337E-3,-1.7252719E-2],"split_indices":[0,0,0,0,11,7,7,0,2,0,0,11,0,11,0,1,0,3,1,4,3,0,7,4,7,9,0,2,11,2,0,0,0,12,2,0,0,2,0,11,1,3,0,0,0,0,0,0,0,0,0,0,0,0,0,0,0,0,0,0,0,0,0,0,0,0,0],"split_type":[0,0,0,0,0,0,0,0,0,0,0,0,0,0,0,0,0,0,0,0,0,0,0,0,0,0,0,0,0,0,0,0,0,0,0,0,0,0,0,0,0,0,0,0,0,0,0,0,0,0,0,0,0,0,0,0,0,0,0,0,0,0,0,0,0,0,0],"sum_hessian":[3.72E2,2.15E2,1.57E2,1.11E2,1.04E2,9.1E1,6.6E1,8.8E1,2.3E1,6.9E1,3.5E1,8.8E1,3E0,6.4E1,2E0,8E0,1.5E1,5.9E1,1E1,1.5E1,2E1,6.4E1,2.4E1,3.7E1,2.7E1,7E0,1E0,3.4E1,2.5E1,8E0,2E0,1.4E1,1E0,1.1E1,9E0,6.3E1,1E0,1.5E1,9E0,2.4E1,1.3E1,2.5E1,2E0,5E0,2E0,2E0,3.2E1,1.2E1,1.3E1,7E0,1E0,1E1,1E0,1E0,8E0,2.5E1,3.8E1,1.4E1,1E0,3E0,6E0,1.8E1,6E0,6E0,7E0,3E0,2.2E1],"tree_param":{"num_deleted":"0","num_feature":"13","num_nodes":"67","size_leaf_vector":"1"}},{"base_weights":[-1.0254044E-4,8.417435E-2,-1.1531587E-1,1.2442037E-1,4.0443607E-2,-7.412379E-2,-1.70157E-1,1.2907614E-2,9.809891E-2,2.6067648E-2,7.551459E-2,-8.221224E-2,1.24375215E-2,-1.7999524E-1,9.972381E-3,3.1474412E-3,1.0345547E-2,3.3860937E-2,-1.8318301E-2,9.333859E-3,5.6393966E-2,-1.0505544E-1,-1.9531453E-2,-2.0553114E-1,-9.5803805E-2,4.3309737E-2,-5.2237906E-4,-3.333042E-2,9.364748E-3,6.644786E-4,6.258421E-2,-1.1014344E-1,1.1028836E-2,5.095042E-3,-4.2655528E-2,-2.3508154E-1,-1.2287813E-1,-1.2944327E-1,1.0432813E-2,2.0194491E-3,5.640333E-3,2.1417916E-3,-2.8656705E-3,-1.7056545E-3,-5.4768026E-3,-1.1123539E-3,2.6731452E-3,8.647184E-3,3.7051134E-3,-5.941359E-3,-1.4113915E-2,-8.7113486E-4,8.538586E-3,-3.7322045E-4,-4.9393205E-3,-2.879841E-2,-1.6212681E-2,-1.6717061E-2,4.071884E-3,-1.3825464E-2,-4.811291E-3],"categories":[],"categories_nodes":[],"categories_segments":[],"categories_sizes":[],"default_left":[0,0,0,0,0,0,0,0,0,0,0,0,0,0,0,0,0,0,0,0,0,0,0,0,0,0,0,0,0,0,0,0,0,0,0,0,0,0,0,0,0,0,0,0,0,0,0,0,0,0,0,0,0,0,0,0,0,0,0,0,0],"id":4,"left_children":[1,3,5,7,9,11,13,-1,15,17,19,21,-1,23,-1,-1,-1,25,27,-1,29,31,33,35,37,39,41,43,45,-1,47,49,-1,51,53,55,57,59,-1,-1,-1,-1,-1,-1,-1,-1,-1,-1,-1,-1,-1,-1,-1,-1,-1,-1,-1,-1,-1,-1,-1],"loss_changes":[3.63147E0,3.7512553E-1,3.4431267E-1,1.0629892E-3,5.0970316E-2,1.5793574E-1,1.9584477E-1,0E0,4.238233E-3,2.690962E-2,4.9604326E-3,1.2538093E-1,0E0,1.2005329E-1,0E0,0E0,0E0,2.1139883E-2,5.299105E-3,0E0,4.8194528E-3,8.3366096E-2,1.4453953E-2,9.0792656E-2,1.2795424E-1,1.4296718E-2,9.8728975E-3,1.8568309E-3,2.0764184E-3,0E0,5.944986E-3,9.224856E-2,0E0,1.5154667E-2,3.224941E-3,8.839226E-2,1.1549872E-1,4.0976405E-3,0E0,0E0,0E0,0E0,0E0,0E0,0E0,0E0,0E0,0E0,0E0,0E0,0E0,0E0,0E0,0E0,0E0,0E0,0E0,0E0,0E0,0E0,0E0],"parents":[2147483647,0,0,1,1,2,2,3,3,4,4,5,5,6,6,8,8,9,9,10,10,11,11,13,13,17,17,18,18,20,20,21,21,22,22,23,23,24,24,25,25,26,26,27,27,28,28,30,30,31,31,33,33,34,34,35,35,36,36,37,37],"right_children":[2,4,6,8,10,12,14,-1,16,18,20,22,-1,24,-1,-1,-1,26,28,-1,30,32,34,36,38,40,42,44,46,-1,48,50,-1,52,54,56,58,60,-1,-1,-1,-1,-1,-1,-1,-1,-1,-1,-1,-1,-1,-1,-1,-1,-1,-1,-1,-1,-1,-1,-1],"split_conditions":[2.2237523E-2,1.7750017E-2,3.2800034E-2,1.6275017E-2,6.2866664E-1,1E0,1.2E0,1.2907614E-2,1.6662518E-2,2.126252E-2,1.928752E-2,5.8522224E-1,1.24375215E-2,6.407037E-1,9.972381E-3,3.1474412E-3,1.0345547E-2,5.6666666E-1,1E0,9.333859E-3,4.3333334E-1,3.2462534E-2,5.6666666E-1,6E-1,4.7362547E-2,1E0,1E0,3.75E-1,5.625E-1,6.644786E-4,8E-1,2.6037525E-2,1.1028836E-2,1E0,2.3075024E-2,2.9125926E-1,4.5812547E-2,1E0,1.0432813E-2,2.0194491E-3,5.640333E-3,2.1417916E-3,-2.8656705E-3,-1.7056545E-3,-5.4768026E-3,-1.1123539E-3,2.6731452E-3,8.647184E-3,3.7051134E-3,-5.941359E-3,-1.4113915E-2,-8.7113486E-4,8.538586E-3,-3.7322045E-4,-4.9393205E-3,-2.879841E-2,-1.6212681E-2,-1.6717061E-2,4.071884E-3,-1.3825464E-2,-4.811291E-3],"split_indices":[0,0,0,0,11,7,7,0,0,0,0,11,0,11,0,0,0,12,6,0,12,0,12,4,0,6,10,1,2,0,3,0,0,9,0,11,0,1,0,0,0,0,0,0,0,0,0,0,0,0,0,0,0,0,0,0,0,0,0,0,0],"split_type":[0,0,0,0,0,0,0,0,0,0,0,0,0,0,0,0,0,0,0,0,0,0,0,0,0,0,0,0,0,0,0,0,0,0,0,0,0,0,0,0,0,0,0,0,0,0,0,0,0,0,0,0,0,0,0,0,0,0,0,0,0],"sum_hessian":[3.72E2,2.15E2,1.57E2,1.11E2,1.04E2,9.1E1,6.6E1,9.1E1,2E1,7.5E1,2.9E1,8.8E1,3E0,6.4E1,2E0,2E0,1.8E1,6.4E1,1.1E1,1.3E1,1.6E1,6.4E1,2.4E1,4.8E1,1.6E1,5E1,1.4E1,7E0,4E0,2E0,1.4E1,6.3E1,1E0,1.2E1,1.2E1,3.4E1,1.4E1,1.4E1,2E0,1.9E1,3.1E1,8E0,6E0,5E0,2E0,2E0,2E0,6E0,8E0,2.5E1,3.8E1,1.1E1,1E0,2E0,1E1,1.8E1,1.6E1,1.1E1,3E0,1.2E1,2E0],"tree_param":{"num_deleted":"0","num_feature":"13","num_nodes":"61","size_leaf_vector":"1"}},{"base_weights":[-9.2440416E-5,7.59887E-2,-1.0410152E-1,1.1221405E-1,3.662463E-2,-6.664875E-2,-1.5397544E-1,1.1676925E-2,9.064626E-2,2.3478175E-2,6.870816E-2,-7.406599E-2,1.1504707E-2,-1.6300894E-1,9.307555E-3,6.15526E-2,1.01346046E-1,3.0581549E-2,-1.6954944E-2,4.6979103E-2,8.058425E-2,-9.410645E-2,-1.5868664E-2,-1.8615468E-1,-8.6706005E-2,7.427042E-2,1.1360149E-2,2.967465E-3,1.0414584E-2,3.912895E-2,-5.1838957E-4,-3.0895181E-2,8.740425E-3,5.5424955E-2,3.5127005E-4,8.518588E-3,2.9180804E-2,-9.8778054E-2,1.0477394E-2,-2.914138E-2,2.8806379E-2,-1.9479898E-1,1.1324148E-2,-1.1774138E-1,9.737291E-3,8.635291E-3,2.9376128E-3,-1.02707745E-4,1.80673E-3,5.8144866E-3,2.3879649E-3,-2.3227073E-3,2.2255094E-3,-1.5635173E-3,-5.111681E-3,-1.0381978E-3,2.4949352E-3,3.198123E-3,8.845617E-3,-2.2325815E-4,2.7594864E-4,3.5389126E-3,8.382082E-4,-5.3795367E-3,-1.2738714E-2,4.7798082E-4,-4.932706E-3,2.1210313E-4,8.111656E-3,-1.698537E-2,-2.8125081E-2,-8.999842E-3,1.0698465E-2,-1.2239938E-2,-2.6264787E-3],"categories":[],"categories_nodes":[],"categories_segments":[],"categories_sizes":[],"default_left":[0,0,0,0,0,0,0,0,0,0,0,0,0,0,0,0,0,0,0,0,0,0,0,0,0,0,0,0,0,0,0,0,0,0,0,0,0,0,0,0,0,0,0,0,0,0,0,0,0,0,0,0,0,0,0,0,0,0,0,0,0,0,0,0,0,0,0,0,0,0,0,0,0,0,0],"id":5,"left_children":[1,3,5,7,9,11,13,-1,15,17,19,21,-1,23,-1,25,27,29,31,33,35,37,39,41,43,45,47,-1,-1,49,51,53,55,57,59,-1,61,63,-1,65,67,69,71,73,-1,-1,-1,-1,-1,-1,-1,-1,-1,-1,-1,-1,-1,-1,-1,-1,-1,-1,-1,-1,-1,-1,-1,-1,-1,-1,-1,-1,-1,-1,-1],"loss_changes":[2.959508E0,3.039012E-1,2.8486848E-1,4.1878223E-4,4.267426E-2,1.325078E-1,1.6469848E-1,0E0,1.2330115E-3,2.234659E-2,3.9559007E-3,1.0230744E-1,0E0,9.8654985E-2,0E0,4.9013235E-3,1.2013316E-4,1.7298821E-2,4.5684315E-3,5.1000807E-3,1.7719194E-3,7.166928E-2,1.50704775E-2,8.5852146E-2,1.08585134E-1,1.2603328E-3,2.6780553E-4,0E0,0E0,1.3400473E-2,8.274258E-3,1.6694372E-3,1.8087914E-3,5.689185E-3,2.4828198E-5,0E0,9.074109E-5,7.679659E-2,0E0,1.3245493E-2,8.203441E-3,5.358696E-2,3.870615E-2,3.1766742E-3,0E0,0E0,0E0,0E0,0E0,0E0,0E0,0E0,0E0,0E0,0E0,0E0,0E0,0E0,0E0,0E0,0E0,0E0,0E0,0E0,0E0,0E0,0E0,0E0,0E0,0E0,0E0,0E0,0E0,0E0,0E0],"parents":[2147483647,0,0,1,1,2,2,3,3,4,4,5,5,6,6,8,8,9,9,10,10,11,11,13,13,15,15,16,16,17,17,18,18,19,19,20,20,21,21,22,22,23,23,24,24,25,25,26,26,29,29,30,30,31,31,32,32,33,33,34,34,36,36,37,37,39,39,40,40,41,41,42,42,43,43],"right_children":[2,4,6,8,10,12,14,-1,16,18,20,22,-1,24,-1,26,28,30,32,34,36,38,40,42,44,46,48,-1,-1,50,52,54,56,58,60,-1,62,64,-1,66,68,70,72,74,-1,-1,-1,-1,-1,-1,-1,-1,-1,-1,-1,-1,-1,-1,-1,-1,-1,-1,-1,-1,-1,-1,-1,-1,-1,-1,-1,-1,-1,-1,-1],"split_conditions":[2.2237523E-2,1.7750017E-2,3.2800034E-2,1.5975015E-2,6.2866664E-1,1E0,1.2E0,1.1676925E-2,4.375E-1,2.126252E-2,1E0,6.4237034E-1,1.1504707E-2,6.407037E-1,9.307555E-3,3.125E-1,2E-1,5.6666666E-1,1E0,6.25E-1,1E0,3.2462534E-2,2E-1,6E-1,4.7362547E-2,1E0,1.7175017E-2,2.967465E-3,1.0414584E-2,5.3333336E-1,1.5955555E-1,3.75E-1,5.625E-1,4.375E-1,1.931252E-2,8.518588E-3,2.005002E-2,2.6037525E-2,1.0477394E-2,2.5500026E-2,2.7212527E-2,4.937505E-2,3.3112533E-2,1.4225185E0,9.737291E-3,8.635291E-3,2.9376128E-3,-1.02707745E-4,1.80673E-3,5.8144866E-3,2.3879649E-3,-2.3227073E-3,2.2255094E-3,-1.5635173E-3,-5.111681E-3,-1.0381978E-3,2.4949352E-3,3.198123E-3,8.845617E-3,-2.2325815E-4,2.7594864E-4,3.5389126E-3,8.382082E-4,-5.3795367E-3,-1.2738714E-2,4.7798082E-4,-4.932706E-3,2.1210313E-4,8.111656E-3,-1.698537E-2,-2.8125081E-2,-8.999842E-3,1.0698465E-2,-1.2239938E-2,-2.6264787E-3],"split_indices":[0,0,0,0,11,7,7,0,2,0,6,11,0,11,0,1,4,12,6,1,3,0,5,5,0,9,0,0,0,7,11,1,2,1,0,0,0,0,0,0,0,0,0,11,0,0,0,0,0,0,0,0,0,0,0,0,0,0,0,0,0,0,0,0,0,0,0,0,0,0,0,0,0,0,0],"split_type":[0,0,0,0,0,0,0,0,0,0,0,0,0,0,0,0,0,0,0,0,0,0,0,0,0,0,0,0,0,0,0,0,0,0,0,0,0,0,0,0,0,0,0,0,0,0,0,0,0,0,0,0,0,0,0,0,0,0,0,0,0,0,0,0,0,0,0,0,0,0,0,0,0,0,0],"sum_hessian":[3.72E2,2.15E2,1.57E2,1.11E2,1.04E2,9.1E1,6.6E1,8.8E1,2.3E1,7.5E1,2.9E1,8.8E1,3E0,6.4E1,2E0,8E0,1.5E1,6.4E1,1.1E1,1.2E1,1.7E1,6.5E1,2.3E1,4.8E1,1.6E1,6E0,2E0,1E0,1.4E1,5E1,1.4E1,7E0,4E0,1E1,2E0,1.5E1,2E0,6.4E1,1E0,1.8E1,5E0,4.6E1,2E0,1.4E1,2E0,4E0,2E0,1E0,1E0,2.1E1,2.9E1,7E0,7E0,5E0,2E0,2E0,2E0,7E0,3E0,1E0,1E0,1E0,1E0,2.6E1,3.8E1,7E0,1.1E1,4E0,1E0,3.8E1,8E0,1E0,1E0,1.3E1,1E0],"tree_param":{"num_deleted":"0","num_feature":"13","num_nodes":"75","size_leaf_vector":"1"}},{"base_weights":[9.8755145E-6,6.869639E-2,-9.389074E-2,1.0133494E-2,3.3227686E-2,-5.9899822E-2,-1.3916348E-1,1.9376045E-2,5.923844E-2,-6.670178E-2,1.0641853E-2,-1.4745484E-1,8.687052E-3,2.6062215E-2,-2.3347199E-2,7.253803E-2,4.6284538E-2,-8.5941985E-2,-1.6775804E-2,-1.3127175E-1,-2.6279017E-2,3.9601088E-2,6.3136886E-3,-3.8838137E-2,-8.863211E-5,2.5321029E-3,7.7474676E-3,5.8149565E-2,2.7418053E-2,-9.046599E-2,9.953523E-3,1.091128E-2,-3.207551E-2,-1.497727E-1,1.6055945E-2,-2.3220598E-3,4.397944E-3,-2.3311002E-3,3.3371353E-3,-7.474363E-4,-4.361602E-3,1.4186859E-3,-7.2042196E-4,4.0963623E-3,9.605287E-3,-2.0270646E-4,3.0914962E-3,-4.8528113E-3,-1.1677965E-2,2.2639888E-3,-1.2341604E-3,-6.031424E-3,-1.1189455E-3,-1.2649472E-2,-2.1703875E-2],"categories":[],"categories_nodes":[],"categories_segments":[],"categories_sizes":[],"default_left":[0,0,0,0,0,0,0,0,0,0,0,0,0,0,0,0,0,0,0,0,0,0,0,0,0,0,0,0,0,0,0,0,0,0,0,0,0,0,0,0,0,0,0,0,0,0,0,0,0,0,0,0,0,0,0],"id":6,"left_children":[1,3,5,-1,7,9,11,13,15,17,-1,19,-1,21,23,25,27,29,31,33,-1,35,37,39,41,-1,-1,43,45,47,-1,49,51,53,-1,-1,-1,-1,-1,-1,-1,-1,-1,-1,-1,-1,-1,-1,-1,-1,-1,-1,-1,-1,-1],"loss_changes":[2.4121904E0,2.4668467E-1,2.3480415E-1,0E0,3.6682814E-2,1.1117688E-1,1.3837624E-1,2.060432E-2,2.8447509E-3,8.405045E-2,0E0,8.682442E-2,0E0,1.6059712E-2,3.5995278E-3,1.7677546E-3,3.1065308E-3,6.270698E-2,1.1363696E-2,3.4259748E-1,0E0,1.0923229E-2,2.1618864E-2,5.7311263E-4,6.100978E-4,0E0,0E0,3.8821772E-3,1.0923357E-3,6.385589E-2,0E0,3.006652E-3,9.351643E-3,6.0231447E-2,0E0,0E0,0E0,0E0,0E0,0E0,0E0,0E0,0E0,0E0,0E0,0E0,0E0,0E0,0E0,0E0,0E0,0E0,0E0,0E0,0E0],"parents":[2147483647,0,0,1,1,2,2,4,4,5,5,6,6,7,7,8,8,9,9,11,11,13,13,14,14,15,15,16,16,17,17,18,18,19,19,21,21,22,22,23,23,24,24,27,27,28,28,29,29,31,31,32,32,33,33],"right_children":[2,4,6,-1,8,10,12,14,16,18,-1,20,-1,22,24,26,28,30,32,34,-1,36,38,40,42,-1,-1,44,46,48,-1,50,52,54,-1,-1,-1,-1,-1,-1,-1,-1,-1,-1,-1,-1,-1,-1,-1,-1,-1,-1,-1,-1,-1],"split_conditions":[2.2237523E-2,1.7750017E-2,3.2800034E-2,1.0133494E-2,5.41E-1,1E0,1.2E0,2.1287521E-2,1.928752E-2,5.524815E-1,1.0641853E-2,1.1333333E0,8.687052E-3,4E-1,2.1650022E-2,6.095926E-1,8E-1,3.2462534E-2,2.4575025E-2,1.1E0,-2.6279017E-2,1.25E-1,3.2396296E-1,1.25E-1,2.1725021E-2,2.5321029E-3,7.7474676E-3,2.147502E-2,1.25E-1,2.6037525E-2,9.953523E-3,5.6666666E-1,7.595926E-1,8.666667E-1,1.6055945E-2,-2.3220598E-3,4.397944E-3,-2.3311002E-3,3.3371353E-3,-7.474363E-4,-4.361602E-3,1.4186859E-3,-7.2042196E-4,4.0963623E-3,9.605287E-3,-2.0270646E-4,3.0914962E-3,-4.8528113E-3,-1.1677965E-2,2.2639888E-3,-1.2341604E-3,-6.031424E-3,-1.1189455E-3,-1.2649472E-2,-2.1703875E-2],"split_indices":[0,0,0,0,11,7,7,0,0,11,0,7,0,3,0,11,3,0,0,7,0,2,11,2,0,0,0,0,2,0,0,12,11,7,0,0,0,0,0,0,0,0,0,0,0,0,0,0,0,0,0,0,0,0,0],"split_type":[0,0,0,0,0,0,0,0,0,0,0,0,0,0,0,0,0,0,0,0,0,0,0,0,0,0,0,0,0,0,0,0,0,0,0,0,0,0,0,0,0,0,0,0,0,0,0,0,0,0,0,0,0,0,0],"sum_hessian":[3.72E2,2.15E2,1.57E2,1.11E2,1.04E2,9.1E1,6.6E1,6.9E1,3.5E1,8.8E1,3E0,6.4E1,2E0,6E1,9E0,1.5E1,2E1,6.3E1,2.5E1,5.8E1,6E0,3.5E1,2.5E1,5E0,4E0,2E0,1.3E1,1.1E1,9E0,6.2E1,1E0,9E0,1.6E1,5.5E1,3E0,2E0,3.3E1,1.2E1,1.3E1,1E0,4E0,1E0,3E0,9E0,2E0,1E0,8E0,2.5E1,3.7E1,6E0,3E0,6E0,1E1,4.3E1,1.2E1],"tree_param":{"num_deleted":"0","num_feature":"13","num_nodes":"55","size_leaf_vector":"1"}},{"base_weights":[2.801738E-6,5.2609585E-2,-9.990933E-2,8.632514E-2,1.3745693E-2,-1.3162933E-1,-7.2143264E-2,9.298689E-3,5.7221126E-2,-2.1791272E-3,3.523992E-2,-1.7335014E-1,-9.5853746E-2,2.012991E-2,-1.0519633E-1,2.3034893E-2,6.803456E-2,1.8610734E-2,-3.7850525E-2,5.233495E-2,1.5251979E-2,-9.288279E-3,-1.8808605E-2,-4.9141202E-2,-1.3014568E-1,-1.4173795E-1,-5.6206837E-2,4.2744875E-3,4.0726676E-3,1.1200607E-4,7.1497425E-2,4.315311E-2,-7.858992E-4,-4.385742E-2,2.0819188E-3,4.2424418E-2,7.317432E-2,-9.925502E-3,3.1020168E-2,-5.3353906E-2,7.024676E-4,-9.199426E-3,-1.4952907E-1,-1.5722953E-1,8.107913E-3,-7.316531E-2,1.1515502E-2,1.6286633E-3,-9.162486E-4,2.3480894E-3,7.57652E-3,-8.852899E-4,5.3457543E-3,1.62059E-3,-3.2794196E-3,-6.457591E-4,-5.1391195E-3,4.869598E-3,2.3820673E-3,7.819161E-3,2.1535307E-3,-1.5182568E-3,1.8694043E-3,8.964934E-3,1.5104193E-3,-9.6586643E-4,-5.578509E-3,-1.5612801E-2,-4.1769864E-3,-7.7427067E-3,-2.0294404E-2,-2.5937592E-3,-1.0401326E-2],"categories":[],"categories_nodes":[],"categories_segments":[],"categories_sizes":[],"default_left":[0,0,0,0,0,0,0,0,0,0,0,0,0,0,0,0,0,0,0,0,0,0,0,0,0,0,0,0,0,0,0,0,0,0,0,0,0,0,0,0,0,0,0,0,0,0,0,0,0,0,0,0,0,0,0,0,0,0,0,0,0,0,0,0,0,0,0,0,0,0,0,0,0],"id":7,"left_children":[1,3,5,7,9,11,13,-1,15,17,19,21,23,-1,25,27,29,31,33,35,37,-1,-1,39,41,43,45,47,-1,-1,49,51,53,55,-1,57,59,61,63,65,-1,-1,67,69,-1,71,-1,-1,-1,-1,-1,-1,-1,-1,-1,-1,-1,-1,-1,-1,-1,-1,-1,-1,-1,-1,-1,-1,-1,-1,-1,-1,-1],"loss_changes":[1.9657649E0,3.1984127E-1,1.041193E-1,2.0077944E-2,3.9440338E-2,7.14463E-2,6.628815E-1,0E0,8.413941E-3,5.039186E-2,1.594482E-2,1.3359785E-2,4.8067838E-2,0E0,1.06603324E-1,2.4811546E-3,4.5542344E-3,2.050361E-2,9.723648E-3,2.2653788E-3,9.835969E-3,0E0,0E0,4.160553E-3,2.9474497E-4,1.370123E-1,9.270038E-2,9.5626025E-4,0E0,0E0,2.1145195E-3,1.0655209E-2,1.4128424E-2,6.1486587E-3,0E0,1.1735186E-3,1.2972951E-4,1.7883717E-3,1.2643026E-2,1.0546595E-3,0E0,0E0,1.300618E-3,1.0832304E-1,0E0,3.6637872E-2,0E0,0E0,0E0,0E0,0E0,0E0,0E0,0E0,0E0,0E0,0E0,0E0,0E0,0E0,0E0,0E0,0E0,0E0,0E0,0E0,0E0,0E0,0E0,0E0,0E0,0E0,0E0],"parents":[2147483647,0,0,1,1,2,2,3,3,4,4,5,5,6,6,8,8,9,9,10,10,11,11,12,12,14,14,15,15,16,16,17,17,18,18,19,19,20,20,23,23,24,24,25,25,26,26,27,27,30,30,31,31,32,32,33,33,35,35,36,36,37,37,38,38,39,39,42,42,43,43,45,45],"right_children":[2,4,6,8,10,12,14,-1,16,18,20,22,24,-1,26,28,30,32,34,36,38,-1,-1,40,42,44,46,48,-1,-1,50,52,54,56,-1,58,60,62,64,66,-1,-1,68,70,-1,72,-1,-1,-1,-1,-1,-1,-1,-1,-1,-1,-1,-1,-1,-1,-1,-1,-1,-1,-1,-1,-1,-1,-1,-1,-1,-1,-1],"split_conditions":[2.4900025E-2,1.8050019E-2,5E-1,1.7475018E-2,4.5866665E-1,3.4292594E-1,5.3333336E-1,9.298689E-3,1E0,5E-1,2.0987522E-2,2.8250027E-2,3.2625034E-2,2.012991E-2,2.7644444E-1,6.875E-1,6.25E-2,7.5E-1,8.666667E-1,7.5E-1,6.724074E-1,-9.288279E-3,-1.8808605E-2,3.1962533E-2,3.7287537E-2,1.2E0,1.1E0,7.5E-1,4.0726676E-3,1.1200607E-4,1.7587518E-2,2E-1,5.3333336E-1,1.8950019E-2,2.0819188E-3,6.25E-1,1.958752E-2,9.375E-1,8E-1,4.3333334E-1,7.024676E-4,-9.199426E-3,1E0,3.1512532E-2,8.107913E-3,3.041253E-2,1.1515502E-2,1.6286633E-3,-9.162486E-4,2.3480894E-3,7.57652E-3,-8.852899E-4,5.3457543E-3,1.62059E-3,-3.2794196E-3,-6.457591E-4,-5.1391195E-3,4.869598E-3,2.3820673E-3,7.819161E-3,2.1535307E-3,-1.5182568E-3,1.8694043E-3,8.964934E-3,1.5104193E-3,-9.6586643E-4,-5.578509E-3,-1.5612801E-2,-4.1769864E-3,-7.7427067E-3,-2.0294404E-2,-2.5937592E-3,-1.0401326E-2],"split_indices":[0,0,7,0,11,11,7,0,6,12,0,0,0,0,11,2,2,9,7,2,11,0,0,0,0,7,7,9,0,0,0,4,7,0,0,1,0,2,3,12,0,0,3,0,0,0,0,0,0,0,0,0,0,0,0,0,0,0,0,0,0,0,0,0,0,0,0,0,0,0,0,0,0],"split_type":[0,0,0,0,0,0,0,0,0,0,0,0,0,0,0,0,0,0,0,0,0,0,0,0,0,0,0,0,0,0,0,0,0,0,0,0,0,0,0,0,0,0,0,0,0,0,0,0,0,0,0,0,0,0,0,0,0,0,0,0,0,0,0,0,0,0,0,0,0,0,0,0,0],"sum_hessian":[3.72E2,2.44E2,1.28E2,1.3E2,1.14E2,5.8E1,7E1,1.04E2,2.6E1,6.6E1,4.8E1,2.5E1,3.3E1,7E0,6.3E1,7E0,1.9E1,4.2E1,2.4E1,2.5E1,2.3E1,5E0,2E1,1.5E1,1.8E1,3.5E1,2.8E1,4E0,3E0,1E0,1.8E1,1.8E1,2.4E1,2.2E1,2E0,1.9E1,6E0,9E0,1.4E1,1.4E1,1E0,8E0,1E1,3.3E1,2E0,2.6E1,2E0,2E0,2E0,2E0,1.6E1,3E0,1.5E1,1.6E1,8E0,4E0,1.8E1,1.3E1,6E0,5E0,1E0,8E0,1E0,2E0,1.2E1,1E0,1.3E1,9E0,1E0,1.3E1,2E1,1.1E1,1.5E1],"tree_param":{"num_deleted":"0","num_feature":"13","num_nodes":"73","size_leaf_vector":"1"}},{"base_weights":[-3.216014E-5,5.6147497E-2,-7.683452E-2,8.230854E-2,2.7707646E-2,-4.8794903E-2,-1.1418991E-1,8.60097E-3,6.51539E-2,8.5026E-3,4.142108E-2,-5.491989E-2,9.968481E-3,-1.2119608E-1,7.5673857E-3,4.037179E-2,7.5021714E-2,-4.301252E-3,5.3746205E-2,6.245714E-2,2.40098E-2,-7.171463E-2,-1.5770108E-2,-1.070789E-1,-2.2287006E-2,6.1442804E-2,1.1226416E-2,2.1950125E-3,7.709648E-3,-1.0277305E-2,6.48611E-3,6.0497113E-2,-3.5059752E-4,4.1013565E-2,7.265845E-3,-1.1771701E-2,3.3375595E-2,-7.912091E-2,2.8541137E-2,9.169495E-3,-2.8066209E-2,-1.233748E-1,1.4783335E-2,7.2353915E-3,8.8991824E-4,1.9378931E-3,-1.0691822E-3,-1.4783373E-3,4.12132E-3,9.395421E-4,7.3755393E-3,5.648943E-3,2.4100295E-3,6.1076524E-4,-3.1177967E-3,4.6005775E-3,1.5263403E-3,-5.264602E-3,-1.2679092E-2,-9.552696E-3,1.4309551E-2,1.9837355E-3,-1.1791632E-3,-4.7803945E-3,-9.365678E-4,-1.3841981E-2,-4.9243406E-3],"categories":[],"categories_nodes":[],"categories_segments":[],"categories_sizes":[],"default_left":[0,0,0,0,0,0,0,0,0,0,0,0,0,0,0,0,0,0,0,0,0,0,0,0,0,0,0,0,0,0,0,0,0,0,0,0,0,0,0,0,0,0,0,0,0,0,0,0,0,0,0,0,0,0,0,0,0,0,0,0,0,0,0,0,0,0,0],"id":8,"left_children":[1,3,5,7,9,11,13,-1,15,17,19,21,-1,23,-1,25,27,29,31,33,35,37,39,41,-1,43,45,-1,-1,47,-1,49,-1,51,-1,53,55,57,59,61,63,65,-1,-1,-1,-1,-1,-1,-1,-1,-1,-1,-1,-1,-1,-1,-1,-1,-1,-1,-1,-1,-1,-1,-1,-1,-1],"loss_changes":[1.6137086E0,1.5842688E-1,1.5992212E-1,1.5072823E-3,2.7301364E-2,8.9142844E-2,9.8296106E-2,0E0,2.8403252E-3,2.6299333E-2,2.084256E-2,5.738747E-2,0E0,6.9432974E-2,0E0,4.837322E-3,6.9491565E-5,1.5546041E-2,4.077144E-3,2.9263273E-3,1.2122165E-2,4.8294604E-2,8.843829E-3,2.633263E-1,0E0,2.2226553E-3,1.1006398E-3,0E0,0E0,8.49794E-3,0E0,5.404722E-3,0E0,1.5178137E-3,0E0,2.9661963E-3,5.7030823E-3,6.652433E-2,8.47322E-2,2.470018E-3,6.5653007E-3,5.5640876E-2,0E0,0E0,0E0,0E0,0E0,0E0,0E0,0E0,0E0,0E0,0E0,0E0,0E0,0E0,0E0,0E0,0E0,0E0,0E0,0E0,0E0,0E0,0E0,0E0,0E0],"parents":[2147483647,0,0,1,1,2,2,3,3,4,4,5,5,6,6,8,8,9,9,10,10,11,11,13,13,15,15,16,16,17,17,18,18,19,19,20,20,21,21,22,22,23,23,25,25,26,26,29,29,31,31,33,33,35,35,36,36,37,37,38,38,39,39,40,40,41,41],"right_children":[2,4,6,8,10,12,14,-1,16,18,20,22,-1,24,-1,26,28,30,32,34,36,38,40,42,-1,44,46,-1,-1,48,-1,50,-1,52,-1,54,56,58,60,62,64,66,-1,-1,-1,-1,-1,-1,-1,-1,-1,-1,-1,-1,-1,-1,-1,-1,-1,-1,-1,-1,-1,-1,-1,-1,-1],"split_conditions":[2.2237523E-2,1.7750017E-2,3.2800034E-2,1.5975015E-2,2.4318519E-1,1E0,1.2E0,8.60097E-3,4.375E-1,6E-1,1.928752E-2,5.328519E-1,9.968481E-3,1.1333333E0,7.5673857E-3,5E-1,2E-1,8E-1,8.125E-1,1E0,4.2918518E-1,3.208753E-2,2.4575025E-2,1.1E0,-2.2287006E-2,1E0,3.75E-1,2.1950125E-3,7.709648E-3,8.75E-1,6.48611E-3,4.375E-1,-3.5059752E-4,4.3333334E-1,7.265845E-3,3.3296296E-1,5.3333336E-1,2.8250027E-2,3.75E-1,5.6666666E-1,7.595926E-1,6E-1,1.4783335E-2,7.2353915E-3,8.8991824E-4,1.9378931E-3,-1.0691822E-3,-1.4783373E-3,4.12132E-3,9.395421E-4,7.3755393E-3,5.648943E-3,2.4100295E-3,6.1076524E-4,-3.1177967E-3,4.6005775E-3,1.5263403E-3,-5.264602E-3,-1.2679092E-2,-9.552696E-3,1.4309551E-2,1.9837355E-3,-1.1791632E-3,-4.7803945E-3,-9.365678E-4,-1.3841981E-2,-4.9243406E-3],"split_indices":[0,0,0,0,11,7,7,0,2,5,0,11,0,7,0,12,4,4,1,6,11,0,0,7,0,9,1,0,0,1,0,2,0,12,0,11,12,0,1,12,11,4,0,0,0,0,0,0,0,0,0,0,0,0,0,0,0,0,0,0,0,0,0,0,0,0,0],"split_type":[0,0,0,0,0,0,0,0,0,0,0,0,0,0,0,0,0,0,0,0,0,0,0,0,0,0,0,0,0,0,0,0,0,0,0,0,0,0,0,0,0,0,0,0,0,0,0,0,0,0,0,0,0,0,0,0,0,0,0,0,0,0,0,0,0,0,0],"sum_hessian":[3.72E2,2.15E2,1.57E2,1.11E2,1.04E2,9.1E1,6.6E1,8.8E1,2.3E1,4.4E1,6E1,8.8E1,3E0,6.4E1,2E0,8E0,1.5E1,3.5E1,9E0,2.6E1,3.4E1,6.1E1,2.7E1,5.8E1,6E0,4E0,4E0,1E0,1.4E1,3.3E1,2E0,8E0,1E0,1E1,1.6E1,7E0,2.7E1,5.7E1,4E0,9E0,1.8E1,5.5E1,3E0,3E0,1E0,3E0,1E0,3.1E1,2E0,2E0,6E0,4E0,6E0,4E0,3E0,1.5E1,1.2E1,3.8E1,1.9E1,2E0,2E0,6E0,3E0,8E0,1E1,4.5E1,1E1],"tree_param":{"num_deleted":"0","num_feature":"13","num_nodes":"67","size_leaf_vector":"1"}},{"base_weights":[6.9460824E-5,4.6085E-2,-7.6842725E-2,7.0349276E-2,1.5078221E-2,-6.879649E-2,-1.7456406E-1,7.5665596E-3,4.706918E-2,3.7229317E-3,3.9396483E-2,-7.520721E-2,1.5354565E-2,-2.0337407E-2,4.236293E-3,1.9611575E-2,5.5698764E-2,1.4544592E-2,-1.9964283E-2,1.4381939E-2,4.682586E-2,-1.0108346E-1,-4.7751535E-2,3.6168336E-3,3.4702108E-3,1.8032193E-4,5.8440465E-2,5.745104E-3,4.916803E-2,-9.843223E-3,-4.169196E-2,2.432099E-3,-4.122123E-3,3.4287572E-5,4.8748363E-2,-5.8978878E-2,-1.3336274E-1,1.8835586E-2,-7.5423956E-2,1.359417E-3,-7.5661147E-4,9.954214E-4,6.058113E-3,1.383031E-4,6.0537024E-3,5.53713E-3,-3.330678E-4,-2.938293E-3,-3.557363E-4,-5.1344535E-3,-1.1707008E-3,-5.0814153E-4,-6.221235E-5,5.6664324E-3,2.9259066E-3,-1.0572682E-2,-3.3909436E-3,-1.7153554E-2,-1.0127388E-2,-8.1901355E-3,7.062892E-3],"categories":[],"categories_nodes":[],"categories_segments":[],"categories_sizes":[],"default_left":[0,0,0,0,0,0,0,0,0,0,0,0,0,0,0,0,0,0,0,0,0,0,0,0,0,0,0,0,0,0,0,0,0,0,0,0,0,0,0,0,0,0,0,0,0,0,0,0,0,0,0,0,0,0,0,0,0,0,0,0,0],"id":9,"left_children":[1,3,5,7,9,11,13,-1,15,17,19,21,-1,-1,-1,23,25,27,29,31,33,35,37,39,-1,-1,41,43,45,47,49,-1,51,-1,53,55,57,-1,59,-1,-1,-1,-1,-1,-1,-1,-1,-1,-1,-1,-1,-1,-1,-1,-1,-1,-1,-1,-1,-1,-1],"loss_changes":[1.3236463E0,1.749908E-1,9.807098E-2,1.2651563E-2,2.857198E-2,1.9827157E-1,7.1112156E-2,0E0,5.3052492E-3,1.8746492E-2,5.459357E-3,8.611071E-2,0E0,0E0,0E0,1.8054415E-3,2.8499328E-3,1.4950952E-2,4.6474794E-3,1.7554697E-3,2.2173785E-3,8.0476284E-2,4.323609E-1,6.6073524E-4,0E0,0E0,1.3690293E-3,9.715535E-3,3.441058E-3,1.9834798E-3,1.4249347E-3,0E0,1.0268821E-5,0E0,2.044689E-3,3.1573214E-2,2.6725113E-2,0E0,6.0655147E-2,0E0,0E0,0E0,0E0,0E0,0E0,0E0,0E0,0E0,0E0,0E0,0E0,0E0,0E0,0E0,0E0,0E0,0E0,0E0,0E0,0E0,0E0],"parents":[2147483647,0,0,1,1,2,2,3,3,4,4,5,5,6,6,8,8,9,9,10,10,11,11,15,15,16,16,17,17,18,18,19,19,20,20,21,21,22,22,23,23,26,26,27,27,28,28,29,29,30,30,32,32,34,34,35,35,36,36,38,38],"right_children":[2,4,6,8,10,12,14,-1,16,18,20,22,-1,-1,-1,24,26,28,30,32,34,36,38,40,-1,-1,42,44,46,48,50,-1,52,-1,54,56,58,-1,60,-1,-1,-1,-1,-1,-1,-1,-1,-1,-1,-1,-1,-1,-1,-1,-1,-1,-1,-1,-1,-1,-1],"split_conditions":[2.3287524E-2,1.8050019E-2,5.000005E-2,1.7475018E-2,5.41E-1,4.8825048E-2,5.897506E-2,7.5665596E-3,1E0,2.1287521E-2,3.125E-1,5E-1,1.5354565E-2,-2.0337407E-2,4.236293E-3,6.875E-1,6.25E-2,6E-1,5.3333336E-1,5.6666666E-1,3E-1,3.105003E-2,5.3333336E-1,7.5E-1,3.4702108E-3,1.8032193E-4,1.7500017E-2,8E-1,8.125E-1,2.1650022E-2,3.8062963E-1,2.432099E-3,3.125E-1,3.4287572E-5,2E-1,1.6811112E-1,3.1677777E-1,1.8835586E-2,1.2E0,1.359417E-3,-7.5661147E-4,9.954214E-4,6.058113E-3,1.383031E-4,6.0537024E-3,5.53713E-3,-3.330678E-4,-2.938293E-3,-3.557363E-4,-5.1344535E-3,-1.1707008E-3,-5.0814153E-4,-6.221235E-5,5.6664324E-3,2.9259066E-3,-1.0572682E-2,-3.3909436E-3,-1.7153554E-2,-1.0127388E-2,-8.1901355E-3,7.062892E-3],"split_indices":[0,0,0,0,11,0,0,0,6,0,2,7,0,0,0,2,2,5,12,12,12,0,7,9,0,0,0,4,1,0,11,0,1,0,5,11,11,0,7,0,0,0,0,0,0,0,0,0,0,0,0,0,0,0,0,0,0,0,0,0,0],"split_type":[0,0,0,0,0,0,0,0,0,0,0,0,0,0,0,0,0,0,0,0,0,0,0,0,0,0,0,0,0,0,0,0,0,0,0,0,0,0,0,0,0,0,0,0,0,0,0,0,0,0,0,0,0,0,0,0,0,0,0,0,0],"sum_hessian":[3.72E2,2.33E2,1.39E2,1.3E2,1.03E2,1.3E2,9E0,1.04E2,2.6E1,7.1E1,3.2E1,1.27E2,3E0,8E0,1E0,7E0,1.9E1,4.9E1,2.2E1,8E0,2.4E1,6.4E1,6.3E1,4E0,3E0,1E0,1.8E1,4E1,9E0,1.6E1,6E0,5E0,3E0,1E0,2.3E1,2.9E1,3.5E1,6E0,5.7E1,2E0,2E0,1E0,1.7E1,3.8E1,2E0,8E0,1E0,3E0,1.3E1,4E0,2E0,2E0,1E0,1.5E1,8E0,9E0,2E1,1.4E1,2.1E1,5.5E1,2E0],"tree_param":{"num_deleted":"0","num_feature":"13","num_nodes":"61","size_leaf_vector":"1"}},{"base_weights":[8.094934E-5,3.9203644E-2,-7.422247E-2,6.345841E-2,1.1233398E-2,-6.6562675E-2,-1.5871777E-1,6.8171085E-3,4.278105E-2,-8.5312664E-4,2.7530616E-2,-7.312513E-2,1.4202972E-2,-1.8529637E-2,4.024479E-3,1.815956E-2,5.0490595E-2,1.598281E-2,-2.9776813E-2,4.1059766E-2,1.1726931E-2,-9.984509E-2,-4.5165755E-2,3.375721E-3,3.2099471E-3,1.7130673E-4,5.2967675E-2,3.6934473E-2,-5.7976483E-4,-3.4773674E-2,1.8458049E-3,3.300657E-2,5.82032E-2,-8.862918E-3,2.4671702E-2,-1.3494667E-1,-7.1919814E-2,1.7221106E-2,-7.3023714E-2,1.2687902E-3,-7.0617E-4,9.4565155E-4,5.48596E-3,-2.4270625E-3,4.1683125E-3,1.5238363E-3,-3.0394031E-3,-6.432307E-4,-4.0401737E-3,3.8052015E-3,1.8200467E-3,6.233864E-3,1.6695291E-3,-1.265343E-3,1.2625844E-3,7.6828026E-3,1.0737805E-3,-1.0538769E-2,-1.7578624E-2,-4.955696E-3,-1.1620632E-2,-7.976506E-3,6.5920316E-3],"categories":[],"categories_nodes":[],"categories_segments":[],"categories_sizes":[],"default_left":[0,0,0,0,0,0,0,0,0,0,0,0,0,0,0,0,0,0,0,0,0,0,0,0,0,0,0,0,0,0,0,0,0,0,0,0,0,0,0,0,0,0,0,0,0,0,0,0,0,0,0,0,0,0,0,0,0,0,0,0,0,0,0],"id":10,"left_children":[1,3,5,7,9,11,13,-1,15,17,19,21,-1,-1,-1,23,25,27,29,31,33,35,37,39,-1,-1,41,43,45,47,-1,49,51,53,55,57,59,-1,61,-1,-1,-1,-1,-1,-1,-1,-1,-1,-1,-1,-1,-1,-1,-1,-1,-1,-1,-1,-1,-1,-1,-1,-1],"loss_changes":[1.0872022E0,1.6549808E-1,7.292616E-2,9.848893E-3,2.2675812E-2,1.7465132E-1,6.0338676E-2,0E0,4.2082705E-3,3.310206E-2,9.995207E-3,8.289802E-2,0E0,0E0,0E0,1.540324E-3,2.3257732E-3,1.4942993E-2,6.667424E-3,1.668457E-3,6.615403E-3,4.812771E-2,3.698603E-1,5.755739E-4,0E0,0E0,1.0452978E-3,6.5338667E-3,1.22533E-2,3.408784E-3,0E0,8.015018E-4,1.6081147E-4,9.742944E-4,1.0076148E-2,1.16536915E-2,2.890423E-2,0E0,5.490157E-2,0E0,0E0,0E0,0E0,0E0,0E0,0E0,0E0,0E0,0E0,0E0,0E0,0E0,0E0,0E0,0E0,0E0,0E0,0E0,0E0,0E0,0E0,0E0,0E0],"parents":[2147483647,0,0,1,1,2,2,3,3,4,4,5,5,6,6,8,8,9,9,10,10,11,11,15,15,16,16,17,17,18,18,19,19,20,20,21,21,22,22,23,23,26,26,27,27,28,28,29,29,31,31,32,32,33,33,34,34,35,35,36,36,38,38],"right_children":[2,4,6,8,10,12,14,-1,16,18,20,22,-1,-1,-1,24,26,28,30,32,34,36,38,40,-1,-1,42,44,46,48,-1,50,52,54,56,58,60,-1,62,-1,-1,-1,-1,-1,-1,-1,-1,-1,-1,-1,-1,-1,-1,-1,-1,-1,-1,-1,-1,-1,-1,-1,-1],"split_conditions":[2.4900025E-2,1.8050019E-2,5.000005E-2,1.7475018E-2,4.5866665E-1,4.8825048E-2,5.897506E-2,6.8171085E-3,1E0,5E-1,2.0987522E-2,5E-1,1.4202972E-2,-1.8529637E-2,4.024479E-3,6.875E-1,6.25E-2,7.5E-1,8.666667E-1,7.5E-1,6.724074E-1,3.1677777E-1,5.3333336E-1,7.5E-1,3.2099471E-3,1.7130673E-4,1.7500017E-2,1.830002E-2,5.3333336E-1,1.8950019E-2,1.8458049E-3,6.25E-1,1.958752E-2,9.375E-1,8E-1,4.375E-1,3.7287537E-2,1.7221106E-2,1.2E0,1.2687902E-3,-7.0617E-4,9.4565155E-4,5.48596E-3,-2.4270625E-3,4.1683125E-3,1.5238363E-3,-3.0394031E-3,-6.432307E-4,-4.0401737E-3,3.8052015E-3,1.8200467E-3,6.233864E-3,1.6695291E-3,-1.265343E-3,1.2625844E-3,7.6828026E-3,1.0737805E-3,-1.0538769E-2,-1.7578624E-2,-4.955696E-3,-1.1620632E-2,-7.976506E-3,6.5920316E-3],"split_indices":[0,0,0,0,11,0,0,0,6,12,0,7,0,0,0,2,2,9,7,2,11,11,7,9,0,0,0,0,7,0,0,1,0,2,3,1,0,0,7,0,0,0,0,0,0,0,0,0,0,0,0,0,0,0,0,0,0,0,0,0,0,0,0],"split_type":[0,0,0,0,0,0,0,0,0,0,0,0,0,0,0,0,0,0,0,0,0,0,0,0,0,0,0,0,0,0,0,0,0,0,0,0,0,0,0,0,0,0,0,0,0,0,0,0,0,0,0,0,0,0,0,0,0,0,0,0,0,0,0],"sum_hessian":[3.72E2,2.44E2,1.28E2,1.3E2,1.14E2,1.19E2,9E0,1.04E2,2.6E1,6.6E1,4.8E1,1.16E2,3E0,8E0,1E0,7E0,1.9E1,4.2E1,2.4E1,2.5E1,2.3E1,5.8E1,5.8E1,4E0,3E0,1E0,1.8E1,1.8E1,2.4E1,2.2E1,2E0,1.9E1,6E0,9E0,1.4E1,2.4E1,3.4E1,6E0,5.2E1,2E0,2E0,1E0,1.7E1,1E0,1.7E1,1.6E1,8E0,4E0,1.8E1,1.3E1,6E0,5E0,1E0,8E0,1E0,2E0,1.2E1,1.6E1,8E0,2.4E1,1E1,5E1,2E0],"tree_param":{"num_deleted":"0","num_feature":"13","num_nodes":"63","size_leaf_vector":"1"}},{"base_weights":[9.351361E-5,3.5433743E-2,-6.702625E-2,5.4952033E-2,7.061609E-3,-7.833485E-2,-2.3436856E-2,6.2979865E-3,4.0257357E-2,4.173245E-3,7.606113E-3,-6.883749E-2,-1.6882557E-2,-3.2887097E-2,6.627753E-3,1.9716503E-2,5.2731335E-2,-3.663184E-2,8.2073845E-3,-7.471595E-2,1.3438083E-2,-1.7622104E-2,-6.503057E-2,8.439978E-3,5.63687E-3,2.9037952E-2,5.6921054E-2,-4.684782E-3,-1.2149915E-2,2.1848656E-2,-3.1426072E-3,-8.493777E-2,-6.0650017E-3,-2.4031075E-2,2.4569431E-2,-7.477156E-2,1.578182E-4,3.4396935E-3,-1.4332191E-4,3.3306032E-3,1.7147363E-4,6.005427E-3,2.3891495E-3,-1.3715267E-3,-3.7269294E-4,3.7898266E-4,3.5816878E-3,5.408519E-4,-2.551754E-3,-5.980346E-3,-1.0982761E-2,-4.1221487E-3,1.2486379E-2,-3.2695197E-3,3.301859E-4,-1.3141036E-3,4.9995184E-3,-7.993802E-3,-2.1886379E-3],"categories":[],"categories_nodes":[],"categories_segments":[],"categories_sizes":[],"default_left":[0,0,0,0,0,0,0,0,0,0,0,0,0,0,0,0,0,0,0,0,0,0,0,0,0,0,0,0,0,0,0,0,0,0,0,0,0,0,0,0,0,0,0,0,0,0,0,0,0,0,0,0,0,0,0,0,0,0,0],"id":11,"left_children":[1,3,5,7,9,11,13,-1,15,17,-1,19,-1,21,-1,23,25,27,29,31,-1,33,35,37,-1,39,41,-1,43,45,47,49,51,53,55,57,-1,-1,-1,-1,-1,-1,-1,-1,-1,-1,-1,-1,-1,-1,-1,-1,-1,-1,-1,-1,-1,-1,-1],"loss_changes":[8.871414E-1,1.3528696E-1,6.1752677E-2,1.45697E-2,1.9811448E-2,7.603955E-2,2.5918704E-2,0E0,1.2796536E-2,1.6432764E-2,0E0,1.22333586E-1,0E0,1.1611443E-2,0E0,8.617057E-3,1.6229898E-3,1.6817646E-3,1.4003212E-2,6.404477E-2,0E0,5.728111E-3,5.3086802E-3,4.662305E-3,0E0,7.5921323E-4,1.3594106E-3,0E0,1.6239355E-6,1.0206498E-2,9.704556E-3,4.3479085E-2,6.498602E-2,4.133825E-3,3.5334392E-3,1.6305596E-4,0E0,0E0,0E0,0E0,0E0,0E0,0E0,0E0,0E0,0E0,0E0,0E0,0E0,0E0,0E0,0E0,0E0,0E0,0E0,0E0,0E0,0E0,0E0],"parents":[2147483647,0,0,1,1,2,2,3,3,4,4,5,5,6,6,8,8,9,9,11,11,13,13,15,15,16,16,17,17,18,18,19,19,21,21,22,22,23,23,25,25,26,26,28,28,29,29,30,30,31,31,32,32,33,33,34,34,35,35],"right_children":[2,4,6,8,10,12,14,-1,16,18,-1,20,-1,22,-1,24,26,28,30,32,-1,34,36,38,-1,40,42,-1,44,46,48,50,52,54,56,58,-1,-1,-1,-1,-1,-1,-1,-1,-1,-1,-1,-1,-1,-1,-1,-1,-1,-1,-1,-1,-1,-1,-1],"split_conditions":[2.4900025E-2,1.8700019E-2,6.68E-1,1.6275017E-2,1E0,4.937505E-2,4.7362547E-2,6.2979865E-3,1.772963E-1,1.25E-1,7.606113E-3,4.8825048E-2,-1.6882557E-2,3.6200035E-2,6.627753E-3,8.125E-1,2.5E-1,2.6244444E-1,2.042502E-2,6E-1,1.3438083E-2,2E-1,9.375E-1,4.3333334E-1,5.63687E-3,3.125E-1,8E-1,-4.684782E-3,6.72E-1,1.931252E-2,5.3333336E-1,3.3462532E-2,5.6666666E-1,9.524074E-1,2.7212527E-2,4E-1,1.578182E-4,3.4396935E-3,-1.4332191E-4,3.3306032E-3,1.7147363E-4,6.005427E-3,2.3891495E-3,-1.3715267E-3,-3.7269294E-4,3.7898266E-4,3.5816878E-3,5.408519E-4,-2.551754E-3,-5.980346E-3,-1.0982761E-2,-4.1221487E-3,1.2486379E-2,-3.2695197E-3,3.301859E-4,-1.3141036E-3,4.9995184E-3,-7.993802E-3,-2.1886379E-3],"split_indices":[0,0,11,0,7,0,0,0,11,2,0,0,0,0,0,2,2,11,0,5,0,5,1,12,0,1,3,0,11,0,12,0,12,11,0,4,0,0,0,0,0,0,0,0,0,0,0,0,0,0,0,0,0,0,0,0,0,0,0],"split_type":[0,0,0,0,0,0,0,0,0,0,0,0,0,0,0,0,0,0,0,0,0,0,0,0,0,0,0,0,0,0,0,0,0,0,0,0,0,0,0,0,0,0,0,0,0,0,0,0,0,0,0,0,0,0,0,0,0,0,0],"sum_hessian":[3.72E2,2.44E2,1.28E2,1.44E2,1E2,1.01E2,2.7E1,9.1E1,5.3E1,9.7E1,3E0,9.3E1,8E0,2.5E1,2E0,2.1E1,3.2E1,8E0,8.9E1,9.1E1,2E0,1.8E1,7E0,1.7E1,4E0,6E0,2.6E1,5E0,3E0,4E1,4.9E1,7.9E1,1.2E1,1.6E1,2E0,6E0,1E0,4E0,1.3E1,5E0,1E0,2.3E1,3E0,2E0,1E0,1.8E1,2.2E1,3.6E1,1.3E1,4.1E1,3.8E1,1E1,2E0,1.2E1,4E0,1E0,1E0,5E0,1E0],"tree_param":{"num_deleted":"0","num_feature":"13","num_nodes":"59","size_leaf_vector":"1"}},{"base_weights":[1.2587814E-4,3.2013856E-2,-6.0437534E-2,4.964391E-2,6.386406E-3,-8.320859E-2,-4.0663876E-2,5.542073E-3,3.3638794E-2,-1.4277258E-3,2.8982082E-2,-1.1398172E-1,-5.7228886E-2,1.5198302E-2,-6.410936E-2,1.5933767E-2,4.32404E-2,1.0202322E-2,-1.863916E-2,9.187883E-3,3.89209E-2,-8.944107E-2,-1.5039838E-2,-3.6491066E-2,-9.727241E-2,-9.301138E-2,-2.6020331E-2,3.0502884E-2,-1.3431907E-2,4.804366E-2,2.3339596E-2,-2.7453739E-3,2.5746979E-2,2.802959E-3,-3.2329075E-2,1.8366277E-2,7.90755E-6,-4.8157573E-5,4.1413654E-2,-9.1921E-3,-2.36412E-3,-3.9340083E-2,1.4518172E-3,-1.0284125E-2,-2.0792068E-3,-1.0435563E-1,6.656059E-3,-3.6650848E-2,7.832776E-3,5.5873545E-4,3.9147786E-3,-1.6589164E-4,-1.8903672E-3,1.9527928E-3,5.1927147E-3,1.628995E-4,2.668653E-3,1.2698682E-3,-2.8725732E-3,1.221942E-3,4.242601E-3,-1.5913472E-3,2.729104E-3,-4.734372E-3,-1.9625227E-3,2.1138072E-3,3.639549E-4,-3.2993077E-4,8.2719926E-4,5.2565713E-3,2.369088E-3,-2.6271893E-3,-5.3701545E-3,-4.4020168E-3,-1.3960997E-2,2.770109E-3,-4.9046883E-3],"categories":[],"categories_nodes":[],"categories_segments":[],"categories_sizes":[],"default_left":[0,0,0,0,0,0,0,0,0,0,0,0,0,0,0,0,0,0,0,0,0,0,0,0,0,0,0,0,0,0,0,0,0,0,0,0,0,0,0,0,0,0,0,0,0,0,0,0,0,0,0,0,0,0,0,0,0,0,0,0,0,0,0,0,0,0,0,0,0,0,0,0,0,0,0,0,0],"id":12,"left_children":[1,3,5,7,9,11,13,-1,15,17,19,21,23,-1,25,27,29,31,33,35,37,39,-1,41,43,45,47,49,51,53,55,57,59,61,63,65,67,-1,69,-1,-1,71,-1,-1,-1,73,-1,75,-1,-1,-1,-1,-1,-1,-1,-1,-1,-1,-1,-1,-1,-1,-1,-1,-1,-1,-1,-1,-1,-1,-1,-1,-1,-1,-1,-1,-1],"loss_changes":[7.222891E-1,1.1037722E-1,5.470088E-2,1.1542231E-2,1.7874504E-2,4.0646076E-2,3.3042926E-1,0E0,6.280884E-3,1.540307E-2,4.7574025E-3,9.784102E-3,2.4684556E-2,0E0,6.80342E-2,7.2550224E-3,1.3639852E-3,9.328989E-3,9.190383E-3,8.424292E-4,1.6896948E-3,7.6408684E-4,0E0,4.0589757E-3,2.546683E-3,7.211408E-2,3.5039723E-2,2.150583E-3,3.5515474E-4,1.2007803E-3,4.6517514E-4,1.0797073E-2,4.219737E-3,6.3925786E-3,2.6949998E-3,1.271643E-4,1.912785E-4,0E0,1.9170009E-3,0E0,0E0,2.90576E-3,0E0,0E0,0E0,6.617525E-2,0E0,2.2896796E-2,0E0,0E0,0E0,0E0,0E0,0E0,0E0,0E0,0E0,0E0,0E0,0E0,0E0,0E0,0E0,0E0,0E0,0E0,0E0,0E0,0E0,0E0,0E0,0E0,0E0,0E0,0E0,0E0,0E0],"parents":[2147483647,0,0,1,1,2,2,3,3,4,4,5,5,6,6,8,8,9,9,10,10,11,11,12,12,14,14,15,15,16,16,17,17,18,18,19,19,20,20,21,21,23,23,24,24,25,25,26,26,27,27,28,28,29,29,30,30,31,31,32,32,33,33,34,34,35,35,36,36,38,38,41,41,45,45,47,47],"right_children":[2,4,6,8,10,12,14,-1,16,18,20,22,24,-1,26,28,30,32,34,36,38,40,-1,42,44,46,48,50,52,54,56,58,60,62,64,66,68,-1,70,-1,-1,72,-1,-1,-1,74,-1,76,-1,-1,-1,-1,-1,-1,-1,-1,-1,-1,-1,-1,-1,-1,-1,-1,-1,-1,-1,-1,-1,-1,-1,-1,-1,-1,-1,-1,-1],"split_conditions":[2.4900025E-2,1.8700019E-2,5E-1,1.7475018E-2,6.724074E-1,3.4292594E-1,5.3333336E-1,5.542073E-3,1.5955555E-1,5E-1,3.3333334E-1,4.375E-1,3.7287537E-2,1.5198302E-2,2.7644444E-1,2E-1,5.6666666E-1,1E0,2.011252E-2,2.147502E-2,3E-1,3.75E-1,-1.5039838E-2,9.524074E-1,1E0,1.2E0,1.1E0,1E0,1.875E-1,1.25E-1,3.75E-1,5.625E-1,6E-1,6.25E-1,2.6244444E-1,8.644074E-1,2E-1,-4.8157573E-5,2E-1,-9.1921E-3,-2.36412E-3,3.105003E-2,1.4518172E-3,-1.0284125E-2,-2.0792068E-3,3.1512532E-2,6.656059E-3,2.6887527E-2,7.832776E-3,5.5873545E-4,3.9147786E-3,-1.6589164E-4,-1.8903672E-3,1.9527928E-3,5.1927147E-3,1.628995E-4,2.668653E-3,1.2698682E-3,-2.8725732E-3,1.221942E-3,4.242601E-3,-1.5913472E-3,2.729104E-3,-4.734372E-3,-1.9625227E-3,2.1138072E-3,3.639549E-4,-3.2993077E-4,8.2719926E-4,5.2565713E-3,2.369088E-3,-2.6271893E-3,-5.3701545E-3,-4.4020168E-3,-1.3960997E-2,2.770109E-3,-4.9046883E-3],"split_indices":[0,0,7,0,11,11,7,0,11,12,7,1,0,0,11,3,12,6,0,0,12,2,0,11,3,7,7,6,1,2,1,2,5,2,11,11,4,0,5,0,0,0,0,0,0,0,0,0,0,0,0,0,0,0,0,0,0,0,0,0,0,0,0,0,0,0,0,0,0,0,0,0,0,0,0,0,0],"split_type":[0,0,0,0,0,0,0,0,0,0,0,0,0,0,0,0,0,0,0,0,0,0,0,0,0,0,0,0,0,0,0,0,0,0,0,0,0,0,0,0,0,0,0,0,0,0,0,0,0,0,0,0,0,0,0,0,0,0,0,0,0,0,0,0,0,0,0,0,0,0,0,0,0,0,0,0,0],"sum_hessian":[3.72E2,2.44E2,1.28E2,1.44E2,1E2,5.8E1,7E1,1.04E2,4E1,7.5E1,2.5E1,2.5E1,3.3E1,7E0,6.3E1,1.5E1,2.5E1,4.5E1,3E1,9E0,1.6E1,1.7E1,8E0,2.3E1,1E1,3.5E1,2.8E1,1E1,5E0,1.9E1,6E0,2.5E1,2E1,1.2E1,1.8E1,4E0,5E0,1E0,1.5E1,1.6E1,1E0,2.2E1,1E0,9E0,1E0,3.3E1,2E0,2.6E1,2E0,3E0,7E0,2E0,3E0,3E0,1.6E1,1E0,5E0,1.6E1,9E0,1.2E1,8E0,7E0,5E0,7E0,1.1E1,3E0,1E0,4E0,1E0,8E0,7E0,1.3E1,9E0,1.3E1,2E1,4E0,2.2E1],"tree_param":{"num_deleted":"0","num_feature":"13","num_nodes":"77","size_leaf_vector":"1"}},{"base_weights":[8.77521E-5,3.4112446E-2,-4.6427574E-2,4.913937E-2,1.7758848E-2,-2.810931E-2,-7.0888065E-2,5.157626E-3,3.8055103E-2,4.6573374E-3,2.7132768E-2,-3.3608217E-2,1.0126869E-2,-7.593646E-2,6.212322E-3,1.8800186E-2,4.6507552E-2,-4.6091825E-3,3.7551075E-2,3.787266E-2,1.3122441E-2,-5.0616555E-2,-1.1507588E-2,-6.5118045E-2,-1.5627218E-2,3.7863016E-2,-4.0226816E-3,1.0743559E-3,4.817558E-3,-9.584886E-3,5.331852E-2,4.7059536E-2,-3.218452E-4,3.0637763E-2,5.7556364E-3,-7.176583E-3,2.6679257E-2,-2.2096496E-2,-7.0507064E-2,-1.9172968E-2,2.546243E-3,-7.654221E-2,1.1109978E-1,4.804726E-3,-1.4369786E-4,4.9958675E-4,-2.004844E-3,-1.3197897E-3,3.2148857E-3,1.2755067E-3,6.7222714E-3,-4.6093465E-4,5.5099283E-3,7.1572664E-4,-7.6400343E-4,3.7762788E-3,8.995481E-4,6.68478E-4,-1.4942862E-3,4.119687E-3,1.2397242E-3,-2.8358372E-3,5.470145E-3,-7.810539E-3,-3.4911782E-4,-1.3404251E-4,-2.8534879E-3,3.989628E-3,-2.9713512E-4,-5.756191E-3,-1.1669926E-2,1.2746485E-2,3.1002283E-3],"categories":[],"categories_nodes":[],"categories_segments":[],"categories_sizes":[],"default_left":[0,0,0,0,0,0,0,0,0,0,0,0,0,0,0,0,0,0,0,0,0,0,0,0,0,0,0,0,0,0,0,0,0,0,0,0,0,0,0,0,0,0,0,0,0,0,0,0,0,0,0,0,0,0,0,0,0,0,0,0,0,0,0,0,0,0,0,0,0,0,0,0,0],"id":13,"left_children":[1,3,5,7,9,11,13,-1,15,17,19,21,-1,23,-1,25,27,29,31,33,35,37,39,41,-1,43,45,-1,-1,47,49,51,53,55,-1,57,59,61,63,65,67,69,71,-1,-1,-1,-1,-1,-1,-1,-1,-1,-1,-1,-1,-1,-1,-1,-1,-1,-1,-1,-1,-1,-1,-1,-1,-1,-1,-1,-1,-1,-1],"loss_changes":[5.919196E-1,5.2208096E-2,6.880304E-2,1.0624826E-3,1.2768947E-2,6.885571E-2,4.9707472E-2,0E0,3.0316785E-3,1.3889551E-2,8.681651E-3,3.2872185E-2,0E0,4.631567E-2,0E0,4.0679267E-3,4.369095E-4,1.0887371E-2,3.6162771E-3,3.0785277E-3,7.89679E-3,2.6805967E-2,4.3579377E-3,1.2727919E-1,0E0,2.0702463E-3,8.2280475E-4,0E0,0E0,5.5509694E-3,8.345768E-4,3.57721E-3,2.188824E-4,3.8237553E-3,0E0,1.3917044E-3,3.0140653E-3,1.2131025E-2,1.4494374E-2,4.302365E-3,3.209781E-3,3.5965353E-2,1.2915023E-3,0E0,0E0,0E0,0E0,0E0,0E0,0E0,0E0,0E0,0E0,0E0,0E0,0E0,0E0,0E0,0E0,0E0,0E0,0E0,0E0,0E0,0E0,0E0,0E0,0E0,0E0,0E0,0E0,0E0,0E0],"parents":[2147483647,0,0,1,1,2,2,3,3,4,4,5,5,6,6,8,8,9,9,10,10,11,11,13,13,15,15,16,16,17,17,18,18,19,19,20,20,21,21,22,22,23,23,25,25,26,26,29,29,30,30,31,31,32,32,33,33,35,35,36,36,37,37,38,38,39,39,40,40,41,41,42,42],"right_children":[2,4,6,8,10,12,14,-1,16,18,20,22,-1,24,-1,26,28,30,32,34,36,38,40,42,-1,44,46,-1,-1,48,50,52,54,56,-1,58,60,62,64,66,68,70,72,-1,-1,-1,-1,-1,-1,-1,-1,-1,-1,-1,-1,-1,-1,-1,-1,-1,-1,-1,-1,-1,-1,-1,-1,-1,-1,-1,-1,-1,-1],"split_conditions":[2.2237523E-2,1.7750017E-2,3.2800034E-2,1.5975015E-2,2.4318519E-1,1E0,1.2E0,5.157626E-3,4.375E-1,6E-1,1.973752E-2,3.9374074E-1,1.0126869E-2,1.1333333E0,6.212322E-3,5E-1,2E-1,8E-1,8E-1,7.6666665E-1,5.41E-1,5.3333336E-1,7.595926E-1,1.1E0,-1.5627218E-2,1E0,3.75E-1,1.0743559E-3,4.817558E-3,8.75E-1,1.930002E-2,3.125E-1,1.943752E-2,6.25E-1,5.7556364E-3,5E-1,8E-1,3.1212531E-2,3.206253E-2,2.4287524E-2,7.8951854E-1,8.333333E-1,4.937505E-2,4.804726E-3,-1.4369786E-4,4.9958675E-4,-2.004844E-3,-1.3197897E-3,3.2148857E-3,1.2755067E-3,6.7222714E-3,-4.6093465E-4,5.5099283E-3,7.1572664E-4,-7.6400343E-4,3.7762788E-3,8.995481E-4,6.68478E-4,-1.4942862E-3,4.119687E-3,1.2397242E-3,-2.8358372E-3,5.470145E-3,-7.810539E-3,-3.4911782E-4,-1.3404251E-4,-2.8534879E-3,3.989628E-3,-2.9713512E-4,-5.756191E-3,-1.1669926E-2,1.2746485E-2,3.1002283E-3],"split_indices":[0,0,0,0,11,7,7,0,2,5,0,11,0,7,0,12,4,4,4,7,11,12,11,7,0,9,1,0,0,1,0,2,0,1,0,12,3,0,0,0,11,7,0,0,0,0,0,0,0,0,0,0,0,0,0,0,0,0,0,0,0,0,0,0,0,0,0,0,0,0,0,0,0],"split_type":[0,0,0,0,0,0,0,0,0,0,0,0,0,0,0,0,0,0,0,0,0,0,0,0,0,0,0,0,0,0,0,0,0,0,0,0,0,0,0,0,0,0,0,0,0,0,0,0,0,0,0,0,0,0,0,0,0,0,0,0,0,0,0,0,0,0,0,0,0,0,0,0,0],"sum_hessian":[3.72E2,2.15E2,1.57E2,1.11E2,1.04E2,9.1E1,6.6E1,8.8E1,2.3E1,4.4E1,6E1,8.8E1,3E0,6.4E1,2E0,8E0,1.5E1,3.5E1,9E0,3.3E1,2.7E1,4.9E1,3.9E1,5.8E1,6E0,4E0,4E0,1E0,1.4E1,3.3E1,2E0,7E0,2E0,2.6E1,7E0,1.1E1,1.6E1,2.1E1,2.8E1,2.5E1,1.4E1,5.5E1,3E0,3E0,1E0,3E0,1E0,3.1E1,2E0,1E0,1E0,1E0,6E0,1E0,1E0,1.9E1,7E0,4E0,7E0,7E0,9E0,2E1,1E0,2.5E1,3E0,9E0,1.6E1,1E0,1.3E1,3.9E1,1.6E1,2E0,1E0],"tree_param":{"num_deleted":"0","num_feature":"13","num_nodes":"73","size_leaf_vector":"1"}},{"base_weights":[1.8185585E-4,2.8064294E-2,-4.6422947E-2,4.061426E-2,7.5330785E-3,-4.1080993E-2,-1.1176023E-1,4.622503E-3,3.0303052E-2,-2.2598764E-2,1.2014712E-2,-4.5662574E-2,1.157998E-2,-1.3072297E-2,2.9452175E-3,1.4086937E-2,3.942762E-2,-3.6796664E-3,-2.268086E-3,5.739411E-3,3.023988E-2,-6.494116E-2,-2.5369283E-2,4.048232E-3,4.5401147E-3,4.640572E-2,2.8676901E-2,7.882863E-4,-5.8748486E-4,1.5899811E-2,-4.278377E-3,2.2293128E-2,4.962151E-2,-3.5828594E-2,-8.739771E-2,1.4529893E-1,-4.5529768E-2,2.7952397E-3,-5.4570806E-4,4.9628066E-3,1.2677193E-3,8.471203E-4,3.4706201E-3,4.2604274E-4,9.04907E-3,-4.010481E-3,4.1538134E-4,2.929183E-3,1.03762155E-4,5.6259367E-3,1.1535048E-3,-6.9158054E-3,-1.8251296E-3,-1.0096652E-2,-4.202215E-3,5.991189E-3,1.6747138E-2,-3.6184133E-3,-1.373567E-2],"categories":[],"categories_nodes":[],"categories_segments":[],"categories_sizes":[],"default_left":[0,0,0,0,0,0,0,0,0,0,0,0,0,0,0,0,0,0,0,0,0,0,0,0,0,0,0,0,0,0,0,0,0,0,0,0,0,0,0,0,0,0,0,0,0,0,0,0,0,0,0,0,0,0,0,0,0,0,0],"id":14,"left_children":[1,3,5,7,9,11,13,-1,15,17,19,21,-1,-1,-1,23,25,-1,27,29,31,33,35,37,-1,39,41,-1,-1,43,45,47,49,51,53,55,57,-1,-1,-1,-1,-1,-1,-1,-1,-1,-1,-1,-1,-1,-1,-1,-1,-1,-1,-1,-1,-1,-1],"loss_changes":[4.859997E-1,5.9987903E-2,4.427284E-2,6.9880486E-3,1.2425105E-2,9.944551E-2,3.0627802E-2,0E0,7.4347034E-3,3.3803768E-3,8.861547E-3,4.842943E-2,0E0,0E0,0E0,6.4176405E-3,1.219891E-3,0E0,2.65983E-4,6.175109E-3,1.9742027E-3,3.9363563E-2,2.268237E-1,4.01522E-3,0E0,1.4358684E-3,1.6552163E-3,0E0,0E0,2.566023E-2,9.531541E-3,2.34978E-3,6.151069E-4,1.6313031E-2,1.7922133E-2,3.2191575E-3,4.480438E-2,0E0,0E0,0E0,0E0,0E0,0E0,0E0,0E0,0E0,0E0,0E0,0E0,0E0,0E0,0E0,0E0,0E0,0E0,0E0,0E0,0E0,0E0],"parents":[2147483647,0,0,1,1,2,2,3,3,4,4,5,5,6,6,8,8,9,9,10,10,11,11,15,15,16,16,18,18,19,19,20,20,21,21,22,22,23,23,25,25,26,26,29,29,30,30,31,31,32,32,33,33,34,34,35,35,36,36],"right_children":[2,4,6,8,10,12,14,-1,16,18,20,22,-1,-1,-1,24,26,-1,28,30,32,34,36,38,-1,40,42,-1,-1,44,46,48,50,52,54,56,58,-1,-1,-1,-1,-1,-1,-1,-1,-1,-1,-1,-1,-1,-1,-1,-1,-1,-1,-1,-1,-1,-1],"split_conditions":[2.3287524E-2,1.8700019E-2,5.000005E-2,1.6275017E-2,1.875E-1,4.8825048E-2,5.897506E-2,4.622503E-3,1.5955555E-1,3.3537036E-1,6.757037E-1,5E-1,1.157998E-2,-1.3072297E-2,2.9452175E-3,8.125E-1,3.6185184E-1,-3.6796664E-3,1.981252E-2,5.3333336E-1,7.5E-1,3.105003E-2,5.3333336E-1,4.3333334E-1,4.5401147E-3,6E-1,5.9607404E-1,7.882863E-4,-5.8748486E-4,5E-1,6.25E-1,6.25E-1,2E-1,1.6811112E-1,5.6655556E-1,5E-1,4.4587545E-2,2.7952397E-3,-5.4570806E-4,4.9628066E-3,1.2677193E-3,8.471203E-4,3.4706201E-3,4.2604274E-4,9.04907E-3,-4.010481E-3,4.1538134E-4,2.929183E-3,1.03762155E-4,5.6259367E-3,1.1535048E-3,-6.9158054E-3,-1.8251296E-3,-1.0096652E-2,-4.202215E-3,5.991189E-3,1.6747138E-2,-3.6184133E-3,-1.373567E-2],"split_indices":[0,0,0,0,2,0,0,0,11,11,11,7,0,0,0,2,11,0,0,7,1,0,7,12,0,12,11,0,0,7,2,2,4,11,11,1,0,0,0,0,0,0,0,0,0,0,0,0,0,0,0,0,0,0,0,0,0,0,0],"split_type":[0,0,0,0,0,0,0,0,0,0,0,0,0,0,0,0,0,0,0,0,0,0,0,0,0,0,0,0,0,0,0,0,0,0,0,0,0,0,0,0,0,0,0,0,0,0,0,0,0,0,0,0,0,0,0,0,0,0,0],"sum_hessian":[3.72E2,2.33E2,1.39E2,1.44E2,8.9E1,1.3E2,9E0,9.1E1,5.3E1,1.1E1,7.8E1,1.27E2,3E0,8E0,1E0,2E1,3.3E1,6E0,5E0,5.9E1,1.9E1,6.4E1,6.3E1,1.6E1,4E0,1.8E1,1.5E1,1E0,4E0,2.9E1,3E1,1.5E1,4E0,2.9E1,3.5E1,6E0,5.7E1,4E0,1.2E1,1.6E1,2E0,4E0,1.1E1,2.6E1,3E0,5E0,2.5E1,1.1E1,4E0,3E0,1E0,9E0,2E1,2.6E1,9E0,2E0,4E0,5.3E1,4E0],"tree_param":{"num_deleted":"0","num_feature":"13","num_nodes":"59","size_leaf_vector":"1"}},{"base_weights":[2.1184864E-4,2.3936221E-2,-4.4847712E-2,3.6704276E-2,5.368855E-3,-6.4234756E-2,-2.8105697E-2,4.1905977E-3,2.7938388E-2,3.0940778E-3,5.975868E-3,-8.9749746E-2,-4.283403E-2,1.2910493E-1,-4.7317874E-2,1.455161E-2,3.6566164E-2,-5.298538E-3,1.4410388E-2,-6.816944E-2,-1.2293817E-2,-2.566448E-2,-7.640086E-2,6.5617757E-3,1.5407369E-2,-7.08816E-2,-1.6434703E-2,6.0842666E-3,3.8939596E-3,1.9203434E-2,3.9600912E-2,2.074583E-3,-2.8092738E-2,8.6194165E-3,3.2079555E-2,-7.0110776E-2,-1.7583341E-3,-2.817528E-2,1.6041935E-3,-8.10863E-3,-1.477328E-3,-8.0379985E-2,6.0393973E-3,-2.465008E-2,6.298193E-3,1.9997747E-3,-1.5546486E-3,2.870798E-4,2.516233E-3,4.228804E-3,1.2906134E-3,1.0150572E-3,-1.42157E-3,-3.2029767E-3,1.1544317E-3,1.97761E-3,-1.77649E-4,4.632304E-3,1.4863391E-3,-2.994287E-3,-7.347031E-3,4.2730273E-4,-2.9844432E-3,-3.3088562E-3,-1.0807998E-2,2.8035308E-3,-3.5031685E-3],"categories":[],"categories_nodes":[],"categories_segments":[],"categories_sizes":[],"default_left":[0,0,0,0,0,0,0,0,0,0,0,0,0,0,0,0,0,0,0,0,0,0,0,0,0,0,0,0,0,0,0,0,0,0,0,0,0,0,0,0,0,0,0,0,0,0,0,0,0,0,0,0,0,0,0,0,0,0,0,0,0,0,0,0,0,0,0],"id":15,"left_children":[1,3,5,7,9,11,13,-1,15,17,-1,19,21,23,25,27,29,31,33,35,-1,37,39,-1,-1,41,43,45,-1,47,49,51,53,55,57,59,-1,61,-1,-1,-1,63,-1,65,-1,-1,-1,-1,-1,-1,-1,-1,-1,-1,-1,-1,-1,-1,-1,-1,-1,-1,-1,-1,-1,-1,-1],"loss_changes":[3.9981413E-1,5.7884887E-2,4.006523E-2,5.440861E-3,1.2311299E-2,2.837199E-2,2.2055441E-1,0E0,6.0512945E-3,9.383751E-3,0E0,1.0240987E-2,1.7634332E-2,2.5715828E-3,4.5409307E-2,4.719116E-3,1.0310374E-3,9.637951E-3,4.021001E-3,5.34907E-4,0E0,2.9651802E-3,1.9783676E-3,0E0,0E0,4.9743086E-2,2.0473197E-2,6.029116E-3,0E0,6.0903537E-4,1.4627278E-3,5.9329434E-3,2.554493E-3,3.8625982E-3,1.7636642E-3,9.415299E-5,0E0,1.3732314E-3,0E0,0E0,0E0,4.096286E-2,0E0,1.575001E-2,0E0,0E0,0E0,0E0,0E0,0E0,0E0,0E0,0E0,0E0,0E0,0E0,0E0,0E0,0E0,0E0,0E0,0E0,0E0,0E0,0E0,0E0,0E0],"parents":[2147483647,0,0,1,1,2,2,3,3,4,4,5,5,6,6,8,8,9,9,11,11,12,12,13,13,14,14,15,15,16,16,17,17,18,18,19,19,21,21,22,22,25,25,26,26,27,27,29,29,30,30,31,31,32,32,33,33,34,34,35,35,37,37,41,41,43,43],"right_children":[2,4,6,8,10,12,14,-1,16,18,-1,20,22,24,26,28,30,32,34,36,-1,38,40,-1,-1,42,44,46,-1,48,50,52,54,56,58,60,-1,62,-1,-1,-1,64,-1,66,-1,-1,-1,-1,-1,-1,-1,-1,-1,-1,-1,-1,-1,-1,-1,-1,-1,-1,-1,-1,-1,-1,-1],"split_conditions":[2.4900025E-2,1.8700019E-2,5E-1,1.5975015E-2,1E0,3.4292594E-1,5.3333336E-1,4.1905977E-3,1.772963E-1,4.5866665E-1,5.975868E-3,4.375E-1,3.7287537E-2,4E-1,2.7644444E-1,6E-1,2.5E-1,5.3333336E-1,2E-1,3.75E-1,-1.2293817E-2,9.524074E-1,1E0,6.5617757E-3,1.5407369E-2,1.2E0,1.1E0,2E-1,3.8939596E-3,4.5914814E-1,8E-1,5.3333336E-1,8.75E-1,2.0987522E-2,8E-1,2E-1,-1.7583341E-3,4.3333334E-1,1.6041935E-3,-8.10863E-3,-1.477328E-3,3.1512532E-2,6.0393973E-3,2.6887527E-2,6.298193E-3,1.9997747E-3,-1.5546486E-3,2.870798E-4,2.516233E-3,4.228804E-3,1.2906134E-3,1.0150572E-3,-1.42157E-3,-3.2029767E-3,1.1544317E-3,1.97761E-3,-1.77649E-4,4.632304E-3,1.4863391E-3,-2.994287E-3,-7.347031E-3,4.2730273E-4,-2.9844432E-3,-3.3088562E-3,-1.0807998E-2,2.8035308E-3,-3.5031685E-3],"split_indices":[0,0,7,0,7,11,7,0,11,11,0,1,0,5,11,5,2,12,4,2,0,11,3,0,0,7,7,5,0,11,3,7,1,0,3,7,0,12,0,0,0,0,0,0,0,0,0,0,0,0,0,0,0,0,0,0,0,0,0,0,0,0,0,0,0,0,0],"split_type":[0,0,0,0,0,0,0,0,0,0,0,0,0,0,0,0,0,0,0,0,0,0,0,0,0,0,0,0,0,0,0,0,0,0,0,0,0,0,0,0,0,0,0,0,0,0,0,0,0,0,0,0,0,0,0,0,0,0,0,0,0,0,0,0,0,0,0],"sum_hessian":[3.72E2,2.44E2,1.28E2,1.44E2,1E2,5.8E1,7E1,8.8E1,5.6E1,9.7E1,3E0,2.5E1,3.3E1,7E0,6.3E1,2.3E1,3.3E1,5.6E1,4.1E1,1.7E1,8E0,2.3E1,1E1,3E0,4E0,3.5E1,2.8E1,1.8E1,5E0,6E0,2.7E1,4.3E1,1.3E1,3.2E1,9E0,1.6E1,1E0,2.2E1,1E0,9E0,1E0,3.3E1,2E0,2.6E1,2E0,1.1E1,7E0,2E0,4E0,2.4E1,3E0,2.9E1,1.4E1,1.2E1,1E0,1.5E1,1.7E1,4E0,5E0,2E0,1.4E1,1E0,2.1E1,1.3E1,2E1,4E0,2.2E1],"tree_param":{"num_deleted":"0","num_feature":"13","num_nodes":"67","size_leaf_vector":"1"}},{"base_weights":[2.2510221E-4,2.1658061E-2,-4.0482648E-2,3.315005E-2,4.9452214E-3,-5.8403343E-2,-2.5020627E-2,3.7572943E-3,2.5000868E-2,2.84041E-3,5.52768E-3,-8.171297E-2,-3.8860586E-2,1.1894058E-1,-4.262483E-2,1.2222106E-2,3.276244E-2,5.2844794E-3,-2.9687414E-2,-6.2024683E-2,-1.1201033E-2,-2.313772E-2,-6.963224E-2,6.069644E-3,1.4174777E-2,-6.4017825E-2,-1.4598193E-2,3.9904714E-3,3.941157E-3,3.909883E-2,2.3586351E-2,-1.7394086E-3,1.4459019E-2,-4.242429E-3,-9.528682E-3,-6.3708E-3,-1.6704173E-3,-2.5468912E-2,1.5239835E-3,-7.378854E-3,-1.403463E-3,-7.27572E-2,5.6367717E-3,-2.2211E-2,5.8783134E-3,2.4069608E-3,-3.4656824E-4,4.229628E-3,9.0128183E-4,6.3296914E-4,2.8811097E-3,5.428806E-3,-3.8608612E-4,9.146006E-4,2.9483456E-3,-9.143055E-5,-1.2095373E-3,4.0593743E-4,-2.6995623E-3,-8.667422E-3,6.634593E-4,-7.110232E-4,-5.7186545E-3],"categories":[],"categories_nodes":[],"categories_segments":[],"categories_sizes":[],"default_left":[0,0,0,0,0,0,0,0,0,0,0,0,0,0,0,0,0,0,0,0,0,0,0,0,0,0,0,0,0,0,0,0,0,0,0,0,0,0,0,0,0,0,0,0,0,0,0,0,0,0,0,0,0,0,0,0,0,0,0,0,0,0,0],"id":16,"left_children":[1,3,5,7,9,11,13,-1,15,17,-1,19,21,23,25,27,29,31,33,35,-1,37,39,-1,-1,41,43,45,-1,47,49,51,53,-1,55,-1,-1,57,-1,-1,-1,59,-1,61,-1,-1,-1,-1,-1,-1,-1,-1,-1,-1,-1,-1,-1,-1,-1,-1,-1,-1,-1],"loss_changes":[3.2631466E-1,4.689168E-2,3.4283325E-2,4.2868853E-3,1.0542778E-2,2.3701116E-2,1.8500671E-1,0E0,4.9554706E-3,7.947906E-3,0E0,8.561671E-3,1.4838699E-2,2.0234957E-3,3.7438154E-2,4.766631E-3,9.9653E-4,5.953717E-3,1.3930677E-3,3.0900538E-4,0E0,2.5353115E-3,1.5062876E-3,0E0,0E0,4.197657E-2,1.750613E-2,2.778254E-3,0E0,1.3503656E-3,1.260221E-3,6.509158E-3,2.9233443E-3,0E0,7.7382865E-5,0E0,0E0,1.1464544E-3,0E0,0E0,0E0,3.814155E-2,0E0,1.3853646E-2,0E0,0E0,0E0,0E0,0E0,0E0,0E0,0E0,0E0,0E0,0E0,0E0,0E0,0E0,0E0,0E0,0E0,0E0,0E0],"parents":[2147483647,0,0,1,1,2,2,3,3,4,4,5,5,6,6,8,8,9,9,11,11,12,12,13,13,14,14,15,15,16,16,17,17,18,18,19,19,21,21,22,22,25,25,26,26,27,27,29,29,30,30,31,31,32,32,34,34,37,37,41,41,43,43],"right_children":[2,4,6,8,10,12,14,-1,16,18,-1,20,22,24,26,28,30,32,34,36,-1,38,40,-1,-1,42,44,46,-1,48,50,52,54,-1,56,-1,-1,58,-1,-1,-1,60,-1,62,-1,-1,-1,-1,-1,-1,-1,-1,-1,-1,-1,-1,-1,-1,-1,-1,-1,-1,-1],"split_conditions":[2.4900025E-2,1.8700019E-2,5E-1,1.6275017E-2,1E0,3.4292594E-1,5.3333336E-1,3.7572943E-3,1.772963E-1,6E-1,5.52768E-3,4.375E-1,3.7287537E-2,4E-1,2.7644444E-1,8.125E-1,3.6185184E-1,4.5866665E-1,6E-1,3.75E-1,-1.1201033E-2,9.524074E-1,1E0,6.069644E-3,1.4174777E-2,1.2E0,1.1E0,4.3333334E-1,3.941157E-3,6E-1,5.9607404E-1,2.3333333E-1,2E-1,-4.242429E-3,1E0,-6.3708E-3,-1.6704173E-3,4.3333334E-1,1.5239835E-3,-7.378854E-3,-1.403463E-3,8E-1,5.6367717E-3,3.6200035E-2,5.8783134E-3,2.4069608E-3,-3.4656824E-4,4.229628E-3,9.0128183E-4,6.3296914E-4,2.8811097E-3,5.428806E-3,-3.8608612E-4,9.146006E-4,2.9483456E-3,-9.143055E-5,-1.2095373E-3,4.0593743E-4,-2.6995623E-3,-8.667422E-3,6.634593E-4,-7.110232E-4,-5.7186545E-3],"split_indices":[0,0,7,0,7,11,7,0,11,12,0,1,0,5,11,2,11,11,3,2,0,11,3,0,0,7,7,12,0,12,11,12,4,0,6,0,0,12,0,0,0,5,0,0,0,0,0,0,0,0,0,0,0,0,0,0,0,0,0,0,0,0,0],"split_type":[0,0,0,0,0,0,0,0,0,0,0,0,0,0,0,0,0,0,0,0,0,0,0,0,0,0,0,0,0,0,0,0,0,0,0,0,0,0,0,0,0,0,0,0,0,0,0,0,0,0,0,0,0,0,0,0,0,0,0,0,0,0,0],"sum_hessian":[3.72E2,2.44E2,1.28E2,1.44E2,1E2,5.8E1,7E1,9.1E1,5.3E1,9.7E1,3E0,2.5E1,3.3E1,7E0,6.3E1,2.1E1,3.2E1,9.1E1,6E0,1.7E1,8E0,2.3E1,1E1,3E0,4E0,3.5E1,2.8E1,1.7E1,4E0,1.7E1,1.5E1,5.2E1,3.9E1,3E0,3E0,1.6E1,1E0,2.2E1,1E0,9E0,1E0,3.3E1,2E0,2.6E1,2E0,4E0,1.3E1,1.5E1,2E0,4E0,1.1E1,1E0,5.1E1,3E1,9E0,1E0,2E0,1E0,2.1E1,2.8E1,5E0,1.9E1,7E0],"tree_param":{"num_deleted":"0","num_feature":"13","num_nodes":"63","size_leaf_vector":"1"}},{"base_weights":[2.450156E-4,1.8430956E-2,-3.9211303E-2,2.9961968E-2,3.3378515E-3,-4.7240436E-2,-1.0400503E-2,3.3589632E-3,2.2169203E-2,5.184892E-4,6.356851E-3,-5.4499015E-2,1.0616183E-3,-1.6267298E-2,4.1956287E-3,9.771854E-3,2.8449923E-2,-2.4272995E-2,4.4690613E-3,-4.7688093E-2,-1.0293095E-2,-4.676187E-2,4.8733447E-2,-7.8023304E-3,-4.85667E-2,1.910819E-2,-1.2085517E-2,3.1539943E-2,1.2908434E-2,-3.5958213E-3,-5.7815737E-3,1.3327138E-2,-4.6725716E-3,-5.3922616E-2,1.1368015E-2,-5.1495433E-3,-6.2376894E-3,-3.8092912E-3,6.955332E-2,-1.4104569E-2,1.5185749E-2,-1.3332904E-3,-5.4041925E-3,-1.7822564E-3,2.3670967E-3,-1.4068684E-4,-1.7073125E-3,3.711228E-3,1.8912972E-3,1.5144149E-4,1.7163157E-3,6.04263E-4,-8.759379E-4,5.127731E-4,8.28165E-3,-2.870513E-3,9.932121E-5,-5.589751E-3,4.1172565E-3,5.5965782E-5,-8.283973E-4,3.2100827E-3,9.630555E-3,5.491674E-4,-2.2727312E-3,2.114594E-4,1.792489E-3],"categories":[],"categories_nodes":[],"categories_segments":[],"categories_sizes":[],"default_left":[0,0,0,0,0,0,0,0,0,0,0,0,0,0,0,0,0,0,0,0,0,0,0,0,0,0,0,0,0,0,0,0,0,0,0,0,0,0,0,0,0,0,0,0,0,0,0,0,0,0,0,0,0,0,0,0,0,0,0,0,0,0,0,0,0,0,0],"id":17,"left_children":[1,3,5,7,9,11,13,-1,15,17,-1,19,21,23,-1,25,27,29,31,33,-1,35,37,39,41,43,45,47,49,-1,51,53,55,57,-1,59,-1,-1,61,63,65,-1,-1,-1,-1,-1,-1,-1,-1,-1,-1,-1,-1,-1,-1,-1,-1,-1,-1,-1,-1,-1,-1,-1,-1,-1,-1],"loss_changes":[2.6836896E-1,4.4453904E-2,2.6805118E-2,3.3544302E-3,1.898599E-2,3.2313436E-2,8.976012E-3,0E0,3.537342E-3,1.0686056E-2,0E0,2.148074E-2,3.19167E-2,6.456401E-3,0E0,3.9041522E-3,1.1296198E-3,3.0332487E-3,7.674137E-3,7.856582E-2,0E0,4.2272294E-3,1.5303491E-2,3.2565924E-3,2.4402793E-4,2.6124655E-3,2.9554585E-4,1.1275038E-3,3.1335664E-4,0E0,2.9940088E-4,2.6924372E-2,6.4281835E-3,1.5447646E-2,0E0,5.832145E-5,0E0,0E0,2.920134E-3,2.9973574E-3,1.4111493E-4,0E0,0E0,0E0,0E0,0E0,0E0,0E0,0E0,0E0,0E0,0E0,0E0,0E0,0E0,0E0,0E0,0E0,0E0,0E0,0E0,0E0,0E0,0E0,0E0,0E0,0E0],"parents":[2147483647,0,0,1,1,2,2,3,3,4,4,5,5,6,6,8,8,9,9,11,11,12,12,13,13,15,15,16,16,17,17,18,18,19,19,21,21,22,22,23,23,24,24,25,25,26,26,27,27,28,28,30,30,31,31,32,32,33,33,35,35,38,38,39,39,40,40],"right_children":[2,4,6,8,10,12,14,-1,16,18,-1,20,22,24,-1,26,28,30,32,34,-1,36,38,40,42,44,46,48,50,-1,52,54,56,58,-1,60,-1,-1,62,64,66,-1,-1,-1,-1,-1,-1,-1,-1,-1,-1,-1,-1,-1,-1,-1,-1,-1,-1,-1,-1,-1,-1,-1,-1,-1,-1],"split_conditions":[2.6262525E-2,1.8700019E-2,6.68E-1,1.7037516E-2,1E0,6E-1,4.7362547E-2,3.3589632E-3,1.5955555E-1,1.875E-1,6.356851E-3,4.937505E-2,1E0,4.050004E-2,4.1956287E-3,2E-1,5.6666666E-1,3.3537036E-1,5.3333336E-1,4.8825048E-2,-1.0293095E-2,2.7275028E-2,3.1212531E-2,9.524074E-1,2.5E-1,1.7175017E-2,1.875E-1,6E-1,7.5E-1,-3.5958213E-3,1.981252E-2,5E-1,6.25E-1,1.1875E0,1.1368015E-2,2.6762526E-2,-6.2376894E-3,-3.8092912E-3,8E-1,4.3333334E-1,3.041253E-2,-1.3332904E-3,-5.4041925E-3,-1.7822564E-3,2.3670967E-3,-1.4068684E-4,-1.7073125E-3,3.711228E-3,1.8912972E-3,1.5144149E-4,1.7163157E-3,6.04263E-4,-8.759379E-4,5.127731E-4,8.28165E-3,-2.870513E-3,9.932121E-5,-5.589751E-3,4.1172565E-3,5.5965782E-5,-8.283973E-4,3.2100827E-3,9.630555E-3,5.491674E-4,-2.2727312E-3,2.114594E-4,1.792489E-3],"split_indices":[0,0,11,0,7,5,0,0,11,2,0,0,9,0,0,3,12,11,7,0,0,0,0,11,2,0,1,3,9,0,0,7,2,1,0,0,0,0,4,12,0,0,0,0,0,0,0,0,0,0,0,0,0,0,0,0,0,0,0,0,0,0,0,0,0,0,0],"split_type":[0,0,0,0,0,0,0,0,0,0,0,0,0,0,0,0,0,0,0,0,0,0,0,0,0,0,0,0,0,0,0,0,0,0,0,0,0,0,0,0,0,0,0,0,0,0,0,0,0,0,0,0,0,0,0,0,0,0,0,0,0,0,0,0,0,0,0],"sum_hessian":[3.72E2,2.55E2,1.17E2,1.44E2,1.11E2,9.1E1,2.6E1,9.6E1,4.8E1,1.07E2,4E0,7.9E1,1.2E1,2.4E1,2E0,1.7E1,3.1E1,1.4E1,9.3E1,7.1E1,8E0,6E0,6E0,2E1,4E0,1.2E1,5E0,2.5E1,6E0,8E0,6E0,4.7E1,4.6E1,6.9E1,2E0,2E0,4E0,1E0,5E0,1.6E1,4E0,1E0,3E0,1E0,1.1E1,2E0,3E0,1.6E1,9E0,2E0,4E0,1E0,5E0,4.3E1,4E0,8E0,3.8E1,6.8E1,1E0,1E0,1E0,3E0,2E0,5E0,1.1E1,1E0,3E0],"tree_param":{"num_deleted":"0","num_feature":"13","num_nodes":"67","size_leaf_vector":"1"}},{"base_weights":[2.672693E-4,2.1029523E-2,-2.8118262E-2,2.9407002E-2,1.2058487E-2,-1.621326E-2,-4.4045754E-2,3.0726139E-3,2.302395E-2,1.7792771E-3,1.8261353E-2,-2.071769E-2,8.806363E-3,-4.7716428E-2,5.016744E-3,-3.2874544E-3,2.5686344E-2,-1.1563998E-2,1.2724622E-2,2.2639075E-2,4.311502E-3,-3.250873E-2,-5.4609464E-3,-3.976865E-2,-1.0788818E-2,-4.3831766E-4,-5.4800512E-5,3.0167822E-3,1.6359057E-2,-2.0714482E-2,4.414342E-2,2.0380229E-2,7.3431135E-4,3.0685654E-2,1.0065913E-2,-2.573678E-3,2.135067E-3,-1.3051802E-2,-4.614817E-2,-2.4672416E-3,-2.5923431E-3,-4.8290033E-2,8.947283E-2,-7.88039E-4,2.4410384E-3,-2.3459222E-3,1.1600674E-3,1.1333406E-3,5.488172E-3,2.6792446E-3,-1.2062053E-3,7.2942296E-4,-1.0929123E-3,2.6361125E-3,5.2204803E-3,4.743284E-3,5.825925E-4,1.962808E-4,-1.8349568E-3,-1.8001882E-3,4.5449943E-3,-5.1357565E-3,-7.500798E-5,1.2323882E-3,-5.836263E-4,-3.4103342E-3,-7.882989E-3,1.06101455E-2,1.979348E-3],"categories":[],"categories_nodes":[],"categories_segments":[],"categories_sizes":[],"default_left":[0,0,0,0,0,0,0,0,0,0,0,0,0,0,0,0,0,0,0,0,0,0,0,0,0,0,0,0,0,0,0,0,0,0,0,0,0,0,0,0,0,0,0,0,0,0,0,0,0,0,0,0,0,0,0,0,0,0,0,0,0,0,0,0,0,0,0,0,0],"id":18,"left_children":[1,3,5,7,9,11,13,-1,15,17,19,21,-1,23,-1,25,27,29,31,33,35,37,39,41,-1,-1,-1,-1,43,45,47,49,51,53,55,57,-1,59,61,63,-1,65,67,-1,-1,-1,-1,-1,-1,-1,-1,-1,-1,-1,-1,-1,-1,-1,-1,-1,-1,-1,-1,-1,-1,-1,-1,-1,-1],"loss_changes":[2.2041796E-1,1.5878811E-2,2.9245317E-2,2.2719055E-4,6.726126E-3,4.503761E-2,2.5564149E-2,0E0,1.6956236E-3,6.135064E-3,3.9329194E-3,1.5832938E-2,0E0,2.6794478E-2,0E0,6.6030225E-6,3.8428232E-4,1.0599656E-2,2.0962758E-3,4.749667E-3,2.0493513E-3,1.2666762E-2,2.386386E-3,6.9298275E-2,0E0,0E0,0E0,0E0,1.9488009E-3,1.7799865E-3,4.3497467E-4,3.2355497E-3,8.4483123E-4,1.4156271E-3,3.050802E-3,9.663891E-4,0E0,7.1891276E-3,6.819874E-3,1.8658631E-3,0E0,2.1574184E-2,2.5345683E-3,0E0,0E0,0E0,0E0,0E0,0E0,0E0,0E0,0E0,0E0,0E0,0E0,0E0,0E0,0E0,0E0,0E0,0E0,0E0,0E0,0E0,0E0,0E0,0E0,0E0,0E0],"parents":[2147483647,0,0,1,1,2,2,3,3,4,4,5,5,6,6,8,8,9,9,10,10,11,11,13,13,15,15,16,16,17,17,18,18,19,19,20,20,21,21,22,22,23,23,28,28,29,29,30,30,31,31,32,32,33,33,34,34,35,35,37,37,38,38,39,39,41,41,42,42],"right_children":[2,4,6,8,10,12,14,-1,16,18,20,22,-1,24,-1,26,28,30,32,34,36,38,40,42,-1,-1,-1,-1,44,46,48,50,52,54,56,58,-1,60,62,64,-1,66,68,-1,-1,-1,-1,-1,-1,-1,-1,-1,-1,-1,-1,-1,-1,-1,-1,-1,-1,-1,-1,-1,-1,-1,-1,-1,-1],"split_conditions":[2.2237523E-2,1.7662518E-2,3.2800034E-2,1.5975015E-2,1E0,1E0,1.2E0,3.0726139E-3,1.875E-1,1.9362962E-1,5.6666666E-1,3.9374074E-1,8.806363E-3,1.1333333E0,5.016744E-3,1.6000016E-2,5E-1,8E-1,5E-1,1.973752E-2,5.2551854E-1,5.3333336E-1,8E-1,1.1E0,-1.0788818E-2,-4.3831766E-4,-5.4800512E-5,3.0167822E-3,4.375E-1,6E-1,1.930002E-2,6.25E-1,1.988752E-2,1.946252E-2,2.3333333E-1,1.981252E-2,2.135067E-3,3.1212531E-2,3.206253E-2,4.3333334E-1,-2.5923431E-3,8.333333E-1,4.937505E-2,-7.88039E-4,2.4410384E-3,-2.3459222E-3,1.1600674E-3,1.1333406E-3,5.488172E-3,2.6792446E-3,-1.2062053E-3,7.2942296E-4,-1.0929123E-3,2.6361125E-3,5.2204803E-3,4.743284E-3,5.825925E-4,1.962808E-4,-1.8349568E-3,-1.8001882E-3,4.5449943E-3,-5.1357565E-3,-7.500798E-5,1.2323882E-3,-5.836263E-4,-3.4103342E-3,-7.882989E-3,1.06101455E-2,1.979348E-3],"split_indices":[0,0,0,0,6,7,7,0,2,11,12,11,0,7,0,0,12,4,12,0,11,12,7,7,0,0,0,0,1,5,0,1,0,0,12,0,0,0,0,12,0,7,0,0,0,0,0,0,0,0,0,0,0,0,0,0,0,0,0,0,0,0,0,0,0,0,0,0,0],"split_type":[0,0,0,0,0,0,0,0,0,0,0,0,0,0,0,0,0,0,0,0,0,0,0,0,0,0,0,0,0,0,0,0,0,0,0,0,0,0,0,0,0,0,0,0,0,0,0,0,0,0,0,0,0,0,0,0,0,0,0,0,0,0,0,0,0,0,0,0,0],"sum_hessian":[3.72E2,2.15E2,1.57E2,1.1E2,1.05E2,9.1E1,6.6E1,8.8E1,2.2E1,4E1,6.5E1,8.8E1,3E0,6.4E1,2E0,2E0,2E1,1.8E1,2.2E1,4.9E1,1.6E1,4.9E1,3.9E1,5.8E1,6E0,1E0,1E0,1.2E1,8E0,1.6E1,2E0,1.3E1,9E0,2.9E1,2E1,1.2E1,4E0,2.1E1,2.8E1,3.5E1,4E0,5.5E1,3E0,2E0,6E0,1.5E1,1E0,1E0,1E0,1.1E1,2E0,6E0,3E0,2.6E1,3E0,1E0,1.9E1,1E1,2E0,2E1,1E0,2.5E1,3E0,6E0,2.9E1,3.9E1,1.6E1,2E0,1E0],"tree_param":{"num_deleted":"0","num_feature":"13","num_nodes":"69","size_leaf_vector":"1"}},{"base_weights":[3.1398743E-4,1.5223082E-2,-3.203383E-2,2.4527E-2,3.0419123E-3,-4.766649E-2,-1.8553868E-2,2.7688043E-3,1.9161038E-2,6.3991104E-4,5.431676E-3,-6.720662E-2,-3.1001015E-2,1.1046742E-1,-3.6030013E-2,9.214616E-3,2.51498E-2,-2.017187E-2,3.954132E-3,-4.7904667E-2,-9.405381E-3,-1.6426012E-2,-5.6007743E-2,5.576368E-3,1.3213693E-2,-5.052214E-2,-8.090448E-3,1.6806522E-2,-1.0539242E-2,8.348823E-5,2.5840389E-2,-2.9915187E-3,-4.7630495E-3,1.1897278E-2,-4.2421473E-3,-1.6241372E-4,-5.088176E-2,-1.8634656E-2,1.3873428E-3,-2.5218115E-3,-6.440159E-3,-5.723084E-2,4.6822946E-3,-1.6123103E-2,4.5479853E-3,2.5731423E-3,3.8074595E-5,-3.9959428E-4,-1.793166E-3,2.8320167E-3,1.4241099E-3,5.4492056E-4,-7.3732936E-4,4.7328323E-4,7.2564944E-3,-1.7606717E-3,4.6602302E-4,-6.1024823E-3,-2.5496364E-3,-6.788433E-4,-2.2130837E-3,-6.7821504E-3,7.0260465E-4,-3.1793776E-3,9.398297E-4],"categories":[],"categories_nodes":[],"categories_segments":[],"categories_sizes":[],"default_left":[0,0,0,0,0,0,0,0,0,0,0,0,0,0,0,0,0,0,0,0,0,0,0,0,0,0,0,0,0,0,0,0,0,0,0,0,0,0,0,0,0,0,0,0,0,0,0,0,0,0,0,0,0,0,0,0,0,0,0,0,0,0,0,0,0],"id":19,"left_children":[1,3,5,7,9,11,13,-1,15,17,-1,19,21,23,25,27,29,31,33,35,-1,37,39,-1,-1,41,43,45,47,-1,49,-1,51,53,55,-1,57,59,-1,-1,-1,61,-1,63,-1,-1,-1,-1,-1,-1,-1,-1,-1,-1,-1,-1,-1,-1,-1,-1,-1,-1,-1,-1,-1],"loss_changes":[1.8037686E-1,2.8938532E-2,2.3981445E-2,1.9289628E-3,1.3759415E-2,1.5501395E-2,1.5054181E-1,0E0,3.1635575E-3,7.5290455E-3,0E0,7.931255E-3,1.0378685E-2,2.1147877E-3,2.307567E-2,3.626425E-3,5.6613423E-4,2.1095076E-3,6.1702696E-3,2.121862E-3,0E0,1.6638604E-3,1.2187883E-3,0E0,0E0,2.749595E-2,9.769824E-3,2.482376E-3,2.6694167E-4,0E0,5.7465397E-4,0E0,2.2677389E-4,2.0519774E-2,5.6739445E-3,0E0,2.3063757E-3,6.780969E-4,0E0,0E0,0E0,2.4975337E-2,0E0,7.89762E-3,0E0,0E0,0E0,0E0,0E0,0E0,0E0,0E0,0E0,0E0,0E0,0E0,0E0,0E0,0E0,0E0,0E0,0E0,0E0,0E0,0E0],"parents":[2147483647,0,0,1,1,2,2,3,3,4,4,5,5,6,6,8,8,9,9,11,11,12,12,13,13,14,14,15,15,16,16,17,17,18,18,19,19,21,21,22,22,25,25,26,26,27,27,28,28,30,30,32,32,33,33,34,34,36,36,37,37,41,41,43,43],"right_children":[2,4,6,8,10,12,14,-1,16,18,-1,20,22,24,26,28,30,32,34,36,-1,38,40,-1,-1,42,44,46,48,-1,50,-1,52,54,56,-1,58,60,-1,-1,-1,62,-1,64,-1,-1,-1,-1,-1,-1,-1,-1,-1,-1,-1,-1,-1,-1,-1,-1,-1,-1,-1,-1,-1],"split_conditions":[2.6262525E-2,1.8700019E-2,5E-1,1.5975015E-2,1E0,3.4292594E-1,5.3333336E-1,2.7688043E-3,1.5955555E-1,1.875E-1,5.431676E-3,4.375E-1,3.7287537E-2,4E-1,4.631852E-1,2E-1,2.6666668E-1,3.3537036E-1,5.3333336E-1,2E-1,-9.405381E-3,9.524074E-1,2E-1,5.576368E-3,1.3213693E-2,1.2E0,1.1E0,5E-1,4.375E-1,8.348823E-5,5.6666666E-1,-2.9915187E-3,1.981252E-2,5E-1,1E0,-1.6241372E-4,3.75E-1,3.125E-1,1.3873428E-3,-2.5218115E-3,-6.440159E-3,8E-1,4.6822946E-3,8.284444E-1,4.5479853E-3,2.5731423E-3,3.8074595E-5,-3.9959428E-4,-1.793166E-3,2.8320167E-3,1.4241099E-3,5.4492056E-4,-7.3732936E-4,4.7328323E-4,7.2564944E-3,-1.7606717E-3,4.6602302E-4,-6.1024823E-3,-2.5496364E-3,-6.788433E-4,-2.2130837E-3,-6.7821504E-3,7.0260465E-4,-3.1793776E-3,9.398297E-4],"split_indices":[0,0,7,0,7,11,7,0,11,2,0,1,0,5,11,3,12,11,7,7,0,11,5,0,0,7,7,12,2,0,12,0,0,7,6,0,1,1,0,0,0,5,0,11,0,0,0,0,0,0,0,0,0,0,0,0,0,0,0,0,0,0,0,0,0],"split_type":[0,0,0,0,0,0,0,0,0,0,0,0,0,0,0,0,0,0,0,0,0,0,0,0,0,0,0,0,0,0,0,0,0,0,0,0,0,0,0,0,0,0,0,0,0,0,0,0,0,0,0,0,0,0,0,0,0,0,0,0,0,0,0,0,0],"sum_hessian":[3.72E2,2.55E2,1.17E2,1.44E2,1.11E2,5.3E1,6.4E1,8.8E1,5.6E1,1.07E2,4E0,2.3E1,3E1,7E0,5.7E1,2.2E1,3.4E1,1.4E1,9.3E1,1.5E1,8E0,2E1,1E1,3E0,4E0,3.7E1,2E1,1.6E1,6E0,1E0,3.3E1,8E0,6E0,4.7E1,4.6E1,1E0,1.4E1,1.9E1,1E0,3E0,7E0,3.5E1,2E0,1.8E1,2E0,1E1,6E0,4E0,2E0,2.6E1,7E0,1E0,5E0,4.3E1,4E0,1.8E1,2.8E1,9E0,5E0,5E0,1.4E1,3E1,5E0,1.1E1,7E0],"tree_param":{"num_deleted":"0","num_feature":"13","num_nodes":"65","size_leaf_vector":"1"}},{"base_weights":[3.019553E-4,1.641436E-2,-2.4304163E-2,2.2126205E-2,6.1139707E-3,-2.0924298E-2,-6.885385E-2,2.4641342E-3,1.6695704E-2,6.5971806E-4,1.720005E-2,-2.4143532E-2,9.37607E-3,-8.017756E-3,1.6529799E-3,7.33104E-3,2.1441588E-2,-3.9932355E-3,1.8053317E-2,2.168988E-2,3.8254708E-3,-1.6520523E-2,-4.267972E-2,1.4816949E-2,-1.0110269E-2,2.381992E-2,9.544705E-3,-6.2889634E-3,4.850939E-3,-1.9637744E-4,3.111687E-2,1.057038E-2,3.1752342E-3,-6.848395E-4,6.3286508E-3,-2.0350324E-2,7.8567386E-2,-6.1880466E-2,-7.833165E-3,-1.6556472E-3,1.8811107E-3,-3.3015014E-5,-1.4917791E-3,2.882044E-3,1.2937039E-3,1.4080257E-4,1.5295207E-3,-1.3769462E-3,5.1851322E-5,-6.7175034E-4,2.4513484E-4,5.600953E-3,9.957898E-4,1.6280732E-3,-1.0084133E-3,1.3687551E-3,-2.612412E-4,-3.4858242E-3,-7.683041E-4,2.4084598E-3,8.870012E-3,-3.457483E-3,-7.7779233E-3,-5.3025926E-3,6.879363E-3],"categories":[],"categories_nodes":[],"categories_segments":[],"categories_sizes":[],"default_left":[0,0,0,0,0,0,0,0,0,0,0,0,0,0,0,0,0,0,0,0,0,0,0,0,0,0,0,0,0,0,0,0,0,0,0,0,0,0,0,0,0,0,0,0,0,0,0,0,0,0,0,0,0,0,0,0,0,0,0,0,0,0,0,0,0],"id":20,"left_children":[1,3,5,7,9,11,13,-1,15,17,19,21,-1,-1,-1,23,25,27,29,31,33,35,37,39,41,43,45,47,-1,49,51,53,-1,-1,55,57,59,61,63,-1,-1,-1,-1,-1,-1,-1,-1,-1,-1,-1,-1,-1,-1,-1,-1,-1,-1,-1,-1,-1,-1,-1,-1,-1,-1],"loss_changes":[1.482799E-1,1.3161257E-2,2.0843916E-2,1.5690699E-3,4.946888E-3,5.35822E-2,1.099392E-2,0E0,2.020548E-3,4.6042614E-3,1.5383642E-3,1.8511914E-2,0E0,0E0,0E0,2.4999562E-3,6.780764E-4,5.7290015E-3,2.8669806E-3,1.9021574E-3,2.5708997E-4,3.7287313E-2,2.5609389E-2,1.9404811E-3,2.7718372E-4,1.0420717E-3,3.0599395E-4,2.2477657E-3,0E0,1.2006386E-4,3.1291852E-3,1.4615664E-3,0E0,0E0,4.963323E-4,1.7190889E-2,7.193163E-5,8.163951E-3,5.5592496E-2,0E0,0E0,0E0,0E0,0E0,0E0,0E0,0E0,0E0,0E0,0E0,0E0,0E0,0E0,0E0,0E0,0E0,0E0,0E0,0E0,0E0,0E0,0E0,0E0,0E0,0E0],"parents":[2147483647,0,0,1,1,2,2,3,3,4,4,5,5,6,6,8,8,9,9,10,10,11,11,15,15,16,16,17,17,18,18,19,19,20,20,21,21,22,22,23,23,24,24,25,25,26,26,27,27,29,29,30,30,31,31,34,34,35,35,36,36,37,37,38,38],"right_children":[2,4,6,8,10,12,14,-1,16,18,20,22,-1,-1,-1,24,26,28,30,32,34,36,38,40,42,44,46,48,-1,50,52,54,-1,-1,56,58,60,62,64,-1,-1,-1,-1,-1,-1,-1,-1,-1,-1,-1,-1,-1,-1,-1,-1,-1,-1,-1,-1,-1,-1,-1,-1,-1,-1],"split_conditions":[2.2837523E-2,1.8700019E-2,5.000005E-2,1.7037516E-2,5.41E-1,4.8825048E-2,5.897506E-2,2.4641342E-3,1.5955555E-1,6E-1,5.3333336E-1,3.6200035E-2,9.37607E-3,-8.017756E-3,1.6529799E-3,2E-1,5.6666666E-1,1E0,5.625E-1,1E0,1.931252E-2,1E0,7.5E-1,1.7175017E-2,1.875E-1,6E-1,6E-1,1.9362962E-1,4.850939E-3,1.8950019E-2,4.375E-1,6.25E-1,3.1752342E-3,-6.848395E-4,2.005002E-2,2.3718518E-1,2.4900025E-2,4.048754E-2,4.050004E-2,-1.6556472E-3,1.8811107E-3,-3.3015014E-5,-1.4917791E-3,2.882044E-3,1.2937039E-3,1.4080257E-4,1.5295207E-3,-1.3769462E-3,5.1851322E-5,-6.7175034E-4,2.4513484E-4,5.600953E-3,9.957898E-4,1.6280732E-3,-1.0084133E-3,1.3687551E-3,-2.612412E-4,-3.4858242E-3,-7.683041E-4,2.4084598E-3,8.870012E-3,-3.457483E-3,-7.7779233E-3,-5.3025926E-3,6.879363E-3],"split_indices":[0,0,0,0,11,0,0,0,11,5,12,0,0,0,0,3,12,4,2,6,0,7,9,0,1,3,3,11,0,0,1,1,0,0,0,11,0,0,0,0,0,0,0,0,0,0,0,0,0,0,0,0,0,0,0,0,0,0,0,0,0,0,0,0,0],"split_type":[0,0,0,0,0,0,0,0,0,0,0,0,0,0,0,0,0,0,0,0,0,0,0,0,0,0,0,0,0,0,0,0,0,0,0,0,0,0,0,0,0,0,0,0,0,0,0,0,0,0,0,0,0,0,0,0,0,0,0,0,0,0,0,0,0],"sum_hessian":[3.72E2,2.25E2,1.47E2,1.44E2,8.1E1,1.38E2,9E0,9.6E1,4.8E1,5.5E1,2.6E1,1.35E2,3E0,8E0,1E0,1.7E1,3.1E1,4.4E1,1.1E1,1.9E1,7E0,9.7E1,3.8E1,1.2E1,5E0,2.5E1,6E0,4.3E1,1E0,5E0,6E0,1E1,9E0,1E0,6E0,9.4E1,3E0,2.4E1,1.4E1,1E0,1.1E1,2E0,3E0,1.6E1,9E0,3E0,3E0,2E1,2.3E1,1E0,4E0,2E0,4E0,8E0,2E0,3E0,3E0,4.3E1,5.1E1,1E0,2E0,1E1,1.4E1,9E0,5E0],"tree_param":{"num_deleted":"0","num_feature":"13","num_nodes":"65","size_leaf_vector":"1"}},{"base_weights":[3.2886624E-4,1.2564107E-2,-2.6218172E-2,1.775361E-2,-2.0444253E-3,-4.029551E-2,-1.4119795E-2,2.1747526E-2,1.2390929E-2,-5.0261505E-3,4.691972E-3,-5.441393E-2,-2.174159E-2,1.0050789E-1,-2.9687066E-2,2.251391E-3,1.7013013E-2,8.3587365E-3,2.5533117E-2,-9.811328E-3,8.013553E-3,-4.1918047E-2,-7.891343E-2,-1.3007062E-2,-5.407829E-3,1.1452064E-2,3.8979768E-3,-4.2106997E-2,-5.7992353E-3,-4.6453276E-4,1.9834308E-2,1.574748E-2,-1.9673705E-3,1.4170409E-4,2.6794175E-2,3.8632483E-3,-1.1664015E-2,4.5365132E-3,3.3561618E-3,-4.971541E-2,-2.2058234E-2,-8.343956E-3,-2.1352202E-3,-1.5013805E-2,1.3563902E-3,-4.770587E-2,3.911515E-3,-1.2531498E-2,3.877151E-3,1.0856808E-3,2.3744144E-3,2.9532807E-3,4.379386E-4,-2.1013021E-3,9.780937E-4,2.885889E-3,6.850978E-4,-9.044534E-4,-3.1858755E-3,-4.6183073E-4,8.73588E-4,-8.9136366E-4,-5.5306945E-3,1.9434492E-4,-3.0382702E-3,-1.2708068E-4,-1.8370129E-3,-1.4303987E-3,-6.381081E-3,-2.6384862E-3,9.814985E-4],"categories":[],"categories_nodes":[],"categories_segments":[],"categories_sizes":[],"default_left":[0,0,0,0,0,0,0,0,0,0,0,0,0,0,0,0,0,0,0,0,0,0,0,0,0,0,0,0,0,0,0,0,0,0,0,0,0,0,0,0,0,0,0,0,0,0,0,0,0,0,0,0,0,0,0,0,0,0,0,0,0,0,0,0,0,0,0,0,0,0,0],"id":21,"left_children":[1,3,5,7,9,11,13,15,17,19,-1,21,23,25,27,-1,29,31,33,35,37,39,41,43,-1,-1,-1,45,47,-1,49,51,53,-1,55,-1,57,59,-1,61,63,-1,-1,65,-1,67,-1,69,-1,-1,-1,-1,-1,-1,-1,-1,-1,-1,-1,-1,-1,-1,-1,-1,-1,-1,-1,-1,-1,-1,-1],"loss_changes":[1.2148331E-1,1.9443918E-2,1.9527972E-2,3.778547E-3,1.0163665E-2,1.2962364E-2,1.18972406E-1,5.2154064E-6,4.184897E-3,4.134448E-3,0E0,5.8763847E-3,6.3577453E-3,2.4334341E-3,1.6963556E-2,0E0,1.2531234E-3,4.990283E-3,5.398551E-4,4.758668E-3,1.446717E-3,2.3101568E-3,5.6314096E-4,1.3233889E-3,0E0,0E0,0E0,1.9146614E-2,6.787167E-3,0E0,3.3892365E-4,5.8257543E-3,6.470644E-3,0E0,5.434742E-4,0E0,2.1981401E-3,6.939006E-4,0E0,2.9291846E-3,1.6574573E-3,0E0,0E0,8.9917425E-4,0E0,1.845292E-2,0E0,6.1408724E-3,0E0,0E0,0E0,0E0,0E0,0E0,0E0,0E0,0E0,0E0,0E0,0E0,0E0,0E0,0E0,0E0,0E0,0E0,0E0,0E0,0E0,0E0,0E0],"parents":[2147483647,0,0,1,1,2,2,3,3,4,4,5,5,6,6,7,7,8,8,9,9,11,11,12,12,13,13,14,14,16,16,17,17,18,18,19,19,20,20,21,21,22,22,23,23,27,27,28,28,30,30,31,31,32,32,34,34,36,36,37,37,39,39,40,40,43,43,45,45,47,47],"right_children":[2,4,6,8,10,12,14,16,18,20,-1,22,24,26,28,-1,30,32,34,36,38,40,42,44,-1,-1,-1,46,48,-1,50,52,54,-1,56,-1,58,60,-1,62,64,-1,-1,66,-1,68,-1,70,-1,-1,-1,-1,-1,-1,-1,-1,-1,-1,-1,-1,-1,-1,-1,-1,-1,-1,-1,-1,-1,-1,-1],"split_conditions":[2.6262525E-2,2.042502E-2,5E-1,1.7537517E-2,1E0,6E-1,5.3333336E-1,1.5975015E-2,7.5E-1,6.4237034E-1,4.691972E-3,5E-1,4.2575043E-2,2E-1,4.631852E-1,2.251391E-3,1.875E-1,5.3333336E-1,1.7587518E-2,2.3333333E-1,4E-1,3.3333334E-1,2.9125926E-1,1.4225185E0,-5.407829E-3,1.1452064E-2,3.8979768E-3,1.2E0,1.1E0,-4.6453276E-4,4.375E-1,5E-1,1.5925926E-1,1.4170409E-4,1.973752E-2,3.8632483E-3,6E-1,1E0,3.3561618E-3,2E-1,3.125E-1,-8.343956E-3,-2.1352202E-3,3.125E-1,1.3563902E-3,3.1512532E-2,3.911515E-3,8.284444E-1,3.877151E-3,1.0856808E-3,2.3744144E-3,2.9532807E-3,4.379386E-4,-2.1013021E-3,9.780937E-4,2.885889E-3,6.850978E-4,-9.044534E-4,-3.1858755E-3,-4.6183073E-4,8.73588E-4,-8.9136366E-4,-5.5306945E-3,1.9434492E-4,-3.0382702E-3,-1.2708068E-4,-1.8370129E-3,-1.4303987E-3,-6.381081E-3,-2.6384862E-3,9.814985E-4],"split_indices":[0,0,7,0,7,3,7,0,1,11,0,1,0,3,11,0,2,7,0,12,4,7,11,11,0,0,0,7,7,0,2,12,11,0,0,0,12,10,0,7,2,0,0,1,0,0,0,11,0,0,0,0,0,0,0,0,0,0,0,0,0,0,0,0,0,0,0,0,0,0,0],"split_type":[0,0,0,0,0,0,0,0,0,0,0,0,0,0,0,0,0,0,0,0,0,0,0,0,0,0,0,0,0,0,0,0,0,0,0,0,0,0,0,0,0,0,0,0,0,0,0,0,0,0,0,0,0,0,0,0,0,0,0,0,0,0,0,0,0,0,0,0,0,0,0],"sum_hessian":[3.72E2,2.55E2,1.17E2,1.88E2,6.7E1,5.3E1,6.4E1,1.06E2,8.2E1,6.4E1,3E0,2.9E1,2.4E1,7E0,5.7E1,8.8E1,1.8E1,6.4E1,1.8E1,4.7E1,1.7E1,2.1E1,8E0,2E1,4E0,5E0,2E0,3.7E1,2E1,2E0,1.6E1,3.7E1,2.7E1,1E0,1.7E1,1E0,4.6E1,1.6E1,1E0,1.4E1,7E0,7E0,1E0,1.9E1,1E0,3.5E1,2E0,1.8E1,2E0,6E0,1E1,1.6E1,2.1E1,1E1,1.7E1,1.5E1,2E0,4.2E1,4E0,5E0,1.1E1,2E0,1.2E1,2E0,5E0,4E0,1.5E1,1.2E1,2.3E1,1.1E1,7E0],"tree_param":{"num_deleted":"0","num_feature":"13","num_nodes":"71","size_leaf_vector":"1"}},{"base_weights":[3.1573922E-4,1.2930037E-2,-2.0770416E-2,1.8120743E-2,4.423568E-3,-3.2317333E-2,-1.0621466E-2,2.00627E-3,1.390665E-2,-1.347212E-2,7.085906E-3,-4.937735E-2,-1.889634E-2,9.237585E-2,-2.240925E-2,-1.6271502E-3,1.4874351E-2,-2.1782449E-2,-1.5313824E-3,2.7163052E-3,1.5400829E-2,-3.5555545E-2,-7.46061E-3,-7.8133205E-3,-3.9608814E-2,4.548891E-3,1.1141024E-2,-1.6060296E-2,-5.8262043E-2,1.4151505E-3,1.67634E-2,-2.8087273E-3,-1.0032014E-3,4.2734147E-4,-3.5470247E-4,1.0591104E-2,-6.5271137E-3,1.830401E-2,4.4911676E-3,-5.923053E-3,-3.8518984E-2,-1.0517473E-2,1.6424338E-3,-1.9537678E-2,-4.9711065E-3,-2.1494618E-2,9.435668E-3,-6.7794435E-3,1.3764739E-3,-5.047083E-4,5.00946E-4,2.6747494E-3,1.187818E-3,2.6122035E-4,5.9806183E-3,-3.2111965E-3,-1.2466738E-5,9.477814E-4,2.7065044E-3,-6.9950224E-4,7.5713696E-4,-1.2474359E-4,-7.637143E-4,-4.2876163E-3,-1.8615092E-3,1.170532E-3,-1.3069788E-3,-2.148813E-3,-4.892707E-4,-1.553929E-3,-8.1513245E-3],"categories":[],"categories_nodes":[],"categories_segments":[],"categories_sizes":[],"default_left":[0,0,0,0,0,0,0,0,0,0,0,0,0,0,0,0,0,0,0,0,0,0,0,0,0,0,0,0,0,0,0,0,0,0,0,0,0,0,0,0,0,0,0,0,0,0,0,0,0,0,0,0,0,0,0,0,0,0,0,0,0,0,0,0,0,0,0,0,0,0,0],"id":22,"left_children":[1,3,5,7,9,11,13,-1,15,17,19,21,23,25,27,-1,29,31,33,35,37,39,-1,41,43,-1,-1,45,47,49,51,-1,-1,-1,-1,53,55,57,59,61,63,65,-1,67,-1,69,-1,-1,-1,-1,-1,-1,-1,-1,-1,-1,-1,-1,-1,-1,-1,-1,-1,-1,-1,-1,-1,-1,-1,-1,-1],"loss_changes":[9.948173E-2,1.0252014E-2,1.606321E-2,9.076148E-4,4.3834555E-3,1.3949506E-2,9.434244E-2,0E0,1.6729962E-3,1.1574202E-3,2.8284658E-3,7.111132E-3,8.413681E-3,2.071783E-3,1.4770608E-2,0E0,1.1966815E-3,2.3681903E-4,8.5360276E-5,3.9270027E-3,7.729572E-4,1.5281308E-3,0E0,1.8768432E-3,1.6646888E-3,0E0,0E0,3.803064E-2,7.799048E-3,1.8787404E-4,1.7308164E-3,0E0,0E0,0E0,0E0,1.1231559E-2,4.091138E-3,1.3673413E-3,3.006204E-4,1.4516445E-5,7.6290406E-4,1.5142548E-3,0E0,6.625103E-5,0E0,1.9464314E-2,0E0,0E0,0E0,0E0,0E0,0E0,0E0,0E0,0E0,0E0,0E0,0E0,0E0,0E0,0E0,0E0,0E0,0E0,0E0,0E0,0E0,0E0,0E0,0E0,0E0],"parents":[2147483647,0,0,1,1,2,2,3,3,4,4,5,5,6,6,8,8,9,9,10,10,11,11,12,12,13,13,14,14,16,16,17,17,18,18,19,19,20,20,21,21,23,23,24,24,27,27,28,28,29,29,30,30,35,35,36,36,37,37,38,38,39,39,40,40,41,41,43,43,45,45],"right_children":[2,4,6,8,10,12,14,-1,16,18,20,22,24,26,28,-1,30,32,34,36,38,40,-1,42,44,-1,-1,46,48,50,52,-1,-1,-1,-1,54,56,58,60,62,64,66,-1,68,-1,70,-1,-1,-1,-1,-1,-1,-1,-1,-1,-1,-1,-1,-1,-1,-1,-1,-1,-1,-1,-1,-1,-1,-1,-1,-1],"split_conditions":[2.3287524E-2,1.8700019E-2,5E-1,1.7037516E-2,1.875E-1,3.4292594E-1,5.3333336E-1,2.00627E-3,1.7175017E-2,3.3537036E-1,5.2551854E-1,4.375E-1,3.6950037E-2,4E-1,4.937505E-2,-1.6271502E-3,1.25E-1,1E0,1.981252E-2,5.3333336E-1,5.3333336E-1,5E-1,-7.46061E-3,9.524074E-1,2E-1,4.548891E-3,1.1141024E-2,4.7175046E-2,5.897506E-2,1.1851852E-1,4.3333334E-1,-2.8087273E-3,-1.0032014E-3,4.2734147E-4,-3.5470247E-4,5E-1,6.25E-1,1E0,1.931252E-2,2.3787525E-2,3.75E-1,4.3333334E-1,1.6424338E-3,6.25E-1,-4.9711065E-3,4.4587545E-2,9.435668E-3,-6.7794435E-3,1.3764739E-3,-5.047083E-4,5.00946E-4,2.6747494E-3,1.187818E-3,2.6122035E-4,5.9806183E-3,-3.2111965E-3,-1.2466738E-5,9.477814E-4,2.7065044E-3,-6.9950224E-4,7.5713696E-4,-1.2474359E-4,-7.637143E-4,-4.2876163E-3,-1.8615092E-3,1.170532E-3,-1.3069788E-3,-2.148813E-3,-4.892707E-4,-1.553929E-3,-8.1513245E-3],"split_indices":[0,0,7,0,2,11,7,0,0,11,11,1,0,5,0,0,2,6,0,7,12,12,0,11,5,0,0,0,0,11,7,0,0,0,0,7,2,6,0,0,1,12,0,1,0,0,0,0,0,0,0,0,0,0,0,0,0,0,0,0,0,0,0,0,0,0,0,0,0,0,0],"split_type":[0,0,0,0,0,0,0,0,0,0,0,0,0,0,0,0,0,0,0,0,0,0,0,0,0,0,0,0,0,0,0,0,0,0,0,0,0,0,0,0,0,0,0,0,0,0,0,0,0,0,0,0,0,0,0,0,0,0,0,0,0,0,0,0,0,0,0,0,0,0,0],"sum_hessian":[3.72E2,2.33E2,1.39E2,1.44E2,8.9E1,6.4E1,7.5E1,9.6E1,4.8E1,1.1E1,7.8E1,2.7E1,3.7E1,7E0,6.8E1,1E0,4.7E1,6E0,5E0,5.2E1,2.6E1,1.9E1,8E0,2.5E1,1.2E1,3E0,4E0,5.9E1,9E0,6E0,4.1E1,3E0,3E0,1E0,4E0,2.8E1,2.4E1,2E1,6E0,2E0,1.7E1,2.3E1,2E0,5E0,7E0,5.7E1,2E0,8E0,1E0,2E0,4E0,1.2E1,2.9E1,2.5E1,3E0,4E0,2E1,1.1E1,9E0,1E0,5E0,1E0,1E0,1.3E1,4E0,2E0,2.1E1,4E0,1E0,5.3E1,4E0],"tree_param":{"num_deleted":"0","num_feature":"13","num_nodes":"71","size_leaf_vector":"1"}},{"base_weights":[2.7516412E-4,1.035242E-2,-2.1589689E-2,1.4552353E-2,-1.4731638E-3,-3.349803E-2,-1.1364456E-2,1.807709E-2,1.0719537E-2,-4.218146E-3,4.3501095E-3,-4.5404613E-2,-1.787021E-2,8.509951E-2,-2.4473893E-2,1.5097358E-2,1.9185966E-3,7.2921664E-3,2.2123273E-2,-8.315977E-3,6.9437423E-3,-3.4856074E-2,-6.614498E-2,-1.0240816E-2,-4.6339626E-3,4.207723E-3,1.02497436E-1,-3.5118014E-2,-4.047678E-3,1.7850924E-3,-7.9519453E-4,1.6569046E-2,1.4868444E-3,1.3584931E-2,2.6332645E-2,3.371054E-3,-9.927403E-3,3.6569447E-3,3.1409652E-3,-4.1426722E-2,-1.8179096E-2,-6.961055E-3,-1.9210189E-3,-1.1959309E-2,1.2064517E-3,1.1320281E-2,2.9837966E-3,-4.0197637E-2,3.7543457E-3,-9.618386E-3,3.25827E-3,2.1040572E-3,-8.208084E-4,1.0164453E-3,-1.030227E-3,1.5094973E-3,7.5230004E-5,2.9374247E-3,6.402552E-4,-7.7185855E-4,-2.6937758E-3,7.2051736E-4,-4.0490032E-4,-6.4545276E-4,-4.631056E-3,2.8700233E-4,-2.5673807E-3,-1.2358427E-5,-1.4910515E-3,-4.873238E-3,1.0598133E-3,-2.210636E-3,1.0315872E-3],"categories":[],"categories_nodes":[],"categories_segments":[],"categories_sizes":[],"default_left":[0,0,0,0,0,0,0,0,0,0,0,0,0,0,0,0,0,0,0,0,0,0,0,0,0,0,0,0,0,0,0,0,0,0,0,0,0,0,0,0,0,0,0,0,0,0,0,0,0,0,0,0,0,0,0,0,0,0,0,0,0,0,0,0,0,0,0,0,0,0,0,0,0],"id":23,"left_children":[1,3,5,7,9,11,13,15,17,19,-1,21,23,25,27,29,-1,31,33,35,37,39,41,43,-1,-1,45,47,49,-1,-1,51,53,55,57,-1,59,61,-1,63,65,-1,-1,67,-1,-1,-1,69,-1,71,-1,-1,-1,-1,-1,-1,-1,-1,-1,-1,-1,-1,-1,-1,-1,-1,-1,-1,-1,-1,-1,-1,-1],"loss_changes":[8.240948E-2,1.2736101E-2,1.39876455E-2,2.3595504E-3,8.578335E-3,9.236608E-3,8.4280945E-2,3.084913E-5,3.4735631E-3,3.0308133E-3,0E0,4.2578615E-3,4.9555544E-3,1.6751774E-3,1.2468163E-2,2.1094503E-3,0E0,3.9067995E-3,3.9703492E-4,3.5853453E-3,1.3325975E-3,1.6576275E-3,1.2667477E-4,9.4924564E-4,0E0,0E0,5.1149353E-4,1.5534684E-2,4.5985933E-3,0E0,0E0,3.274866E-3,4.8105777E-3,1.6304431E-4,5.999822E-4,0E0,1.5579998E-3,4.939957E-4,0E0,2.2630636E-3,1.3357408E-3,0E0,0E0,6.967506E-4,0E0,0E0,0E0,1.61235E-2,0E0,4.957878E-3,0E0,0E0,0E0,0E0,0E0,0E0,0E0,0E0,0E0,0E0,0E0,0E0,0E0,0E0,0E0,0E0,0E0,0E0,0E0,0E0,0E0,0E0,0E0],"parents":[2147483647,0,0,1,1,2,2,3,3,4,4,5,5,6,6,7,7,8,8,9,9,11,11,12,12,13,13,14,14,15,15,17,17,18,18,19,19,20,20,21,21,22,22,23,23,26,26,27,27,28,28,31,31,32,32,33,33,34,34,36,36,37,37,39,39,40,40,43,43,47,47,49,49],"right_children":[2,4,6,8,10,12,14,16,18,20,-1,22,24,26,28,30,-1,32,34,36,38,40,42,44,-1,-1,46,48,50,-1,-1,52,54,56,58,-1,60,62,-1,64,66,-1,-1,68,-1,-1,-1,70,-1,72,-1,-1,-1,-1,-1,-1,-1,-1,-1,-1,-1,-1,-1,-1,-1,-1,-1,-1,-1,-1,-1,-1,-1],"split_conditions":[2.6262525E-2,2.042502E-2,5E-1,1.7037516E-2,1E0,6E-1,5.3333336E-1,2.5E-1,7.5E-1,6.4237034E-1,4.3501095E-3,5E-1,4.2575043E-2,4E-1,4.631852E-1,1.5100015E-2,1.9185966E-3,4.6666667E-1,1.7912518E-2,2.3333333E-1,4E-1,3.3333334E-1,2.9125926E-1,1.4225185E0,-4.6339626E-3,4.207723E-3,8E-1,1.2E0,1.1E0,1.7850924E-3,-7.9519453E-4,6.25E-1,2E-1,8.75E-1,1.973752E-2,3.371054E-3,6E-1,5.6666666E-1,3.1409652E-3,2E-1,3.125E-1,-6.961055E-3,-1.9210189E-3,3.125E-1,1.2064517E-3,1.1320281E-2,2.9837966E-3,8E-1,3.7543457E-3,8.284444E-1,3.25827E-3,2.1040572E-3,-8.208084E-4,1.0164453E-3,-1.030227E-3,1.5094973E-3,7.5230004E-5,2.9374247E-3,6.402552E-4,-7.7185855E-4,-2.6937758E-3,7.2051736E-4,-4.0490032E-4,-6.4545276E-4,-4.631056E-3,2.8700233E-4,-2.5673807E-3,-1.2358427E-5,-1.4910515E-3,-4.873238E-3,1.0598133E-3,-2.210636E-3,1.0315872E-3],"split_indices":[0,0,7,0,7,3,7,2,1,11,0,1,0,5,11,0,0,12,0,12,4,7,11,11,0,0,4,7,7,0,0,1,5,1,0,0,12,12,0,7,2,0,0,1,0,0,0,5,0,11,0,0,0,0,0,0,0,0,0,0,0,0,0,0,0,0,0,0,0,0,0,0,0],"split_type":[0,0,0,0,0,0,0,0,0,0,0,0,0,0,0,0,0,0,0,0,0,0,0,0,0,0,0,0,0,0,0,0,0,0,0,0,0,0,0,0,0,0,0,0,0,0,0,0,0,0,0,0,0,0,0,0,0,0,0,0,0,0,0,0,0,0,0,0,0,0,0,0,0],"sum_hessian":[3.72E2,2.55E2,1.17E2,1.88E2,6.7E1,5.3E1,6.4E1,9.6E1,9.2E1,6.4E1,3E0,2.9E1,2.4E1,7E0,5.7E1,3E1,6.6E1,7.2E1,2E1,4.7E1,1.7E1,2.1E1,8E0,2E1,4E0,3E0,4E0,3.7E1,2E1,2.7E1,3E0,2.7E1,4.5E1,8E0,1.2E1,1E0,4.6E1,1.6E1,1E0,1.4E1,7E0,7E0,1E0,1.9E1,1E0,3E0,1E0,3.5E1,2E0,1.8E1,2E0,2.3E1,4E0,2.6E1,1.9E1,7E0,1E0,1E1,2E0,4.2E1,4E0,1.1E1,5E0,2E0,1.2E1,2E0,5E0,4E0,1.5E1,3E1,5E0,1.1E1,7E0],"tree_param":{"num_deleted":"0","num_feature":"13","num_nodes":"73","size_leaf_vector":"1"}},{"base_weights":[2.911165E-4,9.383788E-3,-1.9437825E-2,1.3146531E-2,-1.2124198E-3,-3.0543964E-2,-9.912142E-3,1.6023638E-3,9.279097E-3,-3.7445931E-3,4.02385E-3,-4.141212E-2,-1.6280418E-2,7.8903526E-2,-2.199168E-2,5.9281504E-3,2.0254489E-2,1.3230225E-3,-1.1905699E-2,-3.171396E-2,-6.0517386E-2,-9.230866E-3,-4.2632455E-3,8.993302E-3,3.0543366E-3,-3.3736534E-2,-6.2389155E-3,1.2134629E-2,-2.706647E-3,1.0452262E-2,2.3974575E-2,6.5343785E-3,-9.194191E-3,-2.4104409E-2,-5.822622E-3,-3.7635826E-2,-1.6646214E-2,-6.6544637E-3,-2.6281336E-3,-1.0838538E-2,1.1461288E-3,-3.9304107E-2,3.5040576E-3,-1.0560139E-2,3.0410509E-3,8.6215156E-4,5.0247116E-3,-2.1459719E-3,5.867568E-4,1.3385344E-3,2.0797054E-4,2.6838118E-3,5.483389E-4,2.2782409E-4,4.1242777E-3,-4.2986977E-4,-2.035825E-3,-2.9923092E-3,8.313179E-4,-8.489187E-4,9.253721E-5,-6.0242217E-4,-4.203575E-3,2.6786924E-4,-2.3534298E-3,-1.1371375E-5,-1.3512637E-3,-5.112146E-3,8.515588E-4,-1.9338193E-3,9.413242E-4],"categories":[],"categories_nodes":[],"categories_segments":[],"categories_sizes":[],"default_left":[0,0,0,0,0,0,0,0,0,0,0,0,0,0,0,0,0,0,0,0,0,0,0,0,0,0,0,0,0,0,0,0,0,0,0,0,0,0,0,0,0,0,0,0,0,0,0,0,0,0,0,0,0,0,0,0,0,0,0,0,0,0,0,0,0,0,0,0,0,0,0],"id":24,"left_children":[1,3,5,7,9,11,13,-1,15,17,-1,19,21,23,25,27,29,31,33,35,37,39,-1,-1,-1,41,43,45,47,49,51,53,55,57,59,61,63,-1,-1,65,-1,67,-1,69,-1,-1,-1,-1,-1,-1,-1,-1,-1,-1,-1,-1,-1,-1,-1,-1,-1,-1,-1,-1,-1,-1,-1,-1,-1,-1,-1],"loss_changes":[6.7094415E-2,1.0222862E-2,1.2180883E-2,1.9543245E-3,7.2880187E-3,7.696785E-3,7.147062E-2,0E0,2.9324992E-3,2.7039791E-3,0E0,3.639333E-3,4.250717E-3,1.5202463E-3,1.0520328E-2,3.5163034E-3,4.4224877E-4,2.307245E-3,1.7147914E-3,1.3365485E-3,1.0826439E-4,8.2281383E-4,0E0,0E0,0E0,1.40136555E-2,4.4387677E-3,4.654746E-3,4.6281163E-3,1.440642E-4,5.411892E-4,4.042303E-3,6.776361E-4,1.7577768E-3,3.3174705E-4,1.8330961E-3,1.1279336E-3,0E0,0E0,5.720481E-4,0E0,1.7953493E-2,0E0,4.389893E-3,0E0,0E0,0E0,0E0,0E0,0E0,0E0,0E0,0E0,0E0,0E0,0E0,0E0,0E0,0E0,0E0,0E0,0E0,0E0,0E0,0E0,0E0,0E0,0E0,0E0,0E0,0E0],"parents":[2147483647,0,0,1,1,2,2,3,3,4,4,5,5,6,6,8,8,9,9,11,11,12,12,13,13,14,14,15,15,16,16,17,17,18,18,19,19,20,20,21,21,25,25,26,26,27,27,28,28,29,29,30,30,31,31,32,32,33,33,34,34,35,35,36,36,39,39,41,41,43,43],"right_children":[2,4,6,8,10,12,14,-1,16,18,-1,20,22,24,26,28,30,32,34,36,38,40,-1,-1,-1,42,44,46,48,50,52,54,56,58,60,62,64,-1,-1,66,-1,68,-1,70,-1,-1,-1,-1,-1,-1,-1,-1,-1,-1,-1,-1,-1,-1,-1,-1,-1,-1,-1,-1,-1,-1,-1,-1,-1,-1,-1],"split_conditions":[2.6262525E-2,2.042502E-2,5E-1,1.7537517E-2,1E0,6E-1,5.3333336E-1,1.6023638E-3,7.5E-1,5.3333336E-1,4.02385E-3,5E-1,4.2575043E-2,2E-1,2.7644444E-1,5.3333336E-1,1.7912518E-2,8.125E-1,2.4966666E-1,3.3333334E-1,2.3885185E-1,1.4225185E0,-4.2632455E-3,8.993302E-3,3.0543366E-3,1.2E0,1.1E0,5E-1,1.2188889E-1,8.125E-1,5.6666666E-1,5E-1,6E-1,8.75E-1,8.5462964E-1,2E-1,3.125E-1,-6.6544637E-3,-2.6281336E-3,3.125E-1,1.1461288E-3,8E-1,3.5040576E-3,8.284444E-1,3.0410509E-3,8.6215156E-4,5.0247116E-3,-2.1459719E-3,5.867568E-4,1.3385344E-3,2.0797054E-4,2.6838118E-3,5.483389E-4,2.2782409E-4,4.1242777E-3,-4.2986977E-4,-2.035825E-3,-2.9923092E-3,8.313179E-4,-8.489187E-4,9.253721E-5,-6.0242217E-4,-4.203575E-3,2.6786924E-4,-2.3534298E-3,-1.1371375E-5,-1.3512637E-3,-5.112146E-3,8.515588E-4,-1.9338193E-3,9.413242E-4],"split_indices":[0,0,7,0,7,3,7,0,1,12,0,1,0,3,11,7,0,2,11,7,11,11,0,0,0,7,7,7,11,2,12,7,4,1,11,7,2,0,0,1,0,4,0,11,0,0,0,0,0,0,0,0,0,0,0,0,0,0,0,0,0,0,0,0,0,0,0,0,0,0,0],"split_type":[0,0,0,0,0,0,0,0,0,0,0,0,0,0,0,0,0,0,0,0,0,0,0,0,0,0,0,0,0,0,0,0,0,0,0,0,0,0,0,0,0,0,0,0,0,0,0,0,0,0,0,0,0,0,0,0,0,0,0,0,0,0,0,0,0,0,0,0,0,0,0],"sum_hessian":[3.72E2,2.55E2,1.17E2,1.88E2,6.7E1,5.3E1,6.4E1,1.06E2,8.2E1,6.4E1,3E0,2.9E1,2.4E1,7E0,5.7E1,6.4E1,1.8E1,4E1,2.4E1,2.1E1,8E0,2E1,4E0,5E0,2E0,3.2E1,2.5E1,3.7E1,2.7E1,6E0,1.2E1,2.7E1,1.3E1,7E0,1.7E1,1.4E1,7E0,6E0,2E0,1.9E1,1E0,3E1,2E0,2.3E1,2E0,3.5E1,2E0,8E0,1.9E1,4E0,2E0,1E1,2E0,2.5E1,2E0,1E1,3E0,6E0,1E0,1.2E1,5E0,2E0,1.2E1,2E0,5E0,4E0,1.5E1,2.4E1,6E0,1.6E1,7E0],"tree_param":{"num_deleted":"0","num_feature":"13","num_nodes":"71","size_leaf_vector":"1"}},{"base_weights":[2.7912718E-4,8.498931E-3,-1.7556032E-2,1.1888538E-2,-1.047166E-3,-2.7872058E-2,-8.715703E-3,1.4492649E-3,8.531828E-3,-3.385996E-3,3.7220612E-3,-3.781005E-2,-1.4831585E-2,7.2519116E-2,-1.9770235E-2,-6.927693E-3,1.0453715E-2,-7.2338735E-3,5.6334226E-3,-2.8855823E-2,-5.5497047E-3,-9.022591E-3,-4.3073157E-3,3.514594E-3,8.791383E-2,-2.2348158E-2,3.4941077E-2,-3.3712387E-4,-1.6729266E-3,1.6429277E-2,6.4171073E-3,2.9962868E-3,-8.726309E-3,3.0060222E-3,2.7777017E-3,-3.4192655E-2,-1.5242286E-2,-2.3261039E-3,-1.4409155E-2,9.79676E-3,2.38494E-3,-3.5727568E-2,-5.5362387E-3,-3.0378252E-3,8.278987E-3,-5.9630076E-4,3.1058313E-4,1.2578088E-3,4.6897293E-3,-2.3774046E-3,1.1415179E-3,-6.795027E-4,-2.2817564E-3,-5.735174E-4,5.003445E-4,-5.6226057E-4,-3.815554E-3,2.5001168E-4,-2.1573107E-3,-6.64562E-4,1.1407812E-3,-1.6000211E-3,-4.3025814E-4,-4.157477E-3,3.2704552E-3,-9.5454865E-4,2.8383157E-3],"categories":[],"categories_nodes":[],"categories_segments":[],"categories_sizes":[],"default_left":[0,0,0,0,0,0,0,0,0,0,0,0,0,0,0,0,0,0,0,0,0,0,0,0,0,0,0,0,0,0,0,0,0,0,0,0,0,0,0,0,0,0,0,0,0,0,0,0,0,0,0,0,0,0,0,0,0,0,0,0,0,0,0,0,0,0,0],"id":25,"left_children":[1,3,5,7,9,11,13,-1,15,17,-1,19,21,23,25,27,29,31,33,35,-1,37,-1,-1,39,41,43,45,-1,47,49,-1,51,53,-1,55,57,59,61,-1,-1,63,65,-1,-1,-1,-1,-1,-1,-1,-1,-1,-1,-1,-1,-1,-1,-1,-1,-1,-1,-1,-1,-1,-1,-1,-1],"loss_changes":[5.483157E-2,8.295972E-3,1.0518331E-2,1.5284494E-3,6.212153E-3,6.4374097E-3,5.980456E-2,0E0,2.5978936E-3,2.2966168E-3,0E0,3.149785E-3,3.7127463E-3,1.5129857E-3,8.961277E-3,6.4033957E-4,1.7277673E-3,2.8150978E-3,1.0801035E-3,1.0771956E-3,0E0,7.6004595E-4,0E0,0E0,8.8397413E-4,1.2398485E-2,1.1891364E-2,1.5410774E-4,0E0,2.930265E-3,7.36357E-3,0E0,1.0695932E-3,3.60433E-4,0E0,1.4837626E-3,9.5252704E-4,7.283745E-4,1.2411922E-4,0E0,0E0,1.3763912E-2,3.8067037E-3,0E0,0E0,0E0,0E0,0E0,0E0,0E0,0E0,0E0,0E0,0E0,0E0,0E0,0E0,0E0,0E0,0E0,0E0,0E0,0E0,0E0,0E0,0E0,0E0],"parents":[2147483647,0,0,1,1,2,2,3,3,4,4,5,5,6,6,8,8,9,9,11,11,12,12,13,13,14,14,15,15,16,16,17,17,18,18,19,19,21,21,24,24,25,25,26,26,27,27,29,29,30,30,32,32,33,33,35,35,36,36,37,37,38,38,41,41,42,42],"right_children":[2,4,6,8,10,12,14,-1,16,18,-1,20,22,24,26,28,30,32,34,36,-1,38,-1,-1,40,42,44,46,-1,48,50,-1,52,54,-1,56,58,60,62,-1,-1,64,66,-1,-1,-1,-1,-1,-1,-1,-1,-1,-1,-1,-1,-1,-1,-1,-1,-1,-1,-1,-1,-1,-1,-1,-1],"split_conditions":[2.6262525E-2,2.042502E-2,5E-1,1.7475018E-2,1E0,6E-1,5.3333336E-1,1.4492649E-3,1.25E-1,5.41E-1,3.7220612E-3,5E-1,4.4987544E-2,4E-1,1E0,1.8425018E-2,5.3333336E-1,2.3333333E-1,4E-1,3.3333334E-1,-5.5497047E-3,3.2625034E-2,-4.3073157E-3,3.514594E-3,8E-1,2.7644444E-1,3.1212531E-2,1.1851852E-1,-1.6729266E-3,5E-1,6E-1,2.9962868E-3,6E-1,1.875E-1,2.7777017E-3,2E-1,3.125E-1,3.0800031E-2,7E-1,9.79676E-3,2.38494E-3,1.2E0,1.1E0,-3.0378252E-3,8.278987E-3,-5.9630076E-4,3.1058313E-4,1.2578088E-3,4.6897293E-3,